svm_type c_svc
kernel_type linear
nr_class 2
total_sv 7110
rho -3.12003
label -1 2
nr_sv 4130 2980
SV
0.2699652157298102 25:1 464:1 605:1 909:1 1602:1 3951:1 
128 5:1 6:1 7:1 8:1 
57.9968502510815 10:1 11:1 12:1 18:1 21:1 22:1 23:1 24:1 25:1 
128 28:1 29:1 30:1 
128 39:1 40:1 41:1 42:1 43:1 44:1 
128 45:1 46:1 
22.4742268372461 58:1 59:1 
79.11159679508395 38:1 66:1 
128 48:1 70:1 71:1 72:1 77:1 78:1 79:1 
98.82126765209513 10:1 11:1 85:1 86:1 87:1 
128 88:1 89:1 
60.37268474787835 44:1 90:1 91:1 
127.1978262173153 115:1 
66.99057347918027 114:1 
128 70:1 103:1 107:1 117:1 118:1 
120.108947234446 46:1 89:1 128:1 129:1 130:1 
31.42467318940362 34:1 132:1 133:1 134:1 135:1 
128 140:1 
128 143:1 
128 49:1 144:1 145:1 
128 77:1 
128 70:1 104:1 159:1 
3.101880004803078 163:1 
83.67077066539154 184:1 185:1 
86.40502819194612 71:1 191:1 192:1 193:1 194:1 195:1 
49.39496707424949 204:1 205:1 
128 77:1 208:1 
47.74560791514107 70:1 153:1 
61.21889422078507 212:1 213:1 214:1 215:1 216:1 217:1 
128 184:1 
48.41208310090896 202:1 229:1 270:1 271:1 
30.61729558197408 84:1 102:1 296:1 297:1 298:1 
128 38:1 113:1 310:1 314:1 315:1 
128 6:1 46:1 229:1 322:1 323:1 
115.4862247763215 329:1 330:1 331:1 332:1 333:1 334:1 
41.06736582764288 318:1 382:1 
26.72290908891434 318:1 
128 387:1 388:1 389:1 
25.71494793432075 19:1 309:1 391:1 
21.75375233611591 160:1 205:1 395:1 396:1 
35.00680797830993 423:1 424:1 425:1 426:1 
128 68:1 444:1 445:1 446:1 
128 454:1 
67.08008994396491 481:1 482:1 483:1 
54.16505190050084 484:1 485:1 486:1 487:1 488:1 
112.172700370106 107:1 112:1 
128 103:1 153:1 338:1 339:1 512:1 513:1 514:1 515:1 516:1 
68.66257404461341 125:1 348:1 521:1 
128 528:1 
52.11529112689736 16:1 531:1 532:1 
89.379645218487 181:1 533:1 
13.61055322397079 234:1 322:1 443:1 
64.92669431380367 553:1 
39.84247724106653 390:1 564:1 
71.51526579841381 17:1 
2.77769187156142 375:1 571:1 572:1 573:1 574:1 575:1 
128 596:1 
14.95009813135017 216:1 599:1 
110.7376480833131 264:1 605:1 606:1 607:1 608:1 
128 184:1 229:1 613:1 
69.17405732970539 202:1 350:1 505:1 629:1 
56.23597477903871 125:1 179:1 273:1 348:1 630:1 
127.5802267857657 311:1 531:1 558:1 631:1 632:1 
30.16958411167627 6:1 234:1 288:1 638:1 639:1 640:1 641:1 
128 103:1 512:1 648:1 649:1 
48.64993870974738 153:1 513:1 519:1 520:1 650:1 651:1 652:1 653:1 
128 153:1 347:1 651:1 652:1 654:1 
106.6541804908651 179:1 
123.7944461147438 5:1 84:1 661:1 662:1 663:1 664:1 
105.3564166735463 667:1 
128 18:1 19:1 22:1 23:1 558:1 
11.37207441565219 676:1 677:1 
90.46457183405299 44:1 259:1 
119.6051949127309 46:1 
30.69281187472909 692:1 693:1 
128 35:1 107:1 706:1 
43.68237530421455 84:1 713:1 714:1 715:1 
100.1196225532602 45:1 46:1 717:1 
0.1873579135331314 64:1 103:1 176:1 515:1 516:1 709:1 719:1 720:1 
61.76194233757467 302:1 
40.41670810313665 27:1 723:1 
97.35142816644466 741:1 
98.48681125682086 308:1 492:1 746:1 
3.101107441780923 458:1 589:1 708:1 
3.477610595373507 670:1 759:1 760:1 
24.1585124012908 311:1 655:1 708:1 767:1 768:1 769:1 770:1 771:1 
7.94459675408913 6:1 640:1 655:1 777:1 778:1 
128 779:1 780:1 
128 790:1 
47.43266057695649 71:1 755:1 756:1 791:1 
126.8301026686727 47:1 93:1 792:1 793:1 
102.2477291296075 795:1 796:1 797:1 798:1 799:1 
48.3067059769688 801:1 
89.93074080209169 14:1 22:1 23:1 24:1 277:1 
19.31565686881955 657:1 802:1 803:1 804:1 
115.1642664887232 801:1 
112.3230466362394 14:1 22:1 23:1 24:1 277:1 
15.36486603884043 69:1 76:1 253:1 390:1 758:1 811:1 812:1 
14.92209277226626 35:1 137:1 161:1 181:1 452:1 815:1 
4.670653822561139 36:1 791:1 818:1 
27.14564598169314 137:1 403:1 
123.5703635843471 38:1 258:1 373:1 479:1 819:1 
128 47:1 832:1 833:1 
128 103:1 107:1 122:1 648:1 649:1 
128 593:1 655:1 794:1 840:1 
2.336482832497718 56:1 104:1 692:1 861:1 862:1 863:1 864:1 
128 133:1 267:1 
118.2932414123313 84:1 170:1 509:1 736:1 887:1 888:1 
2.25607019518652 320:1 902:1 903:1 
128 876:1 904:1 
38.59938459611283 487:1 828:1 
27.13322014943896 344:1 916:1 917:1 918:1 
32.66615449388699 487:1 919:1 920:1 
128 22:1 557:1 689:1 
105.6563834198457 926:1 927:1 928:1 
35.5915171126713 137:1 352:1 941:1 
128 944:1 
7.815566937200954 945:1 946:1 947:1 
2.451098476550011 939:1 951:1 952:1 953:1 954:1 
128 955:1 
128 169:1 233:1 
9.728453978693512 136:1 170:1 860:1 957:1 958:1 
58.33030340478371 537:1 
10.25852622043614 27:1 53:1 107:1 108:1 330:1 511:1 561:1 797:1 
112.6272834985922 537:1 
128 68:1 107:1 395:1 
20.14604017248167 955:1 956:1 967:1 968:1 969:1 
128 48:1 321:1 971:1 
7.753890695024523 573:1 984:1 985:1 986:1 987:1 
3.22245942674537 992:1 
60.03331508033321 259:1 477:1 744:1 996:1 997:1 998:1 
58.42582150401716 191:1 590:1 1004:1 1005:1 
25.61273457311824 848:1 
5.785318396284587 614:1 694:1 764:1 1040:1 1041:1 
25.45960301047033 44:1 103:1 453:1 1046:1 1047:1 1048:1 
82.84280994478837 276:1 
85.55086172449076 264:1 480:1 727:1 1056:1 1061:1 
86.252817395433 170:1 435:1 590:1 736:1 1057:1 1062:1 1063:1 
69.96749036819919 175:1 223:1 338:1 437:1 604:1 999:1 1064:1 1065:1 
128 167:1 288:1 898:1 
14.01395397738303 162:1 183:1 471:1 620:1 621:1 640:1 793:1 1076:1 1077:1 
1.535223642268529 19:1 275:1 564:1 1050:1 1082:1 
56.39584224002964 313:1 758:1 
82.93215732842491 1093:1 1094:1 
28.67609740310666 6:1 197:1 275:1 1095:1 1096:1 
1.837398096767595 151:1 152:1 
1.130837237898195 242:1 344:1 350:1 1104:1 1105:1 
102.539118451107 1111:1 
10.62063488820414 18:1 68:1 496:1 537:1 1050:1 1113:1 
55.44415885031116 925:1 1120:1 
44.52541698106099 489:1 1121:1 
106.5617713325846 538:1 1123:1 
128 147:1 233:1 
96.42556248559488 558:1 1125:1 
128 817:1 
128 363:1 1148:1 
61.42962625048935 57:1 
0.03117408629171598 27:1 71:1 590:1 678:1 736:1 1062:1 1063:1 1159:1 
19.75193997192055 224:1 264:1 587:1 608:1 826:1 1003:1 1160:1 
31.02355406234686 422:1 614:1 
0.03359664680819452 313:1 
128 18:1 22:1 23:1 558:1 
62.89809930293963 416:1 512:1 1055:1 1195:1 
42.8420857713128 1179:1 1196:1 
128 1200:1 
128 1201:1 1202:1 
128 10:1 11:1 475:1 
48.29968453433825 64:1 176:1 1063:1 1209:1 1210:1 
24.70297265582205 1236:1 1237:1 
14.47746216757978 222:1 223:1 229:1 1246:1 1247:1 
83.68028752338361 779:1 1254:1 1255:1 
62.81726796995779 243:1 252:1 253:1 736:1 1257:1 
1.335704623800251 313:1 
48.80162126662452 22:1 23:1 535:1 1119:1 1183:1 
88.24287755148934 68:1 957:1 1303:1 
128 50:1 184:1 
3.497734979584099 313:1 1241:1 
112.7114044449653 45:1 67:1 668:1 1290:1 1310:1 1311:1 1312:1 1313:1 1314:1 
14.08954848288643 420:1 1290:1 1311:1 1315:1 1316:1 1317:1 1318:1 1319:1 
12.60369650695195 1290:1 1310:1 1311:1 
0.8654636806738788 202:1 234:1 797:1 1333:1 1334:1 
22.99631827388105 633:1 1344:1 1345:1 1346:1 1347:1 1348:1 
128 1368:1 
12.9946200956178 147:1 302:1 727:1 731:1 1247:1 1372:1 1374:1 1375:1 1376:1 
28.59603324170748 573:1 997:1 1366:1 1380:1 1381:1 1382:1 1383:1 1384:1 
55.89359082173522 34:1 706:1 716:1 1391:1 1392:1 
20.64708642695293 71:1 79:1 107:1 317:1 544:1 
16.41431771159248 1174:1 1397:1 1398:1 
44.34657994846812 127:1 450:1 1400:1 
73.08971071064093 321:1 1290:1 
0.7888104021174369 313:1 
72.72322796246348 205:1 396:1 900:1 1415:1 
47.14952540092584 176:1 346:1 446:1 1416:1 1417:1 
89.93333612565628 71:1 72:1 184:1 1422:1 
52.27952304678902 378:1 1418:1 1419:1 
29.33220811371685 234:1 1430:1 1431:1 1432:1 1433:1 
18.91953056876229 42:1 48:1 121:1 131:1 234:1 288:1 670:1 1424:1 
106.5047257858126 28:1 34:1 36:1 178:1 374:1 511:1 819:1 1298:1 1436:1 
12.09887906045219 394:1 1433:1 
107.9886334854638 107:1 196:1 197:1 509:1 590:1 622:1 1421:1 1446:1 
7.824096716548993 280:1 335:1 622:1 
90.39873807009835 812:1 1459:1 1460:1 
128 217:1 228:1 340:1 431:1 
0.02317401544044395 1201:1 
59.99786933643435 184:1 280:1 622:1 1190:1 1420:1 
30.52918609000529 133:1 346:1 1444:1 
2.000000000000002 1449:1 1473:1 
128 361:1 768:1 1475:1 1476:1 
53.34923619926311 537:1 761:1 932:1 
128 10:1 11:1 88:1 517:1 915:1 
21.5435883013015 293:1 561:1 1499:1 1500:1 
48.46210394951162 1503:1 
0.6653838748226054 206:1 293:1 475:1 638:1 1484:1 1500:1 1505:1 1506:1 1507:1 1508:1 
19.24112752859747 1513:1 
4.773357005420502 84:1 437:1 1149:1 1514:1 1515:1 1516:1 
16.91842367140723 271:1 321:1 593:1 744:1 1045:1 1518:1 1519:1 
5.929375625491582 16:1 58:1 229:1 267:1 292:1 1294:1 1484:1 1526:1 
7.101909063868587 448:1 517:1 1530:1 1531:1 
72.53725799714761 34:1 169:1 1470:1 1532:1 1533:1 1534:1 
128 153:1 1522:1 1535:1 
9.72618455654772 113:1 
36.27957414174053 495:1 
39.3638858974555 311:1 614:1 1177:1 1540:1 1541:1 
46.29637538253246 107:1 648:1 649:1 1425:1 1546:1 
27.22710560588753 122:1 416:1 417:1 519:1 520:1 653:1 1129:1 1547:1 1548:1 
51.66967426615587 6:1 11:1 350:1 578:1 1043:1 1557:1 
51.90669101957063 16:1 22:1 23:1 24:1 1484:1 
13.78808460214089 34:1 134:1 316:1 710:1 911:1 1290:1 1564:1 
0.7007806898902391 16:1 68:1 521:1 763:1 854:1 1329:1 1397:1 1565:1 
6.167389133198067 372:1 1115:1 1567:1 1568:1 1569:1 1570:1 
127.776222154447 156:1 1578:1 1579:1 1580:1 
94.40874852979077 11:1 884:1 1583:1 1584:1 
11.47287517793881 330:1 716:1 1144:1 1585:1 1586:1 1587:1 
128 276:1 
3.121984924394446 205:1 358:1 437:1 556:1 593:1 1591:1 1602:1 1603:1 
128 276:1 
5.711793128927042 133:1 151:1 372:1 1569:1 1575:1 1613:1 1614:1 
11.17852145596125 6:1 25:1 38:1 507:1 1617:1 
128 22:1 23:1 1119:1 1620:1 
94.42759480732549 53:1 236:1 416:1 437:1 1351:1 1610:1 1630:1 1631:1 1632:1 
70.67326803678488 416:1 512:1 600:1 1545:1 
123.4029425080487 175:1 216:1 439:1 873:1 1645:1 1646:1 
38.58137264003824 66:1 369:1 726:1 973:1 1003:1 1055:1 1583:1 1647:1 
65.55523594917392 69:1 464:1 1653:1 
105.1714182262379 343:1 589:1 1653:1 1655:1 
0.004292803191189683 113:1 153:1 314:1 494:1 614:1 882:1 1610:1 1658:1 
0.1293573034505423 313:1 
128 98:1 125:1 1666:1 
95.35647177317203 153:1 234:1 836:1 
128 53:1 
14.52011707568233 76:1 107:1 817:1 
44.82689220924544 471:1 620:1 621:1 1076:1 1077:1 1667:1 
16.58835174640589 181:1 207:1 327:1 
57.12498027117203 68:1 165:1 284:1 1694:1 1695:1 1696:1 
3.112655914490803 22:1 23:1 475:1 1117:1 1667:1 
41.28953569572467 1023:1 1702:1 
94.86712230983569 71:1 148:1 348:1 1188:1 1703:1 
29.82354219960875 1728:1 1729:1 1730:1 1731:1 1732:1 
12.58511505038716 288:1 720:1 1290:1 1435:1 1744:1 
16.34337210696346 34:1 267:1 717:1 1228:1 1480:1 1745:1 
10.78097296211271 537:1 1738:1 
11.11151806162981 48:1 49:1 1746:1 
35.74499701742307 176:1 1753:1 
0.6705945975941113 299:1 512:1 590:1 1137:1 1215:1 1754:1 1755:1 1756:1 
10.75966511688514 1642:1 
111.9260015544194 508:1 1205:1 
31.35218559078547 265:1 304:1 305:1 492:1 744:1 1645:1 1706:1 1761:1 1762:1 
128 1775:1 
62.90107588436243 1779:1 
105.8066826975226 34:1 120:1 305:1 1003:1 1179:1 
65.59037591328156 70:1 153:1 176:1 1084:1 1782:1 
58.76018880591012 103:1 107:1 519:1 520:1 625:1 652:1 1029:1 1030:1 1079:1 
128 1784:1 1785:1 1786:1 
85.90987674300071 1787:1 
18.82962450282926 10:1 11:1 176:1 334:1 357:1 589:1 1023:1 1788:1 1789:1 
108.1794536263262 1798:1 
105.8732089991769 318:1 
5.46673953359463 66:1 198:1 232:1 1168:1 1227:1 1588:1 1803:1 
5.930608416021069 57:1 452:1 466:1 469:1 898:1 1805:1 
8.718346546617594 122:1 1809:1 1810:1 1811:1 
51.67698491463297 1815:1 1816:1 
16.5703044993882 27:1 167:1 373:1 1004:1 1074:1 1303:1 1817:1 1818:1 
49.69488214821459 79:1 313:1 1791:1 
26.7909639207558 59:1 275:1 317:1 1133:1 
43.82524746197187 330:1 802:1 1004:1 1847:1 
64.63208320176371 153:1 347:1 1817:1 1818:1 
4.140614219962625 144:1 496:1 1296:1 1853:1 1854:1 1855:1 
128 955:1 
29.9400601913621 135:1 416:1 458:1 1856:1 1866:1 1867:1 
0.4350340740374924 1873:1 
90.0350133336898 216:1 217:1 517:1 
14.94102173901761 34:1 523:1 1892:1 1893:1 
21.65220484285518 502:1 
66.37798278408032 153:1 652:1 
18.78105903012887 848:1 
13.42108353346051 57:1 120:1 652:1 1905:1 
128 777:1 1917:1 
12.30280678017503 280:1 660:1 911:1 1087:1 1581:1 1846:1 1925:1 1926:1 
12.72222344205981 607:1 611:1 1055:1 1934:1 
24.19786451879963 1948:1 1949:1 1950:1 1951:1 1952:1 1953:1 1954:1 1955:1 1956:1 1957:1 1958:1 1959:1 1960:1 
13.28728328153756 107:1 1961:1 
35.35686721037408 37:1 68:1 1917:1 1963:1 
40.39471629671597 288:1 772:1 1965:1 
9.524008114158285 313:1 1474:1 1772:1 1917:1 
122.0138756578906 34:1 1228:1 1969:1 
51.86702124713058 52:1 153:1 384:1 
95.66850672338983 1917:1 
127.6808299527041 1917:1 
15.10731481269369 313:1 581:1 
3.012572240585803 103:1 474:1 1038:1 1054:1 1253:1 1785:1 1992:1 1993:1 1994:1 
38.58988391978311 10:1 11:1 12:1 1256:1 1999:1 
51.79320197910619 234:1 2002:1 
4.443965939559767 10:1 11:1 12:1 172:1 
22.17846955356526 2000:1 
3.758268337563054 62:1 916:1 1744:1 2014:1 
127.9203007413576 147:1 1440:1 2016:1 
51.34415160846793 10:1 11:1 67:1 1256:1 
4.617567837373952 10:1 11:1 12:1 
41.40941458047207 198:1 223:1 437:1 1070:1 1149:1 1755:1 2024:1 2025:1 
42.09566611089434 153:1 176:1 836:1 1428:1 1749:1 2026:1 
27.3708115615024 492:1 604:1 1144:1 2025:1 2041:1 2042:1 
69.28658153493308 276:1 
13.80583246464903 10:1 11:1 12:1 181:1 484:1 1891:1 
14.69128387454077 68:1 1049:1 1477:1 
9.113034771394879 10:1 11:1 12:1 795:1 
0.6318601465718919 313:1 
29.11972443930942 10:1 11:1 12:1 22:1 23:1 24:1 184:1 275:1 277:1 535:1 
32.25470350266918 353:1 
2.117014979452492e-05 344:1 422:1 614:1 2072:1 
16.21232193407847 153:1 165:1 183:1 873:1 2071:1 2078:1 
70.31182473987579 68:1 84:1 167:1 2079:1 2080:1 2081:1 
23.29637570698654 40:1 293:1 378:1 985:1 1327:1 2006:1 2089:1 2090:1 
0.7871834621460728 356:1 1568:1 
20.34929752864031 1759:1 2091:1 2092:1 
1.291330430773921 13:1 285:1 451:1 480:1 517:1 2094:1 2095:1 2096:1 2097:1 
20.84180248428601 2116:1 
0.137650697877985 658:1 2125:1 
88.42382584969408 918:1 
77.30539011245394 313:1 2125:1 
0.4507057089805024 313:1 
1.107643529748817 383:1 1915:1 2021:1 2125:1 
2.295373323462213 65:1 80:1 2155:1 
0.07278701671354465 2160:1 
0.1152054796942474 2160:1 
78.85440833045635 567:1 590:1 2162:1 2163:1 
59.7847133710172 184:1 710:1 2164:1 
128 53:1 107:1 
1.419121455170155 340:1 437:1 879:1 899:1 1030:1 1144:1 1357:1 2169:1 
4.102121258378291 57:1 512:1 1028:1 2170:1 2171:1 2172:1 
1.612681704680956 11:1 202:1 2178:1 
35.4300410080016 299:1 2184:1 
29.06114505480004 1080:1 2185:1 2186:1 
10.22720293947859 577:1 1127:1 2192:1 
4.452023638491089 13:1 507:1 694:1 761:1 2162:1 2194:1 2195:1 2196:1 
3.543078590533394 59:1 983:1 2198:1 
128 102:1 616:1 817:1 1454:1 
128 77:1 
128 50:1 2201:1 
34.64943636432761 1004:1 2202:1 
128 1316:1 1333:1 2205:1 
128 77:1 
128 77:1 
60.57341083426549 110:1 139:1 144:1 312:1 692:1 772:1 2209:1 
128 77:1 
9.284873642179745 806:1 2181:1 
128 77:1 
128 77:1 
128 77:1 
22.95120649170831 233:1 1353:1 2210:1 
48.38798797051453 66:1 346:1 857:1 1573:1 2211:1 2212:1 
128 77:1 
94.37630246396759 183:1 349:1 579:1 580:1 2217:1 
13.46504521487807 338:1 339:1 513:1 1488:1 2220:1 
128 113:1 
83.9799492664539 2224:1 
60.10900788356973 61:1 264:1 434:1 593:1 1157:1 
78.30990245275204 147:1 170:1 455:1 735:1 736:1 1763:1 
7.037061679359163 313:1 357:1 1234:1 2210:1 
128 391:1 2235:1 
14.82446078393546 184:1 710:1 1190:1 1195:1 1614:1 1897:1 2239:1 2240:1 2241:1 2242:1 
33.26234435503807 194:1 237:1 422:1 614:1 1238:1 2193:1 
32.87929191120468 2252:1 
16.68313822219128 2253:1 2254:1 2255:1 
0.8387953385635277 49:1 899:1 2078:1 2256:1 
93.32171740495524 344:1 422:1 614:1 
65.96978505323629 2264:1 
65.76048812175998 64:1 458:1 459:1 471:1 852:1 1144:1 1211:1 
67.97120929477354 79:1 264:1 265:1 640:1 1021:1 2270:1 
9.999898759611494 76:1 223:1 437:1 645:1 1144:1 2037:1 2272:1 
66.19414919082912 2273:1 
6.030671340618215 228:1 229:1 2278:1 
15.77451789233744 1460:1 2259:1 
1.970735119120138 1459:1 1690:1 2281:1 2282:1 2283:1 2284:1 2285:1 2286:1 
89.48608995591019 144:1 322:1 343:1 350:1 412:1 1307:1 1454:1 
19.49824177609866 2290:1 
2.033623245634193 411:1 2290:1 
9.108615537061135 273:1 343:1 409:1 412:1 1353:1 2289:1 2293:1 
128 429:1 2294:1 
126.2858902611896 2290:1 
11.97248782506395 2306:1 
128 113:1 
18.20467254134799 2322:1 
34.19669951412508 226:1 1339:1 2323:1 
6.203271526929206 918:1 
11.14230353943889 246:1 471:1 472:1 974:1 1227:1 
30.29228102279457 84:1 147:1 170:1 246:1 1002:1 1227:1 2335:1 
4.122004861073167 53:1 169:1 
4.942234627649146 313:1 344:1 480:1 2231:1 
2.323880694911352 68:1 2348:1 2349:1 
25.49592416311935 68:1 2348:1 2349:1 
105.6455453188072 151:1 176:1 
39.40833798843999 151:1 176:1 
128 151:1 
80.94215592176619 153:1 278:1 2353:1 2354:1 
5.401868037258128 2356:1 2365:1 
3.829260375091845 151:1 1560:1 1896:1 
84.70233210126248 103:1 104:1 651:1 652:1 
38.21781785178209 71:1 103:1 153:1 206:1 475:1 512:1 651:1 652:1 2390:1 
34.15240125345206 63:1 103:1 340:1 612:1 1079:1 2394:1 
25.44347682268421 27:1 61:1 2396:1 2397:1 
3.814829068758748 2408:1 
2.332886489998243 194:1 640:1 2399:1 2413:1 2414:1 
128 53:1 169:1 
90.11075001586161 699:1 
1.036938512508748 1655:1 2307:1 2399:1 2415:1 
128 53:1 169:1 
9.870482031384769 505:1 
128 273:1 635:1 1491:1 2422:1 
128 544:1 660:1 
70.90895662295839 1124:1 2427:1 2428:1 
128 396:1 544:1 
76.05495150522577 1115:1 
122.7110278408133 854:1 
94.16383060318022 68:1 176:1 401:1 2443:1 
32.96047562478332 90:1 761:1 2445:1 2446:1 
1.339878611710787 1223:1 1668:1 2449:1 2450:1 2451:1 
35.54527817624413 745:1 1606:1 2078:1 2456:1 
17.63345297158898 113:1 1491:1 
128 955:1 
3.557399765221199 1068:1 
82.5537286394046 68:1 104:1 2458:1 
125.4257635505499 68:1 104:1 2458:1 
72.50174622306028 137:1 184:1 2175:1 2461:1 
57.55048905041524 59:1 141:1 576:1 2462:1 
43.62044174610237 37:1 137:1 1310:1 2466:1 
18.29172234298476 1911:1 2352:1 
4.37777275177252 107:1 1074:1 2408:1 2478:1 
0.7791557131606678 1404:1 
19.3449035491288 763:1 2487:1 
4.306864036992081 77:1 120:1 122:1 474:1 1809:1 2483:1 2490:1 2491:1 
128 27:1 77:1 161:1 2490:1 
0.1936900267669017 25:1 34:1 38:1 361:1 2401:1 2492:1 2493:1 2494:1 2495:1 2496:1 2497:1 
12.35409813547987 69:1 104:1 416:1 418:1 453:1 646:1 1163:1 1229:1 2502:1 2503:1 2504:1 
36.18075775892284 723:1 2510:1 2511:1 
4.068726360825755 34:1 350:1 499:1 621:1 1860:1 2516:1 2517:1 2518:1 
72.75140664630689 641:1 736:1 2521:1 2522:1 2523:1 
61.85794679531678 658:1 966:1 
3.657134152624228 46:1 60:1 165:1 747:1 
128 2533:1 
128 184:1 
58.67648513645493 276:1 2532:1 
65.037228380207 137:1 153:1 525:1 
6.541781411798544 1540:1 
3.195319547011509 658:1 2532:1 
3.858323440766168 71:1 197:1 1130:1 1133:1 1479:1 2550:1 
0.3133255098340629 2553:1 2554:1 2555:1 
20.6168609903706 34:1 281:1 561:1 898:1 1340:1 
68.61660932195036 915:1 1860:1 2558:1 
128 437:1 458:1 978:1 2292:1 
61.50077452407341 34:1 153:1 985:1 1088:1 
43.96243429374536 175:1 1133:1 
128 112:1 148:1 1703:1 2567:1 
43.92266244089937 222:1 874:1 1810:1 2583:1 
125.8797375825741 2589:1 
125.7644734100441 53:1 169:1 
19.45961346036432 184:1 1929:1 2377:1 
128 147:1 561:1 
6.504156029314211 176:1 608:1 985:1 1054:1 1105:1 
26.32151155607295 447:1 1104:1 1105:1 
95.26410477287811 107:1 284:1 529:1 777:1 
76.70648938450468 18:1 22:1 23:1 133:1 321:1 800:1 2563:1 
1.296105110558187 104:1 670:1 1286:1 1901:1 
60.5238825489986 2042:1 
50.96747125669945 16:1 147:1 153:1 1218:1 2042:1 
5.706769803293603 1179:1 2626:1 2628:1 2629:1 
2.145267786205984 176:1 184:1 250:1 593:1 2634:1 2680:1 2681:1 
2.492418658097506 224:1 439:1 593:1 797:1 853:1 996:1 1820:1 2403:1 2707:1 2717:1 
4.992654152588256 184:1 223:1 264:1 276:1 692:1 1159:1 2401:1 
13.56831339612233 2733:1 
7.561819651727731 561:1 2738:1 
2.340084752491798 57:1 170:1 470:1 593:1 956:1 1592:1 2742:1 2776:1 2777:1 
1.787439146647792 57:1 124:1 224:1 343:1 439:1 790:1 892:1 2220:1 2645:1 2655:1 2756:1 2780:1 
1.591019414437078 2791:1 
36.05679560051583 223:1 224:1 225:1 439:1 458:1 852:1 989:1 1143:1 1762:1 2842:1 2843:1 
128 79:1 1045:1 
112.0726386562485 561:1 859:1 1904:1 2876:1 
23.5464766610326 320:1 416:1 509:1 510:1 590:1 1212:1 1416:1 
60.4055634364938 437:1 494:1 2894:1 
128 19:1 22:1 23:1 2692:1 
0.7733727789588991 124:1 250:1 343:1 458:1 1381:1 2220:1 2630:1 2738:1 2938:1 2939:1 
25.14718142092235 112:1 420:1 687:1 772:1 1435:1 2966:1 
1.006842468272335 84:1 121:1 222:1 223:1 557:1 573:1 589:1 1144:1 2656:1 2967:1 2986:1 3000:1 
7.207484096872451 58:1 121:1 232:1 557:1 1364:1 1522:1 1944:1 2676:1 2967:1 
4.35743836516521 10:1 121:1 280:1 720:1 857:1 884:1 1174:1 1584:1 2197:1 2656:1 
10.79517834999703 95:1 202:1 282:1 409:1 557:1 867:1 900:1 1042:1 1323:1 1500:1 3090:1 
16.04539317007491 161:1 589:1 590:1 1073:1 1131:1 3098:1 
28.82553556023238 34:1 119:1 305:1 306:1 492:1 589:1 1131:1 1222:1 
48.11662660037034 57:1 223:1 271:1 308:1 477:1 1131:1 1645:1 1760:1 
4.19765264169502 119:1 264:1 303:1 989:1 1131:1 1383:1 2816:1 2939:1 3112:1 
0.3043083495712641 71:1 1131:1 3127:1 
22.52524762031671 356:1 2098:1 3134:1 
128 11:1 107:1 
6.927100068692643 61:1 370:1 
15.18721934097284 34:1 313:1 1233:1 
8.367222973130463 25:1 59:1 837:1 2687:1 2801:1 
4.164505925481191 97:1 258:1 790:1 2243:1 3172:1 3173:1 3174:1 
9.21804883095121 234:1 3182:1 
69.34599325679005 3236:1 
3.048166016261469 6:1 68:1 640:1 672:1 822:1 900:1 2238:1 3261:1 3262:1 3263:1 
19.44204156650048 372:1 480:1 1904:1 2104:1 3087:1 
1.522796787924015 430:1 609:1 837:1 1668:1 2687:1 3267:1 3269:1 
1.265322361191084 2576:1 3101:1 3270:1 
51.27089407897933 57:1 588:1 1099:1 2276:1 
128 176:1 531:1 720:1 
3.448299113325485 465:1 573:1 852:1 970:1 1811:1 1820:1 2707:1 3267:1 3284:1 
30.68583639781161 57:1 458:1 573:1 610:1 990:1 1143:1 1228:1 1811:1 3072:1 3292:1 
3.0107201311419 370:1 458:1 490:1 1073:1 1511:1 2719:1 2982:1 2997:1 3295:1 
8.685649668359309 678:1 736:1 1063:1 3296:1 
35.49492648279091 57:1 261:1 604:1 744:1 1207:1 1878:1 2070:1 2276:1 3029:1 3030:1 3267:1 
1.648831004027695 170:1 341:1 2997:1 3267:1 
0.4038028485679438 57:1 1383:1 1941:1 2805:1 2997:1 3267:1 3303:1 3304:1 
84.89045790655723 107:1 118:1 311:1 336:1 555:1 793:1 1529:1 2078:1 3267:1 
3.300503155408496 3025:1 3318:1 
116.7735992301956 13:1 165:1 222:1 273:1 274:1 689:1 
53.2798531135959 317:1 529:1 951:1 1792:1 1849:1 2245:1 
10.73454717973393 57:1 225:1 458:1 670:1 826:1 2933:1 3019:1 3352:1 3363:1 3366:1 3392:1 
0.4023670124970959 94:1 169:1 633:1 1505:1 1522:1 1974:1 2521:1 3409:1 3410:1 
42.4626177701786 336:1 372:1 555:1 1006:1 1007:1 3335:1 
128 1827:1 
12.26996043781973 34:1 107:1 125:1 346:1 348:1 557:1 904:1 1195:1 2904:1 3449:1 3450:1 
4.804249705471036 107:1 133:1 169:1 413:1 529:1 1007:1 2786:1 
9.074952312226642 3451:1 
1.834210648348677 719:1 725:1 1264:1 2031:1 2453:1 2896:1 3344:1 3465:1 3466:1 
1.75727022318709 264:1 573:1 692:1 1144:1 1210:1 1229:1 2042:1 2659:1 3477:1 
71.38221356877375 521:1 
55.60992005620342 47:1 184:1 778:1 1006:1 1007:1 3335:1 3507:1 
55.76535720433048 264:1 555:1 593:1 1165:1 1188:1 1211:1 2719:1 3503:1 
128 19:1 2307:1 3506:1 
95.63118751697114 50:1 341:1 409:1 
1.362387214682158 66:1 310:1 401:1 3342:1 
16.1954595362903 184:1 361:1 1131:1 1133:1 1244:1 1488:1 1849:1 2687:1 2691:1 
24.01490450511078 11:1 12:1 19:1 22:1 23:1 231:1 712:1 1131:1 2687:1 2692:1 
36.76598090751791 1131:1 1445:1 3270:1 3586:1 
64.59367338688195 736:1 1131:1 
2.861799549340043 27:1 34:1 224:1 471:1 472:1 473:1 1131:1 2221:1 2676:1 2823:1 3589:1 
0.2325139100928899 512:1 1131:1 1137:1 2653:1 2656:1 2941:1 
0.8737510180165385 170:1 212:1 299:1 593:1 979:1 990:1 1058:1 1645:1 1646:1 2704:1 2716:1 3601:1 
10.78924481901479 222:1 264:1 557:1 970:1 2676:1 2728:1 
122.6689473882321 113:1 
94.52551413097478 137:1 827:1 1131:1 
10.76985082154814 53:1 153:1 417:1 726:1 1055:1 
1.305812716884813 3447:1 3638:1 
0.5875654756792348 63:1 79:1 452:1 593:1 612:1 1472:1 2141:1 3663:1 3664:1 
14.80542636015297 146:1 369:1 466:1 990:1 1472:1 1740:1 2328:1 3639:1 3663:1 3670:1 3671:1 
16.23515797349409 147:1 369:1 593:1 1215:1 2042:1 2372:1 2724:1 2865:1 3661:1 3674:1 
3.028732410809291 341:1 2997:1 3639:1 
39.28805753900244 57:1 223:1 975:1 2719:1 3430:1 3639:1 
128 521:1 
28.11250431602477 18:1 22:1 23:1 2239:1 
103.7388384800942 1349:1 
0.3663725885262631 3249:1 3694:1 3695:1 3696:1 
2.994738644869283 264:1 525:1 3396:1 3690:1 
11.71482956192471 124:1 147:1 170:1 264:1 343:1 593:1 981:1 989:1 2658:1 3430:1 3712:1 
47.61620903735333 58:1 138:1 321:1 557:1 1007:1 2378:1 
4.260826111981191 346:1 
22.36842334303022 63:1 234:1 1290:1 3408:1 3730:1 
21.73848516576108 317:1 524:1 525:1 527:1 633:1 1472:1 3249:1 
128 517:1 1576:1 
0.9120108493469252 417:1 469:1 573:1 589:1 1383:1 2344:1 2709:1 3737:1 3756:1 
128 3770:1 
82.62418683588828 693:1 
128 1430:1 
1.04395918230049 1007:1 1290:1 1724:1 3003:1 3782:1 
10.56008422324756 622:1 1421:1 2798:1 
128 34:1 59:1 622:1 1006:1 1007:1 1421:1 
0.984070642059 622:1 1421:1 2798:1 
1.556211732884721 217:1 902:1 2785:1 2798:1 3261:1 3287:1 3796:1 
9.293710493831231 876:1 1143:1 2164:1 2798:1 3109:1 3671:1 
10.99863788961446 214:1 589:1 876:1 1143:1 2720:1 3025:1 
34.25415548154055 250:1 264:1 472:1 1001:1 1878:1 3016:1 3803:1 3804:1 
3.557256162837588 264:1 437:1 588:1 1326:1 1571:1 2798:1 2851:1 3531:1 3805:1 3806:1 
34.03284267526234 175:1 458:1 589:1 2388:1 2798:1 
22.32885005498342 57:1 222:1 573:1 588:1 640:1 995:1 1073:1 3798:1 
7.175595953513034 338:1 452:1 593:1 1503:1 1548:1 1590:1 1945:1 2634:1 3810:1 3811:1 
6.707202866119104 589:1 2798:1 3812:1 3813:1 3814:1 
2.602859353649501 416:1 463:1 2164:1 2634:1 2678:1 2798:1 3814:1 
5.831802448420066 361:1 366:1 1007:1 1491:1 1706:1 
57.3401568334527 107:1 122:1 562:1 710:1 1447:1 
0.7751292908205339 313:1 
36.81926095912273 1229:1 1656:1 2631:1 2754:1 2939:1 3825:1 
11.8389693227199 223:1 338:1 437:1 593:1 852:1 2628:1 2630:1 2754:1 3595:1 
1.102689563302682 84:1 243:1 573:1 1207:1 2769:1 2950:1 3139:1 3140:1 3829:1 
128 521:1 
21.01351706915371 3838:1 
49.67053356691786 3839:1 
7.684816054673157 79:1 509:1 662:1 837:1 1446:1 2002:1 2656:1 2687:1 
8.222931829806384 57:1 996:1 1375:1 1651:1 2826:1 2983:1 3841:1 3857:1 
16.12871610903501 439:1 458:1 650:1 1332:1 3841:1 
24.70644310148982 63:1 64:1 147:1 458:1 608:1 989:1 1431:1 2061:1 2658:1 
14.41083913340064 3876:1 
0.637540653584713 2295:1 3879:1 
1.803345085675049 120:1 170:1 189:1 264:1 573:1 1646:1 1814:1 3038:1 3039:1 3073:1 3889:1 
12.99261498102273 170:1 589:1 2151:1 2646:1 2647:1 3078:1 
10.07187458656074 13:1 84:1 162:1 541:1 589:1 2676:1 3880:1 3892:1 
3.486635652249686 43:1 557:1 819:1 1337:1 1560:1 1665:1 3905:1 3906:1 
10.86128131512967 590:1 998:1 
3.933853552815004 48:1 59:1 216:1 361:1 557:1 1289:1 3911:1 
42.07589519134666 280:1 557:1 589:1 593:1 2392:1 3912:1 3925:1 
0.1187611004454163 589:1 2216:1 3477:1 3912:1 
77.34291511069343 175:1 1469:1 3912:1 3945:1 
1.457362193783373 524:1 573:1 972:1 989:1 3383:1 3604:1 3912:1 3950:1 3952:1 
1.305716349419727 2955:1 3638:1 
0.5205231952011111 642:1 3554:1 
128 437:1 2894:1 
4.664448233372201 599:1 
38.46066397274029 440:1 1751:1 2216:1 3962:1 
0.3691521066738629 59:1 458:1 556:1 589:1 874:1 1591:1 1887:1 2216:1 3962:1 3964:1 
11.28696521914386 369:1 436:1 670:1 990:1 1063:1 1143:1 1205:1 2807:1 2942:1 
24.48612376793901 334:1 998:1 1322:1 2676:1 3990:1 
1.222971116956496 453:1 556:1 3995:1 3996:1 
21.7775607234745 190:1 463:1 599:1 832:1 4007:1 
17.7757510566335 95:1 898:1 4008:1 
70.84474709819906 68:1 137:1 350:1 789:1 4013:1 
0.6230305258003177 133:1 555:1 710:1 757:1 793:1 1087:1 3136:1 3778:1 
10.89642000979005 170:1 458:1 573:1 875:1 1545:1 2634:1 2942:1 3441:1 4017:1 4018:1 4028:1 4029:1 
128 43:1 573:1 
5.357081580003202 446:1 3620:1 4036:1 4039:1 4040:1 
1.820784217364517 121:1 589:1 2216:1 3631:1 4036:1 4040:1 4045:1 
0.630446049519258 57:1 223:1 417:1 437:1 1678:1 1683:1 1885:1 3516:1 4054:1 4055:1 4056:1 
27.90635258982969 416:1 466:1 1740:1 1992:1 2328:1 3038:1 
4.61936158006896 59:1 153:1 458:1 557:1 589:1 2630:1 2656:1 2754:1 2767:1 3038:1 
1.73739015735226 84:1 517:1 538:1 2079:1 2216:1 2612:1 3038:1 3039:1 3078:1 4078:1 
16.43809346255978 170:1 845:1 1646:1 2630:1 2754:1 2786:1 2842:1 2942:1 
8.258080082909954 346:1 
17.84443730361929 23:1 3170:1 4097:1 
47.07795616649032 36:1 428:1 704:1 988:1 1129:1 1352:1 
69.51374058485489 153:1 437:1 1151:1 
3.839800717497837 222:1 225:1 979:1 1073:1 2709:1 2924:1 2978:1 4122:1 
22.59774041071375 66:1 175:1 271:1 557:1 726:1 1503:1 1522:1 2922:1 2997:1 
47.09043702400495 16:1 133:1 
68.73208318549013 867:1 3090:1 
128 68:1 391:1 
44.88791443395669 504:1 1777:1 
7.79900051941318 228:1 282:1 557:1 1006:1 1007:1 1425:1 4109:1 4110:1 4134:1 
15.09387385819522 68:1 180:1 397:1 719:1 742:1 806:1 2687:1 
58.82384244108584 1349:1 
17.28668539721764 223:1 440:1 573:1 744:1 996:1 3096:1 4145:1 4159:1 
7.320660929373686 57:1 461:1 990:1 1073:1 1228:1 1642:1 1854:1 4145:1 4164:1 
92.78748004066611 180:1 866:1 1828:1 
62.82749641582237 507:1 1395:1 2245:1 
1.280958497918315 3090:1 3171:1 4181:1 
5.77801078632926 104:1 184:1 710:1 761:1 2164:1 4183:1 
3.435255766925168 357:1 1853:1 4143:1 4186:1 4187:1 4188:1 
2.027434906464304 124:1 137:1 343:1 758:1 935:1 1991:1 2151:1 2793:1 4203:1 
13.6305487188278 165:1 180:1 866:1 1828:1 1829:1 1844:1 1845:1 1846:1 4211:1 
84.03362191200415 703:1 916:1 
33.51917607118881 104:1 690:1 3241:1 3398:1 3487:1 4214:1 
4.828552021327552 267:1 270:1 593:1 776:1 1378:1 1517:1 1599:1 2372:1 2719:1 2896:1 
21.21742336256293 1063:1 2735:1 
19.93108688353785 38:1 690:1 1359:1 1372:1 1379:1 4216:1 4219:1 4225:1 4227:1 4228:1 4234:1 4239:1 4247:1 4248:1 
0.7753327635202958 313:1 
31.96984505633334 361:1 475:1 711:1 2620:1 3038:1 
128 709:1 
128 391:1 882:1 
7.957640545916682 44:1 1913:1 
2.587662533601789 176:1 216:1 837:1 952:1 2687:1 4287:1 4288:1 
3.212573088614365 4302:1 4303:1 
22.59807923711739 543:1 4304:1 
22.23113795780126 275:1 288:1 557:1 1394:1 1971:1 2295:1 4305:1 
20.80679627580485 11:1 4306:1 
3.948374359295753 643:1 1469:1 2021:1 2166:1 3130:1 3184:1 4069:1 4183:1 4290:1 
9.032477236444345 184:1 333:1 728:1 1530:1 1705:1 4311:1 
5.261221756570315 267:1 446:1 589:1 988:1 3096:1 4306:1 4312:1 
1.003072297369649 250:1 1740:1 1877:1 1943:1 2719:1 2727:1 4306:1 4327:1 
7.914923956823873 313:1 
128 113:1 
3.379150655294728 68:1 437:1 557:1 845:1 1003:1 1445:1 4038:1 4328:1 4339:1 4340:1 
9.130062501635223 48:1 812:1 1785:1 1992:1 2216:1 3038:1 3047:1 4079:1 
8.618665034023417 471:1 744:1 852:1 1099:1 1169:1 1854:1 3038:1 3064:1 3065:1 
4.697420724232512 108:1 292:1 2245:1 3038:1 
4.827713745984684 346:1 
34.07003932647974 27:1 68:1 165:1 524:1 780:1 996:1 2974:1 3043:1 
7.023218372018468 28:1 409:1 549:1 702:1 900:1 3177:1 4013:1 
0.5277119030403409 11:1 361:1 643:1 1488:1 4290:1 4360:1 4361:1 4362:1 
19.7378805988334 153:1 509:1 1430:1 1446:1 2622:1 
0.4358175704086865 643:1 990:1 1469:1 1740:1 2328:1 3945:1 4366:1 4369:1 
1.738234046893401 1227:1 4374:1 4375:1 4381:1 
78.49411051439174 57:1 64:1 119:1 2001:1 4386:1 4387:1 4388:1 4389:1 4390:1 
1.540241476727678 64:1 119:1 323:1 641:1 772:1 4409:1 4424:1 4425:1 4436:1 
3.856718248124373 61:1 475:1 638:1 1133:1 4452:1 
0.7952052977104409 4407:1 4437:1 4443:1 4458:1 4468:1 
6.020994991131889 1169:1 2269:1 4477:1 
1.720737233278557 3406:1 4444:1 4478:1 
6.143284331472898 4426:1 4486:1 4497:1 4498:1 4499:1 4500:1 4501:1 4502:1 4503:1 4504:1 
110.174106260774 4513:1 
128 4517:1 
0.729680916905135 4518:1 
9.407699065575038 4524:1 
128 4513:1 
1.435407532473178 4526:1 
5.311147008113689 4527:1 
0.2459585499395095 1177:1 2064:1 4437:1 4443:1 4539:1 4540:1 4541:1 4542:1 
50.55597792268156 2613:1 3522:1 4546:1 
2.134371557751215 13:1 772:1 1045:1 1087:1 4550:1 4551:1 4552:1 
0.08531608525228905 1592:1 2613:1 4553:1 4554:1 
1.419573083236659 2477:1 4510:1 4511:1 4555:1 
14.04161341864793 261:1 471:1 4404:1 4478:1 4559:1 4560:1 4561:1 4562:1 
20.78442868413251 416:1 957:1 2012:1 3036:1 4478:1 4487:1 4567:1 
22.98243956335662 372:1 476:1 4443:1 4514:1 
16.02666330659737 4590:1 
1.365157974323322 460:1 1592:1 2613:1 3036:1 4437:1 4545:1 4554:1 4595:1 4596:1 4597:1 
1.517171782146792 320:1 417:1 2029:1 2613:1 3432:1 4545:1 4548:1 4586:1 4604:1 4605:1 4606:1 
4.045248153727891 4507:1 4509:1 4563:1 4614:1 4615:1 4616:1 
8.221821519529426 4620:1 
0.1327695886168716 417:1 1139:1 4391:1 4419:1 4612:1 4626:1 4627:1 4628:1 
128 107:1 150:1 1054:1 
0.09873700876715455 4563:1 4614:1 4640:1 4641:1 4642:1 4643:1 
0.9960019995431881 607:1 761:1 2744:1 2885:1 3191:1 4634:1 4635:1 
1.474006435963523 1010:1 1585:1 2321:1 2802:1 4409:1 4688:1 4689:1 
76.93557453993554 4692:1 
3.248879393316809 145:1 258:1 772:1 1253:1 1819:1 2269:1 4461:1 4515:1 4693:1 4694:1 
2.597480884083499 59:1 84:1 236:1 703:1 4445:1 4467:1 4485:1 4666:1 
8.437573485851843 4692:1 
3.741317558064092 84:1 790:1 2158:1 2611:1 4702:1 4703:1 4704:1 4705:1 4706:1 
0.6920075865529342 348:1 361:1 1038:1 1225:1 4486:1 4500:1 4707:1 4708:1 4709:1 4710:1 
0.9912854307236307 43:1 957:1 3850:1 4457:1 4515:1 4711:1 4712:1 4713:1 4714:1 4715:1 
10.66886788691742 223:1 340:1 549:1 640:1 1253:1 2193:1 4457:1 4461:1 4691:1 
5.486319153634058 169:1 660:1 4736:1 4737:1 
126.1577598436444 53:1 323:1 2453:1 3470:1 4496:1 
20.2716406062361 7:1 167:1 458:1 1087:1 4419:1 4432:1 4444:1 4445:1 
0.6743765798979876 1253:1 2269:1 4461:1 4468:1 4747:1 
4.203954938224769 4442:1 4445:1 4478:1 
2.229805000512916 908:1 1253:1 2510:1 4445:1 4461:1 4479:1 4749:1 4750:1 
7.464924025721671 48:1 79:1 169:1 790:1 2141:1 4387:1 4388:1 4409:1 4644:1 4751:1 4752:1 
0.8477096019500298 48:1 286:1 2012:1 4755:1 4756:1 4758:1 
65.74678889839662 4719:1 
54.25933604710839 52:1 181:1 286:1 529:1 1790:1 4668:1 4755:1 4770:1 
0.5721731274883605 38:1 861:1 1253:1 2250:1 2278:1 3686:1 4013:1 4466:1 4467:1 4773:1 
21.45988457217533 4393:1 4787:1 
0.6164709073792006 2100:1 4215:1 5060:1 5659:1 8355:1 8356:1 
128 22:1 23:1 24:1 25:1 26:1 
128 20:1 27:1 28:1 29:1 30:1 31:1 32:1 33:1 
128 33:1 43:1 44:1 45:1 46:1 47:1 48:1 49:1 
66.90378150170508 50:1 51:1 52:1 
128 109:1 110:1 111:1 112:1 113:1 114:1 115:1 116:1 
67.138821147382 27:1 149:1 150:1 151:1 
103.4367546291327 103:1 123:1 161:1 162:1 163:1 164:1 165:1 166:1 
22.53765893679357 187:1 
128 222:1 
55.07335691356542 270:1 
114.6875456419138 46:1 47:1 93:1 210:1 288:1 289:1 290:1 291:1 292:1 
128 20:1 27:1 156:1 177:1 312:1 313:1 314:1 
93.9393286004389 15:1 294:1 324:1 
28.1739030872872 14:1 15:1 68:1 69:1 78:1 107:1 363:1 364:1 365:1 366:1 
2.916312008225674 248:1 342:1 391:1 392:1 393:1 394:1 395:1 396:1 397:1 
124.157397675814 196:1 197:1 430:1 431:1 
66.77759907941552 110:1 111:1 456:1 457:1 458:1 459:1 460:1 461:1 462:1 
58.19891261508729 482:1 483:1 484:1 
83.70745325129371 181:1 342:1 390:1 468:1 514:1 515:1 
92.0687415226204 73:1 89:1 129:1 468:1 522:1 523:1 524:1 525:1 
106.5915367741739 129:1 524:1 525:1 526:1 527:1 528:1 529:1 
10.98048568755685 397:1 558:1 569:1 570:1 571:1 572:1 
105.1987477050621 436:1 571:1 572:1 573:1 574:1 575:1 576:1 577:1 
1.937915170536032 272:1 578:1 579:1 580:1 
17.2214343490513 201:1 310:1 515:1 558:1 581:1 582:1 583:1 584:1 585:1 586:1 
53.41519817894302 20:1 27:1 60:1 156:1 468:1 559:1 
66.82125719735366 423:1 468:1 481:1 600:1 603:1 604:1 605:1 606:1 
28.60760503855387 50:1 51:1 52:1 53:1 55:1 145:1 468:1 636:1 637:1 
1.400932504219844 83:1 129:1 392:1 643:1 655:1 656:1 657:1 
128 11:1 202:1 203:1 666:1 
128 715:1 
9.557873710102703 130:1 644:1 669:1 719:1 720:1 721:1 722:1 723:1 
124.7453761108224 40:1 644:1 727:1 728:1 729:1 730:1 731:1 
49.8498675922163 470:1 759:1 
115.3883967864238 52:1 91:1 135:1 136:1 168:1 767:1 768:1 769:1 770:1 
93.76139268093505 543:1 775:1 776:1 777:1 
67.24196099286975 346:1 420:1 789:1 790:1 
37.55889455997167 27:1 60:1 98:1 558:1 791:1 792:1 793:1 794:1 
66.20102365559349 791:1 800:1 801:1 
58.66626017929003 562:1 791:1 802:1 803:1 804:1 805:1 
2.899177655252261 21:1 129:1 152:1 238:1 552:1 815:1 816:1 817:1 818:1 819:1 820:1 
115.4134457067685 11:1 196:1 226:1 665:1 841:1 
30.73231811408589 848:1 849:1 
54.56470127200023 852:1 
13.45844981842352 86:1 129:1 435:1 862:1 863:1 864:1 865:1 866:1 867:1 
41.07469248106114 75:1 92:1 111:1 255:1 789:1 884:1 885:1 886:1 887:1 
6.693477541185922 129:1 738:1 899:1 902:1 903:1 904:1 905:1 906:1 907:1 908:1 909:1 
42.72546101316507 3:1 936:1 937:1 
106.6359919108003 19:1 64:1 65:1 941:1 942:1 
49.82462016740992 504:1 958:1 997:1 
128 296:1 297:1 1003:1 1004:1 1005:1 1006:1 
18.77241628870656 452:1 491:1 948:1 1015:1 1016:1 1017:1 
91.64339519601774 89:1 452:1 945:1 1017:1 1041:1 1042:1 
0.7972824994192056 11:1 129:1 1019:1 1020:1 1021:1 1058:1 1061:1 1062:1 1063:1 
0.1751827409926245 19:1 27:1 1008:1 1011:1 1012:1 1058:1 1095:1 1096:1 
7.517130294334023 387:1 394:1 473:1 753:1 988:1 1058:1 1121:1 
128 27:1 29:1 35:1 69:1 226:1 1058:1 1126:1 1127:1 1128:1 1129:1 
102.8851327576888 60:1 135:1 138:1 184:1 
6.054079612560779 1149:1 1151:1 1152:1 1153:1 1154:1 1155:1 1156:1 
65.88449650476083 199:1 1157:1 1158:1 
36.13553943346582 276:1 1149:1 1159:1 1160:1 1161:1 1162:1 
13.75500819799268 123:1 269:1 334:1 1235:1 1236:1 1237:1 1238:1 1239:1 1240:1 1241:1 1242:1 
12.01341313098933 135:1 136:1 1259:1 1260:1 1261:1 1262:1 
51.83790878549812 11:1 665:1 1326:1 
0.4684040630482094 178:1 500:1 1115:1 1334:1 1335:1 
20.72819855392893 578:1 1340:1 1341:1 1342:1 
76.8158520573953 268:1 862:1 1343:1 1344:1 
41.68825448772412 899:1 930:1 932:1 933:1 1259:1 1260:1 1377:1 1378:1 1379:1 1380:1 1381:1 
2.513403674332138 69:1 152:1 769:1 787:1 868:1 938:1 1392:1 1393:1 
11.03922678188244 181:1 787:1 938:1 1393:1 
3.366828163687502 39:1 1066:1 1067:1 1334:1 1378:1 1418:1 1419:1 
68.54582706671737 91:1 120:1 181:1 769:1 1427:1 
26.36088232260315 3:1 1439:1 
128 11:1 1480:1 1481:1 
128 11:1 417:1 1485:1 
18.46520280071627 26:1 1486:1 1487:1 
19.84792167588401 1515:1 
7.543318376363387 33:1 138:1 491:1 1261:1 1530:1 
83.03993190731661 11:1 1535:1 1536:1 
12.38359176246606 289:1 453:1 617:1 1562:1 1564:1 1565:1 1566:1 1567:1 1568:1 
51.13435482242406 97:1 
3.216945691155423 33:1 292:1 452:1 1269:1 1581:1 
3.174323493630065 83:1 129:1 743:1 758:1 1641:1 1642:1 1643:1 1644:1 1645:1 
19.53967717653296 129:1 1646:1 1647:1 
3.494534173197977 26:1 263:1 1700:1 1701:1 1702:1 
0.6426492434400041 48:1 85:1 86:1 132:1 387:1 1641:1 1707:1 
128 139:1 181:1 210:1 769:1 
58.90681732936199 26:1 222:1 
32.51778321882382 85:1 210:1 387:1 508:1 624:1 1713:1 1714:1 
4.637534256890141 123:1 270:1 271:1 1730:1 
17.92284236899214 27:1 28:1 167:1 210:1 768:1 1376:1 1731:1 
4.629633036442947 88:1 129:1 226:1 281:1 1748:1 1749:1 1750:1 
67.90013344098887 1760:1 1761:1 1762:1 
63.92547203280604 215:1 226:1 1398:1 1764:1 
10.85182894389189 93:1 310:1 607:1 824:1 1413:1 1807:1 
2.541501730616296 1598:1 1857:1 1858:1 1859:1 1860:1 1861:1 1862:1 
7.453482735589994 358:1 1211:1 1869:1 1870:1 1871:1 1872:1 1873:1 1874:1 
2.220481908349156 127:1 681:1 1112:1 1376:1 1378:1 1883:1 1884:1 1885:1 1886:1 
5.322829882094463 79:1 371:1 625:1 1076:1 1192:1 1887:1 1888:1 1889:1 
128 184:1 1898:1 
30.83677240081527 21:1 27:1 152:1 156:1 481:1 591:1 644:1 1406:1 1972:1 
16.4423752023795 136:1 491:1 644:1 681:1 1391:1 1972:1 1973:1 
1.386451430892486 80:1 291:1 672:1 1721:1 1997:1 1998:1 1999:1 2000:1 2001:1 2002:1 
29.84334649501619 10:1 87:1 396:1 603:1 801:1 2007:1 2010:1 2011:1 2012:1 
7.894484259362937 27:1 156:1 429:1 701:1 1745:1 2047:1 2048:1 
55.73840192579782 42:1 357:1 358:1 2055:1 
45.17754031296297 1259:1 2120:1 
14.24897444356031 263:1 616:1 1259:1 2012:1 2025:1 2120:1 2121:1 2122:1 2123:1 2124:1 
4.89707226254338 152:1 669:1 1760:1 2054:1 2148:1 2149:1 2150:1 
0.1418166202012783 3:1 83:1 223:1 276:1 315:1 1649:1 2054:1 2175:1 2176:1 
1.38943637244842 87:1 196:1 197:1 251:1 294:1 1063:1 1328:1 2197:1 2198:1 2199:1 
79.06523636710408 193:1 
4.046174978943982 124:1 130:1 274:1 312:1 522:1 801:1 1798:1 1962:1 
128 46:1 47:1 136:1 205:1 1058:1 1330:1 
22.94899479900918 310:1 564:1 640:1 2054:1 2170:1 2223:1 2224:1 2225:1 2226:1 2227:1 2228:1 2229:1 2230:1 
94.25425239097086 690:1 1323:1 1736:1 2226:1 2227:1 2228:1 2229:1 2230:1 2231:1 2232:1 2233:1 
6.835831953651581 83:1 439:1 452:1 453:1 591:1 2248:1 2249:1 2250:1 2251:1 2252:1 
4.390104269296296 10:1 193:1 205:1 1217:1 1448:1 1451:1 2253:1 2254:1 2255:1 
1.354427521178197 103:1 152:1 358:1 930:1 1819:1 1869:1 2261:1 
2.125209421348178 79:1 453:1 564:1 583:1 1052:1 2269:1 2270:1 2271:1 
17.1278400872302 92:1 93:1 312:1 899:1 1765:1 2317:1 2318:1 2319:1 2320:1 
7.318975503829173 738:1 769:1 2317:1 2321:1 2322:1 
15.58819497119309 89:1 129:1 681:1 769:1 1391:1 2326:1 2327:1 2328:1 2329:1 2330:1 2331:1 
3.176666595430572 93:1 129:1 812:1 813:1 2352:1 2353:1 
128 28:1 138:1 738:1 758:1 1628:1 
3.612917299050654 129:1 360:1 759:1 1996:1 2357:1 2358:1 2359:1 2360:1 2361:1 
0.7210265836291025 129:1 215:1 738:1 859:1 899:1 1394:1 1396:1 1518:1 2365:1 2369:1 2370:1 2371:1 
7.167135195697707 129:1 777:1 779:1 899:1 1338:1 2081:1 2372:1 2373:1 2374:1 2375:1 
22.35441354334309 92:1 184:1 392:1 467:1 512:1 2327:1 2384:1 2385:1 2386:1 2387:1 
4.600771575168979 786:1 787:1 899:1 1411:1 2327:1 2388:1 2389:1 2390:1 
65.66838007965194 129:1 971:1 2391:1 2392:1 
8.885136990572633 543:1 681:1 899:1 2349:1 2414:1 2415:1 2416:1 2417:1 
45.3581508675607 92:1 93:1 182:1 308:1 744:1 787:1 899:1 1380:1 2427:1 
0.4666463751033352 69:1 257:1 899:1 1482:1 2294:1 2457:1 2458:1 2459:1 2460:1 2461:1 2462:1 2463:1 
3.323215014152199 126:1 2035:1 2464:1 2465:1 2466:1 2467:1 2468:1 2469:1 2470:1 2471:1 2472:1 
2.591936980871269 543:1 899:1 2426:1 2477:1 2484:1 2488:1 2489:1 
1.05671310377515 1302:1 2495:1 2496:1 
59.64638353090509 73:1 89:1 2279:1 
2.893805852492426 2512:1 
4.891416158357878 196:1 197:1 251:1 665:1 2189:1 2520:1 2521:1 2522:1 
56.90467239858182 91:1 141:1 616:1 762:1 769:1 1112:1 2527:1 2528:1 2529:1 2530:1 
41.16861665933342 15:1 141:1 257:1 616:1 758:1 762:1 770:1 1112:1 1634:1 
24.8278430524792 184:1 2335:1 2534:1 
1.69098519780405 1181:1 2054:1 2567:1 2568:1 2569:1 2570:1 2571:1 
2.651150323567395 136:1 769:1 2077:1 
27.08896114487633 33:1 257:1 2203:1 2597:1 2598:1 
1.714537668592444 219:1 292:1 758:1 2631:1 2637:1 2638:1 2639:1 
3.287654980169995 157:1 303:1 304:1 348:1 422:1 424:1 1736:1 2652:1 2653:1 
2.182318844088518 281:1 671:1 758:1 2631:1 2667:1 2668:1 2669:1 2670:1 
18.25812339273161 15:1 226:1 694:1 970:1 2631:1 2633:1 2677:1 2678:1 
7.673591233476428 424:1 600:1 1112:1 1632:1 1858:1 1862:1 2006:1 2631:1 2645:1 2656:1 2679:1 2680:1 
1.594417765041546 128:1 211:1 470:1 758:1 2058:1 2631:1 2690:1 2691:1 
6.975101345407555 272:1 698:1 1340:1 1736:1 2631:1 2693:1 
4.057748754985247 120:1 440:1 693:1 1848:1 2694:1 2695:1 2696:1 2697:1 
0.2882171702819403 292:1 591:1 674:1 758:1 1107:1 1761:1 2704:1 2705:1 2706:1 
1.534164803030603 552:1 1107:1 2631:1 2707:1 2708:1 2709:1 
8.173497240087332 693:1 758:1 1782:1 2631:1 2720:1 2726:1 
5.43227813911097 392:1 527:1 528:1 2168:1 2631:1 2737:1 
25.51763670123285 603:1 758:1 2637:1 2738:1 2739:1 2740:1 
0.5949293656438532 411:1 1036:1 2048:1 2574:1 2631:1 2707:1 2738:1 2739:1 2755:1 
1.407652405611705 19:1 312:1 453:1 896:1 969:1 1245:1 2762:1 
7.753631386725726 8:1 9:1 358:1 1101:1 2786:1 2787:1 
5.321551322123507 71:1 111:1 444:1 894:1 895:1 1584:1 1879:1 2779:1 2803:1 2804:1 
28.56188581721189 14:1 196:1 197:1 219:1 381:1 1610:1 2141:1 2828:1 
7.854800825058854 136:1 139:1 210:1 2833:1 
24.24949551247515 2847:1 2848:1 2849:1 2850:1 
21.06282420505488 176:1 196:1 197:1 251:1 253:1 254:1 255:1 294:1 346:1 355:1 431:1 565:1 2855:1 
14.01379295218059 184:1 337:1 359:1 2364:1 2856:1 
13.84902638440025 2859:1 2860:1 
45.36375084193422 124:1 125:1 265:1 306:1 307:1 616:1 718:1 1537:1 1700:1 2238:1 
23.63075474165444 609:1 1224:1 2888:1 
78.08401610715572 184:1 644:1 2364:1 
128 281:1 386:1 453:1 640:1 1748:1 
0.470809304334736 129:1 393:1 1061:1 1254:1 2375:1 2645:1 2918:1 2919:1 
0.7082380690959565 138:1 184:1 860:1 869:1 2931:1 2932:1 2933:1 
0.2462110344167095 184:1 860:1 2816:1 2817:1 
20.46649169412527 48:1 70:1 372:1 986:1 1024:1 2981:1 2982:1 2983:1 2984:1 
9.614025829427334 92:1 129:1 328:1 448:1 1170:1 2207:1 2996:1 2997:1 
6.82790440924815 2950:1 2951:1 
22.68055809622841 307:1 357:1 358:1 359:1 493:1 1451:1 3039:1 
13.52810373909499 184:1 2335:1 3063:1 
6.62956530613586 73:1 184:1 870:1 3108:1 
0.9038183193104506 73:1 204:1 812:1 813:1 2364:1 2881:1 3028:1 3109:1 3110:1 
6.132785469731843 53:1 124:1 263:1 265:1 1487:1 1537:1 1700:1 2238:1 2244:1 3111:1 
6.782173973379524 297:1 2207:1 2944:1 2945:1 2946:1 
12.0629832003011 20:1 185:1 219:1 769:1 870:1 2610:1 
16.03930353542326 875:1 2192:1 2840:1 2841:1 2842:1 3057:1 
1.906315599024546 71:1 1255:1 1700:1 2509:1 2561:1 3138:1 3139:1 3140:1 3141:1 3142:1 3143:1 
25.73274976117622 139:1 534:1 538:1 871:1 
0.843760502123398 297:1 3132:1 3168:1 3169:1 3170:1 3171:1 
19.60702239736303 10:1 357:1 358:1 379:1 1044:1 1106:1 1217:1 1352:1 1429:1 1451:1 2201:1 2246:1 3200:1 3201:1 
9.011128627995703 201:1 255:1 346:1 355:1 1091:1 1334:1 2742:1 3134:1 3215:1 
4.701527633411818 874:1 875:1 2736:1 3219:1 3222:1 3224:1 3225:1 3226:1 
19.12132234386781 458:1 970:1 3219:1 3220:1 3222:1 3235:1 3236:1 3237:1 3238:1 
2.549761267415269 308:1 1551:1 2978:1 3267:1 3268:1 3269:1 
3.627301371140813 205:1 357:1 358:1 671:1 1103:1 1334:1 1451:1 1721:1 3270:1 3271:1 3272:1 3273:1 
10.6229889908511 129:1 197:1 294:1 337:1 417:1 431:1 1352:1 2804:1 3274:1 3275:1 
76.7140567506692 46:1 47:1 1776:1 
1.267279689633642 41:1 46:1 47:1 291:1 301:1 1954:1 2431:1 2585:1 3297:1 3298:1 3299:1 
1.188289374912216 205:1 297:1 2322:1 3308:1 3309:1 
6.103123244512335 64:1 68:1 69:1 2276:1 3367:1 3368:1 
19.34341598885721 71:1 206:1 306:1 318:1 717:1 1584:1 1700:1 2509:1 3379:1 
0.2101350246576173 71:1 266:1 306:1 1537:1 1700:1 3144:1 3383:1 3384:1 
8.063594275758717 307:1 637:1 1907:1 2073:1 3393:1 3394:1 3395:1 3396:1 3397:1 3398:1 3399:1 
6.729521770579497 10:1 88:1 219:1 292:1 2170:1 3414:1 3415:1 3416:1 
0.07769577167173988 1352:1 3426:1 3427:1 3428:1 3429:1 3430:1 3431:1 
3.82646719212164 355:1 1015:1 1041:1 3426:1 3432:1 3433:1 3434:1 3435:1 3436:1 3437:1 3438:1 
84.25988037148088 1259:1 2120:1 
10.54695734948075 38:1 288:1 837:1 1112:1 1872:1 3442:1 3443:1 
7.092312327204613 1144:1 
29.66636356415729 294:1 431:1 3026:1 
11.58306081762446 204:1 2089:1 3463:1 3464:1 
1.190275590093341 864:1 3465:1 
61.22008743379985 432:1 1694:1 
2.418206652156742 255:1 3129:1 3291:1 3430:1 3431:1 3468:1 3469:1 3470:1 3471:1 
1.244756852272575 1041:1 1334:1 2066:1 3471:1 3472:1 3473:1 
1.729530594581249 508:1 851:1 2114:1 2313:1 2517:1 2646:1 3031:1 3197:1 3198:1 3488:1 3490:1 3491:1 3492:1 
5.644615118191751 1537:1 3509:1 3510:1 
1.166009034240332 201:1 226:1 453:1 592:1 639:1 3515:1 3516:1 3517:1 3518:1 3519:1 
3.257602352896581 2791:1 
0.8777926525569897 1413:1 3289:1 3575:1 
81.21120034151178 3586:1 3587:1 
35.8989499163586 1311:1 3593:1 3594:1 
0.0002335692208281407 3605:1 3606:1 
10.63093149883912 204:1 1062:1 1820:1 2903:1 3446:1 3613:1 3614:1 3615:1 3616:1 
11.62559193439496 85:1 1562:1 2336:1 3624:1 3625:1 3626:1 
3.714922193615102 3174:1 
0.2920375872592206 128:1 453:1 1252:1 1676:1 3494:1 3642:1 3643:1 3644:1 3645:1 3646:1 
21.00060811365751 1249:1 
0.07557899703975926 219:1 3653:1 
5.950526169189777 3671:1 
14.05028611310429 3672:1 3673:1 
3.732046516744351 640:1 2629:1 3011:1 3012:1 
0.1913890573286512 85:1 3035:1 3674:1 3675:1 3676:1 
17.37655402348404 79:1 226:1 3677:1 3678:1 3679:1 3680:1 
6.478875089375043 73:1 386:1 428:1 803:1 2191:1 2667:1 3681:1 3682:1 3683:1 
33.47096659173533 335:1 2611:1 
92.38363875099265 89:1 1508:1 1516:1 1928:1 3712:1 
22.70264168135132 85:1 609:1 1319:1 
15.00456991160863 152:1 310:1 426:1 436:1 1881:1 3506:1 3713:1 3714:1 3715:1 3716:1 
13.20553335278315 372:1 1406:1 2717:1 3717:1 3718:1 
0.004281299263833332 88:1 2287:1 3722:1 
2.450248935589261 15:1 253:1 425:1 437:1 510:1 585:1 3728:1 3729:1 3730:1 3731:1 
3.790502599068282 815:1 2239:1 3438:1 3743:1 3744:1 3745:1 3746:1 3747:1 
43.97377538141583 779:1 2051:1 2081:1 
13.28368944254945 581:1 620:1 3750:1 3751:1 
7.471585107846554 3774:1 3775:1 3776:1 3777:1 
0.04070923497821485 199:1 463:1 837:1 2881:1 3313:1 3504:1 3819:1 3820:1 3821:1 3822:1 
12.80956349044196 138:1 832:1 1530:1 2431:1 3825:1 3826:1 3827:1 3828:1 
5.629976562944574 1820:1 2903:1 3255:1 3552:1 3613:1 3825:1 3832:1 
44.28642603697187 437:1 620:1 639:1 2549:1 3028:1 3833:1 3834:1 3835:1 3836:1 
26.79281635470342 199:1 245:1 372:1 1437:1 3837:1 
5.216911640384422 199:1 407:1 508:1 856:1 3603:1 3838:1 3839:1 3840:1 3841:1 
0.4224931140094174 129:1 199:1 453:1 639:1 3842:1 3843:1 3844:1 3845:1 3846:1 3847:1 
0.05121972910449241 98:1 129:1 199:1 740:1 2528:1 3842:1 3849:1 3851:1 3852:1 3853:1 3854:1 
7.964494656157952 7:1 226:1 814:1 1776:1 3873:1 
8.437630518863971 85:1 814:1 1776:1 3874:1 3875:1 3876:1 3877:1 
0.9575882557624655 136:1 844:1 870:1 2775:1 3878:1 
86.22830331122186 184:1 199:1 463:1 814:1 872:1 1776:1 
32.45401765222431 594:1 780:1 1820:1 3901:1 3902:1 3903:1 
0.3649928957465114 215:1 422:1 661:1 814:1 1776:1 1842:1 3909:1 
5.937448182336146 199:1 226:1 276:1 372:1 463:1 1081:1 2722:1 3944:1 3945:1 3946:1 3947:1 3948:1 
0.6815087407264807 21:1 1847:1 3068:1 3385:1 3469:1 3974:1 3975:1 3976:1 3977:1 
2.007539705074191 128:1 226:1 1378:1 2110:1 3120:1 3495:1 3587:1 3997:1 3998:1 3999:1 
3.005058676234443 178:1 226:1 252:1 1088:1 2624:1 2633:1 3505:1 3518:1 3728:1 4000:1 
0.6727193380924605 69:1 226:1 564:1 650:1 1769:1 2648:1 3074:1 4001:1 
5.990705866386547 75:1 194:1 263:1 1700:1 1757:1 1758:1 2280:1 4010:1 
54.30171392897504 184:1 210:1 814:1 870:1 4011:1 
11.0054173809613 30:1 453:1 494:1 640:1 2441:1 2804:1 4028:1 4029:1 4030:1 
3.112733607367973 999:1 3345:1 3569:1 4033:1 4034:1 
2.080652429815468 639:1 1339:1 1905:1 2565:1 3569:1 3686:1 4040:1 4041:1 4042:1 
2.65266143035614 4012:1 4018:1 4043:1 4044:1 
3.22107690211888 276:1 372:1 1245:1 2367:1 3569:1 3924:1 3993:1 4045:1 4046:1 4047:1 4048:1 
30.7701488873372 1777:1 1857:1 
0.3785434404838703 88:1 3282:1 4065:1 4066:1 4067:1 
4.806212777856092 603:1 2492:1 2739:1 3569:1 4068:1 
56.5962622925978 1819:1 3569:1 
16.63304674029825 93:1 107:1 627:1 856:1 1781:1 3569:1 4088:1 4089:1 4090:1 
13.26091361795881 464:1 779:1 856:1 4106:1 4107:1 4108:1 
10.79862241334558 443:1 615:1 1848:1 2297:1 3035:1 4109:1 4110:1 
98.55370639264001 373:1 839:1 4111:1 4112:1 4113:1 4114:1 
1.77727166160551 288:1 732:1 1776:1 1783:1 1822:1 1849:1 2565:1 3728:1 3996:1 4122:1 4123:1 
1.075987937019807 9:1 226:1 323:1 605:1 732:1 814:1 1776:1 3873:1 
6.279792472021011 39:1 226:1 603:1 851:1 2739:1 4166:1 4167:1 4168:1 
12.8023667643693 14:1 15:1 1493:1 1537:1 1567:1 2840:1 2841:1 2842:1 4169:1 
3.78911771311606 99:1 204:1 458:1 3075:1 4195:1 4196:1 4197:1 4198:1 
8.736484132325643 15:1 183:1 812:1 813:1 814:1 1267:1 4211:1 4212:1 4213:1 
0.1275452173788351 15:1 337:1 1776:1 3873:1 4208:1 4243:1 
58.75392628541553 46:1 47:1 127:1 128:1 468:1 2717:1 4239:1 4240:1 
8.477580337567918 6:1 75:1 226:1 334:1 369:1 370:1 372:1 2145:1 4017:1 4249:1 4250:1 4251:1 
1.218980923975909 48:1 86:1 201:1 226:1 292:1 1132:1 4253:1 4254:1 4255:1 
3.996122971222173 357:1 1330:1 1352:1 2350:1 4266:1 4267:1 4268:1 
2.607542146577456 3186:1 4272:1 4273:1 4274:1 
52.07679669432844 4290:1 4291:1 4292:1 
2.218369322125321 429:1 963:1 1076:1 1081:1 1246:1 1869:1 3040:1 3937:1 4320:1 4321:1 4322:1 
51.68727350709726 165:1 201:1 4079:1 
2.650868148103986 4123:1 4211:1 4348:1 4349:1 
2.554213324647149 292:1 317:1 583:1 1514:1 4360:1 4361:1 
6.777491985668012 985:1 1385:1 4371:1 
31.06864463315978 210:1 440:1 
10.62087688010078 181:1 3416:1 4379:1 
1.863405658615759 181:1 419:1 3416:1 4380:1 
4.391026940886216 426:1 429:1 628:1 1184:1 1217:1 1869:1 2043:1 2347:1 2634:1 3235:1 4286:1 4384:1 
2.892441229013513 4405:1 
6.000373374895767 355:1 1720:1 1771:1 3227:1 4416:1 4417:1 4418:1 4419:1 4420:1 
8.429310719661155 470:1 739:1 1891:1 3518:1 3586:1 4430:1 
1.182823653815063 371:1 529:1 1041:1 1609:1 3438:1 4436:1 4437:1 4438:1 4439:1 
2.653761423581211 278:1 1419:1 1909:1 4287:1 4412:1 4462:1 
16.35036636840061 88:1 1557:1 4342:1 4473:1 4474:1 
37.31647689810272 1557:1 3766:1 4470:1 4490:1 
12.71043311931844 123:1 1557:1 1567:1 3095:1 3491:1 
0.6396850719708439 3095:1 3326:1 3570:1 4474:1 4501:1 4502:1 4503:1 4504:1 4505:1 
51.93724846747588 4290:1 4529:1 4530:1 
1.855297351206491 429:1 1642:1 1958:1 4564:1 4565:1 
22.05741498021391 4566:1 
15.45314697735736 1741:1 2528:1 4290:1 4573:1 4574:1 4575:1 
1.018970449524155 664:1 3186:1 4064:1 4589:1 4598:1 4599:1 4600:1 
0.7731660911217706 4602:1 
92.71557510221554 4611:1 4612:1 4613:1 4614:1 
86.45325695291825 88:1 146:1 371:1 1958:1 4615:1 4616:1 4617:1 
8.022889948539062 429:1 856:1 1112:1 4648:1 
40.90609030019046 2074:1 4511:1 
3.538251155427818 4692:1 
69.47240439241122 3812:1 
2.823683135423409 91:1 1609:1 2352:1 4495:1 4680:1 
3.475194276308462 549:1 2033:1 2754:1 
0.4281190637103151 163:1 1907:1 2198:1 2564:1 3453:1 4710:1 4734:1 
4.730313779492844 1514:1 1736:1 2351:1 4282:1 4740:1 
1.235412525005339 4290:1 4723:1 4759:1 4760:1 4761:1 4762:1 4763:1 
5.291099559542334 201:1 379:1 936:1 1005:1 1044:1 1343:1 1837:1 3102:1 4595:1 4734:1 4765:1 
15.18060160953194 193:1 549:1 1005:1 1044:1 3239:1 4547:1 4709:1 4781:1 4782:1 
4.563313577142043 3048:1 3552:1 4245:1 4414:1 4806:1 4807:1 
17.80565959795502 1616:1 4287:1 
3.599278630513774 2164:1 4183:1 4838:1 4839:1 
0.4773224178825294 4839:1 4840:1 
0.9601378183372797 2091:1 2248:1 4855:1 4858:1 
2.077268724683102 4867:1 4868:1 4869:1 
3.980103741773122 971:1 4878:1 
15.77482256347491 4879:1 4880:1 
2.107643815250582 281:1 1363:1 2338:1 3892:1 4270:1 4667:1 4889:1 
0.3838526638983584 248:1 1903:1 4890:1 4891:1 4892:1 4893:1 
0.1677262865477611 220:1 426:1 3095:1 4903:1 4912:1 
6.218518901794265 4284:1 4918:1 
21.01046272743247 10:1 88:1 371:1 1557:1 4927:1 4928:1 
1.492862148398693 19:1 292:1 318:1 661:1 4941:1 
128 210:1 
10.07675434136742 607:1 4372:1 
3.290549469941823 165:1 219:1 292:1 1171:1 1379:1 1396:1 2208:1 4978:1 
5.689170511296689 266:1 515:1 583:1 1419:1 4077:1 4919:1 4996:1 4997:1 
4.576984463711431 429:1 563:1 612:1 4287:1 4538:1 4969:1 5001:1 5002:1 5003:1 
3.33607636102171 124:1 824:1 1421:1 1522:1 1842:1 2677:1 4548:1 4919:1 5006:1 
1.784091278667933 93:1 124:1 392:1 467:1 592:1 3202:1 4103:1 
32.76085457766883 93:1 124:1 392:1 467:1 592:1 3202:1 4103:1 
8.421994743951323 248:1 292:1 1846:1 4255:1 5041:1 
2.250174402122262 2124:1 2585:1 5046:1 
3.995776857753722 292:1 859:1 4190:1 4278:1 5048:1 
2.348150442081383 248:1 292:1 1846:1 4255:1 5041:1 
0.4320809460816513 396:1 411:1 5056:1 5057:1 5058:1 
81.83108848443374 126:1 2248:1 4279:1 
2.068419110803322 1822:1 2073:1 4856:1 4878:1 5060:1 5061:1 
0.6724791231126206 210:1 2400:1 4163:1 4255:1 4780:1 4860:1 5079:1 5080:1 
3.524801082077472 1295:1 5107:1 5108:1 
5.149400385573292 93:1 201:1 211:1 453:1 4167:1 5105:1 5115:1 5116:1 
7.293813109404089 73:1 3590:1 5092:1 5125:1 
3.26990679904981 79:1 123:1 165:1 4413:1 
3.70723039041979 281:1 465:1 549:1 859:1 2298:1 4285:1 4785:1 4836:1 5215:1 
0.7331106336736035 123:1 485:1 692:1 3140:1 3180:1 4291:1 5239:1 
3.074410198888404 3547:1 4247:1 5259:1 5260:1 
1.508098508956764 426:1 3289:1 4512:1 5272:1 
2.43588505568357 393:1 1522:1 1642:1 5273:1 
2.961912427562545 1181:1 4905:1 
6.267103393062242 4091:1 
5.556466960435365 83:1 131:1 824:1 856:1 1632:1 1741:1 4201:1 4287:1 4289:1 5297:1 
0.5404574094997158 597:1 734:1 1024:1 1567:1 4289:1 5298:1 5299:1 
72.10406405881207 2494:1 
93.30168998246958 327:1 1493:1 3257:1 
50.21568465349594 327:1 4475:1 
2.740706329907342 2063:1 4724:1 5323:1 5324:1 
1.137329451122336 327:1 3257:1 5328:1 
13.51902132820502 1609:1 
128 184:1 
1.289921232390888 4270:1 4460:1 4475:1 
3.031463275319041 648:1 3682:1 5348:1 
7.798863662266251 281:1 327:1 1737:1 4864:1 5344:1 
40.79719235449947 2237:1 4352:1 5369:1 
20.11353040906893 1954:1 5373:1 
2.923017435156162 5375:1 5376:1 
46.16160964760633 305:1 
1.589204849866943 26:1 327:1 4842:1 
26.60638023327997 426:1 687:1 1044:1 2677:1 4352:1 4353:1 5387:1 5388:1 5389:1 
28.26074574507271 2347:1 5390:1 
99.20523694826456 327:1 
1.297392383564886 124:1 2086:1 2536:1 5396:1 5397:1 5398:1 
11.18801936927785 5417:1 
33.19019700888676 439:1 2209:1 
13.4974807655428 93:1 5419:1 
0.03189148811528473 4556:1 5436:1 
3.583144204091548 5440:1 
3.032868232986941 243:1 334:1 397:1 865:1 1612:1 4248:1 5442:1 
0.5068911520309315 251:1 1923:1 5450:1 5451:1 
0.880493671809386 255:1 346:1 355:1 565:1 1038:1 1873:1 3243:1 4023:1 4834:1 5457:1 5458:1 
1.200587540224462 327:1 3095:1 4423:1 4724:1 5460:1 5461:1 
0.1784958536952185 10:1 243:1 3918:1 5462:1 5463:1 5464:1 5465:1 
0.2975087183653546 355:1 565:1 1335:1 2198:1 4423:1 4842:1 5428:1 5480:1 5481:1 5482:1 
12.10039859829976 83:1 598:1 1514:1 4517:1 5471:1 5477:1 5491:1 
1.664996184454652 88:1 226:1 576:1 1335:1 1459:1 5398:1 5496:1 5497:1 5498:1 5499:1 
34.99230838623721 327:1 
0.7437606795578012 2899:1 5509:1 5510:1 5511:1 5512:1 
38.64800425979401 327:1 3235:1 3257:1 3525:1 
4.964882119348052 2128:1 4270:1 4887:1 5543:1 
43.68395896609659 201:1 465:1 681:1 3338:1 
1.373566038941394 93:1 397:1 2379:1 2501:1 
3.923009212173751 327:1 985:1 1493:1 2616:1 3257:1 
5.237289074255667 3552:1 4643:1 
111.0926306753758 3686:1 
1.44512288188511 565:1 3218:1 3662:1 5582:1 5583:1 5585:1 5586:1 
2.079708214428962 178:1 327:1 928:1 2295:1 5312:1 5313:1 5587:1 
1.608856677888803 327:1 2295:1 3525:1 4308:1 4817:1 5152:1 5295:1 5590:1 5591:1 
45.39719208949558 906:1 1518:1 3812:1 
3.891571957478856 443:1 2879:1 3018:1 4910:1 5442:1 5598:1 
0.2964756746568144 93:1 307:1 1044:1 3768:1 5608:1 
2.802959620112847 1340:1 3172:1 5616:1 
74.30702633265868 248:1 334:1 597:1 2437:1 2966:1 3624:1 
8.426319236596827 859:1 4481:1 5620:1 
0.2826992969788329 141:1 789:1 3506:1 5086:1 
5.085800381569133 42:1 79:1 193:1 1447:1 2528:1 5626:1 
0.9582116438317367 201:1 2198:1 3025:1 3972:1 5014:1 5638:1 
2.172150586554641 412:1 3406:1 5639:1 
4.739497257415308 394:1 3243:1 4023:1 4437:1 4887:1 4888:1 5642:1 5643:1 5644:1 
13.17780075287013 761:1 1220:1 1221:1 5621:1 5658:1 
10.69856743037495 821:1 1335:1 3452:1 5686:1 
2.753888765974429 871:1 1035:1 1396:1 1681:1 4342:1 4585:1 5034:1 5071:1 5714:1 5734:1 5735:1 
40.4230849774812 1362:1 2565:1 
0.1194042608480108 411:1 1848:1 2086:1 4731:1 4933:1 5051:1 5071:1 5751:1 5752:1 
0.3421780697965509 985:1 1246:1 2431:1 3235:1 4524:1 5619:1 5755:1 
13.09428442796156 88:1 211:1 372:1 4270:1 5583:1 
0.8049541396872439 84:1 2237:1 4543:1 5759:1 5760:1 5761:1 5762:1 5763:1 5764:1 5765:1 
1.566253269792391 79:1 257:1 761:1 3095:1 5775:1 5779:1 
1.431958810884386 411:1 807:1 2352:1 3313:1 4341:1 5553:1 5792:1 
2.873771874476919 37:1 128:1 3075:1 3202:1 4355:1 4472:1 5794:1 5795:1 
49.34265214047195 79:1 663:1 5803:1 5804:1 5805:1 
44.68587067851883 93:1 371:1 392:1 470:1 856:1 2379:1 5806:1 
15.32804750913795 4091:1 4579:1 
0.3892536997195479 79:1 3130:1 3525:1 4229:1 5812:1 5813:1 
5.785722746981495 376:1 467:1 2091:1 2179:1 4091:1 4270:1 
97.59715979927606 578:1 4271:1 4751:1 5839:1 5840:1 
0.2180611744428205 33:1 131:1 2293:1 2749:1 3552:1 3971:1 4643:1 5843:1 5844:1 
6.030467026999438 138:1 386:1 4852:1 4865:1 5880:1 5881:1 5882:1 5883:1 5884:1 
2.041040449665016 27:1 827:1 856:1 4553:1 5895:1 
1.79141063929201 4723:1 5809:1 5897:1 
7.597170067117369 2615:1 3748:1 5377:1 5906:1 
2.858950202830054 371:1 759:1 783:1 3812:1 4481:1 5862:1 5913:1 
7.937728644136395 4170:1 5758:1 5921:1 5922:1 5923:1 
125.9895472670068 734:1 2528:1 
1.593263640032879 734:1 2528:1 3586:1 
128 4723:1 
0.4184998658476926 443:1 921:1 2979:1 3095:1 3140:1 4440:1 4923:1 5442:1 
34.2931770336065 2091:1 2179:1 4270:1 
4.194368783003958 331:1 453:1 1342:1 4383:1 5970:1 
13.42468919412316 281:1 5007:1 
5.372056115214283 146:1 429:1 512:1 1437:1 4385:1 5438:1 
10.60431071389933 3:1 3303:1 
1.786316017098064 10:1 837:1 1609:1 3202:1 3539:1 5992:1 5993:1 
0.4134798132615363 4270:1 4460:1 
0.7984811079616584 2323:1 3163:1 4419:1 4786:1 5875:1 
1.022654693451071 201:1 292:1 865:1 1814:1 4132:1 4964:1 6004:1 6005:1 
0.3970980866346172 1603:1 2572:1 2649:1 6014:1 6015:1 6016:1 6017:1 
0.09789437129454213 125:1 2570:1 6019:1 
1.675120953985455 1044:1 1736:1 1831:1 3918:1 4776:1 6020:1 6021:1 
3.86101550514888 6025:1 
0.7937323511720884 2585:1 6027:1 6028:1 6029:1 6030:1 6031:1 6032:1 6033:1 
22.38624758040421 304:1 579:1 
1.072889709022847 2291:1 4271:1 4300:1 5776:1 6043:1 
40.40372524702583 138:1 272:1 397:1 
0.7129239216162611 2963:1 5345:1 6048:1 6049:1 
0.6864288895021611 88:1 4586:1 
6.834055937033516 392:1 411:1 612:1 3625:1 5345:1 
0.9364382319963787 211:1 304:1 1776:1 1798:1 4402:1 5345:1 5417:1 6058:1 6059:1 
61.60136277520795 3686:1 6060:1 
9.939024395785809 1530:1 2698:1 2946:1 
27.00767072355326 138:1 146:1 227:1 2026:1 4342:1 5442:1 6067:1 
0.2652088658223077 292:1 2615:1 6066:1 6068:1 
0.2171269625743687 226:1 1171:1 
11.39625573219212 226:1 1171:1 
55.01245938931121 215:1 393:1 543:1 780:1 2211:1 2438:1 
0.8336005431276071 1736:1 3338:1 5006:1 5330:1 5998:1 6115:1 6116:1 
3.277699065557178 1379:1 1736:1 4749:1 5301:1 5943:1 
5.507252169245056 1005:1 2322:1 4477:1 6159:1 
1.656079312388087 165:1 859:1 1323:1 1335:1 1846:1 2074:1 5126:1 5410:1 6166:1 
26.77279048933568 3684:1 4282:1 6178:1 
128 835:1 2089:1 
1.952037405158942 3644:1 6182:1 
1.76191898251956 1369:1 2930:1 4419:1 5048:1 6184:1 
0.2629185033770452 265:1 3338:1 4359:1 6222:1 6223:1 6224:1 6225:1 
62.7776957238732 93:1 4271:1 4385:1 
2.441210442222694 789:1 1340:1 1610:1 2170:1 2632:1 4478:1 4595:1 6229:1 
2.340952783614083 175:1 268:1 1620:1 4478:1 4752:1 6129:1 6231:1 
1.417717115976179 680:1 2445:1 4663:1 5250:1 
0.5622308464016602 99:1 175:1 292:1 1423:1 1864:1 2998:1 4737:1 5048:1 6208:1 6233:1 6234:1 
1.324551793703482 452:1 2145:1 2821:1 3418:1 6061:1 
0.3072666368919055 193:1 248:1 2659:1 4419:1 4961:1 5865:1 
2.66101001393054 1421:1 1522:1 2573:1 6246:1 
1.068928944019891 386:1 4462:1 4566:1 5354:1 5975:1 6248:1 6249:1 6250:1 
0.9193850393198959 2058:1 4555:1 4577:1 4606:1 5256:1 6251:1 
0.1209439327986264 123:1 1687:1 2194:1 3307:1 4423:1 5014:1 6124:1 6257:1 
1.322691617303377 10:1 4113:1 4707:1 4746:1 5490:1 5891:1 5892:1 
0.8996362150395666 470:1 488:1 1638:1 3721:1 3942:1 6272:1 
0.1512460822395359 88:1 107:1 453:1 583:1 3039:1 4805:1 5308:1 6274:1 
1.991561548826726 88:1 107:1 453:1 583:1 3039:1 4805:1 5308:1 6274:1 
57.89402722606249 4091:1 5158:1 
2.256116201662537 272:1 567:1 580:1 3668:1 5399:1 5745:1 6287:1 
2.272663225362175 1038:1 6288:1 
3.376089535624069 6289:1 6290:1 6291:1 
1.112931026245922 3992:1 4119:1 6295:1 6296:1 6297:1 
24.81568353565009 42:1 193:1 6292:1 
1.995901200694089 529:1 648:1 2638:1 5306:1 6305:1 
15.44894595207889 136:1 2048:1 2610:1 3244:1 6326:1 6327:1 
1.885041272770331 167:1 5112:1 
0.2087895186028116 470:1 3735:1 4379:1 4981:1 5790:1 6343:1 
3.970898199207743 426:1 1220:1 1396:1 2239:1 5116:1 6347:1 
3.012080547201851 138:1 272:1 393:1 780:1 1642:1 2026:1 2209:1 4693:1 6350:1 
3.271467340353368 201:1 297:1 355:1 3134:1 4440:1 5450:1 6352:1 
0.5391162810830421 6353:1 6354:1 6355:1 
1.292427763039877 268:1 3229:1 4445:1 5506:1 6365:1 6366:1 6367:1 
3.71416661976202 3050:1 3095:1 4308:1 4851:1 
12.77500198084334 612:1 3040:1 5776:1 
7.071820508046236 565:1 5470:1 5906:1 6372:1 6373:1 
0.4721321819702023 3075:1 3735:1 4892:1 5054:1 6381:1 6382:1 6383:1 6384:1 6385:1 
8.625314580404847 6388:1 
1.218559701269626 1255:1 2063:1 2211:1 2250:1 2822:1 4287:1 5533:1 
0.0518987622572385 2528:1 3250:1 4091:1 6394:1 6395:1 
20.80107187253297 6291:1 
2.796761267371633 4752:1 6407:1 
102.6813923577211 1447:1 2629:1 4917:1 
1.023184892154861 396:1 3443:1 4193:1 4353:1 4384:1 5020:1 6422:1 6423:1 
2.955527312575612 184:1 211:1 1145:1 1176:1 2058:1 2434:1 6431:1 6432:1 6433:1 6434:1 6435:1 
3.93563462335515 2200:1 3041:1 3974:1 4462:1 6249:1 6436:1 6437:1 6438:1 6439:1 
15.17248496753876 4091:1 6447:1 
1.132414142398358 223:1 272:1 656:1 3259:1 6458:1 
6.167520498877479 1267:1 3431:1 4460:1 6468:1 
0.9865676197431623 35:1 128:1 1379:1 2615:1 4241:1 5117:1 5175:1 6426:1 
0.4695142893030742 586:1 2285:1 6333:1 
8.043618912281559 1747:1 
0.785770987124747 5126:1 
128 32:1 429:1 612:1 
1.000919750277317 5020:1 5947:1 5948:1 6508:1 6509:1 
0.07207997618842357 27:1 2029:1 4382:1 6511:1 
3.159211698325707 677:1 1642:1 2366:1 4395:1 4697:1 5072:1 5738:1 6519:1 6520:1 
0.3477123269954261 6126:1 6526:1 6527:1 
1.591967741489849 911:1 2311:1 3338:1 3423:1 3653:1 5218:1 6528:1 
32.50352270394495 10:1 1038:1 1139:1 2352:1 6529:1 
7.860132047064378 1038:1 1058:1 6532:1 6533:1 6534:1 6535:1 
3.621021393488171 394:1 4232:1 4652:1 4716:1 5776:1 6510:1 6540:1 6541:1 6542:1 6543:1 
0.935153892301078 6542:1 
0.2975476204476584 1053:1 5020:1 5252:1 5947:1 6547:1 6548:1 
5.102129085694385 6554:1 
13.88916589892423 6554:1 
2.440263358488928 837:1 1217:1 4463:1 5765:1 6558:1 6559:1 
8.750117840688873 5:1 3239:1 4555:1 4780:1 6160:1 6587:1 
1.446158122061445 6592:1 6593:1 
3.308063466343661 29:1 859:1 4280:1 4353:1 
2.302716351586067 27:1 73:1 1351:1 1819:1 2573:1 4002:1 5483:1 6594:1 6600:1 6601:1 6602:1 
3.727534221033827 88:1 1176:1 4577:1 4578:1 
1.100144352404776 73:1 276:1 372:1 2920:1 4667:1 5006:1 5899:1 6626:1 6627:1 
2.119074470049773 3587:1 5871:1 5899:1 6617:1 6623:1 
0.968573021322601 1069:1 3539:1 5899:1 6623:1 6632:1 
3.194070792434343 29:1 1072:1 1439:1 2565:1 4287:1 4316:1 4638:1 6657:1 
4.30224034480657 1231:1 1245:1 1776:1 6655:1 
0.912553863686948 288:1 870:1 1231:1 4188:1 6655:1 6668:1 
5.828047652119011 761:1 5045:1 
1.799405300006462 4462:1 
1.339445417574745 5154:1 
1.903115084393545 5153:1 
0.3247667834837742 165:1 219:1 1379:1 3428:1 4794:1 6713:1 
12.31629380068129 42:1 177:1 1363:1 
0.245066122306827 10:1 193:1 1005:1 2855:1 2959:1 4923:1 5583:1 6714:1 
1.133956343867648 5154:1 
3.00862486491321 434:1 1923:1 2314:1 3366:1 6717:1 
6.545125728095009 65:1 193:1 318:1 500:1 583:1 6727:1 
0.4504537418820652 651:1 2017:1 2880:1 4621:1 5899:1 
3.678698912211937 3726:1 4558:1 6764:1 
9.273445132182852 138:1 272:1 859:1 4271:1 6778:1 
15.88534957013016 268:1 864:1 2207:1 4821:1 
0.06152517885687232 93:1 124:1 138:1 272:1 2771:1 5034:1 
8.495055302556286 663:1 1142:1 3726:1 6810:1 
1.801813861078628 1819:1 2194:1 5062:1 6748:1 6811:1 6823:1 
14.05204420835743 4287:1 5011:1 6830:1 
0.8287263453033392 464:1 1562:1 1737:1 2615:1 3625:1 5011:1 5865:1 6139:1 6582:1 
1.681442705774538 827:1 1389:1 2088:1 4023:1 4255:1 4268:1 4482:1 4966:1 
0.8970694066904549 2081:1 4193:1 4353:1 
17.04219888564371 44:1 2081:1 4353:1 5011:1 5875:1 
0.603071461618489 211:1 2573:1 3243:1 4353:1 5848:1 6838:1 
1.076398009450062 1363:1 2338:1 2903:1 2973:1 4291:1 4555:1 6856:1 6857:1 
4.286637799694503 3954:1 5571:1 6862:1 
0.2824706837412297 2124:1 2348:1 5298:1 
10.98039217573615 88:1 4190:1 4555:1 5010:1 5011:1 
3.123917926095086 213:1 494:1 3243:1 4024:1 4353:1 4931:1 5010:1 6874:1 
9.821297106258408 88:1 4447:1 6880:1 
0.1704667294532491 277:1 1514:1 4671:1 6887:1 
40.48220086247823 4091:1 
1.690197691970569 426:1 950:1 2431:1 5048:1 5613:1 6898:1 6903:1 6904:1 6905:1 6906:1 6907:1 6908:1 6909:1 
1.078876756061659 6898:1 6915:1 6916:1 6917:1 6918:1 
128 213:1 1776:1 
0.3884931249281794 123:1 4700:1 5857:1 
6.294637731566517 68:1 949:1 1376:1 2610:1 5583:1 6589:1 6932:1 
0.4858552289862258 52:1 91:1 102:1 211:1 372:1 3095:1 3142:1 6934:1 
0.06224501803812198 14:1 651:1 6288:1 6951:1 6952:1 
2.000000000000001 6953:1 6954:1 
1.946019941808028 3766:1 4353:1 5388:1 6945:1 
2.346685783827473 88:1 4024:1 5010:1 5011:1 5175:1 
0.1998533317383127 734:1 821:1 2528:1 4975:1 5435:1 5806:1 5939:1 
75.1091860758599 5011:1 
1.604364093408647 272:1 580:1 1038:1 3720:1 5878:1 6960:1 6961:1 6962:1 
3.46289292476376 123:1 153:1 243:1 579:1 583:1 865:1 866:1 
10.22077367568406 4091:1 5167:1 
0.8354185991989467 2610:1 5175:1 6965:1 
45.89541613022356 68:1 949:1 6267:1 
1.849795516543314 128:1 219:1 746:1 1199:1 4269:1 4586:1 6978:1 6979:1 6980:1 
116.6062749666176 4091:1 
0.7678243926755643 265:1 696:1 2730:1 6512:1 6985:1 
1.157947002734707 2143:1 2546:1 2573:1 4029:1 5657:1 
0.03071705465639093 123:1 597:1 
18.28279400746145 679:1 751:1 752:1 
19.14157844724063 394:1 2082:1 7003:1 7041:1 
14.57903523725609 68:1 243:1 865:1 1005:1 1856:1 2352:1 4655:1 5175:1 
128 1085:1 
1.730594559581671 628:1 1211:1 2348:1 3952:1 5198:1 5379:1 
1.446384980660309 234:1 358:1 691:1 886:1 2198:1 2357:1 7052:1 7053:1 
1.189233396545619 1379:1 5122:1 5379:1 5537:1 5871:1 7054:1 
1.756226924086143 106:1 382:1 552:1 753:1 4534:1 
2.529852445931566 1000:1 2348:1 7079:1 
11.52486029403011 2123:1 2531:1 7085:1 
100.5197294852517 83:1 1072:1 2985:1 5071:1 
40.17808544044897 1557:1 4651:1 5071:1 7095:1 
19.7113942407793 1320:1 
1.064698631379561 39:1 281:1 2441:1 5330:1 7112:1 
0.4877629973908349 429:1 2528:1 2533:1 4173:1 4278:1 6265:1 7113:1 7114:1 
2.966698515072055 292:1 437:1 1737:1 3745:1 4093:1 7115:1 7116:1 7117:1 7118:1 
0.9859688810243328 292:1 753:1 3517:1 3711:1 5344:1 7130:1 7131:1 
0.3528754559880194 4746:1 6329:1 6691:1 7118:1 7132:1 7133:1 
56.86345087467368 29:1 1112:1 3763:1 7147:1 
50.36224651830911 1439:1 1806:1 4188:1 
7.114032843983421 1647:1 2531:1 3202:1 3825:1 3887:1 5025:1 6698:1 7152:1 7153:1 
3.306017526464579 201:1 453:1 1903:1 4124:1 4601:1 
3.160070978735215 292:1 589:1 753:1 3941:1 6488:1 6827:1 7163:1 7164:1 7165:1 7166:1 
1.950081389957192 292:1 649:1 684:1 753:1 908:1 4368:1 7168:1 7169:1 
1.281676910797137 1213:1 5011:1 5548:1 7189:1 7194:1 
20.65581015884458 386:1 3045:1 3308:1 4355:1 6555:1 
5.069038224544765 29:1 386:1 453:1 607:1 3542:1 4021:1 5882:1 
4.096118536260552 292:1 753:1 1405:1 4125:1 4687:1 5072:1 6329:1 6435:1 
32.15432999311839 3091:1 5582:1 
0.2085036764935433 2594:1 4331:1 4579:1 5657:1 7117:1 7118:1 7203:1 7204:1 
1.134308440634759 292:1 620:1 753:1 1734:1 2338:1 3100:1 7205:1 7206:1 7207:1 
5.091085808882508 88:1 508:1 578:1 597:1 4427:1 
1.279496552946713 2239:1 2593:1 3683:1 5045:1 7216:1 
0.3661926885343509 5234:1 7219:1 7220:1 7221:1 
1.966626265514788 334:1 596:1 638:1 4355:1 4484:1 7071:1 7081:1 7082:1 7231:1 
126.850808731587 3977:1 4867:1 7189:1 
10.00829781191826 88:1 437:1 563:1 1721:1 2367:1 3691:1 3738:1 4193:1 4394:1 
128 3625:1 6623:1 
12.33981782819334 2973:1 
0.3169204466842904 1873:1 7266:1 7267:1 7268:1 
0.8921035980104163 508:1 5011:1 7279:1 
2.917121719435994 1035:1 1233:1 2298:1 2400:1 5011:1 7281:1 7282:1 
4.587532575838932 93:1 129:1 226:1 817:1 851:1 1898:1 2570:1 4226:1 4755:1 7337:1 
0.452699055097928 7394:1 
5.740102191012297 5017:1 7446:1 
0.8670197705249928 199:1 371:1 372:1 463:1 1015:1 2063:1 7476:1 7477:1 7478:1 7479:1 7480:1 
11.64693726344047 26:1 124:1 125:1 1700:1 2129:1 2130:1 2135:1 2341:1 7484:1 
9.097453238160846 93:1 129:1 310:1 725:1 792:1 817:1 851:1 7491:1 
0.4136400699715936 2760:1 4127:1 4561:1 4654:1 7497:1 7498:1 7499:1 7500:1 7501:1 7502:1 7503:1 
0.8267496262406011 68:1 2117:1 2283:1 2839:1 7512:1 
0.6374083935349348 226:1 851:1 1053:1 1898:1 3805:1 7386:1 7517:1 7518:1 
3.581525186177879 386:1 987:1 7519:1 7520:1 7521:1 
1.340137961273449 204:1 248:1 1819:1 2617:1 2622:1 3977:1 5232:1 6191:1 7525:1 
0.8189117290965406 29:1 310:1 328:1 628:1 851:1 1112:1 1806:1 2379:1 5346:1 6579:1 7537:1 7538:1 7539:1 
7.515989271029418 423:1 3805:1 5021:1 7548:1 
0.1599413970256321 82:1 85:1 1049:1 3917:1 6797:1 7564:1 7565:1 7566:1 7567:1 7568:1 
2.965145914023007 2367:1 2760:1 3277:1 6004:1 7386:1 7500:1 7594:1 7595:1 7596:1 7597:1 
0.4945430017066821 10:1 226:1 603:1 680:1 851:1 1213:1 1245:1 3274:1 3395:1 7465:1 7606:1 
0.9769933495016159 328:1 3546:1 6232:1 7612:1 
1.848385768053133 10:1 372:1 583:1 2352:1 5935:1 7618:1 7619:1 
0.8464883094969671 201:1 372:1 2721:1 3474:1 5931:1 7613:1 
0.9010001330600912 372:1 896:1 1641:1 3235:1 7631:1 7632:1 7633:1 7634:1 
0.3884211568947134 29:1 422:1 594:1 1112:1 7577:1 7600:1 7642:1 7647:1 
5.640370749695008 75:1 357:1 851:1 2188:1 3273:1 7648:1 
0.5447755252984129 248:1 467:1 859:1 1379:1 4181:1 7653:1 
3.133954140463039 422:1 594:1 7577:1 7642:1 7647:1 
13.08606818059522 24:1 26:1 79:1 124:1 265:1 1537:1 1889:1 7484:1 
3.542520992400383 88:1 199:1 226:1 639:1 815:1 1024:1 3842:1 7687:1 7688:1 7689:1 
0.5105892937347929 73:1 204:1 428:1 671:1 1136:1 4182:1 7701:1 
58.25870029636876 7131:1 
1.981811284621636 128:1 371:1 7545:1 7786:1 7787:1 7788:1 
1.60000665429418 310:1 758:1 813:1 851:1 2749:1 2915:1 3074:1 3321:1 4473:1 7359:1 7366:1 
64.26551049652691 7795:1 
0.1105896462633602 29:1 851:1 5815:1 5998:1 7796:1 
0.6244490132023254 1340:1 7818:1 
0.07535844918680379 7394:1 
52.33817860944185 864:1 2811:1 
1.501476995967664 129:1 281:1 565:1 591:1 2287:1 3024:1 5824:1 7087:1 7851:1 
1.248556361365112 286:1 310:1 851:1 2367:1 2528:1 5099:1 5657:1 7626:1 7823:1 7869:1 7870:1 
1.243665777405996 201:1 310:1 694:1 851:1 1090:1 1184:1 2528:1 2956:1 6686:1 7626:1 7876:1 
0.225767783750299 14:1 64:1 65:1 150:1 2533:1 3314:1 3349:1 7615:1 7877:1 
0.4113480808746982 226:1 394:1 465:1 851:1 1149:1 1853:1 2610:1 2676:1 2855:1 7905:1 7906:1 
13.28913384636743 1298:1 2171:1 2491:1 
10.44760724385453 199:1 639:1 3235:1 3842:1 
3.273807235147199 332:1 639:1 3274:1 3956:1 7453:1 7925:1 
0.1766628244817329 276:1 1866:1 2675:1 7927:1 7928:1 7929:1 7930:1 
5.532604331596866 2966:1 3046:1 4867:1 5641:1 
7.582882267143072 248:1 403:1 832:1 4178:1 7100:1 
2.128209912458581 107:1 129:1 318:1 320:1 2287:1 4211:1 5387:1 7941:1 7942:1 7943:1 
0.0582241673694682 199:1 276:1 371:1 372:1 463:1 1905:1 2266:1 4082:1 7953:1 7954:1 7955:1 
8.606559603242312 72:1 129:1 182:1 753:1 974:1 2024:1 2899:1 3074:1 4188:1 7357:1 
25.25165733059826 10:1 2124:1 4132:1 4964:1 7524:1 7964:1 7965:1 
1.882825420258196 10:1 265:1 353:1 583:1 2012:1 2893:1 
3.3080546227701 248:1 412:1 1038:1 2287:1 7983:1 7984:1 
17.96359891846384 10:1 93:1 145:1 971:1 1252:1 1616:1 1629:1 7987:1 
18.53368769591829 129:1 198:1 199:1 2287:1 3167:1 7721:1 7991:1 
0.2519386568322995 174:1 198:1 199:1 372:1 1252:1 2287:1 4964:1 7993:1 
0.1699777753284862 297:1 549:1 551:1 930:1 8015:1 8016:1 
9.828306033411943 10:1 129:1 230:1 609:1 974:1 1616:1 4799:1 8022:1 
1.370652996634677 583:1 638:1 1782:1 2633:1 3250:1 3712:1 7298:1 8035:1 
0.3386299719203473 85:1 123:1 226:1 1567:1 3152:1 5131:1 7948:1 8042:1 8043:1 
1.076321533043495 226:1 310:1 851:1 1588:1 2715:1 4749:1 6010:1 7338:1 8069:1 8070:1 
1.747189583287191 9:1 372:1 551:1 1000:1 
0.5145074372659677 7394:1 8121:1 
0.1497426604830683 48:1 226:1 851:1 2287:1 6206:1 8126:1 8127:1 
0.4818472807428186 7394:1 
0.9456554572728886 895:1 1569:1 3235:1 3726:1 4057:1 5268:1 8129:1 8130:1 
0.001196922806300189 226:1 2531:1 3074:1 6671:1 7381:1 8140:1 8141:1 
1.446477064998088 92:1 2119:1 2574:1 4657:1 8170:1 8171:1 
0.8188817442103538 226:1 851:1 7160:1 7381:1 7465:1 7626:1 7802:1 8184:1 8185:1 8186:1 
1.011962450273176 605:1 2891:1 2892:1 3293:1 3598:1 4245:1 4555:1 8191:1 8192:1 
5.224090155815479 864:1 3552:1 4024:1 
0.9373552330093977 226:1 310:1 586:1 851:1 1245:1 2236:1 2367:1 8221:1 8222:1 8223:1 
0.5826375527824355 10:1 226:1 281:1 851:1 1599:1 1698:1 5295:1 7367:1 7368:1 8247:1 8248:1 
16.45321775867398 9:1 86:1 128:1 372:1 508:1 1299:1 
0.5306722065699934 1828:1 2335:1 6181:1 7545:1 7979:1 8259:1 8260:1 8261:1 8262:1 8263:1 
0.7039998869411715 199:1 371:1 372:1 463:1 1255:1 2116:1 4609:1 7301:1 
3.143849505469683 226:1 278:1 783:1 833:1 851:1 2024:1 3538:1 4833:1 8273:1 
35.07680353203128 851:1 969:1 970:1 3074:1 7396:1 
1.085892691210729 109:1 1609:1 1938:1 3266:1 5505:1 8309:1 8310:1 8311:1 8312:1 8313:1 
7.251031019118869 201:1 226:1 851:1 1910:1 2570:1 3074:1 3726:1 5295:1 7381:1 
4.312612180271837 88:1 226:1 310:1 490:1 824:1 851:1 1741:1 2522:1 6856:1 8320:1 8321:1 
1.232998948170238 335:1 801:1 1314:1 2081:1 2490:1 2568:1 8327:1 8328:1 8329:1 
0.0205778910477797 9:1 128:1 372:1 592:1 8034:1 
2.191874770374781 201:1 310:1 596:1 851:1 1655:1 2248:1 3660:1 5118:1 7396:1 7414:1 8342:1 
4.395408699701331 92:1 199:1 251:1 1035:1 3700:1 8351:1 
0.05970277005086477 579:1 2624:1 2719:1 7466:1 8105:1 8411:1 8412:1 
3.080988448769873 48:1 86:1 199:1 371:1 372:1 386:1 463:1 562:1 8071:1 8200:1 
0.6018089823509485 226:1 851:1 1698:1 3772:1 7752:1 8416:1 
1.610053033061873 128:1 288:1 372:1 851:1 2024:1 2541:1 3074:1 7367:1 
0.3680016160008118 1584:1 4434:1 8438:1 8439:1 8440:1 8441:1 8442:1 8443:1 
0.6633331959659569 79:1 124:1 1889:1 3285:1 8446:1 8447:1 8448:1 
2.000299114750702 3726:1 8472:1 
1.633842982284642 126:1 226:1 592:1 851:1 1058:1 3074:1 4331:1 5150:1 7263:1 7367:1 
0.003161636107512271 1352:1 8496:1 
0.3982092601285381 620:1 3338:1 4709:1 4947:1 8077:1 8503:1 8504:1 8505:1 
5.142402426680817 289:1 2052:1 2113:1 2585:1 
1.768778643760149 278:1 688:1 1323:1 2024:1 2720:1 3453:1 8517:1 
27.80209387252918 1301:1 2417:1 
9.230672533616749 1493:1 1537:1 2620:1 2621:1 
2.78025441433842 1648:1 
1.881879072394122 68:1 201:1 288:1 1049:1 1334:1 2845:1 3074:1 7402:1 7626:1 8146:1 8525:1 8526:1 
0.5755678841440866 68:1 92:1 136:1 201:1 1049:1 5931:1 8551:1 
0.6274744686714691 129:1 712:1 2676:1 3273:1 3650:1 4583:1 8556:1 8557:1 8558:1 
0.5192664330016548 88:1 226:1 310:1 579:1 726:1 851:1 1736:1 2719:1 3427:1 3495:1 
0.7868272427485395 126:1 199:1 371:1 372:1 463:1 3024:1 8563:1 8564:1 
0.198672590492725 226:1 583:1 851:1 1781:1 4898:1 5232:1 5434:1 6124:1 
0.1241213210491683 199:1 318:1 319:1 371:1 372:1 463:1 1255:1 1627:1 7301:1 
0.1582218914194556 226:1 394:1 597:1 851:1 1641:1 1737:1 2719:1 2731:1 5266:1 8578:1 
1.126852848858765 204:1 579:1 1819:1 2012:1 2590:1 5232:1 
0.006472356603445905 199:1 1322:1 1363:1 2431:1 2723:1 3842:1 3865:1 5150:1 8589:1 
0.2702278482890773 204:1 579:1 1819:1 2012:1 2590:1 5232:1 
2.231176963411751 310:1 527:1 528:1 3171:1 4704:1 7167:1 8602:1 8603:1 
1.969998220849256 453:1 1255:1 3077:1 3078:1 5783:1 7763:1 8025:1 8604:1 
0.03605546491798151 85:1 226:1 276:1 597:1 851:1 5366:1 8605:1 8606:1 8607:1 8608:1 
0.1892882972474727 3668:1 8624:1 
1.866461949657762 226:1 310:1 851:1 3726:1 4228:1 4577:1 8631:1 8632:1 
1.416183137956053 438:1 7605:1 7755:1 8638:1 
1.829662137726883 201:1 2237:1 2970:1 3994:1 5657:1 6201:1 8639:1 8640:1 8641:1 
1.390874800352883 286:1 1676:1 3429:1 3598:1 5921:1 8658:1 8659:1 8660:1 
1.007569141494792 211:1 2194:1 4292:1 8676:1 8677:1 8678:1 
3.67156348960402 397:1 434:1 690:1 4460:1 5006:1 8684:1 
1.459397823534029 70:1 342:1 508:1 3271:1 3369:1 8689:1 
0.9236008868850827 107:1 443:1 6142:1 8692:1 
3.444090869291297 226:1 438:1 2991:1 5003:1 7605:1 7732:1 8724:1 
1.053431169680711 3655:1 
2.546741002376353 226:1 386:1 628:1 851:1 1112:1 1336:1 1574:1 4323:1 4682:1 
1.036655829201413 240:1 753:1 1437:1 4308:1 7430:1 8742:1 
0.1672557366540565 690:1 779:1 2049:1 2669:1 2828:1 4107:1 8745:1 8746:1 8747:1 8748:1 
0.1897721636545673 7394:1 
1.593003306300441 86:1 508:1 1081:1 1841:1 
1.829043397283695 48:1 86:1 591:1 8077:1 8781:1 
0.9270366468495064 7:1 9:1 372:1 508:1 896:1 8783:1 
0.1655318411937082 60:1 1417:1 3249:1 4584:1 4749:1 8083:1 8794:1 8795:1 8796:1 
0.1992800763158761 6018:1 7720:1 8807:1 8815:1 8816:1 
0.06359394197169664 211:1 276:1 394:1 1769:1 3074:1 4040:1 5017:1 8077:1 8616:1 8827:1 8828:1 
0.5889240604410478 82:1 86:1 8834:1 8835:1 8836:1 
0.007082626956038931 92:1 297:1 355:1 932:1 1246:1 5831:1 6067:1 8837:1 8838:1 
0.4015269638143489 297:1 792:1 1049:1 1437:1 2287:1 2743:1 4173:1 
0.04811628400653491 251:1 563:1 5989:1 8858:1 8859:1 
0.5583173114169333 92:1 1301:1 2471:1 2532:1 3653:1 4664:1 8860:1 
0.6811458766333768 310:1 564:1 864:1 3035:1 3520:1 3977:1 4037:1 5408:1 6295:1 8864:1 8865:1 
0.6573329644993059 735:1 930:1 1334:1 2576:1 7456:1 
2.704583313518418 85:1 3488:1 3653:1 3668:1 7603:1 7737:1 8904:1 
5.288023746708608 735:1 930:1 1334:1 2576:1 7456:1 
0.2724800012708536 10:1 39:1 82:1 1090:1 2668:1 2956:1 3074:1 5058:1 7548:1 7954:1 8906:1 8907:1 
0.4091833600445415 92:1 452:1 1334:1 8915:1 8916:1 8917:1 8918:1 8919:1 8920:1 8921:1 
1.201147523049551 7394:1 
128 9:1 48:1 86:1 128:1 386:1 1299:1 
3.500639689964545 7394:1 
6.760415073475994 86:1 128:1 508:1 1081:1 4239:1 8924:1 
1.430690161170218 177:1 453:1 680:1 1736:1 3763:1 5895:1 7754:1 7869:1 8490:1 8925:1 
0.07132137499614906 9:1 77:1 169:1 1823:1 4529:1 4964:1 5623:1 8118:1 8939:1 8940:1 
1.035294574697234 52:1 92:1 372:1 1199:1 2117:1 2828:1 7432:1 
0.1774978931424467 381:1 515:1 2594:1 8950:1 8951:1 8952:1 8953:1 8954:1 8955:1 
0.1636113841455727 1011:1 4898:1 8956:1 8957:1 
1.166320207667198 205:1 3338:1 6324:1 8664:1 8973:1 
0.0458129175341797 6:1 73:1 226:1 851:1 4017:1 8974:1 8975:1 8976:1 
1.643377841704691 226:1 821:1 851:1 4661:1 8693:1 
0.04275621930887843 1131:1 1245:1 5548:1 8982:1 8983:1 
22.46800163015993 288:1 3815:1 7928:1 
0.3202693571982589 29:1 226:1 851:1 2962:1 5458:1 8988:1 8989:1 8990:1 8991:1 
0.5021149801866642 281:1 453:1 671:1 801:1 1842:1 3364:1 4773:1 8617:1 
0.4419941805995188 226:1 2928:1 
0.9448821349662399 310:1 515:1 580:1 851:1 3171:1 3728:1 8486:1 9021:1 
0.876526336359388 10:1 226:1 851:1 2611:1 2956:1 7067:1 8146:1 
1.927697031818851 7394:1 
0.9944555136926577 7394:1 
74.51750734936941 182:1 589:1 4188:1 
1.667121857003241 226:1 342:1 851:1 1245:1 2048:1 2858:1 7465:1 8934:1 9051:1 
7.657227815124292 310:1 394:1 586:1 851:1 1145:1 2022:1 3593:1 5967:1 
0.7648628944778796 971:1 1898:1 9059:1 9085:1 
0.2193149243194103 332:1 515:1 640:1 9087:1 9088:1 9089:1 
2.726782192392367 93:1 226:1 603:1 808:1 851:1 3735:1 9090:1 
0.6756706324464619 86:1 128:1 182:1 508:1 850:1 8077:1 8775:1 
0.9075084327313487 1954:1 2201:1 2298:1 2619:1 8871:1 9095:1 9096:1 
1.097396001780267 332:1 639:1 640:1 896:1 3240:1 4321:1 4755:1 9097:1 
0.008095330619917017 60:1 1233:1 1858:1 1928:1 2311:1 2720:1 3539:1 8937:1 9044:1 9102:1 
0.1829850100530021 199:1 371:1 372:1 463:1 1616:1 1798:1 6303:1 9113:1 
2.88857813754169 226:1 273:1 851:1 1352:1 2237:1 3438:1 4449:1 4969:1 
0.4723533291988483 134:1 1807:1 4091:1 5917:1 8910:1 9117:1 9118:1 9119:1 9120:1 
0.6779945617202006 134:1 1807:1 4091:1 5917:1 8910:1 9117:1 9118:1 9119:1 9120:1 
0.04785141852741415 251:1 453:1 639:1 1629:1 2533:1 9125:1 9126:1 9127:1 9128:1 
1.059422527982829 199:1 318:1 319:1 371:1 372:1 463:1 859:1 8029:1 9113:1 
1.426990075633132 440:1 1842:1 3293:1 3345:1 5195:1 6400:1 
0.305255452127489 28:1 52:1 199:1 371:1 372:1 463:1 2063:1 4708:1 8238:1 8382:1 9175:1 9176:1 9177:1 
1.484069440502428 372:1 875:1 1035:1 1036:1 2192:1 9195:1 9196:1 9197:1 
1.530091880866727 551:1 1000:1 1376:1 8867:1 
1.774116960718378 85:1 226:1 243:1 393:1 397:1 439:1 2086:1 3056:1 7428:1 7454:1 
0.534786978996197 226:1 628:1 851:1 1907:1 3735:1 9209:1 9210:1 
0.1583240781515709 211:1 508:1 851:1 2237:1 9210:1 9214:1 9215:1 
1.173669930621497 372:1 1641:1 4275:1 7377:1 9239:1 
2.996485942363558 199:1 318:1 319:1 371:1 372:1 463:1 1949:1 2254:1 7656:1 9211:1 9262:1 
4.765995459168384 29:1 30:1 129:1 226:1 851:1 9278:1 
0.917071737593053 294:1 428:1 3250:1 6499:1 7819:1 8266:1 9282:1 9283:1 9284:1 9285:1 
0.7792506257451647 7394:1 
5.31940522047965 28:1 128:1 591:1 609:1 1036:1 1053:1 2252:1 8893:1 9286:1 9287:1 
0.6878938641872547 7394:1 
0.792976114729864 288:1 392:1 397:1 467:1 2568:1 2899:1 4899:1 7357:1 9288:1 
1.054817309693469 99:1 128:1 226:1 342:1 386:1 851:1 3684:1 9294:1 9295:1 9296:1 
0.6598106147360674 332:1 437:1 723:1 3744:1 9308:1 9309:1 9310:1 
5.359560539582146 68:1 199:1 215:1 299:1 372:1 428:1 801:1 1298:1 1616:1 3842:1 9311:1 
3.039240148712677 20:1 219:1 305:1 1862:1 2073:1 4709:1 4891:1 7698:1 9312:1 
0.8247002491476332 7394:1 
0.02434969834375896 47:1 436:1 437:1 1488:1 1850:1 4042:1 7610:1 
1.033808603534597 240:1 515:1 639:1 971:1 4321:1 4748:1 7721:1 8484:1 
0.9938331044976129 412:1 8796:1 9330:1 9339:1 9340:1 9341:1 
0.1088390305507943 310:1 393:1 851:1 1352:1 2081:1 3430:1 3431:1 9342:1 9343:1 9344:1 
0.8087872854455107 93:1 107:1 318:1 1781:1 1846:1 2531:1 2607:1 7418:1 9369:1 9370:1 
1.62467606991063 29:1 226:1 628:1 851:1 1112:1 1734:1 3837:1 4834:1 9203:1 
0.2081760502947504 129:1 251:1 297:1 299:1 1311:1 1491:1 1809:1 2733:1 7890:1 9385:1 
1.079789652176652 85:1 92:1 129:1 591:1 616:1 1049:1 1641:1 6593:1 7454:1 7916:1 9394:1 9395:1 
3.476439110813495 310:1 318:1 455:1 527:1 2688:1 3171:1 5116:1 6558:1 9437:1 
0.4599302283339644 372:1 437:1 457:1 1969:1 1970:1 3308:1 9351:1 9464:1 
0.5451189977751414 864:1 1156:1 3670:1 5266:1 9465:1 
0.01334343925358539 851:1 1252:1 3274:1 4247:1 4890:1 5232:1 6333:1 9466:1 9467:1 9468:1 
0.5458819994215738 46:1 47:1 288:1 411:1 7610:1 9475:1 9476:1 
1.650298354421206 1405:1 1862:1 5198:1 5657:1 9354:1 9478:1 
0.9668385663056888 310:1 1107:1 1523:1 1816:1 3443:1 3971:1 8721:1 9482:1 
1.685381079625816 60:1 1112:1 1255:1 1816:1 1982:1 2920:1 9488:1 9489:1 
0.04342949444427797 163:1 7819:1 9492:1 9493:1 9494:1 9495:1 9496:1 9497:1 
0.008311180582280439 11:1 4825:1 9108:1 9509:1 9510:1 9511:1 9512:1 
1.484354578338627 27:1 128:1 199:1 371:1 372:1 463:1 470:1 3506:1 5728:1 
0.1811300506566155 10:1 310:1 3171:1 3728:1 4524:1 4595:1 9548:1 
32.32372798421721 73:1 82:1 86:1 128:1 428:1 508:1 1052:1 
0.1270310772398467 226:1 834:1 1209:1 1741:1 4517:1 5653:1 
0.7498002167636316 146:1 204:1 864:1 3410:1 4153:1 4385:1 9556:1 9557:1 9558:1 
0.2443364931400082 75:1 226:1 9556:1 9559:1 9561:1 
3.731983361893655 411:1 428:1 801:1 974:1 1036:1 1281:1 2668:1 7846:1 9500:1 
75.74967087988482 4103:1 
2.809663114634991 70:1 88:1 508:1 1616:1 1864:1 2679:1 3045:1 3758:1 7986:1 8024:1 
3.570360775033881 199:1 1340:1 1614:1 2679:1 3312:1 6862:1 7469:1 
56.19468738611776 184:1 199:1 371:1 372:1 463:1 
3.908831672413401 92:1 220:1 318:1 824:1 1795:1 1809:1 7808:1 
4.050724085287574 199:1 201:1 358:1 2966:1 3842:1 4589:1 7347:1 9627:1 
0.1158304763292223 51:1 951:1 2135:1 7966:1 9623:1 9634:1 9636:1 9637:1 9638:1 
1.18170562479302 46:1 47:1 101:1 145:1 189:1 4087:1 5991:1 9645:1 
0.8458699355730904 75:1 129:1 199:1 226:1 2773:1 3842:1 5482:1 9666:1 9667:1 
0.9411923966437494 136:1 199:1 661:1 2899:1 3358:1 3842:1 9629:1 
29.71943824436789 1246:1 
0.4544026301703084 419:1 1252:1 2352:1 8506:1 9684:1 
1.794182050786562 199:1 201:1 394:1 1157:1 2979:1 5571:1 8302:1 
3.822382731644927 9:1 43:1 128:1 253:1 342:1 372:1 508:1 510:1 3939:1 4688:1 7378:1 
0.9178229237566505 21:1 194:1 195:1 3135:1 3137:1 4377:1 9699:1 9700:1 9701:1 
0.2379876601666967 199:1 371:1 372:1 463:1 1938:1 3952:1 4188:1 7628:1 9717:1 
1.16773922531538 226:1 304:1 340:1 386:1 508:1 774:1 1913:1 5951:1 8250:1 9281:1 
125.7659761747926 7394:1 
0.8015924699607002 29:1 129:1 175:1 628:1 1112:1 1659:1 4017:1 5555:1 5959:1 6426:1 
1.135716799046243 85:1 276:1 342:1 386:1 1609:1 2570:1 8977:1 
0.6610028962147869 88:1 199:1 342:1 372:1 463:1 515:1 2065:1 9790:1 9791:1 9792:1 
0.8031918315253905 10:1 199:1 342:1 463:1 825:1 2162:1 3285:1 4211:1 9798:1 9799:1 9800:1 
0.3932062514418661 199:1 342:1 463:1 825:1 2890:1 3000:1 3285:1 7378:1 9798:1 9802:1 9803:1 9804:1 9805:1 
0.09033562005425681 86:1 129:1 2197:1 6277:1 9765:1 
0.2220937928514267 199:1 342:1 372:1 463:1 859:1 2065:1 5214:1 8032:1 9807:1 9813:1 9817:1 9818:1 
1.499585754701076 27:1 199:1 342:1 460:1 463:1 671:1 782:1 4188:1 
1.061713288534452 199:1 342:1 372:1 386:1 460:1 463:1 1678:1 2065:1 4333:1 4595:1 9792:1 9840:1 
2.605585136896355 603:1 4188:1 9837:1 
128 7:1 8:1 
128 28:1 29:1 
128 7:1 44:1 45:1 46:1 47:1 
128 75:1 76:1 77:1 78:1 
128 88:1 89:1 90:1 91:1 92:1 93:1 
96.51038002812427 7:1 100:1 131:1 132:1 133:1 134:1 
128 135:1 136:1 137:1 138:1 139:1 140:1 
128 143:1 
25.55639483075099 144:1 145:1 146:1 147:1 148:1 149:1 
128 150:1 151:1 152:1 153:1 
46.93753388299133 166:1 
111.9834285400275 184:1 185:1 186:1 187:1 188:1 189:1 
104.6575716608863 190:1 191:1 192:1 193:1 194:1 195:1 196:1 
128 88:1 89:1 90:1 91:1 92:1 93:1 
30.85068211240478 125:1 209:1 226:1 227:1 228:1 229:1 
12.57492553121232 231:1 232:1 233:1 234:1 235:1 236:1 
80.86382466501918 294:1 295:1 296:1 297:1 298:1 299:1 300:1 301:1 302:1 303:1 
95.10560398775704 309:1 310:1 311:1 312:1 313:1 314:1 315:1 
20.80315791683058 42:1 43:1 158:1 197:1 316:1 317:1 318:1 
22.33269704072092 326:1 327:1 
41.67020279782496 45:1 298:1 333:1 334:1 335:1 336:1 337:1 338:1 
91.73516253951429 352:1 353:1 354:1 355:1 356:1 357:1 358:1 359:1 
14.69015206071504 381:1 382:1 383:1 384:1 385:1 386:1 387:1 388:1 389:1 
44.88503974708426 379:1 402:1 403:1 404:1 405:1 
84.63775590066379 189:1 406:1 407:1 408:1 409:1 410:1 411:1 412:1 413:1 414:1 
128 442:1 443:1 444:1 445:1 
25.46588397096073 455:1 456:1 457:1 
128 456:1 458:1 459:1 460:1 461:1 
82.80898743990353 464:1 465:1 466:1 467:1 468:1 469:1 
122.7439358941454 11:1 12:1 107:1 470:1 471:1 472:1 473:1 
46.21024531457898 100:1 240:1 368:1 485:1 486:1 487:1 488:1 489:1 490:1 491:1 
32.9690826687774 101:1 502:1 503:1 504:1 
15.67418910630411 158:1 260:1 515:1 516:1 517:1 518:1 
44.04422132152803 527:1 528:1 529:1 530:1 
74.1527666463399 119:1 451:1 531:1 532:1 533:1 534:1 535:1 536:1 537:1 
122.0978460096741 268:1 567:1 568:1 569:1 570:1 571:1 572:1 573:1 
21.66083833516437 388:1 427:1 596:1 597:1 
26.55107330053093 94:1 598:1 599:1 600:1 601:1 602:1 603:1 604:1 
57.48333780830183 612:1 613:1 614:1 615:1 616:1 617:1 
82.90671597222794 625:1 626:1 627:1 628:1 
5.737550837911559 14:1 316:1 393:1 397:1 398:1 562:1 629:1 630:1 
128 633:1 634:1 635:1 636:1 637:1 638:1 639:1 
38.61248259126548 14:1 316:1 393:1 397:1 398:1 562:1 629:1 630:1 
71.74334308803046 7:1 107:1 189:1 640:1 
112.2598206018346 237:1 651:1 652:1 653:1 654:1 655:1 
128 345:1 552:1 656:1 657:1 658:1 659:1 660:1 
1.931233141244696 39:1 666:1 667:1 
48.69319264875939 668:1 669:1 
46.62396516266767 540:1 726:1 
12.47471290474867 19:1 339:1 737:1 
128 119:1 
128 769:1 770:1 
81.15087198370303 7:1 721:1 777:1 
5.990848822065676 788:1 789:1 790:1 791:1 792:1 793:1 
5.863051156515554 799:1 800:1 801:1 802:1 
52.01082318551215 89:1 106:1 803:1 804:1 805:1 806:1 
1.230898476349461 106:1 574:1 819:1 820:1 821:1 822:1 
2.639901796880515 140:1 291:1 825:1 826:1 
122.3782973291253 747:1 850:1 851:1 852:1 853:1 
0.6619686553877662 24:1 119:1 783:1 869:1 
97.10482326820842 249:1 787:1 882:1 
128 883:1 884:1 885:1 886:1 
53.13772910940551 436:1 592:1 893:1 894:1 895:1 896:1 
24.81712960283581 269:1 713:1 917:1 918:1 919:1 
97.41939895614189 150:1 152:1 926:1 927:1 928:1 929:1 930:1 931:1 
44.00998716557826 328:1 949:1 950:1 951:1 952:1 953:1 954:1 955:1 956:1 957:1 
23.70527977569331 193:1 967:1 968:1 969:1 970:1 971:1 972:1 973:1 974:1 
24.07827442564657 247:1 999:1 1000:1 
62.01573894252397 19:1 35:1 1001:1 1002:1 
17.59426176938271 328:1 949:1 950:1 951:1 952:1 953:1 954:1 955:1 956:1 957:1 
12.84748258211135 351:1 1017:1 1018:1 1019:1 
32.35242766661244 35:1 89:1 151:1 180:1 181:1 303:1 1024:1 1025:1 
11.08460321993043 7:1 597:1 1039:1 
128 7:1 737:1 1041:1 1042:1 
62.64519089552379 114:1 1059:1 1060:1 
0.1581665783449031 1033:1 1034:1 1061:1 1062:1 
6.410244142895983 316:1 398:1 867:1 1078:1 1079:1 1080:1 
46.05617268545992 540:1 558:1 945:1 950:1 1093:1 1094:1 1095:1 1096:1 
128 79:1 316:1 398:1 522:1 703:1 867:1 1080:1 1097:1 
127.7104999004227 952:1 1108:1 
125.9457115851841 1119:1 1120:1 1121:1 1122:1 
62.81633497321383 172:1 1123:1 1124:1 1125:1 
20.70495644761774 641:1 1106:1 1126:1 1127:1 1128:1 1129:1 1130:1 1131:1 1132:1 1133:1 
3.913198970969943 106:1 574:1 819:1 820:1 821:1 822:1 
78.06437451880988 1104:1 1106:1 1107:1 1136:1 1149:1 
43.68358712444111 481:1 821:1 887:1 1164:1 1165:1 
91.64416141482202 540:1 1177:1 1178:1 1179:1 
8.952913923370213 1214:1 1215:1 1216:1 1217:1 1218:1 
25.31394970752591 94:1 1219:1 1220:1 1221:1 1222:1 1223:1 
28.77449903466212 1108:1 1120:1 1226:1 1227:1 1228:1 
1.399406049943041 571:1 1136:1 1229:1 1230:1 1231:1 1232:1 1233:1 
36.90712690273087 779:1 1291:1 
11.19865816668758 3:1 5:1 686:1 1311:1 1312:1 1313:1 
21.7044908058447 43:1 339:1 1328:1 1329:1 
110.3205151753175 1300:1 
20.80408844594263 65:1 180:1 558:1 1347:1 1348:1 1349:1 1350:1 1351:1 
99.26145959447418 380:1 787:1 851:1 1379:1 1380:1 1381:1 1382:1 
103.2086000727036 69:1 889:1 1155:1 1383:1 1384:1 
125.8817180949164 563:1 1385:1 
21.06756941920325 1386:1 
1.405148646838369 373:1 879:1 1400:1 1401:1 1402:1 1403:1 1404:1 
35.16225987013334 707:1 1405:1 
59.52653541701721 119:1 154:1 207:1 881:1 1302:1 1358:1 1419:1 
28.93653011702362 71:1 1434:1 
77.16892123715336 173:1 409:1 548:1 1452:1 1453:1 
18.05212462967028 114:1 291:1 470:1 960:1 1138:1 1454:1 1455:1 
3.791222323785369 22:1 129:1 908:1 1457:1 1458:1 1459:1 1460:1 
39.97138534410491 86:1 388:1 1443:1 1461:1 1462:1 
93.07012381589657 1463:1 1464:1 1465:1 
59.64825459843559 542:1 1466:1 1467:1 1468:1 1469:1 1470:1 
20.25693651368171 347:1 387:1 1466:1 1475:1 1476:1 1477:1 1478:1 
108.0960130220121 7:1 42:1 1479:1 1480:1 
10.8607813673647 351:1 603:1 1357:1 1358:1 1490:1 1491:1 
89.53742166839479 1495:1 1496:1 
39.52041672236273 159:1 351:1 1501:1 1502:1 1503:1 1504:1 1505:1 1506:1 
11.50378766826246 355:1 913:1 1308:1 1523:1 1546:1 1547:1 
45.21812394771619 154:1 553:1 1548:1 1549:1 1550:1 1551:1 
5.687321666864518 564:1 612:1 673:1 1555:1 
28.119574434352 45:1 395:1 1556:1 1557:1 1558:1 1559:1 
54.19449443539462 322:1 323:1 1574:1 
39.07680041510905 159:1 351:1 1501:1 1502:1 1503:1 1504:1 1505:1 1506:1 
4.676942547807831 41:1 147:1 249:1 347:1 383:1 1617:1 1618:1 1619:1 
0.1562029026032015 515:1 1073:1 1636:1 
94.16283760871286 755:1 1411:1 1638:1 1639:1 1640:1 1641:1 1642:1 1643:1 1644:1 
73.34939462541914 377:1 1646:1 1647:1 1648:1 
8.052332610529971 597:1 1072:1 1338:1 1651:1 1652:1 1653:1 1654:1 1655:1 
1.281858311755321 46:1 762:1 1649:1 1663:1 1664:1 
71.47975663841491 180:1 181:1 1029:1 1072:1 1420:1 1600:1 
11.27761799587982 221:1 403:1 1678:1 
52.22622963198535 81:1 1679:1 1680:1 1681:1 1682:1 1683:1 1684:1 
98.02827494504396 268:1 1040:1 1339:1 1686:1 1687:1 
82.13521027293223 1688:1 1689:1 
7.849893795044206 241:1 1106:1 1720:1 1722:1 
0.9135088976573232 146:1 262:1 383:1 1728:1 1735:1 1736:1 1737:1 1738:1 
0.784770224102998 210:1 365:1 745:1 877:1 1276:1 1740:1 1741:1 1742:1 
60.72497951428188 168:1 292:1 575:1 1443:1 1745:1 1746:1 
6.732321313328349 426:1 1775:1 1776:1 1777:1 1778:1 
4.003651351536807 189:1 433:1 1263:1 1793:1 1794:1 1795:1 
11.84681164827375 100:1 101:1 240:1 487:1 488:1 489:1 1201:1 
2.845672832258261 174:1 408:1 630:1 1546:1 1807:1 1808:1 1809:1 1810:1 
10.54220092255529 269:1 600:1 1076:1 1140:1 1585:1 1811:1 
2.22028647983146 173:1 318:1 541:1 1092:1 1495:1 1823:1 1824:1 1825:1 
1.448273365576079 291:1 292:1 1339:1 1826:1 1827:1 1828:1 
7.86550075492209 1832:1 1833:1 1834:1 
12.88624434916801 7:1 1136:1 1850:1 1851:1 1852:1 1853:1 1854:1 1855:1 
30.71830865902832 1857:1 1858:1 1859:1 
4.161836189717767 283:1 608:1 1466:1 1470:1 1873:1 1874:1 1875:1 
8.894514946617493 158:1 332:1 621:1 1372:1 1888:1 
95.02645712198698 292:1 1846:1 1890:1 1891:1 
14.6238113008929 316:1 318:1 329:1 1894:1 1895:1 1896:1 
1.687434777591342 1900:1 1901:1 
19.41692953743682 1816:1 1912:1 
7.733296885818222 119:1 173:1 316:1 1913:1 1914:1 1915:1 
7.335714206286105 166:1 
21.45816865961573 79:1 542:1 884:1 1948:1 
23.99153257593002 338:1 1324:1 1951:1 1952:1 1953:1 1954:1 
0.5702189791340956 424:1 644:1 752:1 1109:1 1845:1 1846:1 1847:1 
31.52163266837978 249:1 837:1 1947:1 1990:1 1991:1 
56.98101960527154 1992:1 
6.674058688644761 1782:1 2000:1 2001:1 2002:1 2003:1 2004:1 
0.438545016629629 1020:1 2011:1 2012:1 2013:1 
33.74946327727819 124:1 716:1 963:1 1297:1 1540:1 1782:1 2023:1 
112.3325624938875 690:1 983:1 2036:1 2037:1 2038:1 2039:1 
128 19:1 35:1 43:1 1004:1 2040:1 2041:1 2042:1 
6.071993936112554 42:1 48:1 339:1 450:1 2056:1 2057:1 2058:1 
22.72900849225473 34:1 2059:1 
20.51623042319334 369:1 746:1 1523:1 1682:1 2060:1 
1.172285832068328 180:1 181:1 204:1 804:1 2066:1 2067:1 2068:1 2069:1 
4.875235724384145 1155:1 1187:1 2088:1 2089:1 2090:1 2091:1 2092:1 2093:1 
0.5411584413242402 146:1 933:1 2099:1 2100:1 2101:1 
51.82313037945275 68:1 159:1 1258:1 2106:1 
9.209165364872662 40:1 339:1 2121:1 2122:1 
15.65044214374139 2133:1 
3.836010371887941 122:1 405:1 616:1 855:1 2150:1 
1.417715954915045 68:1 1207:1 1458:1 1745:1 2152:1 2153:1 2154:1 
18.51417231145076 369:1 746:1 1523:1 1682:1 2060:1 
24.86733739815964 19:1 596:1 2165:1 2166:1 2167:1 
11.64818613212167 370:1 371:1 1782:1 2168:1 
21.55054760093219 1928:1 
4.984087932100706 331:1 1076:1 1899:1 2194:1 2195:1 
1.375322287786618 548:1 2199:1 2200:1 2201:1 2202:1 2203:1 
29.38400527073645 283:1 347:1 779:1 2214:1 2215:1 2216:1 2217:1 
9.721230740601094 253:1 2228:1 2229:1 2230:1 
12.36332779311336 268:1 1064:1 2231:1 2232:1 2233:1 2234:1 
8.195286748939495 1486:1 2236:1 2237:1 2238:1 2239:1 2240:1 2241:1 
5.268637627498039 114:1 146:1 369:1 393:1 623:1 803:1 1536:1 2186:1 
116.606628245402 652:1 2254:1 2255:1 
34.94864733671492 820:1 1168:1 2269:1 
36.65189787605679 169:1 762:1 2280:1 2281:1 
6.598252908225371 692:1 1737:1 2302:1 2303:1 2304:1 
10.17776900235216 100:1 101:1 240:1 487:1 488:1 489:1 1201:1 
0.5736309800844166 495:1 2009:1 2324:1 2325:1 
82.28982158481608 1040:1 2327:1 
44.40808280368312 254:1 255:1 409:1 2250:1 2335:1 2336:1 2337:1 2338:1 2339:1 
20.50735917722637 108:1 875:1 1478:1 2362:1 2363:1 2364:1 2365:1 
14.10552096865295 638:1 1207:1 2388:1 2389:1 
128 368:1 2395:1 2396:1 
16.22056388457827 518:1 2206:1 2406:1 2407:1 2408:1 
8.106525600846519 70:1 433:1 1557:1 1902:1 2410:1 2411:1 2412:1 
27.6739537174608 100:1 213:1 954:1 1305:1 
13.2268199807167 231:1 233:1 283:1 1156:1 2424:1 
17.37116048981311 81:1 1146:1 2426:1 2427:1 2428:1 2429:1 2430:1 2431:1 
22.49436480864713 584:1 895:1 896:1 2432:1 
128 2445:1 
7.775812737019319 612:1 908:1 2451:1 2452:1 
14.62121387420122 7:1 2238:1 2456:1 
0.5594788451331723 1362:1 2085:1 2303:1 2502:1 
68.3137797224107 654:1 774:1 2520:1 2521:1 2522:1 2523:1 
81.19928459768526 426:1 427:1 1538:1 
99.70295684535482 7:1 100:1 133:1 240:1 488:1 
2.711583885864984 282:1 1072:1 1797:1 2556:1 2557:1 2558:1 
128 79:1 488:1 
44.67152102436177 604:1 713:1 918:1 1354:1 1362:1 2562:1 2563:1 2564:1 
0.9719199602535469 34:1 44:1 2565:1 2566:1 
34.47554098283675 7:1 2264:1 2574:1 
52.23233835666559 34:1 2575:1 2576:1 
128 268:1 365:1 
1.503902374132197 268:1 331:1 1205:1 1466:1 2455:1 2582:1 2583:1 2584:1 2585:1 2586:1 2587:1 
18.80537591089039 113:1 367:1 765:1 1737:1 2595:1 
128 414:1 
22.72552707893777 81:1 292:1 345:1 1438:1 2165:1 2623:1 2624:1 2625:1 
50.11307609071817 19:1 2637:1 
2.063526720347182 2539:1 2635:1 2653:1 2654:1 2655:1 2656:1 
3.220940945369986 369:1 705:1 1188:1 
14.75509516328198 172:1 213:1 509:1 2666:1 2667:1 
7.607302739051026 164:1 716:1 2612:1 2676:1 2677:1 2678:1 2679:1 2680:1 2681:1 
21.65908782979932 7:1 1288:1 2705:1 
1.258175589619888 174:1 249:1 2183:1 2584:1 2620:1 2709:1 2710:1 2711:1 
15.78865504509339 263:1 308:1 2714:1 
7.32189865997807 158:1 362:1 445:1 1005:1 2043:1 2044:1 2606:1 2718:1 
23.18834017021856 2720:1 2721:1 2722:1 2723:1 
7.683072266407414 174:1 1494:1 1546:1 1898:1 2308:1 2725:1 
0.9951012885305606 433:1 2747:1 2748:1 2749:1 2750:1 2751:1 
0.2121748108461401 2757:1 2758:1 
126.0052401202191 919:1 
11.01126413752276 260:1 285:1 2775:1 2776:1 
29.27858132319141 112:1 580:1 987:1 1036:1 2778:1 
92.22587110355838 7:1 2800:1 2801:1 2802:1 
22.22667823745059 78:1 2475:1 2705:1 2806:1 2807:1 
27.94295338933476 1859:1 2813:1 
23.19075773756701 338:1 2822:1 
20.94650843381597 742:1 1898:1 2823:1 2824:1 
14.27220148149218 1005:1 1040:1 2593:1 2812:1 2825:1 
0.2877499929614201 101:1 133:1 365:1 457:1 1370:1 2689:1 2834:1 
5.108294244982124 436:1 974:1 1533:1 
3.623169044191905 2173:1 2841:1 2842:1 
51.73583175058436 7:1 249:1 564:1 2845:1 
128 329:1 330:1 
56.88019608116812 42:1 1994:1 2854:1 2855:1 
6.309702402568652 9:1 42:1 140:1 675:1 933:1 2867:1 2868:1 2869:1 2870:1 
0.1001787701554062 908:1 2873:1 2874:1 2875:1 
6.151150219625189 747:1 1188:1 2009:1 2893:1 2894:1 2895:1 
121.8047828477646 7:1 2920:1 
5.354268610547662 104:1 121:1 412:1 437:1 539:1 2937:1 2938:1 2939:1 2940:1 
