svm_type c_svc
kernel_type linear
nr_class 2
total_sv 7523
rho -1.88928
label -1 2
nr_sv 4426 3097
SV
2.271431097510446 25:1 464:1 605:1 909:1 1602:1 3951:1 
8 5:1 6:1 7:1 8:1 
8 28:1 29:1 30:1 
8 39:1 40:1 41:1 42:1 43:1 44:1 
8 45:1 46:1 
8 58:1 59:1 
0.8714656361386887 38:1 66:1 
8 48:1 70:1 71:1 72:1 77:1 78:1 79:1 
8 10:1 11:1 85:1 86:1 87:1 
8 88:1 89:1 
8 44:1 90:1 91:1 
7.023493193622333 113:1 
8 114:1 
6.196038940460685 115:1 
8 114:1 
8 70:1 103:1 107:1 117:1 118:1 
8 103:1 119:1 120:1 
8 46:1 89:1 128:1 129:1 130:1 
4.45910193557334 139:1 
8 140:1 
8 143:1 
8 77:1 
0.5333930446256799 27:1 155:1 156:1 157:1 158:1 
8 70:1 104:1 159:1 
2.706846329268688 89:1 
8 89:1 
8 184:1 185:1 
7.840989882588427 89:1 
8 71:1 191:1 192:1 193:1 194:1 195:1 
8 77:1 208:1 
8 70:1 153:1 
8 70:1 207:1 
3.161968464870127 218:1 219:1 220:1 221:1 222:1 223:1 
8 184:1 
1.298895638841882 64:1 77:1 259:1 260:1 261:1 262:1 263:1 
1.494695552434719 202:1 229:1 270:1 271:1 
6.426554633485648 84:1 102:1 296:1 297:1 298:1 
8 38:1 113:1 310:1 314:1 315:1 
8 6:1 46:1 229:1 322:1 323:1 
1.277132311980649 153:1 207:1 218:1 317:1 318:1 327:1 
8 329:1 330:1 331:1 332:1 333:1 334:1 
6.205172315076426 377:1 381:1 
0.2285307082929537 318:1 382:1 
7.481404205666739 387:1 388:1 389:1 
1.485043855465493 19:1 309:1 391:1 
3.520847221707742 10:1 11:1 12:1 280:1 336:1 412:1 413:1 414:1 415:1 416:1 417:1 418:1 419:1 
6.37416213207258 423:1 424:1 425:1 426:1 
1.469654410580498 276:1 427:1 
4.493629017017884 248:1 386:1 429:1 
8 68:1 444:1 445:1 446:1 
8 454:1 
6.0349356263906 276:1 476:1 
0.7236836348480256 481:1 482:1 483:1 
0.9877985612272697 484:1 485:1 486:1 487:1 488:1 
8 107:1 112:1 
8 103:1 153:1 338:1 339:1 512:1 513:1 514:1 515:1 516:1 
8 528:1 
8 16:1 531:1 532:1 
5.402389347216259 181:1 533:1 
1.887994580985597 234:1 322:1 443:1 
0.3340296083548541 553:1 
5.80628579022046 172:1 558:1 
5.273735016834546 553:1 
8 563:1 
8 17:1 
8 596:1 
8 264:1 605:1 606:1 607:1 608:1 
8 184:1 229:1 613:1 
7.679839650371965 422:1 614:1 
8 627:1 628:1 
8 202:1 350:1 505:1 629:1 
6.500482228703182 125:1 179:1 273:1 348:1 630:1 
8 311:1 531:1 558:1 631:1 632:1 
1.650870077098053 234:1 637:1 
8 103:1 512:1 648:1 649:1 
8 153:1 513:1 519:1 520:1 650:1 651:1 652:1 653:1 
8 153:1 347:1 651:1 652:1 654:1 
6.483241143631363 179:1 
6.405536913945127 5:1 84:1 661:1 662:1 663:1 664:1 
8 667:1 
8 18:1 19:1 22:1 23:1 558:1 
0.04039902127484233 669:1 670:1 
2.39232402902582 676:1 677:1 
8 44:1 259:1 
8 46:1 
8 35:1 107:1 706:1 
3.937620423591705 84:1 713:1 714:1 715:1 
8 45:1 46:1 717:1 
3.221885740725138 64:1 103:1 176:1 515:1 516:1 709:1 719:1 720:1 
8 302:1 
8 27:1 723:1 
8 741:1 
8 308:1 492:1 746:1 
0.9220226278967489 458:1 589:1 708:1 
0.6235215966315836 750:1 751:1 
2.875012592348642 670:1 759:1 760:1 
5.710082368028058 311:1 655:1 708:1 767:1 768:1 769:1 770:1 771:1 
8 779:1 780:1 
8 790:1 
0.9746069895634846 71:1 755:1 756:1 791:1 
8 47:1 93:1 792:1 793:1 
5.386915184732804 795:1 796:1 797:1 798:1 799:1 
8 801:1 
8 14:1 22:1 23:1 24:1 277:1 
8 657:1 802:1 803:1 804:1 
8 801:1 
8 14:1 22:1 23:1 24:1 277:1 
1.211351090527522 69:1 76:1 253:1 390:1 758:1 811:1 812:1 
0.9585524868582909 35:1 137:1 161:1 181:1 452:1 815:1 
6.147983420472245 36:1 791:1 818:1 
7.736868343187652 38:1 258:1 373:1 479:1 819:1 
8 104:1 135:1 829:1 
8 122:1 648:1 649:1 
8 47:1 832:1 833:1 
8 103:1 107:1 122:1 648:1 649:1 
8 593:1 655:1 794:1 840:1 
0.9654579755041623 14:1 57:1 170:1 
8 133:1 267:1 
8 84:1 170:1 509:1 736:1 887:1 888:1 
8 876:1 904:1 
7.889281090680444 344:1 916:1 917:1 918:1 
4.987199536579649 487:1 919:1 920:1 
8 22:1 557:1 689:1 
8 926:1 927:1 928:1 
2.742530161035032 27:1 161:1 531:1 935:1 936:1 
8 137:1 352:1 941:1 
8 944:1 
7.710313131643461 945:1 946:1 947:1 
1.06045807452251 939:1 951:1 952:1 953:1 954:1 
8 955:1 
8 169:1 233:1 
6.664464682959644 537:1 
0.2300193503957561 27:1 53:1 107:1 108:1 330:1 511:1 561:1 797:1 
7.965663691181453 537:1 
8 68:1 107:1 395:1 
8 955:1 956:1 967:1 968:1 969:1 
0.7488061612677461 107:1 561:1 970:1 
8 59:1 71:1 
8 48:1 321:1 971:1 
1.951051631146256 992:1 
8 191:1 590:1 1004:1 1005:1 
0.4068802209103877 848:1 
5.890332672189351 614:1 694:1 764:1 1040:1 1041:1 
8 689:1 
1.263340725857518 44:1 103:1 453:1 1046:1 1047:1 1048:1 
8 276:1 
3.001637662981694 264:1 480:1 727:1 1056:1 1061:1 
6.453724308964503 170:1 435:1 590:1 736:1 1057:1 1062:1 1063:1 
6.314051384610306 175:1 223:1 338:1 437:1 604:1 999:1 1064:1 1065:1 
6.932205649482047 228:1 640:1 793:1 
8 167:1 288:1 898:1 
0.9938658972522145 162:1 183:1 471:1 620:1 621:1 640:1 793:1 1076:1 1077:1 
0.8509671110914605 948:1 
8 1088:1 
8 1093:1 1094:1 
5.878029537296663 18:1 144:1 761:1 1050:1 1101:1 
8 787:1 
6.158987478029371 1111:1 
2.912601908755736 18:1 68:1 496:1 537:1 1050:1 1113:1 
6.013436128164237 578:1 580:1 1115:1 1116:1 
8 925:1 1120:1 
8 538:1 1123:1 
8 147:1 233:1 
7.684599664250315 558:1 1125:1 
2.032286211962425 17:1 38:1 46:1 236:1 402:1 1129:1 1132:1 1133:1 
1.089910301631172 11:1 12:1 107:1 236:1 347:1 1134:1 1135:1 1136:1 1137:1 1138:1 1139:1 
1.512417629515921 817:1 
8 1146:1 
8 229:1 590:1 998:1 
8 363:1 1148:1 
8 57:1 
4.604772486217823 224:1 264:1 587:1 608:1 826:1 1003:1 1160:1 
8 64:1 1162:1 1163:1 1164:1 
4.601067190023618 11:1 45:1 194:1 197:1 320:1 558:1 1170:1 
0.8986664126150971 10:1 11:1 228:1 229:1 
8 34:1 276:1 558:1 882:1 
6.300517998926286 422:1 614:1 
5.200544710282119 47:1 70:1 1179:1 1180:1 
8 18:1 22:1 23:1 558:1 
1.205689419476217 273:1 336:1 900:1 1191:1 1192:1 
1.490414975219769 416:1 512:1 1055:1 1195:1 
8 1200:1 
8 1201:1 1202:1 
8 10:1 11:1 475:1 
8 1236:1 1237:1 
8 222:1 223:1 229:1 1246:1 1247:1 
3.987817248898645 600:1 755:1 756:1 1251:1 1252:1 
7.908099775373054 11:1 175:1 228:1 229:1 1253:1 
8 779:1 1254:1 1255:1 
8 243:1 252:1 253:1 736:1 1257:1 
3.803955459988621 1262:1 
8 113:1 
2.053253597595634 649:1 1267:1 
8 22:1 23:1 535:1 1119:1 1183:1 
3.140162829583496 45:1 46:1 165:1 385:1 680:1 1290:1 
7.688989470382242 68:1 957:1 1303:1 
8 50:1 184:1 
2.422359903671527 313:1 1241:1 
8 45:1 67:1 668:1 1290:1 1310:1 1311:1 1312:1 1313:1 1314:1 
5.715504777365096 420:1 1290:1 1311:1 1315:1 1316:1 1317:1 1318:1 1319:1 
3.3458286970377 64:1 146:1 185:1 935:1 
8 633:1 1344:1 1345:1 1346:1 1347:1 1348:1 
8 107:1 561:1 
0.01122066445810307 170:1 573:1 1357:1 1358:1 1359:1 
1.585315073026874 170:1 744:1 1358:1 1359:1 
8 1368:1 
0.9885709439256747 147:1 302:1 727:1 731:1 1247:1 1372:1 1374:1 1375:1 1376:1 
7.172541396331155 573:1 997:1 1366:1 1380:1 1381:1 1382:1 1383:1 1384:1 
3.671089066269565 34:1 706:1 716:1 1391:1 1392:1 
5.850802061911522 71:1 79:1 107:1 317:1 544:1 
4.301247079491283 1174:1 1397:1 1398:1 
7.905204333892274 234:1 1236:1 1331:1 1405:1 
8 321:1 1290:1 
7.844463134807631 205:1 396:1 900:1 1415:1 
1.685817218298298 176:1 346:1 446:1 1416:1 1417:1 
0.7623840790521517 378:1 1418:1 1419:1 
5.057722283104295 71:1 72:1 184:1 1422:1 
1.403936933010152 131:1 813:1 
7.915679347104812 378:1 1418:1 1419:1 
8 234:1 1430:1 1431:1 1432:1 1433:1 
8 10:1 11:1 12:1 
8 28:1 34:1 36:1 178:1 374:1 511:1 819:1 1298:1 1436:1 
5.705250886216976 966:1 1440:1 
8 394:1 1433:1 
8 107:1 196:1 197:1 509:1 590:1 622:1 1421:1 1446:1 
7.102125812311691 217:1 1453:1 1454:1 1455:1 
5.484885328437451 812:1 1459:1 1460:1 
8 217:1 228:1 340:1 431:1 
1.085931051665382 1201:1 
6.814086800259664 1463:1 1464:1 1465:1 
4.69095721220986 184:1 280:1 622:1 1190:1 1420:1 
1.127858006817881 133:1 346:1 1444:1 
0.2780781950094726 1449:1 1473:1 
8 361:1 768:1 1475:1 1476:1 
1.514442653902322 537:1 761:1 932:1 
4.877990414765268 127:1 176:1 458:1 639:1 1045:1 1480:1 
6.327241056875176 537:1 761:1 932:1 
0.6969486535449221 72:1 1485:1 1486:1 1487:1 
8 10:1 11:1 88:1 517:1 915:1 
8 1503:1 
8 59:1 406:1 458:1 
3.086345817997642 84:1 437:1 1149:1 1514:1 1515:1 1516:1 
7.094298903109151 271:1 321:1 593:1 744:1 1045:1 1518:1 1519:1 
4.893314492973927 35:1 184:1 458:1 778:1 1114:1 1527:1 
2.574383182615473 448:1 517:1 1530:1 1531:1 
6.435923288189249 34:1 169:1 1470:1 1532:1 1533:1 1534:1 
8 153:1 1522:1 1535:1 
8 7:1 94:1 1522:1 
8 113:1 
8 311:1 614:1 1177:1 1540:1 1541:1 
8 107:1 648:1 649:1 1425:1 1546:1 
1.318260397048395 122:1 416:1 417:1 519:1 520:1 653:1 1129:1 1547:1 1548:1 
5.124122252763909 6:1 11:1 350:1 578:1 1043:1 1557:1 
8 16:1 22:1 23:1 24:1 1484:1 
0.02016927430840024 103:1 336:1 337:1 448:1 710:1 1566:1 
0.4316910798034223 372:1 1115:1 1567:1 1568:1 1569:1 1570:1 
8 156:1 1578:1 1579:1 1580:1 
7.82897979893007 11:1 884:1 1583:1 1584:1 
1.148871914383847 330:1 716:1 1144:1 1585:1 1586:1 1587:1 
8 276:1 
8 276:1 
0.8033435215985721 882:1 1605:1 1606:1 
5.099999712746506 133:1 151:1 372:1 1569:1 1575:1 1613:1 1614:1 
8 326:1 689:1 
0.9961372615688867 6:1 25:1 38:1 507:1 1617:1 
8 22:1 23:1 1119:1 1620:1 
7.207091841123327 184:1 477:1 1195:1 
8 53:1 236:1 416:1 437:1 1351:1 1610:1 1630:1 1631:1 1632:1 
7.952252907766131 416:1 512:1 600:1 1545:1 
8 175:1 216:1 439:1 873:1 1645:1 1646:1 
2.419570891251269 66:1 369:1 726:1 973:1 1003:1 1055:1 1583:1 1647:1 
8 343:1 589:1 1653:1 1655:1 
1.008674494286981 113:1 153:1 314:1 494:1 614:1 882:1 1610:1 1658:1 
1.466621530577916 1660:1 
8 98:1 125:1 1666:1 
3.970999609810991 233:1 1667:1 
8 153:1 234:1 836:1 
8 53:1 
5.450134380129818 76:1 107:1 817:1 
0.9193028058810205 1675:1 
0.07670948819206017 363:1 
0.1578281336217849 471:1 620:1 621:1 1076:1 1077:1 1667:1 
3.855932514827116 1106:1 1684:1 
8 68:1 165:1 284:1 1694:1 1695:1 1696:1 
5.082035997318079 22:1 23:1 475:1 1117:1 1667:1 
0.4246789613586893 807:1 937:1 1697:1 1698:1 
8 1023:1 1702:1 
7.29725063286411 71:1 148:1 348:1 1188:1 1703:1 
5.226823106810158 1728:1 1729:1 1730:1 1731:1 1732:1 
5.472009364677872 576:1 791:1 1599:1 
8 288:1 720:1 1290:1 1435:1 1744:1 
2.536187133312143 34:1 267:1 717:1 1228:1 1480:1 1745:1 
2.333784421737925 537:1 1738:1 
1.390622867476806 135:1 1738:1 1749:1 
3.102445263202259 508:1 1205:1 
3.418279910617903 265:1 304:1 305:1 492:1 744:1 1645:1 1706:1 1761:1 1762:1 
8 1775:1 
7.213576888487125 1779:1 
8 103:1 107:1 
0.828151398651963 103:1 340:1 648:1 649:1 884:1 1028:1 1387:1 1781:1 
3.342287190188181 70:1 153:1 176:1 1084:1 1782:1 
3.241039495800199 103:1 107:1 519:1 520:1 625:1 652:1 1029:1 1030:1 1079:1 
2.637690690167258 34:1 1290:1 1720:1 1780:1 
8 1784:1 1785:1 1786:1 
6.619349414702702 1787:1 
2.971470994536204 1798:1 
1.567312062877732 318:1 
0.8882878796191761 153:1 1108:1 1150:1 
2.44429467724894 64:1 147:1 223:1 252:1 434:1 710:1 1216:1 1803:1 
5.084654845801349 57:1 452:1 466:1 469:1 898:1 1805:1 
5.574813314767379 122:1 1809:1 1810:1 1811:1 
0.8729033247837981 1815:1 1816:1 
7.618042196786138 27:1 167:1 373:1 1004:1 1074:1 1303:1 1817:1 1818:1 
8 1824:1 
5.785089081686967 79:1 313:1 1791:1 
4.60733056357637 330:1 802:1 1004:1 1847:1 
0.7308653720963697 153:1 347:1 1817:1 1818:1 
8 955:1 
0.6489072004644492 511:1 
1.339570532710595 288:1 631:1 
8 135:1 416:1 458:1 1856:1 1866:1 1867:1 
1.022376120116478 1873:1 
1.002925831638865 746:1 1657:1 1874:1 
0.6017125120339197 10:1 11:1 475:1 1876:1 
3.908278282443161 64:1 77:1 243:1 302:1 471:1 573:1 1525:1 
7.753864152275227 216:1 217:1 517:1 
0.5348454405888413 34:1 523:1 1892:1 1893:1 
8 153:1 652:1 
8 848:1 
2.439976681395352 57:1 120:1 652:1 1905:1 
0.2030360444578108 222:1 651:1 652:1 1906:1 1907:1 
8 777:1 1917:1 
6.375264775293167 147:1 561:1 1351:1 
1.885182291542405 1921:1 
1.965871866726444 607:1 611:1 1055:1 1934:1 
4.69132170912051 228:1 229:1 590:1 1944:1 
5.296429180712213 1948:1 1949:1 1950:1 1951:1 1952:1 1953:1 1954:1 1955:1 1956:1 1957:1 1958:1 1959:1 1960:1 
3.045407846467691 107:1 1961:1 
0.824985541589746 37:1 68:1 1917:1 1963:1 
0.4984841779367896 107:1 239:1 581:1 668:1 1954:1 1964:1 
0.5608411900978684 288:1 772:1 1965:1 
3.110340625097954 313:1 1474:1 1772:1 1917:1 
5.878128153302172 34:1 1228:1 1969:1 
8 52:1 153:1 384:1 
1.119795257100045 1917:1 
8 1917:1 
8 1917:1 
7.950841932233974 1917:1 
1.206792435420031 313:1 581:1 
8 10:1 11:1 12:1 1256:1 1999:1 
6.2604974264497 521:1 
2.478106816149338 2000:1 
8 10:1 11:1 12:1 172:1 
8 2000:1 
1.532238904450266 384:1 2011:1 
1.857502893863061 62:1 916:1 1744:1 2014:1 
8 147:1 1440:1 2016:1 
7.695416165959525 1146:1 
8 10:1 11:1 67:1 1256:1 
5.008561151636189 10:1 11:1 12:1 148:1 
8 10:1 11:1 12:1 
6.241149929194129 198:1 223:1 437:1 1070:1 1149:1 1755:1 2024:1 2025:1 
5.167609435413689 153:1 176:1 836:1 1428:1 1749:1 2026:1 
0.967749666647439 264:1 437:1 1571:1 2037:1 2038:1 
0.8302493929238018 492:1 604:1 1144:1 2025:1 2041:1 2042:1 
0.6379331924412729 778:1 2043:1 
8 276:1 
4.538177763145086 10:1 11:1 12:1 181:1 484:1 1891:1 
6.091077086906726 275:1 507:1 
1.346627702725289 10:1 11:1 12:1 795:1 
3.462902308774916 1175:1 2068:1 
4.89155687502388 10:1 11:1 12:1 22:1 23:1 24:1 184:1 275:1 277:1 535:1 
6.642582939611665 353:1 
4.228054215397989 153:1 165:1 183:1 873:1 2071:1 2078:1 
2.261511912650608 68:1 84:1 167:1 2079:1 2080:1 2081:1 
7.179724309713732 68:1 84:1 167:1 2079:1 2080:1 2081:1 
8 62:1 77:1 1307:1 1983:1 
3.15667159651667 40:1 293:1 378:1 985:1 1327:1 2006:1 2089:1 2090:1 
4.256463979681667 356:1 1568:1 
0.5897794756496277 1759:1 2091:1 2092:1 
0.6293306675767331 104:1 819:1 1038:1 2115:1 
0.5805164374710391 496:1 777:1 1296:1 
2.170507457276314 658:1 2125:1 
0.8142177429211609 517:1 
1.043217152542113 57:1 170:1 253:1 435:1 980:1 2132:1 2135:1 
7.483007402565203 918:1 
0.1877485601567906 27:1 57:1 170:1 435:1 736:1 2144:1 2147:1 
3.363549628729578 262:1 512:1 727:1 1073:1 1108:1 1168:1 2144:1 2151:1 
1.862461103028918 383:1 1915:1 2021:1 2125:1 
8 567:1 590:1 2162:1 2163:1 
5.439841226598475 61:1 1475:1 
8 53:1 107:1 
1.359825864936548 57:1 512:1 1028:1 2170:1 2171:1 2172:1 
2.424731120253637 11:1 202:1 2178:1 
8 1080:1 2185:1 2186:1 
0.5379948679573311 8:1 34:1 717:1 1290:1 1313:1 2190:1 2191:1 
3.285176257924868 577:1 1127:1 2192:1 
5.130465197088548 59:1 983:1 2198:1 
8 102:1 616:1 817:1 1454:1 
8 77:1 
2.020823498557589 36:1 1819:1 
8 50:1 2201:1 
2.488166737794167 1004:1 2202:1 
8 1316:1 1333:1 2205:1 
8 77:1 
8 77:1 
0.2753279405256813 110:1 139:1 144:1 312:1 692:1 772:1 2209:1 
8 77:1 
3.385480830791058 806:1 2181:1 
8 77:1 
8 77:1 84:1 
8 77:1 
8 77:1 
5.971286118037191 233:1 1353:1 2210:1 
4.826199996794389 66:1 346:1 857:1 1573:1 2211:1 2212:1 
8 77:1 
1.557296818847473 183:1 349:1 579:1 580:1 2217:1 
0.3068680353968163 202:1 273:1 1418:1 2218:1 
8 113:1 
5.62922247156771 216:1 451:1 974:1 
8 2224:1 
3.077508493307348 147:1 170:1 455:1 735:1 736:1 1763:1 
3.562646186422432 67:1 1859:1 
0.1144261792143371 2230:1 
3.674658345359262 1240:1 
8 391:1 2235:1 
4.242876288068453 184:1 710:1 1190:1 1195:1 1614:1 1897:1 2239:1 2240:1 2241:1 2242:1 
6.339704638201659 194:1 237:1 422:1 614:1 1238:1 2193:1 
6.384529626403205 2252:1 
1.067969440116784 861:1 2014:1 2250:1 
0.513577197419599 49:1 899:1 2078:1 2256:1 
1.271537418938366 194:1 2167:1 2263:1 
5.11279068904599 64:1 458:1 459:1 471:1 852:1 1144:1 1211:1 
8 79:1 264:1 265:1 640:1 1021:1 2270:1 
0.708979614628573 76:1 223:1 437:1 645:1 1144:1 2037:1 2272:1 
8 2273:1 
3.686067153690982 1460:1 2259:1 
1.117865725773808 1459:1 1690:1 2281:1 2282:1 2283:1 2284:1 2285:1 2286:1 
2.355376699592184 396:1 
3.131001818836949 326:1 555:1 
6.412226669411335 144:1 322:1 343:1 350:1 412:1 1307:1 1454:1 
4.178648709102021 2290:1 
1.422854872830897 273:1 343:1 409:1 412:1 1353:1 2289:1 2293:1 
8 429:1 2294:1 
0.5277442178948102 375:1 411:1 412:1 1307:1 1454:1 
7.742538576435947 2290:1 
0.722068898243981 103:1 600:1 935:1 1054:1 1055:1 1785:1 1900:1 1992:1 2300:1 
8 2306:1 
8 113:1 
8 511:1 
1.686837793785996 226:1 1339:1 2323:1 
0.1348851862512542 918:1 
5.888275721267805 53:1 169:1 
8 53:1 169:1 
2.8525313516726 68:1 2348:1 2349:1 
6.552717587120108 151:1 176:1 
8 151:1 
8 153:1 278:1 2353:1 2354:1 
1.757809959746977 38:1 509:1 678:1 1046:1 1446:1 1792:1 2357:1 2358:1 
4.432197189137638 51:1 107:1 561:1 797:1 2359:1 2360:1 
2.413142483640645 2356:1 2365:1 
0.7217759098106503 107:1 229:1 521:1 2377:1 
5.302136180779172 133:1 476:1 633:1 757:1 2098:1 2378:1 
0.2539205567261654 151:1 1560:1 1896:1 
8 103:1 104:1 651:1 652:1 
4.03782122920602 194:1 
2.20855735966372 71:1 103:1 153:1 206:1 475:1 512:1 651:1 652:1 2390:1 
4.133092380010299 71:1 103:1 
8 63:1 103:1 340:1 612:1 1079:1 2394:1 
4.52720169346675 27:1 61:1 2396:1 2397:1 
5.046712269162333 1058:1 1059:1 2403:1 
0.6985040033526716 229:1 462:1 
0.6727682431560142 194:1 640:1 2399:1 2413:1 2414:1 
8 53:1 169:1 
8 699:1 
0.7444117425654913 1655:1 2307:1 2399:1 2415:1 
8 53:1 169:1 
8 273:1 635:1 1491:1 2422:1 
8 544:1 660:1 
8 1124:1 2427:1 2428:1 
8 396:1 544:1 
6.971725889702773 1115:1 
1.420151771753823 124:1 175:1 527:1 528:1 531:1 2433:1 2434:1 2435:1 2436:1 2437:1 2438:1 2439:1 2440:1 
7.153597658035131 854:1 
0.8533805444203769 34:1 458:1 900:1 2441:1 
1.759820744174567 25:1 548:1 854:1 2441:1 2442:1 
8 68:1 176:1 401:1 2443:1 
1.93242423018654 275:1 853:1 2417:1 2418:1 2444:1 
1.996338337729894 102:1 137:1 176:1 925:1 1045:1 
1.16746120756434 1223:1 1668:1 2449:1 2450:1 2451:1 
0.8957972930108616 745:1 1606:1 2078:1 2456:1 
1.087888354053387 48:1 49:1 137:1 1491:1 2042:1 
8 113:1 1491:1 
8 955:1 
1.553456133282386 1068:1 
1.722018598335673 27:1 2457:1 
7.434047559096898 854:1 
8 68:1 104:1 2458:1 
8 68:1 104:1 2458:1 
8 137:1 184:1 2175:1 2461:1 
4.259096838042866 59:1 141:1 576:1 2462:1 
6.034222335558831 37:1 137:1 1310:1 2466:1 
6.586456651017286 1911:1 2352:1 
0.1659735359376884 1404:1 
1.859161077809524 908:1 
5.234351190450733 763:1 2487:1 
1.085315554134121 2488:1 2489:1 
4.045697832635401 77:1 120:1 122:1 474:1 1809:1 2483:1 2490:1 2491:1 
8 27:1 77:1 161:1 2490:1 
1.727762884157461 69:1 104:1 416:1 418:1 453:1 646:1 1163:1 1229:1 2502:1 2503:1 2504:1 
5.981079999363325 723:1 2510:1 2511:1 
2.652493011796922 34:1 350:1 499:1 621:1 1860:1 2516:1 2517:1 2518:1 
8 641:1 736:1 2521:1 2522:1 2523:1 
2.294845528937731 658:1 966:1 
8 2533:1 
8 184:1 
2.600057163343229 720:1 1872:1 2454:1 
8 276:1 2532:1 
8 137:1 153:1 525:1 
7.734606386699093 44:1 1860:1 
8 44:1 1860:1 
3.836535395359705 321:1 2532:1 
1.546737598300947 915:1 1860:1 2558:1 
8 437:1 458:1 978:1 2292:1 
6.7067543382276 34:1 153:1 985:1 1088:1 
3.447830489284607 112:1 
3.908451678133152 175:1 1133:1 
8 112:1 148:1 1703:1 2567:1 
8 229:1 462:1 
3.855832230879894 34:1 48:1 153:1 2205:1 
1.132269144072297 222:1 874:1 1810:1 2583:1 
6.789801267057059 2589:1 
8 53:1 169:1 
4.804746904021012 184:1 1929:1 2377:1 
8 147:1 561:1 
2.794790211076712 447:1 1104:1 1105:1 
1.771761772905798 107:1 284:1 529:1 777:1 
0.1318611901817713 2596:1 2600:1 
8 18:1 22:1 23:1 133:1 321:1 800:1 2563:1 
5.183458508234689 273:1 1171:1 2601:1 
1.057566769998282 67:1 
0.721368659629237 104:1 670:1 1286:1 1901:1 
8 2042:1 
3.559136998737003 233:1 447:1 1016:1 
0.9276969659822896 229:1 631:1 2601:1 
5.713386097599933 16:1 147:1 153:1 1218:1 2042:1 
7.64800170527156 67:1 
1.111916422550752 38:1 334:1 761:1 981:1 1792:1 2669:1 2670:1 
1.185140365143726 184:1 223:1 264:1 276:1 692:1 1159:1 2401:1 
8 2733:1 
0.4276772783416639 561:1 2738:1 
0.9584052098479259 57:1 170:1 470:1 593:1 956:1 1592:1 2742:1 2776:1 2777:1 
5.831007076269238 2791:1 
8 223:1 224:1 225:1 439:1 458:1 852:1 989:1 1143:1 1762:1 2842:1 2843:1 
1.908566477115101 138:1 458:1 606:1 610:1 2833:1 2872:1 
8 107:1 134:1 
8 79:1 1045:1 
8 107:1 311:1 
7.064914455592636 561:1 859:1 1904:1 2876:1 
6.175338876979295 320:1 416:1 509:1 510:1 590:1 1212:1 1416:1 
7.01089876879313 437:1 494:1 2894:1 
8 19:1 22:1 23:1 2692:1 
4.772825903589396 15:1 66:1 156:1 170:1 593:1 1518:1 2630:1 2922:1 2923:1 2924:1 
1.275872067080726 112:1 420:1 687:1 772:1 1435:1 2966:1 
1.71290859613981 56:1 640:1 736:1 1375:1 1930:1 2903:1 2978:1 2980:1 2981:1 2982:1 2983:1 
0.08664033038463857 84:1 121:1 222:1 223:1 557:1 573:1 589:1 1144:1 2656:1 2967:1 2986:1 3000:1 
3.210556814378974 58:1 121:1 232:1 557:1 1364:1 1522:1 1944:1 2676:1 2967:1 
0.3319083665669377 11:1 1435:1 3034:1 3035:1 3036:1 
3.348819355865436 95:1 202:1 282:1 409:1 557:1 867:1 900:1 1042:1 1323:1 1500:1 3090:1 
1.226755099836996 84:1 206:1 479:1 621:1 
0.1782301740778574 620:1 621:1 3094:1 
8 561:1 1131:1 
4.60251248289838 34:1 119:1 305:1 306:1 492:1 589:1 1131:1 1222:1 
8 57:1 223:1 271:1 308:1 477:1 1131:1 1645:1 1760:1 
1.701640546625092 119:1 264:1 303:1 989:1 1131:1 1383:1 2816:1 2939:1 3112:1 
0.9556540796926478 71:1 1131:1 3127:1 
7.821543573610005 35:1 1447:1 
0.7704944889391245 356:1 2098:1 3134:1 
8 11:1 107:1 
1.366075584009545 34:1 313:1 1233:1 
2.747273645040764 97:1 258:1 790:1 2243:1 3172:1 3173:1 3174:1 
5.446684375550685 234:1 3182:1 
7.960633403857709 511:1 
0.216551241583017 119:1 525:1 3186:1 3201:1 3202:1 3203:1 3204:1 
7.634013249024664 736:1 
7.556810597342195 3236:1 
2.307943298333524 434:1 2702:1 2719:1 
0.203233591854515 525:1 
0.7482079875393469 6:1 68:1 640:1 672:1 822:1 900:1 2238:1 3261:1 3262:1 3263:1 
3.534412309968718 372:1 480:1 1904:1 2104:1 3087:1 
5.020452854693207 94:1 336:1 448:1 501:1 526:1 555:1 710:1 1522:1 3008:1 
3.642153447259756 1349:1 
1.37625205647579 2576:1 3101:1 3270:1 
0.1108309006493557 57:1 588:1 1099:1 2276:1 
3.031048723808468 555:1 
7.877423148274831 555:1 
8 176:1 531:1 720:1 
0.4234736301644756 451:1 555:1 2785:1 3267:1 3279:1 3280:1 
2.858905708805839 57:1 458:1 573:1 610:1 990:1 1143:1 1228:1 1811:1 3072:1 3292:1 
2.450529481515333 678:1 736:1 1063:1 3296:1 
3.788416453490891 57:1 261:1 604:1 744:1 1207:1 1878:1 2070:1 2276:1 3029:1 3030:1 3267:1 
8 107:1 118:1 311:1 336:1 555:1 793:1 1529:1 2078:1 3267:1 
5.341614312350091 3025:1 3318:1 
5.743879717582162 68:1 401:1 496:1 
0.002419424554168215 57:1 170:1 175:1 224:1 857:1 874:1 1287:1 3006:1 3150:1 3344:1 3345:1 3346:1 3347:1 
6.794026041620983 13:1 165:1 222:1 273:1 274:1 689:1 
5.077088991771183 317:1 529:1 951:1 1792:1 1849:1 2245:1 
1.328748750183441 1740:1 2742:1 3352:1 3366:1 
3.503133072613757 57:1 225:1 458:1 670:1 826:1 2933:1 3019:1 3352:1 3363:1 3366:1 3392:1 
1.904395295180782 336:1 372:1 555:1 1006:1 1007:1 3335:1 
8 1827:1 
0.3876892951985785 34:1 107:1 125:1 346:1 348:1 557:1 904:1 1195:1 2904:1 3449:1 3450:1 
3.653593115156527 107:1 133:1 169:1 413:1 529:1 1007:1 2786:1 
3.11375508250524 107:1 184:1 613:1 670:1 1421:1 1703:1 2197:1 2628:1 
8 521:1 
3.250635874000597 47:1 184:1 778:1 1006:1 1007:1 3335:1 3507:1 
4.572561677814524 512:1 540:1 710:1 1006:1 1087:1 2653:1 
8 153:1 533:1 1128:1 3503:1 
1.408590545960061 59:1 214:1 222:1 555:1 1961:1 2728:1 3167:1 3280:1 3503:1 3533:1 
7.608847292995389 19:1 2307:1 3506:1 
2.986990925801854 355:1 531:1 
6.326658912870757 6:1 1119:1 1471:1 2620:1 
8 50:1 341:1 409:1 
0.9544427956598639 66:1 310:1 401:1 3342:1 
4.224827753151158 22:1 23:1 107:1 531:1 1131:1 1624:1 2692:1 3567:1 3568:1 
1.734519571708296 184:1 361:1 1131:1 1133:1 1244:1 1488:1 1849:1 2687:1 2691:1 
6.423822192779404 11:1 12:1 19:1 22:1 23:1 231:1 712:1 1131:1 2687:1 2692:1 
2.258482256401315 1131:1 1445:1 3270:1 3586:1 
8 736:1 1131:1 
0.04564346342953811 79:1 175:1 2386:1 3126:1 
0.6826864505771132 512:1 1131:1 1137:1 2653:1 2656:1 2941:1 
0.2923077681983863 170:1 212:1 299:1 593:1 979:1 990:1 1058:1 1645:1 1646:1 2704:1 2716:1 3601:1 
0.4215177155797535 1045:1 1131:1 
8 113:1 
2.950227510011004 137:1 827:1 1131:1 
0.6561186589658671 1131:1 1175:1 2513:1 
7.856811226948345 153:1 1409:1 1472:1 
3.646271148244959 53:1 153:1 417:1 726:1 1055:1 
0.6675359997927314 561:1 
1.395618754817005 184:1 361:1 1133:1 1488:1 1792:1 1868:1 2193:1 2687:1 
2.678250332162504 63:1 79:1 452:1 593:1 612:1 1472:1 2141:1 3663:1 3664:1 
5.029918556010824 147:1 369:1 593:1 1215:1 2042:1 2372:1 2724:1 2865:1 3661:1 3674:1 
0.3954426271097142 170:1 458:1 610:1 736:1 843:1 990:1 3639:1 3651:1 3675:1 
3.918885620587838 57:1 223:1 975:1 2719:1 3430:1 3639:1 
4.107589424207323 79:1 3639:1 
8 521:1 
1.287157425745764 1006:1 1007:1 
3.799347912854568 22:1 23:1 183:1 231:1 860:1 1614:1 2692:1 
2.354173815494374 18:1 22:1 23:1 2239:1 
7.41082008941901 1349:1 
2.606452674894113 58:1 138:1 321:1 557:1 1007:1 2378:1 
1.373671030564775 525:1 
0.7803626741525479 317:1 524:1 525:1 527:1 633:1 1472:1 3249:1 
0.1353469011076296 3559:1 3734:1 3738:1 
6.00099261631866 11:1 334:1 475:1 649:1 3739:1 
8 517:1 1576:1 
1.215940312167137 638:1 3737:1 3769:1 
8 3770:1 
0.3450130422297816 693:1 
0.2258474432890061 46:1 51:1 1290:1 1310:1 1474:1 3418:1 
8 1430:1 
1.158293973552801 1007:1 1290:1 1724:1 3003:1 3782:1 
0.09234522415407609 1119:1 
0.03541495621931863 622:1 1421:1 2798:1 
0.4074063784004519 1133:1 3184:1 3185:1 3785:1 
2.078309417319318 622:1 1421:1 2798:1 
4.000188324144957 253:1 469:1 744:1 876:1 1143:1 2798:1 
0.2062598442374577 57:1 223:1 477:1 588:1 1063:1 1387:1 1941:1 2412:1 
0.3796702078710951 217:1 902:1 2785:1 2798:1 3261:1 3287:1 3796:1 
1.524395736163273 458:1 589:1 2798:1 3007:1 
4.127411602446998 876:1 1143:1 2164:1 2798:1 3109:1 3671:1 
1.472708285059608 214:1 589:1 876:1 1143:1 2720:1 3025:1 
3.254624357726391 250:1 264:1 472:1 1001:1 1878:1 3016:1 3803:1 3804:1 
0.7597162913577411 264:1 437:1 588:1 1326:1 1571:1 2798:1 2851:1 3531:1 3805:1 3806:1 
2.835333896191501 175:1 458:1 589:1 2388:1 2798:1 
8 57:1 222:1 573:1 588:1 640:1 995:1 1073:1 3798:1 
2.407254695733664 338:1 452:1 593:1 1503:1 1548:1 1590:1 1945:1 2634:1 3810:1 3811:1 
3.509515537928399 589:1 2798:1 3812:1 3813:1 3814:1 
0.8513417840254065 232:1 557:1 2798:1 
3.113541899596425 84:1 205:1 1520:1 2798:1 
5.571664644095477 107:1 122:1 562:1 710:1 1447:1 
1.740988361002615 167:1 288:1 900:1 2634:1 2989:1 
1.450922620132482 119:1 184:1 521:1 1558:1 2628:1 2642:1 2748:1 2749:1 2767:1 3064:1 3065:1 3824:1 
0.2468976630687431 1229:1 1656:1 2631:1 2754:1 2939:1 3825:1 
0.4877911144994616 84:1 243:1 573:1 1207:1 2769:1 2950:1 3139:1 3140:1 3829:1 
0.2767580948795333 15:1 264:1 437:1 2205:1 2221:1 2630:1 2672:1 3820:1 3830:1 
8 521:1 
1.542665883833656 3838:1 
7.153985031890119 3839:1 
2.037342127383591 57:1 996:1 1375:1 1651:1 2826:1 2983:1 3841:1 3857:1 
7.941910551798425 439:1 458:1 650:1 1332:1 3841:1 
2.836289505265272 63:1 64:1 147:1 458:1 608:1 989:1 1431:1 2061:1 2658:1 
0.8311146831173196 14:1 458:1 606:1 610:1 725:1 1169:1 1814:1 2082:1 3016:1 
0.4440393033206367 2295:1 3879:1 
0.2261564274664687 119:1 217:1 589:1 1785:1 2753:1 2772:1 3038:1 3047:1 3059:1 3064:1 3065:1 3078:1 3404:1 3406:1 
0.1964582422354783 121:1 857:1 2656:1 3038:1 3880:1 
1.528943525430153 170:1 589:1 2151:1 2646:1 2647:1 3078:1 
1.734075197588218 43:1 557:1 819:1 1337:1 1560:1 1665:1 3905:1 3906:1 
0.6689070604702323 590:1 998:1 
2.279239686814158 48:1 59:1 216:1 361:1 557:1 1289:1 3911:1 
0.5622947829969271 49:1 557:1 899:1 2078:1 3325:1 
1.327492959232787 280:1 557:1 589:1 593:1 2392:1 3912:1 3925:1 
1.74548130740985 589:1 2216:1 3477:1 3912:1 
2.435668192749834 175:1 1469:1 3912:1 3945:1 
0.6692315086579054 2955:1 3638:1 
8 437:1 2894:1 
7.571615137238674 599:1 
2.661134008861424 561:1 
6.491484342302479 59:1 176:1 458:1 557:1 589:1 3962:1 
1.901693960201231 440:1 1751:1 2216:1 3962:1 
1.444606034416446 213:1 214:1 556:1 2692:1 3962:1 
0.02434853326375983 59:1 458:1 556:1 589:1 874:1 1591:1 1887:1 2216:1 3962:1 3964:1 
0.6781162240609949 369:1 436:1 670:1 990:1 1063:1 1143:1 1205:1 2807:1 2942:1 
3.750455462483607 334:1 998:1 1322:1 2676:1 3990:1 
2.049422581134999 198:1 368:1 557:1 1168:1 1169:1 3998:1 
7.097560972297331 556:1 935:1 1054:1 3408:1 
1.092480939719275 190:1 463:1 599:1 832:1 4007:1 
0.3265335043234978 95:1 898:1 4008:1 
0.07583663425115779 1711:1 4009:1 4010:1 
8 68:1 137:1 350:1 789:1 4013:1 
2.234679629197208 133:1 555:1 710:1 757:1 793:1 1087:1 3136:1 3778:1 
0.7384314029878982 3090:1 4015:1 
1.58049703724555 170:1 458:1 573:1 875:1 1545:1 2634:1 2942:1 3441:1 4017:1 4018:1 4028:1 4029:1 
8 43:1 573:1 
2.633130534187504 446:1 3620:1 4036:1 4039:1 4040:1 
0.5459373136768744 369:1 557:1 561:1 730:1 2216:1 3631:1 4036:1 4050:1 4051:1 4052:1 
0.3879206690005387 57:1 223:1 417:1 437:1 1678:1 1683:1 1885:1 3516:1 4054:1 4055:1 4056:1 
1.126019490362597 233:1 589:1 1518:1 2216:1 2630:1 3038:1 3059:1 4075:1 
0.6403370258783002 416:1 466:1 1740:1 1992:1 2328:1 3038:1 
0.07498524317675101 59:1 153:1 458:1 557:1 589:1 2630:1 2656:1 2754:1 2767:1 3038:1 
0.8268918945918954 84:1 517:1 538:1 2079:1 2216:1 2612:1 3038:1 3039:1 3078:1 4078:1 
2.468846766463946 170:1 845:1 1646:1 2630:1 2754:1 2786:1 2842:1 2942:1 
3.567908991147265 23:1 3170:1 4097:1 
6.162901079581673 153:1 437:1 1151:1 
8 16:1 133:1 
3.451279928179911 1522:1 
7.850506016870417 1006:1 1007:1 
8 68:1 391:1 
0.04234100320021227 19:1 22:1 23:1 517:1 2620:1 2687:1 2692:1 
8 1349:1 
3.661865109160673 223:1 440:1 573:1 744:1 996:1 3096:1 4145:1 4159:1 
0.3610251252539808 57:1 461:1 990:1 1073:1 1228:1 1642:1 1854:1 4145:1 4164:1 
2.810832657753678 222:1 264:1 455:1 458:1 557:1 990:1 1258:1 1383:1 4145:1 4175:1 
8 180:1 866:1 1828:1 
8 507:1 1395:1 2245:1 
3.491901658996591 104:1 184:1 710:1 761:1 2164:1 4183:1 
7.798134859155201 1006:1 1007:1 
2.340231914899757 15:1 222:1 223:1 446:1 1205:1 2628:1 2646:1 2647:1 2708:1 
1.03258937267335 124:1 137:1 343:1 758:1 935:1 1991:1 2151:1 2793:1 4203:1 
0.6660436312802382 19:1 22:1 23:1 517:1 2620:1 2687:1 2692:1 
4.025390719295895 165:1 180:1 866:1 1828:1 1829:1 1844:1 1845:1 1846:1 4211:1 
8 703:1 916:1 
1.391659729553658 104:1 690:1 3241:1 3398:1 3487:1 4214:1 
8 1063:1 2735:1 
5.558345864349227 38:1 690:1 1359:1 1372:1 1379:1 4216:1 4219:1 4225:1 4227:1 4228:1 4234:1 4239:1 4247:1 4248:1 
8 709:1 
8 391:1 882:1 
2.883826347100851 44:1 1913:1 
1.757031632877926 1842:1 
6.679611646159968 543:1 4304:1 
1.913395975138783 275:1 288:1 557:1 1394:1 1971:1 2295:1 4305:1 
4.480320163401152 1119:1 
6.444800985282429 11:1 4306:1 
1.838293142771507 643:1 1469:1 2021:1 2166:1 3130:1 3184:1 4069:1 4183:1 4290:1 
2.576316393831072 184:1 333:1 728:1 1530:1 1705:1 4311:1 
0.74468115654148 43:1 222:1 573:1 606:1 995:1 3114:1 3595:1 4306:1 4312:1 
8 113:1 
1.353686434247872 68:1 437:1 557:1 845:1 1003:1 1445:1 4038:1 4328:1 4339:1 4340:1 
1.60686057946088 48:1 812:1 1785:1 1992:1 2216:1 3038:1 3047:1 4079:1 
1.594526875741356 471:1 744:1 852:1 1099:1 1169:1 1854:1 3038:1 3064:1 3065:1 
6.094280646308867 27:1 68:1 165:1 524:1 780:1 996:1 2974:1 3043:1 
3.215942452661462 28:1 409:1 549:1 702:1 900:1 3177:1 4013:1 
1.718638190529433 11:1 361:1 643:1 1488:1 4290:1 4360:1 4361:1 4362:1 
6.19370971373521 153:1 509:1 1430:1 1446:1 2622:1 
1.377048164558923 643:1 990:1 1469:1 1740:1 2328:1 3945:1 4366:1 4369:1 
0.1149644794688832 1227:1 4374:1 4375:1 4381:1 
7.852160315275069 57:1 64:1 119:1 2001:1 4386:1 4387:1 4388:1 4389:1 4390:1 
2.979527485883423 119:1 1027:1 2130:1 3276:1 4386:1 4396:1 4397:1 
0.1868276670391567 116:1 790:1 2130:1 2975:1 4396:1 4405:1 4406:1 4407:1 
0.1006304116557087 1736:1 4384:1 4412:1 4417:1 4418:1 4419:1 4420:1 
0.837332958635288 64:1 119:1 323:1 641:1 772:1 4409:1 4424:1 4425:1 4436:1 
0.5044302960633733 27:1 562:1 593:1 790:1 925:1 972:1 4428:1 4429:1 4439:1 
3.194981697223378 61:1 475:1 638:1 1133:1 4452:1 
0.1277827742414967 1082:1 2082:1 4432:1 4443:1 4454:1 4455:1 4456:1 
0.11509079318668 889:1 1253:1 1377:1 4459:1 4461:1 4462:1 
0.24374643715516 601:1 1253:1 1990:1 2194:1 2545:1 4461:1 4475:1 4476:1 
2.343607353753317 1169:1 2269:1 4477:1 
0.8827703467001077 216:1 790:1 1585:1 4409:1 4438:1 
1.20437489597171 4426:1 4486:1 4497:1 4498:1 4499:1 4500:1 4501:1 4502:1 4503:1 4504:1 
0.4889961279191888 646:1 694:1 1004:1 1253:1 4120:1 4461:1 4484:1 4505:1 4506:1 4507:1 4508:1 4509:1 
8 4513:1 
4.806636543028956 4517:1 
8 4524:1 
8 4513:1 
3.86255231785067 4527:1 
2.679471987868901 4520:1 
0.3840365523628688 216:1 938:1 3522:1 4376:1 4419:1 4533:1 4534:1 4535:1 
0.09430411569943731 4545:1 
6.977733112182734 2613:1 3522:1 4546:1 
0.1337724359568277 4545:1 
0.08289150098923341 4545:1 
1.167462466441306 2477:1 4510:1 4511:1 4555:1 
2.312987889381056 261:1 471:1 4404:1 4478:1 4559:1 4560:1 4561:1 4562:1 
6.315904450737857 416:1 957:1 2012:1 3036:1 4478:1 4487:1 4567:1 
0.02775497709178159 4545:1 
4.777351111190612 904:1 4432:1 4573:1 4574:1 4575:1 
0.3337679282544787 1082:1 1266:1 4407:1 4549:1 4582:1 4583:1 
0.2686632722680213 4584:1 4585:1 
0.9412057582781872 372:1 476:1 4443:1 4514:1 
3.248342780109848 4590:1 
0.3820966710311163 460:1 1592:1 2613:1 3036:1 4437:1 4545:1 4554:1 4595:1 4596:1 4597:1 
0.3342987585700541 104:1 417:1 593:1 4545:1 4551:1 4593:1 4600:1 4601:1 4602:1 
0.25734192839665 4545:1 
0.1960172531439405 320:1 417:1 2029:1 2613:1 3432:1 4545:1 4548:1 4586:1 4604:1 4605:1 4606:1 
0.296204714263824 694:1 1478:1 2800:1 3016:1 4607:1 4608:1 
1.256165192006033 4507:1 4509:1 4563:1 4614:1 4615:1 4616:1 
1.536883573501503 4617:1 
0.3340917921227088 417:1 3064:1 3941:1 4618:1 4619:1 
1.870761990913236 4620:1 
2.380291869942026 4407:1 
1.146479303305342 3522:1 4437:1 4630:1 
8 107:1 150:1 1054:1 
0.8495532735257045 121:1 394:1 1129:1 1528:1 4398:1 4644:1 4645:1 4646:1 4647:1 
0.01514076491115199 216:1 1070:1 1139:1 4419:1 4530:1 4669:1 4670:1 4671:1 
0.212526299700222 4617:1 
0.1926805275713151 4496:1 4617:1 
0.454801258531594 607:1 761:1 2744:1 2885:1 3191:1 4634:1 4635:1 
1.171102165820419 4692:1 
1.158414451328899 59:1 84:1 236:1 703:1 4445:1 4467:1 4485:1 4666:1 
1.385720137354971 4692:1 
0.349096610783896 43:1 138:1 183:1 1177:1 1245:1 2382:1 4697:1 4698:1 4699:1 4700:1 4701:1 
2.919091697953955 84:1 790:1 2158:1 2611:1 4702:1 4703:1 4704:1 4705:1 4706:1 
1.247066505358568 43:1 957:1 3850:1 4457:1 4515:1 4711:1 4712:1 4713:1 4714:1 4715:1 
1.555644736982196 223:1 340:1 549:1 640:1 1253:1 2193:1 4457:1 4461:1 4691:1 
0.07481210370722993 790:1 4398:1 4409:1 4733:1 4734:1 4735:1 
8 53:1 323:1 2453:1 3470:1 4496:1 
0.4929477621334413 79:1 1253:1 4432:1 4443:1 4445:1 4461:1 4488:1 4516:1 4715:1 4746:1 
0.4963709213367842 7:1 167:1 458:1 1087:1 4419:1 4432:1 4444:1 4445:1 
0.8923818737434357 1253:1 2269:1 4461:1 4468:1 4747:1 
1.322478503648085 4442:1 4445:1 4478:1 
0.1124878578689256 908:1 1253:1 2510:1 4445:1 4461:1 4479:1 4749:1 4750:1 
5.177489721607679 48:1 79:1 169:1 790:1 2141:1 4387:1 4388:1 4409:1 4644:1 4751:1 4752:1 
0.1191172929767933 593:1 4444:1 4481:1 4753:1 
0.09702272830890722 48:1 286:1 2012:1 4755:1 4756:1 4758:1 
0.6791415292583425 112:1 4479:1 4574:1 4575:1 4766:1 
3.281949296906038 4719:1 
6.730240146159392 52:1 181:1 286:1 529:1 1790:1 4668:1 4755:1 4770:1 
0.1643206037218402 120:1 191:1 448:1 2070:1 3818:1 4387:1 4388:1 4409:1 4451:1 4776:1 
4.261624820336398 4393:1 4787:1 
8 22:1 23:1 24:1 25:1 26:1 
8 20:1 27:1 28:1 29:1 30:1 31:1 32:1 33:1 
8 33:1 43:1 44:1 45:1 46:1 47:1 48:1 49:1 
1.520188602811671 50:1 51:1 52:1 
3.681852265737789 97:1 
8 109:1 110:1 111:1 112:1 113:1 114:1 115:1 116:1 
2.889459971669524 27:1 142:1 143:1 144:1 
8 27:1 149:1 150:1 151:1 
6.404635888375497 103:1 123:1 161:1 162:1 163:1 164:1 165:1 166:1 
8 187:1 
1.230430237245722 41:1 210:1 
8 222:1 
0.3898272062795914 270:1 
8 46:1 47:1 93:1 210:1 288:1 289:1 290:1 291:1 292:1 
8 20:1 27:1 156:1 177:1 312:1 313:1 314:1 
7.379112023386554 15:1 294:1 324:1 
7.72250894659899 325:1 
5.232014503342247 10:1 328:1 329:1 330:1 
8 14:1 15:1 68:1 69:1 78:1 107:1 363:1 364:1 365:1 366:1 
8 196:1 197:1 430:1 431:1 
7.769763532336313 110:1 111:1 456:1 457:1 458:1 459:1 460:1 461:1 462:1 
8 482:1 483:1 484:1 
2.593773374343337 181:1 342:1 390:1 468:1 514:1 515:1 
0.6572041580503462 73:1 89:1 129:1 468:1 522:1 523:1 524:1 525:1 
8 129:1 524:1 525:1 526:1 527:1 528:1 529:1 
8 181:1 312:1 468:1 534:1 550:1 551:1 552:1 553:1 554:1 
1.014196441161497 397:1 558:1 569:1 570:1 571:1 572:1 
2.847397067289778 436:1 571:1 572:1 573:1 574:1 575:1 576:1 577:1 
0.8605826051445583 201:1 310:1 515:1 558:1 581:1 582:1 583:1 584:1 585:1 586:1 
3.034765265080404 20:1 27:1 60:1 156:1 468:1 559:1 
8 423:1 468:1 481:1 600:1 603:1 604:1 605:1 606:1 
0.7991431196644559 621:1 622:1 623:1 
0.4890965708148364 92:1 268:1 297:1 328:1 625:1 626:1 627:1 628:1 
0.6161277075959553 169:1 172:1 468:1 631:1 632:1 633:1 634:1 635:1 
8 50:1 51:1 52:1 53:1 55:1 145:1 468:1 636:1 637:1 
8 11:1 202:1 203:1 666:1 
0.1389549832251169 140:1 579:1 685:1 686:1 687:1 688:1 689:1 690:1 691:1 
3.661614539015174 92:1 268:1 328:1 625:1 626:1 627:1 710:1 711:1 
8 715:1 
1.112083933641828 130:1 644:1 669:1 719:1 720:1 721:1 722:1 723:1 
6.607759545813424 40:1 644:1 727:1 728:1 729:1 730:1 731:1 
8 52:1 91:1 135:1 136:1 168:1 767:1 768:1 769:1 770:1 
8 543:1 775:1 776:1 777:1 
1.579675372604021 346:1 420:1 789:1 790:1 
7.887408650444325 27:1 60:1 98:1 558:1 791:1 792:1 793:1 794:1 
4.543487136592504 791:1 800:1 801:1 
0.1099075027984552 562:1 791:1 802:1 803:1 804:1 805:1 
8 11:1 196:1 226:1 665:1 841:1 
4.863265627416783 852:1 
1.755342948623874 41:1 181:1 257:1 701:1 769:1 853:1 
1.283316008515656 861:1 
3.565100368409963 86:1 129:1 435:1 862:1 863:1 864:1 865:1 866:1 867:1 
5.907465321323992 882:1 883:1 
0.1613369492679759 75:1 92:1 111:1 255:1 789:1 884:1 885:1 886:1 887:1 
5.812621922335352 890:1 
1.991136090578587 27:1 156:1 860:1 897:1 
2.422315009228492 129:1 738:1 899:1 902:1 903:1 904:1 905:1 906:1 907:1 908:1 909:1 
8 19:1 64:1 65:1 941:1 942:1 
0.8613305873904122 504:1 945:1 955:1 956:1 957:1 958:1 959:1 
6.040588958415324 504:1 958:1 997:1 
8 296:1 297:1 1003:1 1004:1 1005:1 1006:1 
1.753648424993144 452:1 491:1 948:1 1015:1 1016:1 1017:1 
8 89:1 452:1 945:1 1017:1 1041:1 1042:1 
2.544800597034255 11:1 129:1 1019:1 1020:1 1021:1 1058:1 1061:1 1062:1 1063:1 
3.915918614330852 358:1 1044:1 1104:1 1105:1 1106:1 
4.407008571818681 387:1 394:1 473:1 753:1 988:1 1058:1 1121:1 
8 27:1 29:1 35:1 69:1 226:1 1058:1 1126:1 1127:1 1128:1 1129:1 
2.119025437326137 504:1 712:1 953:1 1130:1 1131:1 1132:1 1133:1 1134:1 1135:1 1136:1 
3.865360804529527 60:1 135:1 138:1 184:1 
7.554081450065725 1149:1 1151:1 1152:1 1153:1 1154:1 1155:1 1156:1 
8 199:1 1157:1 1158:1 
5.565702046436454 276:1 1149:1 1159:1 1160:1 1161:1 1162:1 
2.051607849611992 199:1 510:1 578:1 824:1 1140:1 1142:1 1149:1 1157:1 1163:1 1164:1 1165:1 
0.8087989082355928 846:1 847:1 892:1 1210:1 1211:1 1212:1 
1.287533347018555 477:1 597:1 948:1 1250:1 1251:1 1252:1 
5.244018292828862 226:1 331:1 850:1 1314:1 1315:1 1316:1 
8 11:1 665:1 1326:1 
3.206890459815739 578:1 1340:1 1341:1 1342:1 
5.734963372182595 268:1 862:1 1343:1 1344:1 
6.794712675055012 899:1 930:1 932:1 933:1 1259:1 1260:1 1377:1 1378:1 1379:1 1380:1 1381:1 
1.48846179941722 69:1 152:1 769:1 787:1 868:1 938:1 1392:1 1393:1 
3.920021108034132 181:1 787:1 938:1 1393:1 
0.3532859638521068 39:1 1066:1 1067:1 1334:1 1378:1 1418:1 1419:1 
0.4875639304663397 91:1 120:1 181:1 769:1 1427:1 
0.6354820777247236 3:1 1439:1 
8 11:1 1480:1 1481:1 
8 11:1 417:1 1485:1 
2.057638315124499 20:1 60:1 131:1 243:1 1505:1 1506:1 1507:1 1508:1 
1.869548034591159 1515:1 
0.5505276999362606 41:1 138:1 257:1 743:1 1427:1 1518:1 
0.4694396414766744 22:1 23:1 24:1 25:1 263:1 1529:1 
0.8505819367224141 33:1 138:1 491:1 1261:1 1530:1 
8 11:1 1535:1 1536:1 
0.1565000142286529 8:1 9:1 35:1 322:1 732:1 1541:1 1542:1 1543:1 1544:1 1545:1 
6.008319028272592 289:1 453:1 617:1 1562:1 1564:1 1565:1 1566:1 1567:1 1568:1 
7.588999441307436 97:1 
6.185111755358786 758:1 859:1 1611:1 1612:1 
0.9940791024231665 1618:1 
1.448789001023727 28:1 131:1 543:1 738:1 1053:1 1534:1 1631:1 1632:1 
0.8584379376579263 1618:1 
8 129:1 1646:1 1647:1 
8 139:1 181:1 210:1 769:1 
6.66290114345963 26:1 222:1 
7.735834656795995 85:1 210:1 387:1 508:1 624:1 1713:1 1714:1 
0.6013003575825459 123:1 270:1 271:1 1730:1 
7.376429058468273 27:1 28:1 167:1 210:1 768:1 1376:1 1731:1 
0.7559786087633895 88:1 129:1 226:1 281:1 1748:1 1749:1 1750:1 
5.027603319427618 1760:1 1761:1 1762:1 
8 215:1 226:1 1398:1 1764:1 
0.490970728723802 285:1 452:1 830:1 840:1 1295:1 1779:1 1787:1 1788:1 
1.685153197704892 93:1 310:1 607:1 824:1 1413:1 1807:1 
0.2188461097154158 68:1 69:1 110:1 839:1 1567:1 1828:1 1829:1 1833:1 
1.31703156091712 840:1 1856:1 1857:1 1858:1 1859:1 
0.2605305589786702 1598:1 1857:1 1858:1 1859:1 1860:1 1861:1 1862:1 
0.5802128381398659 358:1 1211:1 1869:1 1870:1 1871:1 1872:1 1873:1 1874:1 
3.486193548484098 79:1 371:1 625:1 1076:1 1192:1 1887:1 1888:1 1889:1 
8 184:1 1898:1 
0.3339115741354494 93:1 1676:1 1897:1 1908:1 
0.481194102758721 27:1 156:1 644:1 1252:1 1956:1 1957:1 1958:1 1959:1 1960:1 
3.269995790057914 21:1 27:1 152:1 156:1 481:1 591:1 644:1 1406:1 1972:1 
3.16151542962817 91:1 156:1 215:1 227:1 644:1 1972:1 
0.08977672011070693 10:1 87:1 396:1 603:1 801:1 2007:1 2010:1 2011:1 2012:1 
1.626415959985169 27:1 156:1 429:1 701:1 1745:1 2047:1 2048:1 
8 42:1 357:1 358:1 2055:1 
4.354230790986611 184:1 945:1 
0.2304432565644352 1211:1 1872:1 2117:1 
4.890676431773303 1259:1 2120:1 
0.1745217336416806 263:1 616:1 1259:1 2012:1 2025:1 2120:1 2121:1 2122:1 2123:1 2124:1 
1.651414869231461 152:1 669:1 1760:1 2054:1 2148:1 2149:1 2150:1 
0.4827692773547723 3:1 83:1 223:1 276:1 315:1 1649:1 2054:1 2175:1 2176:1 
3.610192005226182 9:1 46:1 47:1 175:1 291:1 292:1 1058:1 1718:1 2186:1 
0.5186470172013133 87:1 196:1 197:1 251:1 294:1 1063:1 1328:1 2197:1 2198:1 2199:1 
8 193:1 
1.115269104007197 129:1 138:1 824:1 860:1 1058:1 2209:1 2210:1 2211:1 
0.9519639446785886 124:1 130:1 274:1 312:1 522:1 801:1 1798:1 1962:1 
8 46:1 47:1 136:1 205:1 1058:1 1330:1 
2.457073986357892 310:1 564:1 640:1 2054:1 2170:1 2223:1 2224:1 2225:1 2226:1 2227:1 2228:1 2229:1 2230:1 
4.051533015459838 690:1 1323:1 1736:1 2226:1 2227:1 2228:1 2229:1 2230:1 2231:1 2232:1 2233:1 
1.101252001721196 162:1 196:1 197:1 251:1 276:1 381:1 665:1 1610:1 2240:1 2241:1 2242:1 
7.794968526287187 153:1 288:1 865:1 2260:1 
0.0122778151246397 103:1 152:1 358:1 930:1 1819:1 1869:1 2261:1 
0.1927447114938181 71:1 111:1 276:1 444:1 894:1 895:1 1875:1 2189:1 2281:1 2282:1 2283:1 2284:1 
0.8536174675519937 71:1 92:1 111:1 894:1 895:1 2301:1 2302:1 2303:1 2304:1 2305:1 2306:1 
4.513986457215008 92:1 93:1 312:1 899:1 1765:1 2317:1 2318:1 2319:1 2320:1 
4.177054944148929 738:1 769:1 2317:1 2321:1 2322:1 
2.426462421675011 89:1 129:1 681:1 769:1 1391:1 2326:1 2327:1 2328:1 2329:1 2330:1 2331:1 
1.457290961857543 28:1 92:1 138:1 681:1 758:1 929:1 2350:1 2351:1 
8 28:1 138:1 738:1 758:1 1628:1 
1.235959463547835 129:1 360:1 759:1 1996:1 2357:1 2358:1 2359:1 2360:1 2361:1 
0.09789882404777178 93:1 96:1 129:1 859:1 1996:1 2336:1 2365:1 2366:1 2367:1 2368:1 
5.459158011662197 92:1 184:1 392:1 467:1 512:1 2327:1 2384:1 2385:1 2386:1 2387:1 
4.158553723319329 129:1 971:1 2391:1 2392:1 
0.8069003314509313 129:1 467:1 787:1 2014:1 2351:1 2393:1 
2.063280394742725 129:1 257:1 651:1 769:1 1211:1 2341:1 2345:1 2390:1 2396:1 2397:1 2398:1 
0.4858945591975988 121:1 129:1 215:1 392:1 439:1 1445:1 2294:1 2336:1 2353:1 2443:1 
0.8708697473133918 69:1 257:1 899:1 1482:1 2294:1 2457:1 2458:1 2459:1 2460:1 2461:1 2462:1 2463:1 
0.9736496494312439 126:1 2035:1 2464:1 2465:1 2466:1 2467:1 2468:1 2469:1 2470:1 2471:1 2472:1 
0.2359094709662675 543:1 899:1 2426:1 2477:1 2484:1 2488:1 2489:1 
0.2417716376470551 1302:1 2495:1 2496:1 
6.899349045994751 73:1 89:1 2279:1 
4.044252039448251 91:1 141:1 616:1 762:1 769:1 1112:1 2527:1 2528:1 2529:1 2530:1 
4.107839615141013 184:1 2335:1 2534:1 
1.039708960528699 1181:1 2054:1 2567:1 2568:1 2569:1 2570:1 2571:1 
2.0660533959002 136:1 769:1 2077:1 
0.9059438570882999 50:1 51:1 138:1 758:1 767:1 769:1 2575:1 2576:1 2577:1 2578:1 
2.135421593786599 2575:1 
3.937801330536564 33:1 257:1 2203:1 2597:1 2598:1 
3.56561410194385 33:1 257:1 491:1 2203:1 2597:1 2598:1 
0.7530405244194502 1000:1 2169:1 
7.130106559368926 140:1 758:1 2073:1 2179:1 2631:1 
0.4959158424860709 281:1 671:1 758:1 2631:1 2667:1 2668:1 2669:1 2670:1 
2.11020647044405 758:1 2631:1 2652:1 2671:1 2672:1 2673:1 2674:1 
1.920471965626166 424:1 600:1 1112:1 1632:1 1858:1 1862:1 2006:1 2631:1 2645:1 2656:1 2679:1 2680:1 
1.878464166319346 128:1 211:1 470:1 758:1 2058:1 2631:1 2690:1 2691:1 
0.9606836581516883 120:1 440:1 693:1 1848:1 2694:1 2695:1 2696:1 2697:1 
1.249146318162023 292:1 591:1 674:1 758:1 1107:1 1761:1 2704:1 2705:1 2706:1 
3.70570885806088 693:1 758:1 1782:1 2631:1 2720:1 2726:1 
1.94887825857883 129:1 177:1 310:1 579:1 758:1 856:1 1505:1 2668:1 2719:1 2727:1 2728:1 
1.610543206076673 392:1 527:1 528:1 2168:1 2631:1 2737:1 
7.572495637339553 603:1 758:1 2637:1 2738:1 2739:1 2740:1 
3.806977214591137 41:1 132:1 758:1 902:1 1275:1 2797:1 2798:1 
2.017219903143773 14:1 196:1 197:1 219:1 381:1 1610:1 2141:1 2828:1 
7.739470363727522 136:1 139:1 210:1 2833:1 
7.373399234196643 2847:1 2848:1 2849:1 2850:1 
4.400187911608514 176:1 196:1 197:1 251:1 253:1 254:1 255:1 294:1 346:1 355:1 431:1 565:1 2855:1 
8 184:1 337:1 359:1 2364:1 2856:1 
3.523919745616213 2859:1 2860:1 
3.774073981881018 609:1 1224:1 2888:1 
8 184:1 644:1 2364:1 
8 281:1 386:1 453:1 640:1 1748:1 
0.7851621930829316 129:1 393:1 1061:1 1254:1 2375:1 2645:1 2918:1 2919:1 
0.7444325792275797 138:1 184:1 860:1 869:1 2931:1 2932:1 2933:1 
0.6489713345366349 184:1 860:1 2816:1 2817:1 
4.014862993852729 48:1 70:1 372:1 986:1 1024:1 2981:1 2982:1 2983:1 2984:1 
0.1773374319298873 92:1 129:1 328:1 448:1 1170:1 2207:1 2996:1 2997:1 
2.2245686023274 2950:1 2951:1 
5.840107526181025 357:1 358:1 
1.97241102821293 184:1 870:1 
0.776226950947594 184:1 870:1 
5.625073012075512 184:1 2335:1 3063:1 
0.1060332712376706 73:1 184:1 870:1 3108:1 
2.198177212749818 53:1 124:1 263:1 265:1 1487:1 1537:1 1700:1 2238:1 2244:1 3111:1 
1.2476782231508 297:1 2207:1 2944:1 2945:1 2946:1 
0.883904193772578 525:1 2438:1 2897:1 3120:1 3121:1 3122:1 
3.262105176080042 20:1 185:1 219:1 769:1 870:1 2610:1 
1.023783495953958 83:1 92:1 1170:1 2207:1 2574:1 2996:1 2997:1 3132:1 3133:1 
3.696944985110463 875:1 2192:1 2840:1 2841:1 2842:1 3057:1 
1.627941209598491 71:1 1255:1 1700:1 2509:1 2561:1 3138:1 3139:1 3140:1 3141:1 3142:1 3143:1 
0.2450562786879046 199:1 485:1 1534:1 3152:1 3153:1 3154:1 3155:1 
1.801461943075938 139:1 534:1 538:1 871:1 
0.1890220971926734 297:1 3132:1 3168:1 3169:1 3170:1 3171:1 
8 616:1 
1.227041791648993 840:1 872:1 1776:1 3197:1 3198:1 
1.544042902594964 10:1 357:1 358:1 379:1 1044:1 1106:1 1217:1 1352:1 1429:1 1451:1 2201:1 2246:1 3200:1 3201:1 
1.656514873329211 201:1 255:1 346:1 355:1 1091:1 1334:1 2742:1 3134:1 3215:1 
1.66772068606814 874:1 875:1 2736:1 3219:1 3222:1 3224:1 3225:1 3226:1 
3.930466815487804 458:1 970:1 3219:1 3220:1 3222:1 3235:1 3236:1 3237:1 3238:1 
0.6665721221301596 184:1 870:1 2364:1 
1.063681048491701 14:1 814:1 1776:1 2847:1 2848:1 
2.121536617797924 205:1 357:1 358:1 671:1 1103:1 1334:1 1451:1 1721:1 3270:1 3271:1 3272:1 3273:1 
4.368214856556947 129:1 197:1 294:1 337:1 417:1 431:1 1352:1 2804:1 3274:1 3275:1 
3.290475878072818 47:1 124:1 175:1 176:1 286:1 287:1 1776:1 3286:1 
8 46:1 47:1 1776:1 
0.2673779997027911 205:1 297:1 2322:1 3308:1 3309:1 
2.278859365965598 64:1 68:1 69:1 2276:1 3367:1 3368:1 
2.075870408235569 307:1 637:1 1907:1 2073:1 3393:1 3394:1 3395:1 3396:1 3397:1 3398:1 3399:1 
1.999339042895512 10:1 81:1 418:1 419:1 621:1 2386:1 3417:1 3418:1 3419:1 3420:1 
3.129030013746988 355:1 1015:1 1041:1 3426:1 3432:1 3433:1 3434:1 3435:1 3436:1 3437:1 3438:1 
7.864741576397063 1259:1 2120:1 
2.825347264163746 294:1 431:1 3026:1 
1.315208614830378 3460:1 
8 204:1 2089:1 3463:1 3464:1 
4.275384630432676 864:1 3465:1 
2.597036892838831 432:1 1694:1 
2.199111425257117 255:1 3129:1 3291:1 3430:1 3431:1 3468:1 3469:1 3470:1 3471:1 
0.7603446760152264 1537:1 3509:1 3510:1 
5.284750136242392 2114:1 3514:1 
0.03924878685428723 386:1 3359:1 
0.3858953024962958 98:1 199:1 372:1 463:1 620:1 1982:1 3551:1 3552:1 3553:1 3554:1 3555:1 
1.860042207944378 33:1 226:1 3566:1 3569:1 3570:1 
2.821285844000944 2572:1 
1.353839856151264 386:1 3359:1 
5.356690753558635 1828:1 1829:1 
8 2791:1 
5.588712640311048 1311:1 3593:1 3594:1 
0.8246244330526814 204:1 1062:1 1820:1 2903:1 3446:1 3613:1 3614:1 3615:1 3616:1 
0.1742761420836289 33:1 184:1 891:1 3632:1 3633:1 3634:1 
0.9895175692227216 3174:1 
0.89670752930775 128:1 453:1 1252:1 1676:1 3494:1 3642:1 3643:1 3644:1 3645:1 3646:1 
6.315885668785117 1249:1 
0.3065294962836609 276:1 812:1 813:1 3654:1 
2.808709166870126 85:1 305:1 3587:1 3669:1 3670:1 
2.835516635272695 3671:1 
2.635668940202926 3672:1 3673:1 
1.614663645352402 640:1 2629:1 3011:1 3012:1 
4.378188408662229 79:1 226:1 3677:1 3678:1 3679:1 3680:1 
0.2384248515664492 73:1 386:1 428:1 803:1 2191:1 2667:1 3681:1 3682:1 3683:1 
5.281570741498498 89:1 1508:1 1516:1 1928:1 3712:1 
4.508073356338562 152:1 310:1 426:1 436:1 1881:1 3506:1 3713:1 3714:1 3715:1 3716:1 
3.54889888449108 372:1 1406:1 2717:1 3717:1 3718:1 
0.05680828415613085 88:1 2287:1 3722:1 
0.3037027492735294 815:1 2239:1 3438:1 3743:1 3744:1 3745:1 3746:1 3747:1 
1.691734559315222 779:1 2051:1 2081:1 
4.04353837715711 581:1 620:1 3750:1 3751:1 
1.348660652360685 276:1 1563:1 1649:1 2903:1 3599:1 3767:1 3768:1 
0.0424674182521165 131:1 226:1 565:1 814:1 870:1 1551:1 3400:1 3720:1 3769:1 3770:1 3771:1 3772:1 
1.140938000900474 138:1 832:1 1530:1 2431:1 3825:1 3826:1 3827:1 3828:1 
6.289114213192677 437:1 620:1 639:1 2549:1 3028:1 3833:1 3834:1 3835:1 3836:1 
1.448250838024389 199:1 245:1 372:1 1437:1 3837:1 
1.852533642932119 85:1 814:1 1776:1 3874:1 3875:1 3876:1 3877:1 
8 184:1 199:1 463:1 814:1 872:1 1776:1 
5.138831838575301 594:1 780:1 1820:1 3901:1 3902:1 3903:1 
0.1101446436614906 215:1 422:1 661:1 814:1 1776:1 1842:1 3909:1 
0.9869210879667193 21:1 1847:1 3068:1 3385:1 3469:1 3974:1 3975:1 3976:1 3977:1 
1.287605650198488 128:1 226:1 1378:1 2110:1 3120:1 3495:1 3587:1 3997:1 3998:1 3999:1 
0.1393484040434777 178:1 226:1 252:1 1088:1 2624:1 2633:1 3505:1 3518:1 3728:1 4000:1 
0.04452344844661164 69:1 226:1 564:1 650:1 1769:1 2648:1 3074:1 4001:1 
0.9369391437454725 75:1 194:1 263:1 1700:1 1757:1 1758:1 2280:1 4010:1 
8 184:1 210:1 814:1 870:1 4011:1 
1.326242856851843 30:1 453:1 494:1 640:1 2441:1 2804:1 4028:1 4029:1 4030:1 
1.980889092564552 999:1 3345:1 3569:1 4033:1 4034:1 
1.513602814685555 639:1 1339:1 1905:1 2565:1 3569:1 3686:1 4040:1 4041:1 4042:1 
2.489100528429889 4012:1 4018:1 4043:1 4044:1 
1.565140101428431 276:1 372:1 1245:1 2367:1 3569:1 3924:1 3993:1 4045:1 4046:1 4047:1 4048:1 
3.339585083138055 1777:1 1857:1 
0.3650823744411835 88:1 3282:1 4065:1 4066:1 4067:1 
2.158016929496081 1819:1 3569:1 
8 93:1 107:1 627:1 856:1 1781:1 3569:1 4088:1 4089:1 4090:1 
0.07491835144056734 280:1 372:1 2171:1 4009:1 4104:1 
6.686653222503559 464:1 779:1 856:1 4106:1 4107:1 4108:1 
4.211620328814344 443:1 615:1 1848:1 2297:1 3035:1 4109:1 4110:1 
8 373:1 839:1 4111:1 4112:1 4113:1 4114:1 
0.7711494673130878 288:1 732:1 1776:1 1783:1 1822:1 1849:1 2565:1 3728:1 3996:1 4122:1 4123:1 
0.6310121447224507 39:1 226:1 603:1 851:1 2739:1 4166:1 4167:1 4168:1 
0.6960144169118976 327:1 3257:1 
2.784230123528612 14:1 15:1 1493:1 1537:1 1567:1 2840:1 2841:1 2842:1 4169:1 
2.482486759312385 301:1 305:1 815:1 1161:1 2576:1 3249:1 4210:1 
0.5982368294609259 47:1 372:1 1502:1 1837:1 2297:1 3494:1 4167:1 4168:1 4225:1 4226:1 
2.44556144205617 814:1 872:1 1776:1 4212:1 4213:1 
1.911254959131422 15:1 337:1 1776:1 3873:1 4208:1 4243:1 
7.677031046778766 46:1 47:1 127:1 128:1 468:1 2717:1 4239:1 4240:1 
4.211280543594584 6:1 75:1 226:1 334:1 369:1 370:1 372:1 2145:1 4017:1 4249:1 4250:1 4251:1 
0.3833947332818482 178:1 331:1 1776:1 1907:1 4258:1 4259:1 4260:1 4261:1 
0.06873112410027125 253:1 510:1 1226:1 1252:1 2528:1 4024:1 4041:1 4263:1 
0.0009370181767976516 357:1 1330:1 1352:1 2350:1 4266:1 4267:1 4268:1 
1.145328122114102 3186:1 4272:1 4273:1 4274:1 
0.4555819983449027 4276:1 4277:1 
4.779220671563091 4290:1 4291:1 4292:1 
1.949700266095626 50:1 251:1 386:1 821:1 2063:1 4308:1 4309:1 4310:1 
0.9461716158933886 429:1 963:1 1076:1 1081:1 1246:1 1869:1 3040:1 3937:1 4320:1 4321:1 4322:1 
1.71206630717717 371:1 386:1 628:1 963:1 3938:1 4323:1 4324:1 
8 165:1 201:1 4079:1 
0.03499392094499744 4123:1 4211:1 4348:1 4349:1 
1.472461752639697 1246:1 1323:1 3338:1 3416:1 3525:1 3942:1 4366:1 
3.397188227515552 985:1 1385:1 4371:1 
8 210:1 440:1 
1.548012300523286 181:1 3416:1 4379:1 
0.6729530694377766 181:1 419:1 3416:1 4380:1 
0.7549327579943379 426:1 429:1 628:1 1184:1 1217:1 1869:1 2043:1 2347:1 2634:1 3235:1 4286:1 4384:1 
0.07094526890229991 265:1 2379:1 2590:1 2734:1 4077:1 4406:1 
0.8941313712824912 355:1 1720:1 1771:1 3227:1 4416:1 4417:1 4418:1 4419:1 4420:1 
2.562324073898437 470:1 739:1 1891:1 3518:1 3586:1 4430:1 
0.01971831478425258 371:1 529:1 1041:1 1609:1 3438:1 4436:1 4437:1 4438:1 4439:1 
0.6969441293843294 278:1 1419:1 1909:1 4287:1 4412:1 4462:1 
1.250482114719219 340:1 1557:1 1647:1 1865:1 3766:1 4470:1 
2.081117086460248 88:1 1557:1 4342:1 4473:1 4474:1 
8 1557:1 3766:1 4470:1 4490:1 
0.9230274905088363 1557:1 2615:1 3033:1 4474:1 4500:1 
4.165723159939648 123:1 1557:1 1567:1 3095:1 3491:1 
1.327286881343273 3095:1 3326:1 3570:1 4474:1 4501:1 4502:1 4503:1 4504:1 4505:1 
1.645313860761251 2659:1 4512:1 4513:1 
4.741680520474574 4290:1 4529:1 4530:1 
0.4083447063198283 429:1 1514:1 2568:1 3040:1 3700:1 4538:1 4556:1 
6.182700723848876 4566:1 
1.013881752813215 1187:1 1295:1 1437:1 1609:1 4201:1 4357:1 4584:1 4585:1 4586:1 4587:1 
0.9118588017292685 4602:1 
1.017612362216654 297:1 589:1 780:1 2117:1 2743:1 4173:1 4608:1 
6.608671034030193 4611:1 4612:1 4613:1 4614:1 
4.394756354990531 88:1 146:1 371:1 1958:1 4615:1 4616:1 4617:1 
1.98332046161161 297:1 859:1 1035:1 4342:1 4568:1 4630:1 4631:1 4632:1 4633:1 
1.378719671103899 2074:1 4511:1 
0.08877344437859595 107:1 226:1 444:1 508:1 1129:1 2431:1 3952:1 4456:1 4572:1 4672:1 4673:1 
7.859107804904465 4692:1 
2.670943858349674 3812:1 
1.080002375113344 91:1 1609:1 2352:1 4495:1 4680:1 
0.7733851407436458 163:1 1907:1 2198:1 2564:1 3453:1 4710:1 4734:1 
1.341857029541039 1514:1 1736:1 2351:1 4282:1 4740:1 
0.7962474306565901 272:1 439:1 600:1 2209:1 
0.1212569715743864 4290:1 4723:1 4759:1 4760:1 4761:1 4762:1 4763:1 
2.133184502360406 193:1 549:1 1005:1 1044:1 3239:1 4547:1 4709:1 4781:1 4782:1 
2.771162255381768 2614:1 
0.511622271261941 512:1 780:1 1864:1 2118:1 4794:1 4795:1 4796:1 
0.7246973845130391 3048:1 3552:1 4245:1 4414:1 4806:1 4807:1 
0.06549169411191527 1616:1 4287:1 
0.8753439744132253 2573:1 4820:1 4821:1 
0.4783228886384424 4832:1 4833:1 4834:1 4835:1 
1.949408581879222 2164:1 4183:1 4838:1 4839:1 
1.468808191691285 371:1 2585:1 4841:1 4842:1 
0.3403069621559068 4271:1 4451:1 4862:1 4863:1 
0.4313766265348261 4867:1 4868:1 4869:1 
0.4066853506993883 971:1 4878:1 
0.791817219257673 4879:1 4880:1 
2.040636510289975 281:1 1363:1 2338:1 3892:1 4270:1 4667:1 4889:1 
0.1147361245982023 281:1 1363:1 2338:1 3892:1 4270:1 4667:1 4894:1 
3.459611178349261 1061:1 1501:1 4270:1 4461:1 
0.6302863929070284 372:1 416:1 818:1 3742:1 4773:1 4857:1 4909:1 4910:1 4911:1 
0.04569296662074415 220:1 426:1 3095:1 4903:1 4912:1 
4.371527506047771 4560:1 4917:1 
1.844528986434028 4284:1 4918:1 
1.53536406361158 1325:1 1810:1 2616:1 4278:1 4440:1 4938:1 4939:1 4940:1 
0.196981122969323 19:1 292:1 318:1 661:1 4941:1 
8 210:1 
0.1425693478266155 1822:1 4150:1 4856:1 4946:1 4947:1 
5.933003190376204 607:1 4372:1 
1.123464038207395 2086:1 2091:1 2179:1 4279:1 4290:1 4950:1 4951:1 4952:1 
1.242845988710807 165:1 219:1 292:1 1171:1 1379:1 1396:1 2208:1 4978:1 
3.516319454008956 1042:1 3438:1 4834:1 
0.1313126093006041 124:1 3438:1 4992:1 4993:1 
1.097007317154225 266:1 515:1 583:1 1419:1 4077:1 4919:1 4996:1 4997:1 
0.9799026561079029 429:1 563:1 612:1 4287:1 4538:1 4969:1 5001:1 5002:1 5003:1 
0.07199111835685416 4919:1 5004:1 5005:1 
0.05916989756423911 93:1 124:1 392:1 467:1 592:1 3202:1 4103:1 
2.183343613292039 93:1 124:1 392:1 467:1 592:1 3202:1 4103:1 
0.1021810798807785 248:1 292:1 1846:1 4255:1 5041:1 
0.01341309393036986 292:1 859:1 4190:1 4278:1 5048:1 
0.05964187036227885 248:1 292:1 1846:1 4255:1 5041:1 
3.844421680139013 126:1 2248:1 4279:1 
0.9268664982467713 1822:1 2073:1 4856:1 4878:1 5060:1 5061:1 
0.05691979779714563 268:1 499:1 2572:1 4363:1 4550:1 4608:1 
2.550775718562189 73:1 3590:1 5092:1 5125:1 
2.132561473181501 440:1 1685:1 4569:1 5127:1 
1.417045180840317 79:1 123:1 165:1 4413:1 
0.6520708379287132 2754:1 4601:1 5034:1 
0.5967365781720757 2754:1 4601:1 5034:1 
1.513911968054039 281:1 465:1 549:1 859:1 2298:1 4285:1 4785:1 4836:1 5215:1 
0.7892355310888861 971:1 5228:1 5229:1 5230:1 5231:1 
0.4684168493464289 123:1 485:1 692:1 3140:1 3180:1 4291:1 5239:1 
1.258108765498827 2248:1 2254:1 4279:1 4928:1 5253:1 
0.5511182451016237 292:1 393:1 2248:1 4279:1 5254:1 5255:1 
0.6679429566942455 3547:1 4247:1 5259:1 5260:1 
1.412541641085076 355:1 2048:1 3249:1 
0.8956016431895547 102:1 120:1 292:1 1192:1 3040:1 3726:1 5185:1 5263:1 
1.813796518925765 426:1 3289:1 4512:1 5272:1 
0.7115626541085953 393:1 1522:1 1642:1 5273:1 
6.931899339011699 1181:1 4905:1 
0.9946250169053713 5285:1 
0.7689859482244186 2494:1 
1.01122109102076 88:1 
0.6917462201450456 88:1 
2.457336470879907 327:1 1493:1 3257:1 
8 327:1 4475:1 
1.671870261754147 327:1 3257:1 5328:1 
7.683128684908319 1609:1 
0.9174223139247329 255:1 1041:1 1448:1 5321:1 5322:1 
8 184:1 
0.5202165866568572 4270:1 4460:1 4475:1 
0.0842653517096022 327:1 4687:1 4702:1 5197:1 5199:1 
1.326074559134369 465:1 3410:1 4285:1 5340:1 5341:1 
0.6951908100811139 470:1 2533:1 4270:1 
3.181296502452629 648:1 3682:1 5348:1 
3.108290309199191 2295:1 4271:1 
1.562916466346966 281:1 327:1 1737:1 4864:1 5344:1 
0.5358615389570636 88:1 
0.8870352725519692 4271:1 4305:1 5365:1 5366:1 5367:1 
6.769911084842005 2237:1 4352:1 5369:1 
0.07695326267154895 1954:1 5373:1 
0.7268614948749724 5374:1 
1.071967665119053 5375:1 5376:1 
8 305:1 
2.514269645954124 426:1 687:1 1044:1 2677:1 4352:1 4353:1 5387:1 5388:1 5389:1 
2.964230325796516 2347:1 5390:1 
8 327:1 
1.039280899825569 358:1 3835:1 4290:1 5411:1 5412:1 
8 439:1 2209:1 
2.053992273745263 10:1 320:1 596:1 638:1 3040:1 4046:1 5420:1 
4.470647268159553 93:1 5419:1 
7.462235276259375 131:1 1632:1 
4.06004346514125 5422:1 
0.04882428051460612 4556:1 5436:1 
0.06495515260692877 327:1 411:1 1024:1 1072:1 3257:1 3313:1 
1.308617821545355 1502:1 1697:1 
0.3157635864916882 1697:1 3918:1 4412:1 5464:1 
0.08703652958715064 355:1 565:1 1335:1 2198:1 4423:1 4842:1 5428:1 5480:1 5481:1 5482:1 
3.964074312854948 327:1 3257:1 
0.7680562400890891 83:1 598:1 1514:1 4517:1 5471:1 5477:1 5491:1 
0.450875200618604 88:1 226:1 576:1 1335:1 1459:1 5398:1 5496:1 5497:1 5498:1 5499:1 
8 327:1 
0.2613069234101038 223:1 515:1 2051:1 3040:1 4193:1 4690:1 
0.7822420820304594 371:1 2211:1 2250:1 3272:1 4379:1 5533:1 5534:1 
0.7298291822822923 1035:1 
3.159650086709772 201:1 465:1 681:1 3338:1 
8 138:1 439:1 
1.83923387713341 327:1 985:1 1493:1 2616:1 3257:1 
0.1783265066032997 304:1 1748:1 2171:1 2593:1 5563:1 5564:1 5565:1 
0.2998130136660584 93:1 138:1 272:1 574:1 2026:1 2616:1 3040:1 4340:1 5574:1 
1.435661637526298 3552:1 4643:1 
0.7367090463036847 178:1 327:1 928:1 2295:1 5312:1 5313:1 5587:1 
0.7704848871590713 327:1 2295:1 3525:1 4308:1 4817:1 5152:1 5295:1 5590:1 5591:1 
0.2245497231547029 1220:1 2239:1 2644:1 4046:1 4320:1 5592:1 5593:1 5594:1 
1.563921461051331 443:1 2879:1 3018:1 4910:1 5442:1 5598:1 
1.721646782865118 1340:1 3172:1 5616:1 
0.7988752948755306 248:1 334:1 597:1 2437:1 2966:1 3624:1 
3.31454968485667 1226:1 2969:1 3668:1 4290:1 4346:1 4639:1 
0.4838372882929127 141:1 789:1 3506:1 5086:1 
3.118201127605891 42:1 79:1 193:1 1447:1 2528:1 5626:1 
0.3879041518324682 88:1 
1.48515826158123 412:1 3406:1 5639:1 
0.9550544430611824 394:1 3243:1 4023:1 4437:1 4887:1 4888:1 5642:1 5643:1 5644:1 
0.2519237714542157 1176:1 2441:1 3312:1 5302:1 5303:1 5657:1 
1.336528722494458 761:1 1220:1 1221:1 5621:1 5658:1 
2.363779314013629 821:1 1335:1 3452:1 5686:1 
0.7433937950703424 465:1 638:1 3174:1 3243:1 3682:1 4822:1 5506:1 5702:1 
0.3498351674022108 385:1 2086:1 5071:1 5705:1 
0.2207512275729432 1131:1 4308:1 4342:1 4723:1 5721:1 5722:1 
0.01092817125388809 1097:1 5721:1 5746:1 5747:1 
0.3841255435817619 84:1 2237:1 4543:1 5759:1 5760:1 5761:1 5762:1 5763:1 5764:1 5765:1 
0.3758808616267725 211:1 5770:1 5771:1 5772:1 5773:1 5774:1 5775:1 
0.938718268926535 79:1 257:1 761:1 3095:1 5775:1 5779:1 
2.894333390490084 691:1 3416:1 5706:1 
0.02695124370235119 123:1 4201:1 
0.812496311499334 355:1 963:1 3068:1 3991:1 4330:1 4379:1 4449:1 5534:1 
3.91717565742077 37:1 128:1 3075:1 3202:1 4355:1 4472:1 5794:1 5795:1 
0.05484423229631569 833:1 1176:1 2970:1 4484:1 4553:1 5383:1 5798:1 5799:1 
3.211388525685649 79:1 663:1 5803:1 5804:1 5805:1 
2.955733386949941 4091:1 4579:1 
0.8419957588158562 79:1 3130:1 3525:1 4229:1 5812:1 5813:1 
2.810232157145877 4305:1 4306:1 5820:1 
0.1721425034823101 4729:1 5242:1 
2.161678288379056 376:1 467:1 2091:1 2179:1 4091:1 4270:1 
7.552855661779596 578:1 4271:1 4751:1 5839:1 5840:1 
2.106910305282918 138:1 386:1 4852:1 4865:1 5880:1 5881:1 5882:1 5883:1 5884:1 
0.2194951828119477 27:1 123:1 128:1 152:1 443:1 1751:1 4414:1 4447:1 5345:1 5885:1 
0.3219703882872245 27:1 827:1 856:1 4553:1 5895:1 
1.727245435294642 4723:1 5809:1 5897:1 
0.8182690553527433 288:1 3517:1 4093:1 4484:1 5072:1 5899:1 5900:1 
1.843205210682821 2615:1 3748:1 5377:1 5906:1 
2.783119333623489 4170:1 5758:1 5921:1 5922:1 5923:1 
6.148330363700461 734:1 2528:1 
1.866074457592398 211:1 426:1 734:1 1846:1 2528:1 4289:1 
2.247265639273227 734:1 2528:1 3586:1 
3.390849405740314 1537:1 5933:1 
8 4723:1 
0.3402275455733631 1557:1 2354:1 4682:1 5954:1 5955:1 
0.2796246390480395 282:1 3070:1 4478:1 4553:1 4727:1 5873:1 
5.376192096571238 281:1 5007:1 
4.344375937900947 3:1 3303:1 
0.3043830488547564 5792:1 
1.466429183110269 2323:1 3163:1 4419:1 4786:1 5875:1 
0.7812160444232406 201:1 292:1 865:1 1814:1 4132:1 4964:1 6004:1 6005:1 
2.719899604436934 1603:1 2572:1 2649:1 6014:1 6015:1 6016:1 6017:1 
1.476315453823762 125:1 2570:1 6019:1 
1.026213596384812 1044:1 1736:1 1831:1 3918:1 4776:1 6020:1 6021:1 
0.1717453003825147 88:1 
0.2405278636068333 2291:1 4271:1 4300:1 5776:1 6043:1 
0.2734512432188893 79:1 699:1 835:1 1564:1 5345:1 5824:1 6045:1 6046:1 6047:1 
8 79:1 
1.312010723098846 88:1 
1.914894714968022 211:1 304:1 1776:1 1798:1 4402:1 5345:1 5417:1 6058:1 6059:1 
8 3686:1 6060:1 
1.393808763169677 1530:1 2698:1 2946:1 
1.602131321478149 138:1 146:1 227:1 2026:1 4342:1 5442:1 6067:1 
1.219451402594687 226:1 1171:1 
1.979207195626173 215:1 393:1 543:1 780:1 2211:1 2438:1 
0.3439781337388731 79:1 123:1 318:1 4255:1 6095:1 
0.5909490149938638 88:1 
0.7383752025569209 124:1 651:1 3091:1 4469:1 6039:1 6109:1 6110:1 6111:1 
0.8790206830516263 1736:1 3338:1 5006:1 5330:1 5998:1 6115:1 6116:1 
0.08472622031475505 1245:1 2590:1 2615:1 4353:1 4586:1 4660:1 6076:1 6124:1 6125:1 
0.4332335385329157 435:1 608:1 1419:1 2180:1 3285:1 4834:1 5924:1 
1.62062280363608 1379:1 1736:1 4749:1 5301:1 5943:1 
0.7407938920089876 1005:1 2322:1 4477:1 6159:1 
0.09362683038070312 106:1 318:1 353:1 385:1 2048:1 4423:1 6165:1 
2.369101515785974 165:1 859:1 1323:1 1335:1 1846:1 2074:1 5126:1 5410:1 6166:1 
0.2984924684851925 110:1 839:1 4724:1 4821:1 6167:1 6168:1 6169:1 6170:1 6171:1 
2.988877704815114 3684:1 4282:1 6178:1 
8 835:1 2089:1 
0.7545188842836434 107:1 679:1 2218:1 3726:1 
0.08440769302696037 3644:1 6182:1 
0.8985573196783158 1369:1 2930:1 4419:1 5048:1 6184:1 
1.042679976000895 689:1 692:1 1254:1 1685:1 2624:1 2712:1 3282:1 4167:1 4493:1 5071:1 
0.4102928390920154 193:1 570:1 1831:1 3834:1 5144:1 6221:1 
0.07344939804898586 265:1 3338:1 4359:1 6222:1 6223:1 6224:1 6225:1 
0.8413067654592125 392:1 467:1 805:1 
6.254943169326013 93:1 4271:1 4385:1 
0.6741809990266652 429:1 1869:1 3336:1 6228:1 
4.000998639401096 429:1 2043:1 4969:1 
1.143358168783082 789:1 1340:1 1610:1 2170:1 2632:1 4478:1 4595:1 6229:1 
1.000550268090868 175:1 268:1 1620:1 4478:1 4752:1 6129:1 6231:1 
0.2821338625035078 680:1 2445:1 4663:1 5250:1 
4.224797308725496 452:1 2145:1 2821:1 3418:1 6061:1 
3.70701915587881 1905:1 4481:1 
0.2431091035712837 570:1 1254:1 3290:1 3766:1 4478:1 5959:1 6237:1 
0.2459822618073799 1421:1 1522:1 2573:1 6246:1 
0.5018526294337683 4264:1 
0.3235326976173962 3670:1 
1.003993990160016 2058:1 4555:1 4577:1 4606:1 5256:1 6251:1 
0.0265754744817142 780:1 806:1 1864:1 2058:1 2179:1 3552:1 4577:1 5936:1 6251:1 6253:1 
0.1206524535091445 123:1 1687:1 2194:1 3307:1 4423:1 5014:1 6124:1 6257:1 
0.7237505612351909 648:1 3552:1 4392:1 5014:1 6258:1 6259:1 
2.49393915507286 4445:1 5005:1 
0.8582933240833504 10:1 4113:1 4707:1 4746:1 5490:1 5891:1 5892:1 
0.04379599022348744 470:1 488:1 1638:1 3721:1 3942:1 6272:1 
0.01295027447656313 88:1 107:1 453:1 583:1 3039:1 4805:1 5308:1 6274:1 
0.06244018048212763 88:1 107:1 453:1 583:1 3039:1 4805:1 5308:1 6274:1 
2.049065187330088 4091:1 5158:1 
0.2617757125807975 214:1 948:1 2063:1 3502:1 3766:1 5032:1 
1.151340178810776 272:1 567:1 580:1 3668:1 5399:1 5745:1 6287:1 
2.333868164810042 6289:1 6290:1 6291:1 
0.3172509179588859 201:1 1281:1 1720:1 2123:1 2531:1 3242:1 4029:1 6292:1 6293:1 
1.824307989861027 3992:1 4119:1 6295:1 6296:1 6297:1 
4.060455204660546 42:1 193:1 6292:1 
0.8264497769461249 529:1 648:1 2638:1 5306:1 6305:1 
1.67147453228202 136:1 2048:1 2610:1 3244:1 6326:1 6327:1 
0.0008149456381057047 470:1 3735:1 4379:1 4981:1 5790:1 6343:1 
1.086922333796216 426:1 1220:1 1396:1 2239:1 5116:1 6347:1 
2.233166755303022 138:1 272:1 393:1 780:1 1642:1 2026:1 2209:1 4693:1 6350:1 
0.08641945257927336 6353:1 6354:1 6355:1 
1.188151996567614 2434:1 6358:1 
0.3906422318283126 128:1 219:1 443:1 2045:1 2832:1 4586:1 4714:1 5226:1 
0.2317227556787323 268:1 3229:1 4445:1 5506:1 6365:1 6366:1 6367:1 
0.4705213488114648 565:1 5470:1 5906:1 6372:1 6373:1 
0.8026981254329445 6388:1 
0.9258245852865902 2198:1 2573:1 3040:1 4440:1 5298:1 5583:1 
0.7869168359548597 1255:1 2063:1 2211:1 2250:1 2822:1 4287:1 5533:1 
0.397559632862198 2528:1 3250:1 4091:1 6394:1 6395:1 
0.2777734154620145 88:1 
0.7766198123541728 248:1 2742:1 2970:1 5054:1 6381:1 6382:1 6385:1 6402:1 
0.7019343929768569 6291:1 
0.01559239262562279 4752:1 6407:1 
8 1447:1 2629:1 4917:1 
0.220592624184169 396:1 3443:1 4193:1 4353:1 4384:1 5020:1 6422:1 6423:1 
1.931005026906939 184:1 211:1 1145:1 1176:1 2058:1 2434:1 6431:1 6432:1 6433:1 6434:1 6435:1 
1.136605412605446 2200:1 3041:1 3974:1 4462:1 6249:1 6436:1 6437:1 6438:1 6439:1 
6.605138162768154 4091:1 6447:1 
5.914134942848257 88:1 
1.073781142789737 223:1 272:1 656:1 3259:1 6458:1 
0.008995238967744786 985:1 4414:1 5020:1 6125:1 6467:1 
0.5545193067322302 1267:1 3431:1 4460:1 6468:1 
0.6939502034532291 35:1 128:1 1379:1 2615:1 4241:1 5117:1 5175:1 6426:1 
0.09349102643609476 234:1 1229:1 3547:1 4289:1 4742:1 5259:1 5260:1 6498:1 6499:1 6500:1 6501:1 
0.0680420868067946 586:1 2285:1 6333:1 
2.878243154083695 5126:1 
8 32:1 429:1 612:1 
0.4925397365786327 5020:1 5947:1 5948:1 6508:1 6509:1 
0.4211342001535045 677:1 1642:1 2366:1 4395:1 4697:1 5072:1 5738:1 6519:1 6520:1 
0.6037506456826773 911:1 2311:1 3338:1 3423:1 3653:1 5218:1 6528:1 
5.024602959240188 1038:1 1058:1 6532:1 6533:1 6534:1 6535:1 
0.6143107870156428 394:1 4232:1 4652:1 4716:1 5776:1 6510:1 6540:1 6541:1 6542:1 6543:1 
8 6542:1 
0.2250043505934682 5154:1 
2.245090738507686 5045:1 
0.7769635254505131 3538:1 3766:1 4601:1 
0.7523426447692111 6554:1 
2.184158585843462 5316:1 
4.872969766091082 6554:1 
0.009838503698908943 1245:1 
0.2136238101783555 837:1 1217:1 4463:1 5765:1 6558:1 6559:1 
0.947657237687578 79:1 1011:1 1685:1 1877:1 1889:1 2565:1 4931:1 5020:1 5957:1 6569:1 
0.1216325566462919 462:1 1676:1 6586:1 
0.9853347893992224 5:1 3239:1 4555:1 4780:1 6160:1 6587:1 
0.7387648685365457 1448:1 1954:1 3041:1 4201:1 4712:1 4780:1 5575:1 6412:1 
0.6145845054138619 6592:1 6593:1 
2.049068820543798 29:1 859:1 4280:1 4353:1 
0.2889848069209727 322:1 394:1 1246:1 3896:1 6594:1 6595:1 6596:1 6597:1 
3.136770981259688 6623:1 
1.921641644729869 88:1 1176:1 4577:1 4578:1 
0.2301401524712524 870:1 4292:1 5899:1 6617:1 6623:1 6625:1 
0.6493971509165448 73:1 276:1 372:1 2920:1 4667:1 5006:1 5899:1 6626:1 6627:1 
0.2664382374477193 3587:1 5871:1 5899:1 6617:1 6623:1 
0.204402110294086 4917:1 5899:1 6617:1 6623:1 6631:1 
0.7450982046085028 1069:1 3539:1 5899:1 6623:1 6632:1 
3.981829485260011 6623:1 
8 6623:1 
2.531729033742026 29:1 1072:1 1439:1 2565:1 4287:1 4316:1 4638:1 6657:1 
0.7305076183781473 32:1 223:1 2052:1 2723:1 5086:1 5308:1 
0.2862564938850947 3478:1 5575:1 5991:1 6688:1 6689:1 6690:1 
0.4614373733111665 318:1 406:1 4817:1 6267:1 6693:1 
3.055322485794724 3050:1 4851:1 
2.209913993538756 4462:1 
0.07495627223830273 5154:1 
3.859907355684818 5153:1 
0.2631891292225761 6706:1 
1.358581592866942 42:1 177:1 1363:1 
0.4089401881128145 10:1 193:1 1005:1 2855:1 2959:1 4923:1 5583:1 6714:1 
0.9603881326376502 5154:1 
0.5227198686548309 434:1 1923:1 2314:1 3366:1 6717:1 
0.2572395256102223 88:1 276:1 4167:1 4201:1 4931:1 5123:1 6175:1 6611:1 6725:1 
2.726918556087888 65:1 193:1 318:1 500:1 583:1 6727:1 
4.725549702358969 42:1 193:1 4201:1 4394:1 
0.7170561176235645 3726:1 4558:1 6764:1 
2.633797241402736 138:1 272:1 859:1 4271:1 6778:1 
3.521061648729654 268:1 864:1 2207:1 4821:1 
0.5381865542852562 93:1 124:1 138:1 272:1 2771:1 5034:1 
1.649970699537932 663:1 1142:1 3726:1 6810:1 
0.033303234679868 2194:1 2304:1 6565:1 6814:1 6815:1 6816:1 6817:1 6818:1 6819:1 6820:1 6821:1 6822:1 
0.605232606419147 1819:1 2194:1 5062:1 6748:1 6811:1 6823:1 
2.233315771430807 4287:1 5011:1 6830:1 
0.7732210260787001 827:1 1389:1 2088:1 4023:1 4255:1 4268:1 4482:1 4966:1 
2.42513843561705 44:1 2081:1 4353:1 5011:1 5875:1 
0.04304467826995688 1363:1 2338:1 2903:1 2973:1 4291:1 4555:1 6856:1 6857:1 
2.351209397410533 3954:1 5571:1 6862:1 
2.451205001949927 2124:1 2348:1 5298:1 
1.618388070057242 88:1 4190:1 4555:1 5010:1 5011:1 
0.09748072937294724 213:1 494:1 3243:1 4024:1 4353:1 4931:1 5010:1 6874:1 
1.724846058451375 88:1 4447:1 6880:1 
0.05708861507765178 4091:1 
8 79:1 
0.8131312159008072 426:1 950:1 2431:1 5048:1 5613:1 6898:1 6903:1 6904:1 6905:1 6906:1 6907:1 6908:1 6909:1 
0.1194874474257398 2012:1 4275:1 4583:1 5306:1 5461:1 6898:1 6913:1 6914:1 
0.3871519654903136 6898:1 6915:1 6916:1 6917:1 6918:1 
0.1018471890900566 102:1 372:1 3095:1 4954:1 6267:1 6899:1 
8 213:1 1776:1 
0.3627525466031103 123:1 4700:1 5857:1 
0.6796681109345443 52:1 91:1 102:1 211:1 372:1 3095:1 3142:1 6934:1 
1.893184668666295 6953:1 6954:1 
0.09770553355928077 3766:1 4353:1 5388:1 6945:1 
1.12922699050082 123:1 153:1 243:1 579:1 583:1 865:1 866:1 
8.881784197001252e-16 4091:1 5167:1 
3.154241340956497 68:1 949:1 6267:1 
1.880723429353643 128:1 219:1 746:1 1199:1 4269:1 4586:1 6978:1 6979:1 6980:1 
0.2792144013297111 128:1 219:1 4586:1 4682:1 
0.6195721134390176 128:1 219:1 4570:1 4586:1 
8 44:1 
5.524982988586636 4091:1 
0.144154890185634 2143:1 2546:1 2573:1 4029:1 5657:1 
0.6426860650897988 2753:1 3795:1 4749:1 6824:1 7003:1 7004:1 
0.05268980982916915 1213:1 1226:1 4628:1 5226:1 6247:1 7026:1 
0.2456502208116446 1213:1 1226:1 1567:1 4628:1 5226:1 6247:1 6848:1 7026:1 
0.0767640122277027 1245:1 1759:1 4227:1 6411:1 7032:1 
8 327:1 3257:1 
0.1526550681979074 856:1 3452:1 4287:1 5034:1 7031:1 
0.7350625779942419 1140:1 7036:1 
7.398968630689732 679:1 751:1 752:1 
2.72605768756391 394:1 2082:1 7003:1 7041:1 
0.5227451557417149 68:1 243:1 865:1 1005:1 1856:1 2352:1 4655:1 5175:1 
8 1085:1 
0.3455889250857412 1342:1 4002:1 4517:1 4589:1 4668:1 5841:1 6597:1 
1.332769418543608 628:1 1211:1 2348:1 3952:1 5198:1 5379:1 
0.1247804826855313 234:1 358:1 691:1 886:1 2198:1 2357:1 7052:1 7053:1 
0.4222452339652494 1379:1 5122:1 5379:1 5537:1 5871:1 7054:1 
1.656540736442666 305:1 2082:1 7003:1 7057:1 7058:1 
0.4896098053735375 106:1 382:1 552:1 753:1 4534:1 
1.526313452578824 1000:1 2348:1 7079:1 
0.2141656056858268 292:1 2234:1 2386:1 2632:1 3956:1 3989:1 5071:1 5461:1 7084:1 
2.919168936985197 2123:1 2531:1 7085:1 
6.064290460913655 83:1 1072:1 2985:1 5071:1 
5.570569126016726 1557:1 4651:1 5071:1 7095:1 
2.358556901824035 1320:1 
0.04121572538154339 84:1 1211:1 3952:1 6179:1 7103:1 
2.128226757531289 328:1 508:1 1211:1 5071:1 5477:1 5818:1 7105:1 7106:1 
0.9322905247327934 79:1 650:1 1865:1 3586:1 4460:1 4490:1 4504:1 5555:1 
0.1173638346320475 39:1 281:1 2441:1 5330:1 7112:1 
0.6794805864443044 429:1 2528:1 2533:1 4173:1 4278:1 6265:1 7113:1 7114:1 
0.5284238851690254 292:1 437:1 1737:1 3745:1 4093:1 7115:1 7116:1 7117:1 7118:1 
0.7980626742755763 292:1 753:1 3517:1 3711:1 5344:1 7130:1 7131:1 
0.7079034463642064 4746:1 6329:1 6691:1 7118:1 7132:1 7133:1 
0.4137548655670382 2615:1 3766:1 4470:1 7136:1 7137:1 
1.092747371217744 457:1 753:1 4991:1 5072:1 5112:1 7141:1 7142:1 
7.496241397117091 29:1 1112:1 3763:1 7147:1 
4.539217297067989 1439:1 1806:1 4188:1 
0.6893223910610784 1647:1 2531:1 3202:1 3825:1 3887:1 5025:1 6698:1 7152:1 7153:1 
0.9271372700820959 5775:1 7147:1 
0.1562823176083501 386:1 4484:1 4943:1 5072:1 6670:1 7155:1 
0.0235694040294964 591:1 2207:1 3312:1 4093:1 5042:1 6626:1 7156:1 
0.2248718858832855 201:1 453:1 1903:1 4124:1 4601:1 
0.3504328298177939 10:1 2615:1 3040:1 3837:1 6698:1 7161:1 7162:1 
1.493966833718822 292:1 589:1 753:1 3941:1 6488:1 6827:1 7163:1 7164:1 7165:1 7166:1 
0.9630438115576347 292:1 649:1 684:1 753:1 908:1 4368:1 7168:1 7169:1 
0.2192876853760498 2565:1 4687:1 7183:1 7184:1 
6.189863512527253 386:1 3045:1 3308:1 4355:1 6555:1 
5.337298260908072 29:1 386:1 453:1 607:1 3542:1 4021:1 5882:1 
1.039770281060664 292:1 753:1 1405:1 4125:1 4687:1 5072:1 6329:1 6435:1 
4.400584531187049 3091:1 5582:1 
0.9814981862295371 20:1 663:1 712:1 1325:1 1886:1 3040:1 3660:1 3755:1 4465:1 4765:1 5623:1 6127:1 
0.3571889835044689 2594:1 4331:1 4579:1 5657:1 7117:1 7118:1 7203:1 7204:1 
2.115602641872745 292:1 620:1 753:1 1734:1 2338:1 3100:1 7205:1 7206:1 7207:1 
0.3223275648388265 88:1 508:1 578:1 597:1 4427:1 
0.1725562120974572 2239:1 2593:1 3683:1 5045:1 7216:1 
0.1544207474894799 5234:1 7219:1 7220:1 7221:1 
0.8235651635326662 334:1 596:1 638:1 4355:1 4484:1 7071:1 7081:1 7082:1 7231:1 
5.86355408794235 3977:1 4867:1 7189:1 
8 3625:1 6623:1 
0.5762031755178659 4601:1 6579:1 7189:1 
1.779800327289425 7189:1 7250:1 
1.100476531636767 1035:1 1233:1 2298:1 2400:1 5011:1 7281:1 7282:1 
0.5790422385957582 1609:1 1736:1 1849:1 2048:1 2063:1 3868:1 4021:1 7260:1 7317:1 
1.267669377147958 93:1 129:1 226:1 817:1 851:1 1898:1 2570:1 4226:1 4755:1 7337:1 
0.5181137237951735 226:1 851:1 1098:1 3504:1 4254:1 4898:1 7439:1 7440:1 7441:1 
0.7605838305863999 5017:1 7446:1 
0.1118630350205468 1000:1 1233:1 2169:1 7428:1 7438:1 7453:1 7454:1 
2.070674445729117 199:1 371:1 372:1 463:1 1015:1 2063:1 7476:1 7477:1 7478:1 7479:1 7480:1 
1.656037013201039 26:1 124:1 125:1 1700:1 2129:1 2130:1 2135:1 2341:1 7484:1 
0.08717680652258591 2760:1 4127:1 4561:1 4654:1 7497:1 7498:1 7499:1 7500:1 7501:1 7502:1 7503:1 
0.001751116889710568 199:1 226:1 336:1 1269:1 1300:1 7504:1 7505:1 7506:1 
0.4949659616597548 68:1 2117:1 2283:1 2839:1 7512:1 
0.01314244231050275 226:1 851:1 1053:1 1898:1 3805:1 7386:1 7517:1 7518:1 
1.856301937994193 386:1 987:1 7519:1 7520:1 7521:1 
0.08552821174408873 371:1 372:1 2921:1 3110:1 7301:1 7461:1 7516:1 7522:1 
0.355411791644932 29:1 310:1 328:1 628:1 851:1 1112:1 1806:1 2379:1 5346:1 6579:1 7537:1 7538:1 7539:1 
2.532009432483503 423:1 3805:1 5021:1 7548:1 
0.8744005522934393 82:1 85:1 1049:1 3917:1 6797:1 7564:1 7565:1 7566:1 7567:1 7568:1 
0.7276788151835313 2367:1 2760:1 3277:1 6004:1 7386:1 7500:1 7594:1 7595:1 7596:1 7597:1 
0.4503377684659889 328:1 3546:1 6232:1 7612:1 
0.2085589091606721 201:1 372:1 2721:1 3474:1 5931:1 7613:1 
1.220953019725926 75:1 357:1 851:1 2188:1 3273:1 7648:1 
1.371419423548346 248:1 467:1 859:1 1379:1 4181:1 7653:1 
1.260291166631097 422:1 594:1 7577:1 7642:1 7647:1 
0.7911346797735139 24:1 26:1 79:1 124:1 265:1 1537:1 1889:1 7484:1 
1.354374977267641 41:1 91:1 92:1 219:1 276:1 372:1 422:1 728:1 7642:1 
1.810720240514072 88:1 199:1 226:1 639:1 815:1 1024:1 3842:1 7687:1 7688:1 7689:1 
2.694570656851598 7131:1 
0.9376225676796346 128:1 371:1 7545:1 7786:1 7787:1 7788:1 
0.1062679994950563 310:1 758:1 813:1 851:1 2749:1 2915:1 3074:1 3321:1 4473:1 7359:1 7366:1 
4.649744676416065 7795:1 
0.8281824138716961 29:1 851:1 5815:1 5998:1 7796:1 
0.2410444845050811 1340:1 7818:1 
0.06009592959377434 703:1 758:1 779:1 892:1 1246:1 3321:1 4016:1 7366:1 7802:1 7828:1 7829:1 
2.128409964179191 46:1 47:1 48:1 3186:1 5895:1 
8 864:1 2811:1 
0.0441427479540759 92:1 199:1 371:1 372:1 463:1 2362:1 4191:1 7871:1 7872:1 7873:1 7874:1 7875:1 
1.874616795164222 201:1 310:1 694:1 851:1 1090:1 1184:1 2528:1 2956:1 6686:1 7626:1 7876:1 
0.431515727234999 14:1 64:1 65:1 150:1 2533:1 3314:1 3349:1 7615:1 7877:1 
0.1458588296437014 15:1 109:1 110:1 2908:1 3071:1 4255:1 6816:1 7911:1 7912:1 7913:1 7914:1 
0.2177518628500917 199:1 639:1 2408:1 2903:1 2962:1 3842:1 6553:1 7920:1 7924:1 
0.9003043202095442 276:1 1866:1 2675:1 7927:1 7928:1 7929:1 7930:1 
1.635518650546079 2966:1 3046:1 4867:1 5641:1 
0.5907728169946225 248:1 403:1 832:1 4178:1 7100:1 
0.7732122647792354 107:1 129:1 318:1 320:1 2287:1 4211:1 5387:1 7941:1 7942:1 7943:1 
0.3549322109252098 199:1 276:1 371:1 372:1 463:1 1905:1 2266:1 4082:1 7953:1 7954:1 7955:1 
4.605855019352073 10:1 2124:1 4132:1 4964:1 7524:1 7964:1 7965:1 
2.318981634369987 248:1 412:1 1038:1 2287:1 7983:1 7984:1 
3.674365330017638 10:1 93:1 145:1 971:1 1252:1 1616:1 1629:1 7987:1 
1.441586056615446 129:1 198:1 199:1 2287:1 3167:1 7721:1 7991:1 
0.8218848196174979 11:1 83:1 199:1 371:1 372:1 463:1 703:1 1111:1 1711:1 3097:1 3210:1 3211:1 8004:1 8005:1 
0.1165598669540376 278:1 2549:1 3103:1 
2.149746291901497 10:1 129:1 230:1 609:1 974:1 1616:1 4799:1 8022:1 
0.1157848625445502 7394:1 
0.4211469631579667 85:1 123:1 226:1 1567:1 3152:1 5131:1 7948:1 8042:1 8043:1 
0.4128943659530506 226:1 310:1 851:1 1588:1 2715:1 4749:1 6010:1 7338:1 8069:1 8070:1 
0.9319665586433543 1572:1 5734:1 7160:1 8073:1 
0.2910258117607245 3135:1 3137:1 
0.6400247217100826 11:1 123:1 1038:1 1186:1 2214:1 2959:1 3455:1 8119:1 8120:1 
0.001185354433066814 7394:1 8121:1 
0.3736676524441244 7730:1 7828:1 8122:1 
0.3974854366643463 48:1 226:1 851:1 2287:1 6206:1 8126:1 8127:1 
1.080670327080556 48:1 86:1 128:1 1299:1 8142:1 
0.1396909714884106 7394:1 
0.2320473856531178 7394:1 
0.5616105638884064 92:1 2119:1 2574:1 4657:1 8170:1 8171:1 
0.0752086458680577 7394:1 
1.041831026652928 226:1 851:1 7160:1 7381:1 7465:1 7626:1 7802:1 8184:1 8185:1 8186:1 
0.537489643697976 605:1 2891:1 2892:1 3293:1 3598:1 4245:1 4555:1 8191:1 8192:1 
0.01689433327814093 412:1 457:1 2692:1 3815:1 8193:1 8194:1 
0.03970915445495771 801:1 2633:1 3473:1 3698:1 4601:1 7319:1 8198:1 8199:1 
0.9356324278211552 801:1 2633:1 3473:1 3698:1 4601:1 7319:1 8198:1 8199:1 
0.132749631463571 199:1 371:1 372:1 463:1 819:1 1299:1 2269:1 2892:1 7515:1 7884:1 8203:1 8204:1 8205:1 8206:1 
0.5035295614855656 199:1 371:1 372:1 463:1 819:1 1299:1 2269:1 2734:1 3110:1 7884:1 8207:1 
0.5878975285971453 10:1 226:1 281:1 851:1 1599:1 1698:1 5295:1 7367:1 7368:1 8247:1 8248:1 
0.1830630239206364 7394:1 
0.6464654081266871 9:1 86:1 128:1 372:1 508:1 1299:1 
0.3964522545750027 1828:1 2335:1 6181:1 7545:1 7979:1 8259:1 8260:1 8261:1 8262:1 8263:1 
0.2451746629109331 129:1 1186:1 1354:1 1833:1 2304:1 3193:1 4255:1 8264:1 8267:1 
0.1544956423174355 7394:1 
1.852519738891471 20:1 1886:1 8121:1 
0.2948043472014881 226:1 278:1 783:1 833:1 851:1 2024:1 3538:1 4833:1 8273:1 
0.04882651771728005 372:1 981:1 2128:1 4102:1 7975:1 8279:1 8280:1 8281:1 
0.5814488875279323 109:1 1609:1 1938:1 3266:1 5505:1 8309:1 8310:1 8311:1 8312:1 8313:1 
4.346814434465019 41:1 199:1 226:1 371:1 372:1 463:1 1995:1 2362:1 
0.7324104667264206 48:1 86:1 199:1 371:1 372:1 386:1 463:1 562:1 1299:1 4190:1 
2.806608831603174 201:1 226:1 851:1 1910:1 2570:1 3074:1 3726:1 5295:1 7381:1 
1.814757777318916 88:1 226:1 310:1 490:1 824:1 851:1 1741:1 2522:1 6856:1 8320:1 8321:1 
0.737294401130569 335:1 801:1 1314:1 2081:1 2490:1 2568:1 8327:1 8328:1 8329:1 
0.3097028767693671 292:1 987:1 1299:1 2490:1 2649:1 3698:1 4601:1 8331:1 8332:1 
1.199420822492147 201:1 310:1 596:1 851:1 1655:1 2248:1 3660:1 5118:1 7396:1 7414:1 8342:1 
0.9944386391675478 92:1 199:1 251:1 1035:1 3700:1 8351:1 
0.1459280588198968 7394:1 
1.307811811737609 182:1 850:1 2565:1 2708:1 2899:1 3686:1 4899:1 7357:1 
1.650047144280982 1837:1 2482:1 
1.375424225316816 7394:1 
0.4144098939972222 579:1 2624:1 2719:1 7466:1 8105:1 8411:1 8412:1 
1.777868045392193 48:1 86:1 199:1 371:1 372:1 386:1 463:1 562:1 8071:1 8200:1 
0.270627975375477 226:1 851:1 1698:1 3772:1 7752:1 8416:1 
0.9021186560288582 128:1 288:1 372:1 851:1 2024:1 2541:1 3074:1 7367:1 
0.5850496454002977 310:1 481:1 515:1 713:1 851:1 1578:1 3018:1 7381:1 7792:1 8428:1 
0.3904110385466653 79:1 124:1 1889:1 3285:1 8446:1 8447:1 8448:1 
0.3368970639942289 7413:1 7722:1 8464:1 
1.110942024960848 3726:1 8472:1 
7.950838746073984 289:1 2052:1 2113:1 2585:1 
0.195711842236334 75:1 199:1 371:1 372:1 463:1 561:1 1041:1 8509:1 8510:1 8511:1 8512:1 8513:1 
0.4464593061512078 199:1 371:1 372:1 463:1 703:1 2269:1 8508:1 8514:1 8515:1 
0.2331537213529466 278:1 688:1 1323:1 2024:1 2720:1 3453:1 8517:1 
3.922747352013345 240:1 392:1 639:1 640:1 1737:1 2731:1 
6.403073081534415 1301:1 2417:1 
0.5866564411255019 455:1 682:1 1522:1 3366:1 
0.5783476483048408 68:1 201:1 288:1 1049:1 1334:1 2845:1 3074:1 7402:1 7626:1 8146:1 8525:1 8526:1 
0.1046785851075073 126:1 199:1 371:1 372:1 463:1 3024:1 8563:1 8564:1 
1.139867994452185 226:1 583:1 851:1 1781:1 4898:1 5232:1 5434:1 6124:1 
0.290709444693252 199:1 1322:1 1363:1 2431:1 2723:1 3842:1 3865:1 5150:1 8589:1 
0.3896177123947507 226:1 414:1 851:1 2879:1 2956:1 4724:1 6406:1 8590:1 
1.198050905933862 310:1 527:1 528:1 3171:1 4704:1 7167:1 8602:1 8603:1 
0.3822743091386178 453:1 1255:1 3077:1 3078:1 5783:1 7763:1 8025:1 8604:1 
0.6290001892818576 4:1 386:1 723:1 987:1 1299:1 2828:1 3229:1 8623:1 
0.6884074463402119 3668:1 8624:1 
0.683811488135746 226:1 310:1 851:1 3726:1 4228:1 4577:1 8631:1 8632:1 
0.2678145711241569 438:1 7605:1 7755:1 8638:1 
1.410564579732063 201:1 2237:1 2970:1 3994:1 5657:1 6201:1 8639:1 8640:1 8641:1 
0.1837105228293061 286:1 1676:1 3429:1 3598:1 5921:1 8658:1 8659:1 8660:1 
0.5963371124139497 211:1 2194:1 4292:1 8676:1 8677:1 8678:1 
1.777200449785559 397:1 434:1 690:1 4460:1 5006:1 8684:1 
0.2329734160548582 199:1 616:1 1831:1 3842:1 8025:1 8486:1 8685:1 
0.1012837253376517 276:1 1866:1 6430:1 7327:1 7927:1 8686:1 8687:1 
0.6540702502093487 70:1 342:1 508:1 3271:1 3369:1 8689:1 
1.004575873401432 107:1 443:1 6142:1 8692:1 
0.3608402713155572 7394:1 
1.108955424195848 226:1 438:1 2991:1 5003:1 7605:1 7732:1 8724:1 
2.846643891956093 3655:1 
0.5762242936989267 240:1 753:1 1437:1 4308:1 7430:1 8742:1 
0.5397651848085447 690:1 779:1 2049:1 2669:1 2828:1 4107:1 8745:1 8746:1 8747:1 8748:1 
0.5360107697874654 7394:1 
0.6889880291108139 48:1 86:1 591:1 8077:1 8781:1 
0.07172128226720584 60:1 1417:1 3249:1 4584:1 4749:1 8083:1 8794:1 8795:1 8796:1 
0.1842555037881141 7394:1 
0.636172511695303 6018:1 7720:1 8807:1 8815:1 8816:1 
0.166232119025383 211:1 276:1 394:1 1769:1 3074:1 4040:1 5017:1 8077:1 8616:1 8827:1 8828:1 
0.006152763642611958 82:1 86:1 8834:1 8835:1 8836:1 
0.7462519456816523 92:1 297:1 355:1 932:1 1246:1 5831:1 6067:1 8837:1 8838:1 
0.2035810393917346 251:1 563:1 5989:1 8858:1 8859:1 
0.01020236035805092 199:1 371:1 372:1 463:1 4584:1 5098:1 8794:1 8866:1 
0.5516926158607941 93:1 801:1 994:1 1021:1 1252:1 1299:1 1616:1 2074:1 4040:1 8878:1 8879:1 8880:1 
0.2499955586318124 735:1 930:1 1334:1 2576:1 7456:1 
0.5432545072701863 85:1 3488:1 3653:1 3668:1 7603:1 7737:1 8904:1 
0.4458635289875434 735:1 930:1 1334:1 2576:1 7456:1 
0.1464765191761788 92:1 452:1 1334:1 8915:1 8916:1 8917:1 8918:1 8919:1 8920:1 8921:1 
8 9:1 48:1 86:1 128:1 386:1 1299:1 
0.1322331532375842 7394:1 
2.282043719740114 86:1 128:1 508:1 1081:1 4239:1 8924:1 
0.661589128314312 177:1 453:1 680:1 1736:1 3763:1 5895:1 7754:1 7869:1 8490:1 8925:1 
0.07896073022892554 7394:1 
1.109028110428582 52:1 92:1 372:1 1199:1 2117:1 2828:1 7432:1 
0.2426507596658391 381:1 515:1 2594:1 8950:1 8951:1 8952:1 8953:1 8954:1 8955:1 
0.2049037263411533 1011:1 4898:1 8956:1 8957:1 
3.376157174364892 199:1 222:1 371:1 372:1 463:1 515:1 3873:1 
0.1094484169777465 205:1 3338:1 6324:1 8664:1 8973:1 
0.9065247784328267 205:1 358:1 1564:1 2200:1 4589:1 5310:1 6040:1 
0.7133857906461826 226:1 821:1 851:1 4661:1 8693:1 
5.439084582019337 288:1 3815:1 7928:1 
0.3863258949600956 29:1 226:1 851:1 2962:1 5458:1 8988:1 8989:1 8990:1 8991:1 
0.1114220976046756 19:1 69:1 75:1 286:1 2692:1 3552:1 3587:1 8904:1 9028:1 9029:1 9030:1 
0.02482909415594798 1809:1 2845:1 3698:1 4601:1 9045:1 9046:1 9047:1 9048:1 
0.1662835007675873 1809:1 2845:1 3698:1 4601:1 9045:1 9046:1 9047:1 9048:1 
0.8965866115770091 199:1 226:1 277:1 374:1 779:1 1157:1 3848:1 6351:1 
5.473877578701501 182:1 589:1 4188:1 
1.251708779178719 226:1 342:1 851:1 1245:1 2048:1 2858:1 7465:1 8934:1 9051:1 
0.2026579114720466 971:1 1898:1 9059:1 9085:1 
0.09895338112770448 332:1 515:1 640:1 9087:1 9088:1 9089:1 
1.727914875290547 86:1 128:1 182:1 508:1 850:1 8077:1 8775:1 
0.8433913706823387 1954:1 2201:1 2298:1 2619:1 8871:1 9095:1 9096:1 
1.460375947618664 332:1 639:1 640:1 896:1 3240:1 4321:1 4755:1 9097:1 
0.3379779541030931 60:1 1233:1 1858:1 1928:1 2311:1 2720:1 3539:1 8937:1 9044:1 9102:1 
0.2317425478535572 199:1 371:1 372:1 463:1 1616:1 1798:1 6303:1 9113:1 
0.05110717484092996 226:1 273:1 851:1 1352:1 2237:1 3438:1 4449:1 4969:1 
0.03672734508396805 134:1 1807:1 4091:1 5917:1 8910:1 9117:1 9118:1 9119:1 9120:1 
0.3635705651638715 134:1 1807:1 4091:1 5917:1 8910:1 9117:1 9118:1 9119:1 9120:1 
0.2218751872874588 251:1 453:1 639:1 1629:1 2533:1 9125:1 9126:1 9127:1 9128:1 
0.009741283586764397 129:1 372:1 2550:1 2619:1 3272:1 3279:1 3453:1 6317:1 6485:1 7737:1 8409:1 
0.2517471659548713 199:1 318:1 319:1 371:1 372:1 463:1 859:1 8029:1 9113:1 
0.2883131756646243 92:1 432:1 824:1 2565:1 3119:1 3140:1 3686:1 4300:1 4749:1 7418:1 8428:1 9157:1 
0.02810096638033821 4822:1 5266:1 9173:1 
0.3754979299719143 28:1 52:1 199:1 371:1 372:1 463:1 2063:1 4708:1 8238:1 8382:1 9175:1 9176:1 9177:1 
0.0003909803062671063 372:1 875:1 1035:1 1036:1 2192:1 9195:1 9196:1 9197:1 
0.6753576617618849 226:1 628:1 851:1 1907:1 3735:1 9209:1 9210:1 
0.2533926327287129 85:1 386:1 1161:1 2645:1 6113:1 6779:1 8726:1 
0.04276840784187206 93:1 182:1 183:1 3024:1 3763:1 4188:1 7811:1 
0.7345094299647136 372:1 1641:1 4275:1 7377:1 9239:1 
0.4157704706076891 37:1 443:1 1469:1 9247:1 9248:1 
0.303350417464926 92:1 251:1 1451:1 1591:1 2191:1 7819:1 8118:1 9260:1 
1.014602566781021 199:1 318:1 319:1 371:1 372:1 463:1 1949:1 2254:1 7656:1 9211:1 9262:1 
0.1365945538592826 93:1 3837:1 
3.207402442017376 29:1 30:1 129:1 226:1 851:1 9278:1 
0.721106106776925 294:1 428:1 3250:1 6499:1 7819:1 8266:1 9282:1 9283:1 9284:1 9285:1 
2.31818029581263 28:1 128:1 591:1 609:1 1036:1 1053:1 2252:1 8893:1 9286:1 9287:1 
0.701811524398063 288:1 392:1 397:1 467:1 2568:1 2899:1 4899:1 7357:1 9288:1 
0.5194766904613525 99:1 128:1 226:1 342:1 386:1 851:1 3684:1 9294:1 9295:1 9296:1 
0.03195415525599468 7:1 46:1 47:1 372:1 7610:1 9303:1 9304:1 9305:1 
0.1246240335096177 332:1 437:1 723:1 3744:1 9308:1 9309:1 9310:1 
1.062099767762222 68:1 199:1 215:1 299:1 372:1 428:1 801:1 1298:1 1616:1 3842:1 9311:1 
0.7164441141233638 20:1 219:1 305:1 1862:1 2073:1 4709:1 4891:1 7698:1 9312:1 
4.317688894189276 46:1 47:1 93:1 189:1 292:1 5819:1 
6.084492651135149 19:1 46:1 47:1 69:1 93:1 292:1 743:1 
1.879479009460334 240:1 515:1 639:1 971:1 4321:1 4748:1 7721:1 8484:1 
0.4617700443586839 412:1 8796:1 9330:1 9339:1 9340:1 9341:1 
0.3817417303999573 1161:1 1567:1 1741:1 1969:1 1970:1 3041:1 4772:1 4822:1 9351:1 
1.20890265718628 93:1 107:1 318:1 1781:1 1846:1 2531:1 2607:1 7418:1 9369:1 9370:1 
0.01422338676207979 85:1 92:1 129:1 591:1 616:1 1049:1 1641:1 6593:1 7454:1 7916:1 9394:1 9395:1 
0.2440654245238881 272:1 274:1 432:1 512:1 569:1 575:1 2565:1 2611:1 3686:1 5058:1 
0.1317662711212822 201:1 1289:1 1628:1 3502:1 3668:1 5175:1 5335:1 
1.026742807842286 310:1 318:1 455:1 527:1 2688:1 3171:1 5116:1 6558:1 9437:1 
1.01904699778153 864:1 1156:1 3670:1 5266:1 9465:1 
0.08572317148112571 851:1 1252:1 3274:1 4247:1 4890:1 5232:1 6333:1 9466:1 9467:1 9468:1 
0.06425463455783274 1405:1 1862:1 5198:1 5657:1 9354:1 9478:1 
3.426413724736283 21:1 342:1 453:1 859:1 1243:1 6529:1 
0.7436459859849925 27:1 128:1 199:1 371:1 372:1 463:1 470:1 3506:1 5728:1 
0.6836167420490976 46:1 47:1 226:1 288:1 406:1 2291:1 7950:1 9545:1 
5.642311521941601 73:1 82:1 86:1 128:1 428:1 508:1 1052:1 
0.9736285037982112 226:1 834:1 1209:1 1741:1 4517:1 5653:1 
0.3392311962248944 75:1 226:1 9556:1 9559:1 9561:1 
1.299430549152039 411:1 428:1 801:1 974:1 1036:1 1281:1 2668:1 7846:1 9500:1 
0.2181086789784752 586:1 3946:1 4070:1 9574:1 9575:1 
7.882111665510115 4103:1 
0.6192518682427031 70:1 88:1 508:1 1616:1 1864:1 2679:1 3045:1 3758:1 7986:1 8024:1 
1.76751851482001 199:1 1340:1 1614:1 2679:1 3312:1 6862:1 7469:1 
8 184:1 199:1 371:1 372:1 463:1 
0.805891281913047 92:1 220:1 318:1 824:1 1795:1 1809:1 7808:1 
1.435564202649228 199:1 201:1 358:1 2966:1 3842:1 4589:1 7347:1 9627:1 
0.4019385243717303 46:1 47:1 859:1 1813:1 2204:1 7610:1 8338:1 9625:1 
0.4877841156173895 46:1 47:1 101:1 145:1 189:1 4087:1 5991:1 9645:1 
0.1573100834607859 463:1 1847:1 6158:1 6325:1 9659:1 9660:1 
0.1012859965223078 75:1 129:1 199:1 226:1 2773:1 3842:1 5482:1 9666:1 9667:1 
6.487680478755352 1246:1 
0.04535170137168459 1847:1 3303:1 3542:1 9323:1 9648:1 9649:1 9650:1 9683:1 
0.1785932817104251 419:1 1252:1 2352:1 8506:1 9684:1 
0.0749105575093533 201:1 358:1 1912:1 2966:1 3272:1 4589:1 7347:1 9690:1 
0.1608501786828712 199:1 201:1 394:1 1157:1 2979:1 5571:1 8302:1 
0.2098072230731905 84:1 92:1 251:1 294:1 346:1 355:1 419:1 431:1 473:1 2930:1 3336:1 
2.149772782724014 9:1 43:1 128:1 253:1 342:1 372:1 508:1 510:1 3939:1 4688:1 7378:1 
0.5728931931171706 21:1 194:1 195:1 3135:1 3137:1 4377:1 9699:1 9700:1 9701:1 
0.130135264861288 199:1 371:1 372:1 463:1 1938:1 3952:1 4188:1 7628:1 9717:1 
8 7394:1 
0.4457349727129278 276:1 2408:1 3131:1 3172:1 7804:1 9754:1 9755:1 
0.7919641912166492 102:1 273:1 497:1 508:1 614:1 623:1 648:1 1421:1 7717:1 9789:1 
0.4608223654995787 85:1 276:1 342:1 386:1 1609:1 2570:1 8977:1 
0.6415575162225545 88:1 199:1 342:1 372:1 463:1 515:1 2065:1 9790:1 9791:1 9792:1 
0.1830582822802665 199:1 342:1 463:1 825:1 2890:1 3000:1 3285:1 7378:1 9798:1 9802:1 9803:1 9804:1 9805:1 
0.2603980087298599 199:1 342:1 372:1 463:1 859:1 2065:1 5214:1 8032:1 9807:1 9813:1 9817:1 9818:1 
0.618141025311971 199:1 342:1 372:1 386:1 460:1 463:1 1678:1 2065:1 4333:1 4595:1 9792:1 9840:1 
0.5116963247741736 603:1 4188:1 9837:1 
8 7:1 8:1 
8 28:1 29:1 
8 7:1 44:1 45:1 46:1 47:1 
8 68:1 69:1 70:1 71:1 
8 75:1 76:1 77:1 78:1 
8 88:1 89:1 90:1 91:1 92:1 93:1 
3.509884324611185 7:1 100:1 131:1 132:1 133:1 134:1 
8 135:1 136:1 137:1 138:1 139:1 140:1 
8 143:1 
2.334685801524129 144:1 145:1 146:1 147:1 148:1 149:1 
8 150:1 151:1 152:1 153:1 
8 184:1 185:1 186:1 187:1 188:1 189:1 
8 190:1 191:1 192:1 193:1 194:1 195:1 196:1 
8 88:1 89:1 90:1 91:1 92:1 93:1 
2.248964864911938 231:1 232:1 233:1 234:1 235:1 236:1 
6.656390967285558 294:1 295:1 296:1 297:1 298:1 299:1 300:1 301:1 302:1 303:1 
6.053284802197493 309:1 310:1 311:1 312:1 313:1 314:1 315:1 
8 48:1 68:1 325:1 
8 326:1 327:1 
5.020904552453492 45:1 298:1 333:1 334:1 335:1 336:1 337:1 338:1 
8 69:1 249:1 390:1 391:1 392:1 
7.723706067271304 379:1 402:1 403:1 404:1 405:1 
8 189:1 406:1 407:1 408:1 409:1 410:1 411:1 412:1 413:1 414:1 
8 442:1 443:1 444:1 445:1 
8 446:1 447:1 448:1 449:1 450:1 451:1 
8 456:1 458:1 459:1 460:1 461:1 
0.3878187527627536 464:1 465:1 466:1 467:1 468:1 469:1 
6.145265510779313 11:1 12:1 107:1 470:1 471:1 472:1 473:1 
2.060351993480748 510:1 511:1 512:1 513:1 514:1 
4.303552639529626 158:1 260:1 515:1 516:1 517:1 518:1 
7.99773636979963 527:1 528:1 529:1 530:1 
8 119:1 451:1 531:1 532:1 533:1 534:1 535:1 536:1 537:1 
8 268:1 567:1 568:1 569:1 570:1 571:1 572:1 573:1 
1.772360649243365 543:1 554:1 576:1 577:1 578:1 579:1 
2.813935587543962 388:1 427:1 596:1 597:1 
2.165394604407199 94:1 598:1 599:1 600:1 601:1 602:1 603:1 604:1 
4.459827889159631 612:1 613:1 614:1 615:1 616:1 617:1 
8 625:1 626:1 627:1 628:1 
1.90360207093046 14:1 316:1 393:1 397:1 398:1 562:1 629:1 630:1 
7.000538693610515 631:1 632:1 
8 633:1 634:1 635:1 636:1 637:1 638:1 639:1 
2.586322680059108 14:1 316:1 393:1 397:1 398:1 562:1 629:1 630:1 
8 7:1 107:1 189:1 640:1 
8 237:1 651:1 652:1 653:1 654:1 655:1 
8 345:1 552:1 656:1 657:1 658:1 659:1 660:1 
3.216163251625672 668:1 669:1 
0.4341649837799979 119:1 168:1 240:1 487:1 488:1 489:1 698:1 
8 706:1 707:1 708:1 709:1 
7.933395608255813 7:1 39:1 720:1 721:1 
1.760690129940018 722:1 723:1 724:1 725:1 
8 540:1 726:1 
2.112122850641541 19:1 339:1 737:1 
2.453312033456103 22:1 738:1 739:1 740:1 741:1 742:1 
8 119:1 
8 769:1 770:1 
6.783575115763626 7:1 721:1 777:1 
4.296978609582321 788:1 789:1 790:1 791:1 792:1 793:1 
0.1662804557653223 799:1 800:1 801:1 802:1 
8 89:1 106:1 803:1 804:1 805:1 806:1 
0.2680679806851182 106:1 574:1 819:1 820:1 821:1 822:1 
2.174803278305914 140:1 291:1 825:1 826:1 
0.8060361404192429 115:1 840:1 841:1 842:1 
8 747:1 850:1 851:1 852:1 853:1 
8 44:1 246:1 863:1 
8 249:1 787:1 882:1 
8 883:1 884:1 885:1 886:1 
6.430774042375283 436:1 592:1 893:1 894:1 895:1 896:1 
1.415063973603538 269:1 713:1 917:1 918:1 919:1 
8 150:1 152:1 926:1 927:1 928:1 929:1 930:1 931:1 
0.6737804781132681 328:1 949:1 950:1 951:1 952:1 953:1 954:1 955:1 956:1 957:1 
4.589671975461552 872:1 1003:1 1004:1 1005:1 1006:1 1007:1 
6.459002801220827 328:1 949:1 950:1 951:1 952:1 953:1 954:1 955:1 956:1 957:1 
2.495052071723118 35:1 89:1 151:1 180:1 181:1 303:1 1024:1 1025:1 
0.4163448814074777 574:1 1026:1 
8 7:1 737:1 1041:1 1042:1 
8 114:1 1059:1 1060:1 
5.784610306271973 1033:1 1034:1 1061:1 1062:1 
8 316:1 398:1 867:1 1078:1 1079:1 1080:1 
8 787:1 
2.149245546887998 944:1 965:1 1087:1 1088:1 1089:1 
0.3556493586655279 540:1 558:1 945:1 950:1 1093:1 1094:1 1095:1 1096:1 
8 79:1 316:1 398:1 522:1 703:1 867:1 1080:1 1097:1 
8 952:1 1108:1 
8 1119:1 1120:1 1121:1 1122:1 
8 172:1 1123:1 1124:1 1125:1 
5.145127849374265 641:1 1106:1 1126:1 1127:1 1128:1 1129:1 1130:1 1131:1 1132:1 1133:1 
3.935605501450743 106:1 602:1 1029:1 1145:1 1146:1 1147:1 1148:1 
2.638736018649761 106:1 574:1 819:1 820:1 821:1 822:1 
8 1104:1 1106:1 1107:1 1136:1 1149:1 
6.719491753657742 481:1 821:1 887:1 1164:1 1165:1 
4.235147892947994 169:1 855:1 1099:1 1166:1 1167:1 
8 540:1 1177:1 1178:1 1179:1 
1.256007161995335 100:1 101:1 240:1 487:1 488:1 489:1 1201:1 
0.6042863858048352 704:1 1212:1 1213:1 
4.923160664465629 94:1 1219:1 1220:1 1221:1 1222:1 1223:1 
2.104172312372683 654:1 1104:1 1225:1 
8 1108:1 1120:1 1226:1 1227:1 1228:1 
0.1768361476465692 571:1 1136:1 1229:1 1230:1 1231:1 1232:1 1233:1 
0.1427169058060376 119:1 168:1 240:1 487:1 488:1 489:1 698:1 
4.439497402009464 779:1 1291:1 
5.297839964904878 3:1 5:1 686:1 1311:1 1312:1 1313:1 
4.357676391731414 856:1 
1.236687794176442 43:1 339:1 1328:1 1329:1 
3.75573188420435 1300:1 
0.005564970728303692 65:1 180:1 558:1 1347:1 1348:1 1349:1 1350:1 1351:1 
3.230231311892878 380:1 787:1 851:1 1379:1 1380:1 1381:1 1382:1 
1.643013945544984 69:1 889:1 1155:1 1383:1 1384:1 
8 563:1 1385:1 
1.300652604393701 596:1 1390:1 
1.919787471985951 1130:1 1131:1 1396:1 1397:1 1398:1 1399:1 
3.133026958149913 373:1 879:1 1400:1 1401:1 1402:1 1403:1 1404:1 
1.744965595471377 119:1 154:1 207:1 881:1 1302:1 1358:1 1419:1 
0.2774689243752527 355:1 363:1 1406:1 1407:1 1408:1 1429:1 1430:1 1431:1 1432:1 
0.113035126236788 127:1 319:1 321:1 459:1 1433:1 
8 71:1 1434:1 
7.012459741010184 173:1 409:1 548:1 1452:1 1453:1 
7.035585941635738 114:1 291:1 470:1 960:1 1138:1 1454:1 1455:1 
5.965927559938109 22:1 129:1 908:1 1457:1 1458:1 1459:1 1460:1 
8 86:1 388:1 1443:1 1461:1 1462:1 
6.703029038243895 1463:1 1464:1 1465:1 
8 542:1 1466:1 1467:1 1468:1 1469:1 1470:1 
8 7:1 42:1 1479:1 1480:1 
5.549728113269431 1495:1 1496:1 
2.656255265534577 159:1 351:1 1501:1 1502:1 1503:1 1504:1 1505:1 1506:1 
0.1181720124500257 1507:1 1508:1 1509:1 1510:1 
2.44092999112367 154:1 553:1 1548:1 1549:1 1550:1 1551:1 
2.429009865841158 564:1 612:1 673:1 1555:1 
7.376513755845067 45:1 395:1 1556:1 1557:1 1558:1 1559:1 
8 322:1 323:1 1574:1 
7.579157637171857 159:1 351:1 1501:1 1502:1 1503:1 1504:1 1505:1 1506:1 
1.814028596004837 41:1 147:1 249:1 347:1 383:1 1617:1 1618:1 1619:1 
0.9351124026100417 515:1 1073:1 1636:1 
4.564425739104682 755:1 1411:1 1638:1 1639:1 1640:1 1641:1 1642:1 1643:1 1644:1 
8 558:1 1645:1 
2.130834922982202 377:1 1646:1 1647:1 1648:1 
3.801680670880883 597:1 1072:1 1338:1 1651:1 1652:1 1653:1 1654:1 1655:1 
0.6478325740156277 1670:1 1671:1 1672:1 
8 180:1 181:1 1029:1 1072:1 1420:1 1600:1 
2.258933068632245 221:1 403:1 1678:1 
1.940886583268303 81:1 1679:1 1680:1 1681:1 1682:1 1683:1 1684:1 
8 268:1 1040:1 1339:1 1686:1 1687:1 
6.931601669658679 1688:1 1689:1 
3.138266983175327 213:1 821:1 1051:1 1716:1 
3.90920403654539 241:1 1106:1 1720:1 1722:1 
1.331863349011901 210:1 365:1 745:1 877:1 1276:1 1740:1 1741:1 1742:1 
6.018630580998241 1752:1 1753:1 
2.080419557981159 1079:1 1282:1 1376:1 1761:1 
8 426:1 1775:1 1776:1 1777:1 1778:1 
1.173706853696201 174:1 408:1 630:1 1546:1 1807:1 1808:1 1809:1 1810:1 
0.6250397778094979 173:1 318:1 541:1 1092:1 1495:1 1823:1 1824:1 1825:1 
0.3679954291112552 291:1 292:1 1339:1 1826:1 1827:1 1828:1 
0.1679151240458997 424:1 644:1 752:1 1109:1 1845:1 1846:1 1847:1 
5.161114975132368 7:1 1136:1 1850:1 1851:1 1852:1 1853:1 1854:1 1855:1 
3.619405128593828 1857:1 1858:1 1859:1 
8 292:1 1846:1 1890:1 1891:1 
2.339025955315008 316:1 318:1 329:1 1894:1 1895:1 1896:1 
1.032485445852319 1902:1 1903:1 
7.025633297756313 1816:1 1912:1 
4.689391899143171 119:1 173:1 316:1 1913:1 1914:1 1915:1 
0.707622386335398 166:1 
8 1949:1 1950:1 
4.351956494065393 338:1 1324:1 1951:1 1952:1 1953:1 1954:1 
3.846336179101896 424:1 644:1 752:1 1109:1 1845:1 1846:1 1847:1 
3.430355556456929 249:1 837:1 1947:1 1990:1 1991:1 
4.698233790237245 1992:1 
1.499836981348354 119:1 168:1 240:1 487:1 488:1 489:1 698:1 
0.8187986482686459 1020:1 2011:1 2012:1 2013:1 
2.579803301177687 124:1 716:1 963:1 1297:1 1540:1 1782:1 2023:1 
0.7502822099481267 716:1 718:1 963:1 1321:1 2029:1 2030:1 2031:1 
0.2206455799297518 1294:1 
7.842710289145723 690:1 983:1 2036:1 2037:1 2038:1 2039:1 
8 19:1 35:1 43:1 1004:1 2040:1 2041:1 2042:1 
1.613538493996106 42:1 48:1 339:1 450:1 2056:1 2057:1 2058:1 
1.437314793178623 369:1 746:1 1523:1 1682:1 2060:1 
0.09095091683285901 180:1 181:1 204:1 804:1 2066:1 2067:1 2068:1 2069:1 
1.262692484279881 1155:1 1187:1 2088:1 2089:1 2090:1 2091:1 2092:1 2093:1 
0.007776332138763024 24:1 1594:1 2094:1 2095:1 2096:1 
7.026050044162489 68:1 159:1 1258:1 2106:1 
0.2245628868401054 146:1 765:1 2117:1 2118:1 2119:1 2120:1 
8 40:1 339:1 2121:1 2122:1 
2.2158046149187 2133:1 
1.922618879752034 122:1 405:1 616:1 855:1 2150:1 
3.550972096574129 369:1 746:1 1523:1 1682:1 2060:1 
0.321430008761953 649:1 1034:1 1507:1 1898:1 2162:1 2163:1 
3.043602068986082 19:1 596:1 2165:1 2166:1 2167:1 
2.167836679520335 1928:1 
0.8385155039603578 295:1 978:1 1498:1 2196:1 2197:1 2198:1 
1.477391527129393 548:1 2199:1 2200:1 2201:1 2202:1 2203:1 
5.004345760051548 283:1 347:1 779:1 2214:1 2215:1 2216:1 2217:1 
1.825256105516356 253:1 2228:1 2229:1 2230:1 
4.342937378869045 268:1 1064:1 2231:1 2232:1 2233:1 2234:1 
0.06515199248972237 114:1 146:1 369:1 393:1 623:1 803:1 1536:1 2186:1 
8 652:1 2254:1 2255:1 
7.781102739993794 820:1 1168:1 2269:1 
0.4130945917931027 256:1 289:1 437:1 1443:1 2024:1 2108:1 2114:1 2274:1 2275:1 
6.739834816211269 169:1 762:1 2280:1 2281:1 
