svm_type nu_svc
kernel_type linear
nr_class 2
total_sv 8579
rho -7.37807
label -1 2
nr_sv 5377 3202
SV
417.0695183950377 25:1 464:1 605:1 909:1 1602:1 3951:1 
22445.87665467719 5:1 6:1 7:1 8:1 
9865.562342801022 9:1 10:1 11:1 12:1 
3175.513301498115 15:1 16:1 
17571.79958668555 10:1 11:1 12:1 17:1 18:1 19:1 
9796.356096253612 20:1 
17510.06613799436 10:1 11:1 12:1 18:1 21:1 22:1 23:1 24:1 25:1 
1974.289147396824 26:1 
22451.10783940066 28:1 29:1 30:1 
7149.6703304836 31:1 32:1 33:1 
8065.404623189198 34:1 35:1 36:1 37:1 
22451.10783940066 39:1 40:1 41:1 42:1 43:1 44:1 
22451.10783940066 45:1 46:1 
12764.23881129295 58:1 59:1 
12215.5019534417 61:1 
13267.85151482158 38:1 66:1 
8223.292837724302 67:1 
17485.56435804876 73:1 74:1 75:1 76:1 
5606.992078466234 48:1 70:1 71:1 72:1 77:1 78:1 79:1 
9422.186081014384 81:1 82:1 
20324.09834924114 10:1 11:1 85:1 86:1 87:1 
22451.10783940066 88:1 89:1 
3048.622981798548 44:1 90:1 91:1 
15643.19128440182 92:1 
16525.29085758806 83:1 93:1 94:1 95:1 96:1 97:1 98:1 99:1 100:1 101:1 
11959.28429079469 48:1 49:1 50:1 102:1 
7041.566125067594 103:1 104:1 
7629.263661889507 109:1 110:1 
4402.557509360889 111:1 112:1 
20285.01703584458 113:1 
1197.527919781197 115:1 
8726.989321545436 70:1 103:1 107:1 117:1 118:1 
22451.10783940066 103:1 119:1 120:1 
6186.249743875673 91:1 123:1 124:1 125:1 126:1 127:1 
21240.44680250713 46:1 89:1 128:1 129:1 130:1 
18755.56695689735 131:1 
20021.12582709474 34:1 132:1 133:1 134:1 135:1 
15410.17867224479 136:1 
4222.626379246472 137:1 138:1 
18272.31410842975 140:1 
17426.81133067592 143:1 
12794.5942252437 49:1 144:1 145:1 
15546.84994685873 129:1 146:1 147:1 
825.8144825823728 68:1 69:1 148:1 
422.8983421037672 151:1 152:1 
22451.10783940066 77:1 
8385.102911626931 27:1 155:1 156:1 157:1 158:1 
16132.63015923026 70:1 104:1 159:1 
4137.929628235333 27:1 161:1 162:1 
7687.702121024581 163:1 
2427.628510967455 27:1 166:1 167:1 168:1 
6556.864728534713 89:1 
13351.21897767904 50:1 84:1 89:1 170:1 171:1 
15792.61915828631 112:1 172:1 173:1 
14281.72771018415 160:1 179:1 
3471.347661640402 27:1 161:1 180:1 181:1 
14083.62950001082 182:1 
14682.82114126782 184:1 185:1 
8474.743537249404 53:1 84:1 183:1 186:1 187:1 188:1 189:1 
7675.66305228687 190:1 
9155.267643932943 71:1 191:1 192:1 193:1 194:1 195:1 
2203.981833116295 56:1 67:1 71:1 84:1 108:1 196:1 197:1 
10164.34562162924 204:1 205:1 
5171.937808526392 206:1 207:1 
22446.22968880481 77:1 208:1 
22344.86427178321 70:1 153:1 
13138.924568901 70:1 207:1 
10870.10291133875 212:1 213:1 214:1 215:1 216:1 217:1 
10687.0196242951 218:1 219:1 220:1 221:1 222:1 223:1 
22192.00097132704 184:1 
637.8389888943848 63:1 232:1 233:1 234:1 
5876.280551679241 64:1 77:1 259:1 260:1 261:1 262:1 263:1 
302.7755143960812 223:1 264:1 265:1 266:1 267:1 
3161.611981309065 202:1 229:1 270:1 271:1 
218.688166626209 24:1 91:1 275:1 276:1 
319.0038326609381 281:1 282:1 283:1 284:1 
2699.008754741085 84:1 102:1 296:1 297:1 298:1 
2453.475356787604 38:1 113:1 310:1 314:1 315:1 
254.0725180982319 258:1 316:1 
6513.085283053763 329:1 330:1 331:1 332:1 333:1 334:1 
3.327644794818932 353:1 354:1 
25.508183532802 318:1 382:1 
7282.568718823939 387:1 388:1 389:1 
9342.09378733405 318:1 390:1 
1078.698100366702 6:1 349:1 350:1 
7348.980380824359 19:1 309:1 391:1 
809.2415808284964 160:1 205:1 395:1 396:1 
1754.577324150743 310:1 401:1 405:1 
6.691890555738007 125:1 309:1 
5832.085590182378 408:1 409:1 
1250.498656509928 10:1 11:1 12:1 280:1 336:1 412:1 413:1 414:1 415:1 416:1 417:1 418:1 419:1 
1070.024225339126 16:1 34:1 422:1 
46.15010009929617 423:1 424:1 425:1 426:1 
332.1388770680545 276:1 427:1 
86.24348931647734 248:1 386:1 429:1 
1082.35871382046 68:1 444:1 445:1 446:1 
1174.265993891051 120:1 299:1 433:1 450:1 451:1 452:1 453:1 
11979.32071472338 454:1 
1472.068930437417 276:1 476:1 
372.8253678889888 481:1 482:1 483:1 
376.2460150924515 484:1 485:1 486:1 487:1 488:1 
267.3196603485094 16:1 38:1 113:1 153:1 310:1 332:1 494:1 495:1 496:1 
195.4499367977138 103:1 153:1 338:1 339:1 512:1 513:1 514:1 515:1 516:1 
1493.817019981438 125:1 348:1 521:1 
1763.208973614571 48:1 125:1 154:1 
8132.399104709072 528:1 
2148.1288384533 16:1 531:1 532:1 
1984.262387292644 181:1 533:1 
36.85800641805096 543:1 
265.2674455927565 234:1 322:1 443:1 
1944.795109430725 169:1 558:1 
252.4952876817497 84:1 559:1 
2420.269090404509 67:1 197:1 564:1 
54.36168804417283 375:1 571:1 572:1 573:1 574:1 575:1 
263.7548875023929 176:1 280:1 448:1 583:1 584:1 
4642.331479682646 264:1 605:1 606:1 607:1 608:1 
36.52225462854385 63:1 205:1 222:1 589:1 609:1 610:1 611:1 612:1 
673.000876799288 184:1 229:1 613:1 
244.598712376651 113:1 169:1 
1671.425576934202 202:1 350:1 505:1 629:1 
5869.009825366455 107:1 293:1 311:1 332:1 
1047.010568635988 635:1 636:1 
210.483101435529 234:1 637:1 
464.6001667530825 6:1 234:1 288:1 638:1 639:1 640:1 641:1 
916.6339348123034 350:1 642:1 
12188.54073421632 103:1 512:1 648:1 649:1 
497.7650217353035 153:1 513:1 519:1 520:1 650:1 651:1 652:1 653:1 
3202.166636487475 153:1 347:1 651:1 652:1 654:1 
159.6188841102961 6:1 16:1 323:1 
621.5252624943159 125:1 179:1 357:1 659:1 660:1 
30.16300416723754 90:1 359:1 360:1 361:1 407:1 
3402.094037049322 5:1 84:1 661:1 662:1 663:1 664:1 
4957.596760615236 667:1 
914.647132519514 18:1 19:1 22:1 23:1 558:1 
18.86637292182986 669:1 670:1 
471.4796791370999 676:1 677:1 
198.5885453787359 44:1 259:1 
2931.05926089331 692:1 693:1 
22.73156675009987 27:1 38:1 45:1 51:1 79:1 197:1 697:1 
3017.346736634046 35:1 107:1 706:1 
223.4857573819529 84:1 713:1 714:1 715:1 
1127.110650943607 45:1 46:1 717:1 
99.10258006178326 27:1 723:1 
1212.834923511404 741:1 
1397.94653429933 308:1 492:1 746:1 
845.9470112836229 458:1 589:1 708:1 
539.2006780464967 670:1 759:1 760:1 
1438.48813844812 16:1 422:1 655:1 
1387.042599242912 779:1 780:1 
559.7960834327456 790:1 
26.42862366726826 47:1 93:1 792:1 793:1 
924.0292480045471 795:1 796:1 797:1 798:1 799:1 
612.2331851417854 657:1 802:1 803:1 804:1 
168.3145663817997 801:1 
3577.784474547221 14:1 22:1 23:1 24:1 277:1 
1106.027486202572 69:1 76:1 253:1 390:1 758:1 811:1 812:1 
540.5187585754448 35:1 137:1 161:1 181:1 452:1 815:1 
195.736555247637 36:1 791:1 818:1 
1359.173538572446 38:1 258:1 373:1 479:1 819:1 
966.8267171159627 47:1 832:1 833:1 
66.71667016753162 103:1 107:1 122:1 648:1 649:1 
823.1706559018301 593:1 655:1 794:1 840:1 
145.05773641782 156:1 652:1 842:1 843:1 844:1 
135.8772450872078 13:1 16:1 810:1 
6658.377805440931 14:1 57:1 170:1 
792.4173196421091 13:1 16:1 133:1 860:1 
922.9604611720981 56:1 104:1 692:1 861:1 862:1 863:1 864:1 
23.07522832635641 13:1 24:1 107:1 122:1 859:1 860:1 
441.9073660103699 48:1 69:1 153:1 
8.922362123479186 84:1 170:1 509:1 736:1 887:1 888:1 
3140.280166259628 876:1 904:1 
6.488529987332671 19:1 38:1 176:1 310:1 346:1 
57.46601921267039 487:1 828:1 
299.5331221764653 912:1 
592.8063676503396 344:1 916:1 917:1 918:1 
2895.088742587764 487:1 919:1 920:1 
1081.97219615122 22:1 557:1 689:1 
1877.472592154805 926:1 927:1 928:1 
986.2261334332173 27:1 161:1 531:1 935:1 936:1 
173.526402535449 137:1 352:1 941:1 
576.0138763635402 280:1 336:1 812:1 918:1 942:1 
3231.996290549589 944:1 
424.6613152891111 945:1 946:1 947:1 
600.1569782625866 104:1 332:1 395:1 
26.90576853450263 939:1 951:1 952:1 953:1 954:1 
4145.241904289333 169:1 233:1 
167.379652695449 71:1 72:1 84:1 216:1 390:1 962:1 
3448.975045693235 537:1 
540.1248609863183 955:1 956:1 967:1 968:1 969:1 
688.4088138985193 107:1 561:1 970:1 
5126.048071782025 48:1 321:1 971:1 
6.439541643580628 992:1 
1.628969657729066 223:1 250:1 744:1 979:1 999:1 1000:1 1001:1 
28.38787574817454 772:1 1016:1 
7.554640105329725 44:1 103:1 453:1 1046:1 1047:1 1048:1 
264.780779652682 611:1 1057:1 1058:1 1059:1 
529.0169918638873 264:1 480:1 727:1 1056:1 1061:1 
320.6479960251622 170:1 435:1 590:1 736:1 1057:1 1062:1 1063:1 
376.8188373163634 175:1 223:1 338:1 437:1 604:1 999:1 1064:1 1065:1 
11.2875655087927 458:1 1074:1 1075:1 
585.964189736365 167:1 288:1 898:1 
1952.492014812205 162:1 183:1 471:1 620:1 621:1 640:1 793:1 1076:1 1077:1 
1647.761993447118 313:1 758:1 
249.7067162866779 176:1 1084:1 
881.4852269043852 1088:1 
1057.588767860469 1093:1 1094:1 
901.3486232241103 6:1 197:1 275:1 1095:1 1096:1 
209.0252216894299 18:1 144:1 761:1 1050:1 1101:1 
1705.505250454114 36:1 889:1 
652.03003239784 242:1 344:1 350:1 1104:1 1105:1 
118.9799564500279 843:1 1073:1 
298.8522298215067 480:1 495:1 1050:1 1108:1 
6.655133392574132 1111:1 
908.7721709938962 18:1 68:1 496:1 537:1 1050:1 1113:1 
679.3290260125578 578:1 580:1 1115:1 1116:1 
240.0351472465955 538:1 1123:1 
21475.2156451403 147:1 233:1 
176.4989405411013 16:1 122:1 137:1 558:1 
596.1364507915529 11:1 12:1 107:1 236:1 347:1 1134:1 1135:1 1136:1 1137:1 1138:1 1139:1 
1139.367516366388 13:1 107:1 197:1 557:1 1140:1 
3692.908796847789 817:1 
16.02768992085459 1147:1 
730.2697714019877 363:1 1148:1 
419.0699404911935 48:1 137:1 492:1 511:1 983:1 1154:1 1155:1 
5573.143391376149 57:1 
231.0491707184561 27:1 71:1 590:1 678:1 736:1 1062:1 1063:1 1159:1 
1225.438373887247 11:1 45:1 194:1 197:1 320:1 558:1 1170:1 
231.2066235583231 122:1 276:1 
1538.530810541169 34:1 276:1 558:1 882:1 
13.08366733196481 63:1 146:1 216:1 1181:1 
501.3705901267746 18:1 537:1 1119:1 
30.32421532804501 313:1 413:1 558:1 754:1 1184:1 
94.63194561447197 360:1 361:1 761:1 1187:1 1188:1 1189:1 1190:1 
1067.265240381499 416:1 512:1 1055:1 1195:1 
1768.204963499036 1179:1 1196:1 
4766.003089979516 1200:1 
911.6384416413924 170:1 176:1 1073:1 1203:1 1204:1 
496.1434426590464 64:1 176:1 1063:1 1209:1 1210:1 
15.69632070128969 37:1 56:1 630:1 1227:1 
833.9287166132522 1236:1 1237:1 
3150.289901628833 162:1 
17.45205295973377 71:1 183:1 186:1 197:1 206:1 475:1 1241:1 1242:1 
238.1031817279232 176:1 217:1 529:1 1125:1 
20.96015975855829 131:1 197:1 593:1 
231.7933799044789 11:1 175:1 228:1 229:1 1253:1 
1598.776740104874 779:1 1254:1 1255:1 
680.2759339710799 243:1 252:1 253:1 736:1 1257:1 
2.086091424944355 13:1 107:1 649:1 874:1 1267:1 
1.483462904389333 19:1 38:1 229:1 310:1 589:1 649:1 1172:1 1267:1 
127.0433293868851 649:1 1267:1 
360.6240206086699 110:1 422:1 614:1 1298:1 
235.0416487810911 22:1 23:1 535:1 1119:1 1183:1 
1574.866817374271 68:1 957:1 1303:1 
978.0618373521884 313:1 1241:1 
305.7513231974228 61:1 747:1 
0.5414035482865953 45:1 67:1 668:1 1290:1 1310:1 1311:1 1312:1 1313:1 1314:1 
531.7522531415875 420:1 1290:1 1311:1 1315:1 1316:1 1317:1 1318:1 1319:1 
26.64845755692565 1290:1 1310:1 1311:1 
161.565391757725 25:1 277:1 304:1 576:1 1119:1 1338:1 1339:1 1340:1 1341:1 
400.942139999859 64:1 146:1 185:1 935:1 
431.8259027918617 633:1 1344:1 1345:1 1346:1 1347:1 1348:1 
97.80433076748658 13:1 120:1 133:1 589:1 692:1 1195:1 1212:1 
62.7933816530737 13:1 27:1 38:1 53:1 71:1 1129:1 1350:1 1351:1 1352:1 
3823.359028744959 13:1 16:1 124:1 1349:1 
2114.516794337678 1368:1 
856.355173184936 120:1 240:1 267:1 299:1 573:1 725:1 1372:1 1378:1 1379:1 
1224.035884401058 573:1 997:1 1366:1 1380:1 1381:1 1382:1 1383:1 1384:1 
66.41329515677687 241:1 690:1 1000:1 1309:1 1379:1 1385:1 1386:1 1387:1 
17.63339995199591 34:1 706:1 716:1 1391:1 1392:1 
190.3166503411045 121:1 176:1 690:1 1394:1 
249.1163797438187 416:1 1082:1 1304:1 1331:1 1395:1 1396:1 
762.3113961602556 127:1 450:1 1400:1 
1239.304443974279 234:1 1236:1 1331:1 1405:1 
137.9921621160877 1407:1 
451.7947958704013 48:1 258:1 761:1 1120:1 1408:1 
3064.985998525021 205:1 396:1 900:1 1415:1 
2615.77999609883 176:1 346:1 446:1 1416:1 1417:1 
40.65315565914433 11:1 12:1 197:1 280:1 622:1 1420:1 
79.88947870655534 378:1 1418:1 1419:1 
1708.605194556809 234:1 1430:1 1431:1 1432:1 1433:1 
189.9573439493213 312:1 599:1 660:1 797:1 812:1 1434:1 
489.5600094159893 42:1 48:1 121:1 131:1 234:1 288:1 670:1 1424:1 
768.8910384215036 28:1 34:1 36:1 178:1 374:1 511:1 819:1 1298:1 1436:1 
217.0680111841818 966:1 1440:1 
230.5205161938626 202:1 1442:1 1443:1 
23.59051218796432 169:1 702:1 1444:1 
200.1691465075652 38:1 53:1 56:1 197:1 361:1 622:1 1421:1 
1870.279677350652 37:1 104:1 203:1 1445:1 
244.3261115780325 280:1 335:1 622:1 1444:1 
3864.075246051683 622:1 1421:1 
2339.542755577946 107:1 196:1 197:1 509:1 590:1 622:1 1421:1 1446:1 
30.78703036979731 67:1 84:1 229:1 622:1 1421:1 1447:1 
261.340305937712 800:1 918:1 
1179.12871187162 217:1 1453:1 1454:1 1455:1 
4889.503500221137 812:1 1459:1 1460:1 
2432.721307183 217:1 228:1 340:1 431:1 
660.3602612961851 448:1 1314:1 1461:1 
13.30093118569098 14:1 783:1 1028:1 1347:1 1468:1 1469:1 1470:1 
1056.25610603084 133:1 346:1 1444:1 
8.727750609827051 10:1 11:1 87:1 1444:1 1471:1 
1804.7621250408 361:1 768:1 1475:1 1476:1 
78.94428490434018 350:1 658:1 
162.0236167515392 48:1 395:1 1190:1 
1718.831095779477 107:1 169:1 176:1 361:1 556:1 1084:1 
84.06006668156544 107:1 670:1 1444:1 
491.1197191034672 127:1 176:1 458:1 639:1 1045:1 1480:1 
400.584370148099 537:1 761:1 932:1 
6.878642853101625 125:1 1481:1 1482:1 
24.23860147291821 10:1 11:1 88:1 517:1 915:1 
2709.583690845628 146:1 511:1 
2547.937060496777 1503:1 
80.40158088540751 59:1 406:1 458:1 
120.0431986753013 1513:1 
271.7491476568109 84:1 437:1 1149:1 1514:1 1515:1 1516:1 
1581.079182066809 120:1 856:1 
279.7674935169391 16:1 58:1 229:1 267:1 292:1 1294:1 1484:1 1526:1 
37.54794935689815 35:1 184:1 458:1 778:1 1114:1 1527:1 
513.1658153649507 7:1 13:1 69:1 464:1 1522:1 1528:1 
1343.601021356781 37:1 48:1 69:1 70:1 206:1 1529:1 
670.4187707147651 34:1 169:1 1470:1 1532:1 1533:1 1534:1 
33.44475726273278 153:1 1522:1 1535:1 
342.0765058864978 7:1 94:1 1522:1 
7.369026497307536 495:1 
32.593301280129 107:1 648:1 649:1 1425:1 1546:1 
143.881445895554 122:1 416:1 417:1 519:1 520:1 653:1 1129:1 1547:1 1548:1 
2900.836013345733 103:1 107:1 122:1 361:1 
101.8307099878904 639:1 1320:1 
1.841163936001079 293:1 1484:1 1500:1 
520.1349764751051 6:1 11:1 350:1 578:1 1043:1 1557:1 
5326.49743927455 16:1 22:1 23:1 24:1 1484:1 
1358.138714160191 34:1 134:1 316:1 710:1 911:1 1290:1 1564:1 
106.1495764947878 16:1 68:1 521:1 763:1 854:1 1329:1 1397:1 1565:1 
37.62142132633267 103:1 336:1 337:1 448:1 710:1 1566:1 
82.07661682498494 372:1 1115:1 1567:1 1568:1 1569:1 1570:1 
2280.855090873574 156:1 1578:1 1579:1 1580:1 
840.7118515689139 11:1 884:1 1583:1 1584:1 
357.8276591340153 330:1 716:1 1144:1 1585:1 1586:1 1587:1 
560.4167326285599 176:1 217:1 
3.571746478964751 882:1 1605:1 1606:1 
39.97642715192085 38:1 299:1 300:1 302:1 303:1 304:1 306:1 308:1 624:1 906:1 907:1 983:1 
292.6442176743993 6:1 25:1 38:1 507:1 1617:1 
4764.403704217703 22:1 23:1 1119:1 1620:1 
1205.924022164758 53:1 236:1 416:1 437:1 1351:1 1610:1 1630:1 1631:1 1632:1 
156.4735556034709 51:1 206:1 1129:1 1139:1 1351:1 
1792.10233521812 416:1 512:1 600:1 1545:1 
1084.265872546635 175:1 216:1 439:1 873:1 1645:1 1646:1 
92.45013452306634 190:1 264:1 340:1 1650:1 
58.30352594783261 108:1 1460:1 
787.0225052478004 69:1 464:1 1653:1 
159.3658869989515 343:1 589:1 1653:1 1655:1 
5547.338826695014 98:1 125:1 1666:1 
1426.129630096147 153:1 234:1 836:1 
684.196493981307 76:1 107:1 817:1 
154.0627081292517 363:1 
1123.388937134311 104:1 275:1 898:1 1166:1 
3.150855724289735 471:1 620:1 621:1 1076:1 1077:1 1667:1 
237.1806550499851 1106:1 1684:1 
258.7468706112855 107:1 258:1 360:1 758:1 1503:1 1685:1 
3180.875442358831 181:1 207:1 327:1 
680.3860500552796 68:1 165:1 284:1 1694:1 1695:1 1696:1 
446.7525725607288 807:1 937:1 1697:1 1698:1 
405.6884375764536 1023:1 1702:1 
3073.466888150473 71:1 148:1 348:1 1188:1 1703:1 
1270.840208304215 181:1 258:1 360:1 361:1 
221.7792339387987 38:1 283:1 1713:1 1716:1 1720:1 1722:1 1723:1 
326.6030637672845 6:1 183:1 626:1 742:1 
1093.457830737776 1728:1 1729:1 1730:1 1731:1 1732:1 
187.7837190808119 288:1 720:1 1290:1 1435:1 1744:1 
220.8796320854414 537:1 1738:1 
695.9174794152149 332:1 758:1 
544.3802112863051 176:1 1753:1 
401.272676636771 299:1 512:1 590:1 1137:1 1215:1 1754:1 1755:1 1756:1 
239.4952401293828 84:1 736:1 772:1 1758:1 1759:1 
312.2741733356844 508:1 1205:1 
435.1078719867966 124:1 250:1 343:1 445:1 638:1 873:1 1382:1 
489.2174568517131 181:1 1353:1 1774:1 
440.1408040597349 63:1 1177:1 1405:1 
730.3314142245237 1775:1 
992.0953299467822 1779:1 
1098.612208609565 34:1 120:1 305:1 1003:1 1179:1 
906.231516990176 70:1 153:1 176:1 1084:1 1782:1 
200.0685351577413 103:1 107:1 519:1 520:1 625:1 652:1 1029:1 1030:1 1079:1 
683.5447916871445 34:1 1290:1 1720:1 1780:1 
1325.683261813077 1784:1 1785:1 1786:1 
146.0458267710101 10:1 11:1 176:1 334:1 357:1 589:1 1023:1 1788:1 1789:1 
338.717868289823 197:1 509:1 668:1 1409:1 1446:1 1795:1 1796:1 
62.2078914105937 1798:1 
806.2252843107368 318:1 
92.48386334450487 66:1 198:1 232:1 1168:1 1227:1 1588:1 1803:1 
590.1715597920747 38:1 66:1 68:1 162:1 198:1 444:1 
1398.065864885486 57:1 452:1 466:1 469:1 898:1 1805:1 
660.9735068444655 1815:1 1816:1 
702.6106012901068 276:1 882:1 1791:1 
429.5077088254 27:1 167:1 373:1 1004:1 1074:1 1303:1 1817:1 1818:1 
932.5596725707035 13:1 764:1 1041:1 1409:1 1827:1 
19.80742922995493 480:1 537:1 1791:1 
406.8990080835358 330:1 802:1 1004:1 1847:1 
538.0962511340346 153:1 347:1 1817:1 1818:1 
30.75441136601321 48:1 125:1 154:1 169:1 176:1 798:1 1023:1 1851:1 
846.5902824945696 180:1 332:1 1852:1 
597.264827217507 135:1 416:1 458:1 1856:1 1866:1 1867:1 
2195.068120420431 206:1 464:1 
3.426374929786562 197:1 418:1 451:1 1871:1 
2376.760297423298 216:1 217:1 517:1 
43.27835185355882 44:1 217:1 485:1 490:1 
266.2603880752968 34:1 523:1 1892:1 1893:1 
535.4625630998664 113:1 153:1 422:1 494:1 614:1 
64.9423129650265 1088:1 1238:1 
166.7653277865702 103:1 107:1 169:1 523:1 1902:1 1903:1 1904:1 
438.7971540683481 848:1 
412.0158792340901 57:1 120:1 652:1 1905:1 
145.9101509089495 222:1 651:1 652:1 1906:1 1907:1 
3584.14397594103 36:1 137:1 183:1 832:1 833:1 
2076.418065581609 777:1 1917:1 
672.2574706294838 147:1 561:1 1351:1 
3158.592880945635 84:1 107:1 137:1 180:1 181:1 
23.49543223656041 61:1 899:1 1195:1 1351:1 1927:1 1928:1 1929:1 
436.2909738292369 607:1 611:1 1055:1 1934:1 
223.6218249552738 64:1 176:1 223:1 439:1 918:1 1040:1 1937:1 1938:1 
90.35066828862651 228:1 229:1 590:1 1944:1 
275.9537815867391 1948:1 1949:1 1950:1 1951:1 1952:1 1953:1 1954:1 1955:1 1956:1 1957:1 1958:1 1959:1 1960:1 
83.40998330966896 37:1 68:1 1917:1 1963:1 
149.9762362275263 288:1 772:1 1965:1 
54.0874923359296 313:1 1474:1 1772:1 1917:1 
145.8778039983955 34:1 1228:1 1969:1 
45.51468954435565 599:1 933:1 
1510.727028961992 52:1 153:1 384:1 
1671.343480326377 18:1 19:1 22:1 23:1 169:1 
3.61803285782626 1936:1 1981:1 
194.9657275251919 103:1 474:1 1038:1 1054:1 1253:1 1785:1 1992:1 1993:1 1994:1 
2.099739528107548 38:1 103:1 113:1 310:1 643:1 
452.7322050794297 10:1 11:1 12:1 1256:1 1999:1 
402.6844476137708 234:1 544:1 
897.6306064986271 234:1 2002:1 
632.3614341197648 258:1 316:1 373:1 544:1 1132:1 
156.9776023323226 2000:1 
20.05459159885956 62:1 916:1 1744:1 2014:1 
986.3881410604234 147:1 1440:1 2016:1 
8.677366480792426 1146:1 
660.4673672507439 198:1 223:1 437:1 1070:1 1149:1 1755:1 2024:1 2025:1 
153.4556244192798 153:1 176:1 836:1 1428:1 1749:1 2026:1 
21.43530703453038 2034:1 2035:1 
128.2991666555441 27:1 59:1 176:1 508:1 573:1 670:1 1063:1 
59.6683657070779 639:1 2047:1 
150.3843394663265 276:1 
159.0255349719151 10:1 11:1 12:1 181:1 484:1 1891:1 
39.96473376354391 176:1 2059:1 
116.114266394191 68:1 1049:1 1477:1 
369.4820475842989 103:1 332:1 
45.05318378270869 38:1 103:1 107:1 518:1 519:1 520:1 625:1 885:1 1029:1 1079:1 2067:1 
2797.463203374186 169:1 223:1 332:1 711:1 1339:1 
3.801013342122991 105:1 183:1 1574:1 1665:1 2053:1 2073:1 2074:1 
156.7657274927045 290:1 2076:1 
37.86424163260558 16:1 463:1 1983:1 2077:1 
426.4699003136217 153:1 165:1 183:1 873:1 2071:1 2078:1 
450.910567921936 108:1 165:1 1256:1 2082:1 
916.0103434538318 68:1 84:1 167:1 2079:1 2080:1 2081:1 
63.70537758264578 967:1 2087:1 2088:1 
42.76946807931772 122:1 1082:1 1469:1 
445.53036540393 40:1 293:1 378:1 985:1 1327:1 2006:1 2089:1 2090:1 
271.7879230018113 27:1 161:1 2071:1 
44.13091433092949 176:1 639:1 1335:1 
930.2142775903769 125:1 348:1 508:1 
689.3176067704575 68:1 107:1 122:1 439:1 576:1 2114:1 
370.3277743084428 2116:1 
3429.38491936075 69:1 107:1 464:1 
5.997677261985307 332:1 678:1 679:1 
85.6745004613899 658:1 2125:1 
506.5522625233872 61:1 843:1 2133:1 2134:1 
39.80243276305404 57:1 170:1 253:1 435:1 980:1 2132:1 2135:1 
10.47832503688855 305:1 744:1 873:1 1384:1 2137:1 2138:1 2139:1 2140:1 
163.0676783672347 262:1 512:1 727:1 1073:1 1108:1 1168:1 2144:1 2151:1 
317.0599797099058 38:1 299:1 300:1 302:1 303:1 304:1 305:1 306:1 308:1 762:1 918:1 1222:1 
670.9962949130831 313:1 2125:1 
554.5109542263359 25:1 197:1 275:1 1961:1 2125:1 2154:1 
330.5089852244396 65:1 80:1 2155:1 
360.6968484467756 344:1 390:1 
130.4276407202245 2160:1 
840.6136705270929 567:1 590:1 2162:1 2163:1 
19.86636612944389 61:1 1475:1 
713.9250926208952 351:1 2166:1 
20664.11788423455 53:1 107:1 
35.92385003151679 57:1 512:1 1028:1 2170:1 2171:1 2172:1 
199.0202103683043 48:1 181:1 360:1 361:1 395:1 
12.25012730763674 11:1 202:1 2178:1 
25.43759885692312 544:1 2162:1 
1568.982160177434 716:1 2179:1 
23.96098061386471 55:1 638:1 2180:1 
199.4478767695554 299:1 2184:1 
286.0562458354741 304:1 2187:1 
434.6762299031932 577:1 1127:1 2192:1 
143.6392752033988 6:1 280:1 323:1 332:1 2162:1 
99.58736375011718 13:1 507:1 694:1 761:1 2162:1 2194:1 2195:1 2196:1 
3730.632375657683 59:1 983:1 2198:1 
2526.285017241167 102:1 616:1 817:1 1454:1 
1066.225936143 36:1 1819:1 
2268.559929323706 50:1 2201:1 
531.1155720491843 1004:1 2202:1 
3454.253883471445 1316:1 1333:1 2205:1 
494.9773123230276 63:1 77:1 2196:1 
52.76842296008911 36:1 104:1 183:1 2207:1 
42.00805516177333 206:1 2158:1 2159:1 
580.1061585079176 110:1 139:1 144:1 312:1 692:1 772:1 2209:1 
512.1367225183787 183:1 349:1 579:1 580:1 2217:1 
422.6120975281275 48:1 79:1 181:1 
2331.465199617368 180:1 234:1 
16.57014380832668 71:1 130:1 258:1 316:1 
1739.424675205901 216:1 451:1 974:1 
524.6951966084663 2224:1 
2233.939191603005 61:1 264:1 434:1 593:1 1157:1 
822.8506877028684 147:1 170:1 455:1 735:1 736:1 1763:1 
567.2570812679982 67:1 1859:1 
186.3838041667674 2230:1 
62.12458636754586 169:1 2210:1 2229:1 
8457.501499397697 391:1 2235:1 
806.9898625817228 13:1 48:1 112:1 135:1 259:1 
52.4174121903613 184:1 710:1 1190:1 1195:1 1614:1 1897:1 2239:1 2240:1 2241:1 2242:1 
376.0864962429995 194:1 237:1 422:1 614:1 1238:1 2193:1 
190.0093078103627 2252:1 
1185.597113295705 344:1 422:1 614:1 
68.98811270991739 1426:1 
667.7128887536171 8:1 51:1 104:1 
335.5217729715699 2264:1 
84.79558514111545 79:1 264:1 265:1 640:1 1021:1 2270:1 
473.928027020493 76:1 223:1 437:1 645:1 1144:1 2037:1 2272:1 
1320.714982977055 2273:1 
148.1953091017999 120:1 452:1 555:1 1030:1 1583:1 2274:1 
326.7085715973178 13:1 276:1 
3.678618339221606 1460:1 2259:1 
7.045677343449345 38:1 169:1 294:1 
3090.332944268896 48:1 107:1 285:1 
1387.381648267874 69:1 153:1 288:1 350:1 555:1 
49.78055682847076 772:1 933:1 
1539.259859885591 144:1 322:1 343:1 350:1 412:1 1307:1 1454:1 
863.6303404661975 429:1 2294:1 
39.89786601016932 2290:1 
18.69033550441446 103:1 153:1 638:1 670:1 1133:1 1990:1 2297:1 2298:1 2299:1 
6421.511164736913 16:1 153:1 
8.986623326396044 912:1 925:1 
138.4888475714116 116:1 382:1 1747:1 2315:1 2316:1 2317:1 2318:1 
350.75627120074 2322:1 
9.761942182020457 918:1 
361.6135151947856 216:1 304:1 1740:1 1750:1 2327:1 2328:1 
3.555407613663503 749:1 2329:1 2330:1 
24.80927914667585 246:1 471:1 472:1 974:1 1227:1 
295.9997232773359 84:1 147:1 170:1 246:1 1002:1 1227:1 2335:1 
102.2231123598663 313:1 344:1 480:1 2231:1 
427.9492437545089 122:1 1119:1 
2458.515674863984 151:1 176:1 
553.6719317421606 153:1 278:1 2353:1 2354:1 
378.8138682462632 130:1 1162:1 
35.51161828797599 51:1 107:1 561:1 797:1 2359:1 2360:1 
110.4629586390965 2356:1 2365:1 
253.8261016107824 66:1 343:1 843:1 1558:1 2366:1 2367:1 
318.1269552149132 107:1 229:1 521:1 2377:1 
660.9202796258842 2058:1 
1.704592533963658 323:1 350:1 578:1 1119:1 
147.414904438135 176:1 2389:1 
410.0525049402679 103:1 104:1 651:1 652:1 
643.1817270700016 71:1 103:1 153:1 206:1 475:1 512:1 651:1 652:1 2390:1 
141.5594039923283 120:1 264:1 651:1 652:1 744:1 1367:1 2393:1 
432.7117233662315 63:1 103:1 340:1 612:1 1079:1 2394:1 
77.06036039914623 13:1 71:1 103:1 107:1 1029:1 1459:1 1552:1 1908:1 2302:1 2305:1 
561.7319558313685 103:1 107:1 122:1 169:1 345:1 
265.2837568102915 27:1 61:1 2396:1 2397:1 
285.2211358950341 593:1 1002:1 1185:1 1227:1 2333:1 2404:1 2405:1 2406:1 
408.8340352327151 24:1 276:1 
692.7441826956433 699:1 
595.3709547324107 273:1 635:1 1491:1 2422:1 
43.76362859566747 544:1 660:1 
34.40262951496721 1124:1 2427:1 2428:1 
1146.578030404671 396:1 544:1 
581.6131848234966 34:1 458:1 900:1 2441:1 
263.0141201604104 1223:1 1668:1 2449:1 2450:1 2451:1 
64.04176424480335 745:1 1606:1 2078:1 2456:1 
1305.911484580116 48:1 49:1 137:1 1491:1 2042:1 
141.4564158818409 113:1 1491:1 
3307.620307025299 955:1 
15.65531693157463 409:1 702:1 772:1 773:1 2289:1 
570.6727755496956 68:1 104:1 2458:1 
504.1429998779848 137:1 184:1 2175:1 2461:1 
440.5166423233061 59:1 141:1 576:1 2462:1 
584.2019243873956 37:1 137:1 1310:1 2466:1 
82.07965160682214 1911:1 2352:1 
207.541453868418 2472:1 
34.8924708301601 84:1 259:1 772:1 
188.1999822530517 1404:1 
527.5780369192395 763:1 2487:1 
21.60511671303484 2488:1 2489:1 
2512.30348204375 27:1 77:1 161:1 2490:1 
290.9952650407857 69:1 104:1 416:1 418:1 453:1 646:1 1163:1 1229:1 2502:1 2503:1 2504:1 
1027.359530025039 723:1 2510:1 2511:1 
11240.41770290628 68:1 90:1 107:1 122:1 
87.7825805778629 258:1 373:1 2031:1 
284.6475713805268 332:1 2515:1 
622.095961715669 34:1 350:1 499:1 621:1 1860:1 2516:1 2517:1 2518:1 
0.621573996615797 641:1 736:1 2521:1 2522:1 2523:1 
174.3668858750656 61:1 64:1 80:1 1544:1 1881:1 1882:1 2528:1 
564.2180272465025 658:1 966:1 
421.3640954056771 2533:1 
124.6894675765375 153:1 529:1 2413:1 2537:1 
15.49911727719208 17:1 197:1 487:1 2538:1 2539:1 
63.48966156902393 27:1 51:1 67:1 562:1 668:1 915:1 2532:1 
523.7024745199894 60:1 197:1 322:1 2540:1 
68.64035283561324 304:1 576:1 
3.722271414254944 720:1 1872:1 2454:1 
435.274535077053 276:1 2532:1 
752.6941781284884 137:1 153:1 525:1 
89.866491201749 191:1 317:1 347:1 505:1 1686:1 1817:1 1818:1 2532:1 
585.9759234267806 658:1 2532:1 
79.23353398469553 25:1 1860:1 2552:1 
347.126502553452 71:1 197:1 1130:1 1133:1 1479:1 2550:1 
1315.976912340409 13:1 276:1 2532:1 
390.9353635041462 34:1 281:1 561:1 898:1 1340:1 
992.0583286501499 915:1 1860:1 2558:1 
1760.673826248121 437:1 458:1 978:1 2292:1 
474.5605949150871 34:1 153:1 985:1 1088:1 
342.5737116909089 130:1 2562:1 
476.2939956029435 48:1 153:1 385:1 933:1 2205:1 2563:1 
732.3400370010106 175:1 1133:1 
348.3131563217847 105:1 970:1 
6079.564331580837 112:1 148:1 1703:1 2567:1 
31.33014287261294 34:1 48:1 153:1 2205:1 
311.9951219252174 2551:1 
1022.891151189755 222:1 874:1 1810:1 2583:1 
644.4416005819627 102:1 131:1 624:1 2563:1 2587:1 
4675.910247854294 2589:1 
13702.81890050879 53:1 169:1 
297.6843528416089 107:1 320:1 1703:1 
11.20501152681072 184:1 1929:1 2377:1 
410.7773808322125 447:1 1104:1 1105:1 
14.9869693246694 18:1 1104:1 1105:1 2596:1 2599:1 
2.917585854082994 107:1 284:1 529:1 777:1 
192.5694174307052 68:1 320:1 638:1 
141.1465656041355 2596:1 2600:1 
3902.249711913504 48:1 772:1 
469.8945677347243 169:1 2601:1 
76.5997099805853 190:1 462:1 
25.85782730771543 1046:1 
80.50773393410182 104:1 670:1 1286:1 1901:1 
552.5857981714904 16:1 147:1 153:1 1218:1 2042:1 
27.04176882239368 57:1 170:1 176:1 216:1 2609:1 
107.1023786299806 323:1 932:1 
3.691542096230784 1213:1 1244:1 2621:1 2622:1 2623:1 
23.65320376658521 38:1 334:1 761:1 981:1 1792:1 2669:1 2670:1 
25.8146855508772 176:1 184:1 250:1 593:1 2634:1 2680:1 2681:1 
8.364289030453993 120:1 269:1 557:1 758:1 843:1 954:1 2129:1 2401:1 2695:1 2700:1 2701:1 
294.7236139848865 184:1 223:1 264:1 276:1 692:1 1159:1 2401:1 
25.24723565833097 13:1 107:1 989:1 2695:1 2730:1 2731:1 
294.3492929120027 2733:1 
150.7045836956212 50:1 107:1 142:1 350:1 355:1 561:1 2053:1 
3580.990899288836 264:1 
303.1896578209622 557:1 673:1 1351:1 
46.10424691139804 1946:1 2839:1 
653.8504399266571 223:1 224:1 225:1 439:1 458:1 852:1 989:1 1143:1 1762:1 2842:1 2843:1 
114.6744313529228 473:1 670:1 736:1 996:1 2027:1 2824:1 2865:1 2866:1 
1439.713257145299 107:1 134:1 
1808.450651470704 561:1 859:1 1904:1 2876:1 
299.5114979310945 320:1 416:1 509:1 510:1 590:1 1212:1 1416:1 
1037.166636411803 51:1 464:1 
326.3645976683433 2888:1 
188.2875962545657 68:1 206:1 475:1 507:1 807:1 1073:1 1991:1 2687:1 2899:1 
1403.491518036609 19:1 22:1 23:1 2692:1 
264.036394684639 124:1 250:1 343:1 458:1 1381:1 2220:1 2630:1 2738:1 2938:1 2939:1 
281.9139888349945 63:1 290:1 710:1 828:1 1007:1 2956:1 2957:1 
8.711831340706023 112:1 420:1 687:1 772:1 1435:1 2966:1 
13.21708144035188 48:1 183:1 478:1 557:1 670:1 780:1 789:1 2808:1 2974:1 2975:1 
6.647140923772084 84:1 121:1 222:1 223:1 557:1 573:1 589:1 1144:1 2656:1 2967:1 2986:1 3000:1 
50.73228499188744 57:1 59:1 557:1 588:1 593:1 736:1 3000:1 
33.85108880583436 58:1 121:1 232:1 557:1 1364:1 1522:1 1944:1 2676:1 2967:1 
220.4487540441856 11:1 1435:1 3034:1 3035:1 3036:1 
5.918260198509471 170:1 216:1 223:1 744:1 2028:1 2595:1 3038:1 3054:1 3064:1 3065:1 3066:1 3067:1 
62.57709316126724 84:1 206:1 479:1 621:1 
131.190372439969 620:1 621:1 3094:1 
256.0744536833024 51:1 57:1 68:1 107:1 662:1 1073:1 1131:1 2449:1 2687:1 
107.6461515836606 19:1 22:1 23:1 169:1 223:1 1131:1 2687:1 2692:1 
13924.13296684217 71:1 104:1 1131:1 
1231.155284892172 1131:1 1190:1 
15.89636718116009 264:1 588:1 1046:1 1131:1 1143:1 1755:1 
531.6813779762905 161:1 589:1 590:1 1073:1 1131:1 3098:1 
28.65670602269829 121:1 306:1 589:1 979:1 1131:1 2164:1 2677:1 3108:1 3109:1 
17.69902893966544 302:1 465:1 466:1 606:1 970:1 974:1 1231:1 1381:1 3114:1 
3428.214587554004 57:1 223:1 271:1 308:1 477:1 1131:1 1645:1 1760:1 
99.18237455249778 27:1 112:1 161:1 557:1 812:1 1131:1 2536:1 2833:1 2872:1 
11.41119871900954 119:1 264:1 303:1 989:1 1131:1 1383:1 2816:1 2939:1 3112:1 
167.0819103356113 34:1 264:1 271:1 300:1 573:1 979:1 1131:1 
315.0485451962805 71:1 1131:1 3127:1 
131.8996932464367 38:1 310:1 471:1 581:1 620:1 621:1 1131:1 
8168.958933011239 19:1 71:1 1131:1 
815.2526021196129 34:1 107:1 1131:1 1706:1 
438.1793138751833 356:1 2098:1 3134:1 
22451.10783940066 11:1 107:1 
351.0203849101348 34:1 313:1 1233:1 
207.5023573221088 97:1 258:1 790:1 2243:1 3172:1 3173:1 3174:1 
167.243521637858 234:1 3182:1 
43.52308395279968 264:1 557:1 588:1 593:1 1606:1 2673:1 2939:1 3226:1 
17.4465964365357 736:1 744:1 1159:1 2541:1 3227:1 3228:1 3229:1 
13.37171733372715 61:1 198:1 320:1 1478:1 2727:1 
849.4126836212045 3236:1 
48.63523448079602 557:1 670:1 744:1 806:1 1108:1 1144:1 3186:1 3204:1 3238:1 3239:1 
2722.105605813476 104:1 1007:1 
43.52886983411371 13:1 104:1 267:1 1106:1 3180:1 3181:1 
20.76974281480956 13:1 104:1 660:1 
161.8169754747708 2576:1 3101:1 3270:1 
3103.330719836048 176:1 531:1 720:1 
3.007871246151073 451:1 555:1 2785:1 3267:1 3279:1 3280:1 
1560.321908830274 175:1 176:1 720:1 
353.7101617956561 609:1 2164:1 2719:1 3267:1 3286:1 
10.92149999853703 63:1 176:1 555:1 1065:1 3267:1 
1437.724143273567 57:1 458:1 573:1 610:1 990:1 1143:1 1228:1 1811:1 3072:1 3292:1 
48.20364077438114 370:1 458:1 490:1 1073:1 1511:1 2719:1 2982:1 2997:1 3295:1 
342.8439863460209 678:1 736:1 1063:1 3296:1 
19.28821066517865 812:1 1181:1 1431:1 2372:1 2982:1 3167:1 3267:1 3280:1 3294:1 
832.4160104374118 57:1 261:1 604:1 744:1 1207:1 1878:1 2070:1 2276:1 3029:1 3030:1 3267:1 
47.76355378505465 57:1 1383:1 1941:1 2805:1 2997:1 3267:1 3303:1 3304:1 
74.278759015232 3025:1 3318:1 
753.1611760076673 36:1 176:1 336:1 555:1 1006:1 1007:1 1084:1 
569.433799957378 36:1 948:1 
22.6253377050748 13:1 25:1 90:1 555:1 1012:1 3329:1 
288.567558637259 223:1 469:1 473:1 557:1 587:1 1229:1 2630:1 3064:1 3342:1 
7.821609603320394 57:1 170:1 175:1 224:1 857:1 874:1 1287:1 3006:1 3150:1 3344:1 3345:1 3346:1 3347:1 
1848.309666114397 13:1 165:1 222:1 273:1 274:1 689:1 
565.3660522909739 317:1 529:1 951:1 1792:1 1849:1 2245:1 
26.52787367990599 989:1 1227:1 2658:1 3352:1 3357:1 3358:1 
216.2024999713714 332:1 458:1 589:1 3352:1 
116.6212693431247 57:1 225:1 458:1 670:1 826:1 2933:1 3019:1 3352:1 3363:1 3366:1 3392:1 
66.64721266252043 57:1 250:1 264:1 979:1 1504:1 1525:1 2012:1 2742:1 3352:1 
26.60628859205742 1047:1 1048:1 1388:1 2671:1 3038:1 
158.9871342643016 1401:1 1431:1 1705:1 2620:1 2649:1 2687:1 3411:1 3412:1 3413:1 3414:1 
97.35964992166704 970:1 3417:1 3418:1 
483.6694500782741 48:1 49:1 633:1 
10.0855835245766 137:1 3419:1 
145.1398981612403 13:1 183:1 203:1 609:1 837:1 2656:1 2687:1 
179.982366886316 34:1 57:1 190:1 306:1 458:1 744:1 2291:1 3290:1 3431:1 
14.35766532192507 170:1 223:1 587:1 611:1 979:1 1387:1 1884:1 3426:1 
138.0022506548574 57:1 63:1 216:1 224:1 471:1 611:1 852:1 975:1 979:1 1075:1 1227:1 2139:1 2206:1 3426:1 
29.2253350222277 34:1 107:1 125:1 346:1 348:1 557:1 904:1 1195:1 2904:1 3449:1 3450:1 
369.7938752857667 107:1 133:1 169:1 413:1 529:1 1007:1 2786:1 
103.0563855041305 13:1 16:1 172:1 416:1 1082:1 1395:1 3426:1 
20.88427834509445 264:1 573:1 692:1 1144:1 1210:1 1229:1 2042:1 2659:1 3477:1 
624.0970879306341 107:1 184:1 613:1 670:1 1421:1 1703:1 2197:1 2628:1 
66.32393288175997 107:1 343:1 761:1 3453:1 
498.4580640048329 6:1 48:1 323:1 557:1 
1012.921843638795 1481:1 2203:1 
472.9311731105117 512:1 540:1 710:1 1006:1 1087:1 2653:1 
1001.462149863504 264:1 555:1 593:1 1165:1 1188:1 1211:1 2719:1 3503:1 
4.175850808529103 555:1 1425:1 1524:1 
159.8233598612072 225:1 264:1 472:1 557:1 1143:1 3399:1 3514:1 
319.9631445195141 13:1 48:1 206:1 416:1 463:1 1820:1 2164:1 2678:1 2707:1 3272:1 
138.5785410077781 19:1 2307:1 3506:1 
3.990803908773118 16:1 63:1 555:1 585:1 2206:1 2791:1 3321:1 3538:1 
35.51090547978953 90:1 125:1 359:1 3494:1 
58.55894193159901 320:1 557:1 674:1 951:1 
75.14133746065527 6:1 1119:1 1471:1 2620:1 
39.00880637570024 22:1 23:1 107:1 531:1 1131:1 1624:1 2692:1 3567:1 3568:1 
195.3375816734687 184:1 361:1 1131:1 1133:1 1244:1 1488:1 1849:1 2687:1 2691:1 
177.1199890917086 34:1 63:1 243:1 264:1 300:1 458:1 589:1 593:1 894:1 1131:1 1157:1 1592:1 3575:1 
1367.26687862758 63:1 181:1 989:1 1131:1 1736:1 1904:1 
360.6464881573368 45:1 71:1 120:1 589:1 970:1 1131:1 1258:1 3098:1 3577:1 
259.7595847845423 1131:1 1445:1 3270:1 3586:1 
385.7730380452962 736:1 1131:1 
89.6660476083149 27:1 34:1 224:1 471:1 472:1 473:1 1131:1 2221:1 2676:1 2823:1 3589:1 
413.9439225270215 34:1 176:1 217:1 250:1 264:1 557:1 581:1 1131:1 
31.86313958871657 264:1 304:1 477:1 988:1 1046:1 1131:1 2939:1 
3.57421406419673 66:1 175:1 264:1 557:1 606:1 1131:1 2268:1 
145.9323596726284 57:1 176:1 458:1 492:1 531:1 692:1 996:1 2040:1 
325.8045128442803 222:1 264:1 557:1 970:1 2676:1 2728:1 
14.95612815516985 228:1 394:1 1131:1 3610:1 
401.0829190876042 137:1 827:1 1131:1 
927.0661387579366 1255:1 
335.0009083231012 18:1 68:1 175:1 181:1 216:1 837:1 1131:1 3625:1 
3.796305975216736 1046:1 2346:1 
421.7881692634598 45:1 46:1 51:1 137:1 328:1 900:1 1310:1 
0.07495964556677602 3447:1 3638:1 
1.803878741657707 206:1 475:1 557:1 561:1 1006:1 1007:1 1665:1 3640:1 
7.507049037616462 63:1 169:1 223:1 239:1 341:1 422:1 480:1 2997:1 3644:1 3645:1 3646:1 
171.8240985609566 59:1 198:1 264:1 273:1 1143:1 1431:1 2922:1 2982:1 3639:1 
159.0294741625788 63:1 79:1 452:1 593:1 612:1 1472:1 2141:1 3663:1 3664:1 
462.557079037723 146:1 369:1 466:1 990:1 1472:1 1740:1 2328:1 3639:1 3663:1 3670:1 3671:1 
162.2683818951615 147:1 369:1 593:1 1215:1 2042:1 2372:1 2724:1 2865:1 3661:1 3674:1 
5.206552310060205 175:1 264:1 1064:1 2939:1 2997:1 3639:1 3677:1 
494.5194150287774 124:1 343:1 670:1 812:1 875:1 979:1 1063:1 3639:1 3682:1 
6.96360075462453 69:1 153:1 181:1 357:1 1073:1 1472:1 2032:1 
12.0056900602389 137:1 295:1 646:1 996:1 2687:1 3093:1 
11.79858997055572 18:1 68:1 180:1 1085:1 2069:1 
129.7928949453157 18:1 22:1 23:1 2239:1 
34.91130841393014 56:1 2622:1 3249:1 3692:1 
6.686854719799713 3249:1 3694:1 3695:1 3696:1 
106.7521426093314 51:1 2622:1 3249:1 
71.02204806284044 153:1 206:1 475:1 1151:1 3249:1 
5.73383557486755 64:1 593:1 1750:1 1813:1 3381:1 3690:1 3705:1 3706:1 
126.6401457697523 217:1 280:1 517:1 1364:1 2216:1 2997:1 3364:1 3690:1 
259.8280147598525 181:1 279:1 464:1 3690:1 
200.4765890757465 124:1 147:1 170:1 264:1 343:1 593:1 981:1 989:1 2658:1 3430:1 3712:1 
145.8833544413043 176:1 222:1 223:1 332:1 606:1 692:1 979:1 1075:1 2536:1 
68.45182518767197 264:1 557:1 979:1 1046:1 3690:1 
96.55505311446268 121:1 525:1 573:1 979:1 1264:1 1504:1 1679:1 2012:1 3690:1 
108.6642017442461 1007:1 3249:1 
124.5853004827679 63:1 234:1 1290:1 3408:1 3730:1 
76.52712780623517 317:1 524:1 525:1 527:1 633:1 1472:1 3249:1 
1443.415936346239 517:1 1576:1 
79.54647596846007 512:1 2653:1 3737:1 
138.6027835075421 48:1 529:1 3737:1 3754:1 
100.3280363399634 3770:1 
5131.796527026475 693:1 
915.6366226728945 46:1 51:1 1290:1 1310:1 1474:1 3418:1 
4985.077849361329 1430:1 
369.9767785798348 1007:1 1290:1 1724:1 3003:1 3782:1 
1663.889345661533 34:1 59:1 622:1 1006:1 1007:1 1421:1 
1323.002691570747 13:1 61:1 107:1 169:1 198:1 2798:1 
157.9231137696138 217:1 902:1 2785:1 2798:1 3261:1 3287:1 3796:1 
399.9864515252517 250:1 264:1 472:1 1001:1 1878:1 3016:1 3803:1 3804:1 
12.08112942480994 264:1 437:1 588:1 1326:1 1571:1 2798:1 2851:1 3531:1 3805:1 3806:1 
521.887130318925 57:1 222:1 573:1 588:1 640:1 995:1 1073:1 3798:1 
11.66516051629818 338:1 452:1 593:1 1503:1 1548:1 1590:1 1945:1 2634:1 3810:1 3811:1 
493.1357037057713 396:1 1820:1 3816:1 
515.2358897139244 84:1 205:1 1520:1 2798:1 
183.861868098522 361:1 366:1 1007:1 1491:1 1706:1 
1878.015110613467 107:1 122:1 562:1 710:1 1447:1 
563.4550524403562 167:1 288:1 900:1 2634:1 2989:1 
274.2716223471746 1229:1 1656:1 2631:1 2754:1 2939:1 3825:1 
89.13374127907265 57:1 63:1 84:1 458:1 471:1 1452:1 1525:1 1937:1 2746:1 3827:1 3828:1 
5.450024830535829 84:1 243:1 573:1 1207:1 2769:1 2950:1 3139:1 3140:1 3829:1 
534.8993780612426 332:1 463:1 1585:1 1642:1 3234:1 
1061.250789915836 521:1 
52.88998086106949 3838:1 
273.730450241984 3839:1 
19.21220039816886 125:1 137:1 202:1 321:1 625:1 638:1 1038:1 1324:1 
18.78998805594996 13:1 27:1 53:1 390:1 590:1 1792:1 2959:1 3842:1 3843:1 3844:1 3845:1 
39.70322997874746 57:1 996:1 1375:1 1651:1 2826:1 2983:1 3841:1 3857:1 
77.91762991447966 439:1 458:1 650:1 1332:1 3841:1 
172.8209212988766 63:1 64:1 147:1 458:1 608:1 989:1 1431:1 2061:1 2658:1 
61.64460632443296 14:1 458:1 606:1 610:1 725:1 1169:1 1814:1 2082:1 3016:1 
59.58027785923067 269:1 1576:1 3038:1 3059:1 3403:1 3880:1 3882:1 3883:1 3884:1 
247.971047546757 31:1 61:1 84:1 206:1 269:1 2766:1 3038:1 3056:1 3880:1 
145.494884620547 120:1 170:1 189:1 264:1 573:1 1646:1 1814:1 3038:1 3039:1 3073:1 3889:1 
2.375570460025906 13:1 84:1 162:1 541:1 589:1 2676:1 3880:1 3892:1 
66.02013291703139 290:1 948:1 3907:1 
1443.848025417799 280:1 557:1 589:1 593:1 2392:1 3912:1 3925:1 
31.49368344648112 223:1 573:1 979:1 1803:1 2634:1 2989:1 3305:1 3926:1 
368.0121053744086 57:1 435:1 996:1 1045:1 1519:1 3912:1 3931:1 
221.7899096650056 66:1 201:1 240:1 744:1 979:1 3912:1 
7.344856572818944 84:1 261:1 472:1 606:1 744:1 1159:1 1264:1 1878:1 3912:1 3931:1 3935:1 3936:1 
25.41158883880606 217:1 1198:1 3470:1 3658:1 3912:1 3937:1 3938:1 3939:1 
3237.891072897276 175:1 1469:1 3912:1 3945:1 
5.262707260320809 3912:1 3948:1 3949:1 
167.9237847090673 252:1 593:1 606:1 812:1 2896:1 3912:1 3953:1 
5.735332602408669 3956:1 
5.853336428034277 2955:1 3638:1 
77.23629254400078 642:1 3554:1 
9396.767412703361 437:1 2894:1 
250.0470708234551 25:1 332:1 1119:1 1535:1 3957:1 
30.37312965914587 104:1 2081:1 
285.5536039914298 59:1 176:1 458:1 557:1 589:1 3962:1 
30.79736854680808 440:1 1751:1 2216:1 3962:1 
17.9547581305373 334:1 998:1 1322:1 2676:1 3990:1 
2230.817808013961 198:1 368:1 557:1 1168:1 1169:1 3998:1 
285.3086567150058 267:1 332:1 1339:1 4001:1 
622.9022047568654 190:1 463:1 599:1 832:1 4007:1 
463.8347033361115 95:1 898:1 4008:1 
178.1665975082622 1711:1 4009:1 4010:1 
1206.750600353576 68:1 137:1 350:1 789:1 4013:1 
376.2133459060008 3090:1 4015:1 
122.643981634713 57:1 63:1 458:1 900:1 2646:1 2647:1 2950:1 3144:1 4032:1 
156.4805624170375 43:1 573:1 
607.1214471354371 93:1 94:1 125:1 169:1 1530:1 1851:1 
17.41475513001166 61:1 107:1 184:1 216:1 351:1 1530:1 4036:1 4037:1 4038:1 
19.02269835587748 121:1 589:1 2216:1 3631:1 4036:1 4040:1 4045:1 
9.682289009939845 369:1 557:1 561:1 730:1 2216:1 3631:1 4036:1 4050:1 4051:1 4052:1 
1.942462329444777 121:1 416:1 466:1 589:1 1143:1 2164:1 4036:1 4046:1 
5.010280305497317 175:1 176:1 772:1 884:1 1007:1 1264:1 2453:1 2656:1 2778:1 3631:1 4036:1 
1.893854291406614 121:1 122:1 275:1 285:1 4036:1 4066:1 
140.3561513866909 181:1 361:1 670:1 1488:1 4067:1 
22.69628522476233 59:1 153:1 458:1 557:1 589:1 2630:1 2656:1 2754:1 2767:1 3038:1 
30.4355251823931 170:1 845:1 1646:1 2630:1 2754:1 2786:1 2842:1 2942:1 
39.72437525364457 23:1 3170:1 4097:1 
1018.812519936915 36:1 428:1 704:1 988:1 1129:1 1352:1 
264.062372890603 334:1 3092:1 
6.734189618776547 202:1 258:1 606:1 837:1 1901:1 2031:1 2149:1 2619:1 2687:1 3169:1 
815.4739600538724 153:1 437:1 1151:1 
1290.354292492303 16:1 133:1 
476.0991772647454 169:1 341:1 422:1 1108:1 2967:1 2997:1 
603.6142836671196 867:1 3090:1 
22451.10783940066 68:1 391:1 
590.2121706036484 504:1 1777:1 
3.974033005608695 58:1 113:1 562:1 2967:1 4133:1 
13.28867823491392 573:1 873:1 996:1 1218:1 1357:1 1941:1 3096:1 3143:1 4155:1 4156:1 
383.9155974279303 223:1 440:1 573:1 744:1 996:1 3096:1 4145:1 4159:1 
135.4092715892461 57:1 461:1 990:1 1073:1 1228:1 1642:1 1854:1 4145:1 4164:1 
1.598913059026758 55:1 57:1 223:1 264:1 455:1 610:1 710:1 1158:1 1877:1 1941:1 2012:1 4145:1 
1086.863252526941 180:1 866:1 1828:1 
36.84381860587819 2622:1 
330.4148057033669 206:1 313:1 
444.2723388123644 507:1 1395:1 2245:1 
262.4575680334781 13:1 107:1 113:1 169:1 475:1 480:1 855:1 1117:1 3612:1 
389.6424024680386 104:1 184:1 710:1 761:1 2164:1 4183:1 
33.12673162562236 13:1 107:1 526:1 1195:1 3531:1 4184:1 
28.42004817821351 357:1 1853:1 4143:1 4186:1 4187:1 4188:1 
34.29782950435828 124:1 137:1 343:1 758:1 935:1 1991:1 2151:1 2793:1 4203:1 
31.46162822814423 55:1 68:1 394:1 460:1 638:1 1025:1 1333:1 1828:1 2687:1 4210:1 
719.504099222621 48:1 1518:1 2619:1 
1442.867489781393 703:1 916:1 
60.17734776218916 674:1 690:1 797:1 1409:1 1461:1 1894:1 2179:1 2239:1 3312:1 4212:1 
67.39505859215213 104:1 690:1 3241:1 3398:1 3487:1 4214:1 
1138.804209475225 169:1 390:1 394:1 557:1 590:1 1244:1 
5.890363250697479 84:1 176:1 689:1 709:1 728:1 797:1 1039:1 1129:1 2622:1 
87.63393530072037 68:1 176:1 180:1 540:1 742:1 900:1 1085:1 2687:1 2834:1 
106.8564374317433 267:1 270:1 593:1 776:1 1378:1 1517:1 1599:1 2372:1 2719:1 2896:1 
228.9693664547394 812:1 981:1 1159:1 1247:1 1372:1 1379:1 4219:1 4224:1 
1.591762751171499 57:1 241:1 357:1 573:1 1213:1 1592:1 1966:1 4219:1 4228:1 4240:1 
256.3068767615619 38:1 690:1 1359:1 1372:1 1379:1 4216:1 4219:1 4225:1 4227:1 4228:1 4234:1 4239:1 4247:1 4248:1 
1486.836479028816 709:1 
212.7503937432984 391:1 882:1 
175.0264413958774 44:1 1913:1 
301.2470141916202 153:1 4296:1 
24.4496657149785 1842:1 
205.9275348020627 4302:1 4303:1 
109.8755002316533 543:1 4304:1 
139.6419298139728 275:1 288:1 557:1 1394:1 1971:1 2295:1 4305:1 
784.9268852910953 1119:1 
194.031959410271 643:1 1469:1 2021:1 2166:1 3130:1 3184:1 4069:1 4183:1 4290:1 
152.2465637659055 394:1 2397:1 3610:1 4306:1 
2.292697074596856 61:1 175:1 250:1 589:1 840:1 1590:1 3038:1 3056:1 4038:1 
3.110148816946513 68:1 437:1 557:1 845:1 1003:1 1445:1 4038:1 4328:1 4339:1 4340:1 
479.4519103747963 48:1 812:1 1785:1 1992:1 2216:1 3038:1 3047:1 4079:1 
57.0623439872961 471:1 744:1 852:1 1099:1 1169:1 1854:1 3038:1 3064:1 3065:1 
30.59204422178405 217:1 258:1 285:1 557:1 3078:1 4078:1 4348:1 
1195.88497653246 108:1 292:1 2245:1 3038:1 
418.4646119937429 8:1 176:1 181:1 216:1 258:1 361:1 2687:1 4356:1 
45.13234137566383 36:1 46:1 535:1 646:1 1202:1 1461:1 2687:1 3035:1 
147.1056779888377 13:1 25:1 557:1 837:1 964:1 996:1 1088:1 4359:1 
1284.935791042377 13:1 25:1 68:1 169:1 522:1 996:1 1244:1 
408.0809489611597 294:1 996:1 3093:1 3170:1 4290:1 
21.72549273544873 11:1 361:1 643:1 1488:1 4290:1 4360:1 4361:1 4362:1 
72.91404498790195 153:1 509:1 1430:1 1446:1 2622:1 
40.95730978890129 4368:1 
97.9050557298057 37:1 146:1 148:1 183:1 216:1 1010:1 2722:1 3398:1 3593:1 
1017.138361640908 57:1 64:1 119:1 2001:1 4386:1 4387:1 4388:1 4389:1 4390:1 
72.54918293744302 1252:1 1477:1 2702:1 4377:1 4378:1 4391:1 4392:1 4393:1 4394:1 
14.51558679642029 1133:1 1868:1 4399:1 4400:1 4401:1 4402:1 4403:1 4404:1 
2.313548413096254 1736:1 4384:1 4412:1 4417:1 4418:1 4419:1 4420:1 
160.0931182330371 4443:1 4444:1 4445:1 4446:1 4447:1 
288.0657290988448 61:1 475:1 638:1 1133:1 4452:1 
18.70549607069831 1082:1 2082:1 4432:1 4443:1 4454:1 4455:1 4456:1 
3.457325313687961 20:1 4463:1 
3.644469649808427 4407:1 4437:1 4443:1 4458:1 4468:1 
3.352324362251917 601:1 1253:1 1990:1 2194:1 2545:1 4461:1 4475:1 4476:1 
150.9281964131082 1169:1 2269:1 4477:1 
580.5891447961703 3406:1 4444:1 4478:1 
6.32201162405619 2755:1 4432:1 4485:1 
460.5943751819584 501:1 4486:1 
249.3801407074942 4444:1 4488:1 
10.49876025339734 417:1 1059:1 1177:1 3092:1 4444:1 4467:1 
103.4596098344359 4426:1 4486:1 4497:1 4498:1 4499:1 4500:1 4501:1 4502:1 4503:1 4504:1 
30.88997886802925 646:1 694:1 1004:1 1253:1 4120:1 4461:1 4484:1 4505:1 4506:1 4507:1 4508:1 4509:1 
5.661633646729983 258:1 790:1 1987:1 4516:1 
288.3706545403692 4517:1 
212.0442957016424 4522:1 
207.1948246723172 4524:1 
2238.683936378957 4513:1 
33.92223847711422 4526:1 
305.590555288234 4527:1 
7.447799413290456 1177:1 2064:1 4437:1 4443:1 4539:1 4540:1 4541:1 4542:1 
4.049412893553269 267:1 509:1 1087:1 4391:1 4549:1 
715.7792008666606 2613:1 3522:1 4546:1 
45.65174233052613 13:1 772:1 1045:1 1087:1 4550:1 4551:1 4552:1 
26.2478979541448 1592:1 2613:1 4553:1 4554:1 
2.428275174226771 2477:1 4510:1 4511:1 4555:1 
17.02131803983749 261:1 471:1 4404:1 4478:1 4559:1 4560:1 4561:1 4562:1 
232.4024895743621 416:1 957:1 2012:1 3036:1 4478:1 4487:1 4567:1 
97.96892887598467 904:1 4432:1 4573:1 4574:1 4575:1 
201.8326741424158 275:1 1087:1 1585:1 4443:1 4587:1 
874.523054867558 372:1 476:1 4443:1 4514:1 
63.26882734274054 908:1 3036:1 4589:1 
62.11126034797103 4590:1 
62.74067408745816 4545:1 
45.02661489797014 320:1 417:1 2029:1 2613:1 3432:1 4545:1 4548:1 4586:1 4604:1 4605:1 4606:1 
12.10229667525082 4620:1 
480.2128498950792 4407:1 
145.5345144244017 162:1 593:1 1084:1 1470:1 4407:1 4496:1 4635:1 4636:1 
5.957651928687847 4586:1 4612:1 4637:1 
3165.180717990289 107:1 150:1 1054:1 
246.1492445740138 183:1 390:1 458:1 680:1 2409:1 4660:1 4661:1 4662:1 4663:1 
180.891154892597 4563:1 4614:1 4668:1 
2888.374925695513 13:1 370:1 593:1 812:1 
93.82471786556484 4617:1 
6.126672613251658 607:1 761:1 2744:1 2885:1 3191:1 4634:1 4635:1 
289.08213792093 105:1 310:1 1622:1 3043:1 4685:1 
47.70024571098591 1010:1 1585:1 2321:1 2802:1 4409:1 4688:1 4689:1 
14.54766976027981 145:1 258:1 772:1 1253:1 1819:1 2269:1 4461:1 4515:1 4693:1 4694:1 
21.53708616908935 59:1 84:1 236:1 703:1 4445:1 4467:1 4485:1 4666:1 
64.64366403108286 223:1 340:1 549:1 640:1 1253:1 2193:1 4457:1 4461:1 4691:1 
2.047491533145892 137:1 1087:1 2755:1 4443:1 4542:1 4716:1 4717:1 
0.07319292164122439 43:1 900:1 1004:1 1090:1 2545:1 4503:1 4711:1 4712:1 4727:1 4728:1 
48.53152392229811 790:1 4398:1 4409:1 4733:1 4734:1 4735:1 
373.6305457002622 169:1 660:1 4736:1 4737:1 
1395.940810194598 53:1 323:1 2453:1 3470:1 4496:1 
56.95433038737568 7:1 167:1 458:1 1087:1 4419:1 4432:1 4444:1 4445:1 
80.32018269075581 1253:1 2269:1 4461:1 4468:1 4747:1 
10.23605386000431 4442:1 4445:1 4478:1 
42.88060872819103 908:1 1253:1 2510:1 4445:1 4461:1 4479:1 4749:1 4750:1 
168.6787116549839 593:1 4444:1 4481:1 4753:1 
24.73674030846529 48:1 286:1 2012:1 4755:1 4756:1 4758:1 
10.58212322768302 120:1 2545:1 4409:1 4722:1 4762:1 
1336.504245185803 4719:1 
852.7899153576252 52:1 181:1 286:1 529:1 1790:1 4668:1 4755:1 4770:1 
73.0093421448575 31:1 258:1 485:1 1315:1 3029:1 4769:1 4777:1 4778:1 4779:1 4780:1 4781:1 
7.922477788219673 258:1 267:1 485:1 1198:1 1597:1 3490:1 4754:1 4782:1 4783:1 4784:1 4785:1 4786:1 
174.8395338759901 4393:1 4787:1 
4.914343884824267 2100:1 4215:1 5060:1 5659:1 8355:1 8356:1 
10224.37013701117 11:1 12:1 13:1 
18.85602424560556 14:1 15:1 16:1 17:1 18:1 19:1 20:1 21:1 
22451.10783940066 22:1 23:1 24:1 25:1 26:1 
9098.712513372802 20:1 27:1 28:1 29:1 30:1 31:1 32:1 33:1 
3892.086466130895 33:1 43:1 44:1 45:1 46:1 47:1 48:1 49:1 
16773.2049385944 50:1 51:1 52:1 
1811.538746777439 83:1 88:1 
11139.20772699237 109:1 110:1 111:1 112:1 113:1 114:1 115:1 116:1 
805.532686792657 27:1 142:1 143:1 144:1 
2003.689646854963 69:1 145:1 146:1 147:1 148:1 
8497.684876674944 103:1 123:1 161:1 162:1 163:1 164:1 165:1 166:1 
1449.492932964142 196:1 197:1 198:1 199:1 200:1 201:1 202:1 203:1 204:1 205:1 206:1 
327.6102962348443 14:1 18:1 19:1 20:1 21:1 26:1 75:1 207:1 
11.9508049107518 26:1 232:1 
201.0668250955658 270:1 
18339.80533558098 273:1 274:1 275:1 276:1 277:1 278:1 279:1 280:1 281:1 282:1 
5301.564405009973 46:1 47:1 93:1 210:1 288:1 289:1 290:1 291:1 292:1 
954.7204862021248 46:1 47:1 176:1 296:1 297:1 298:1 299:1 300:1 301:1 
6161.389618920482 184:1 215:1 308:1 309:1 310:1 
66.37993219159621 20:1 27:1 156:1 177:1 312:1 313:1 314:1 
7088.226483146056 47:1 135:1 175:1 176:1 302:1 303:1 304:1 305:1 
12465.2430498188 3:1 14:1 65:1 79:1 315:1 316:1 317:1 318:1 319:1 320:1 
2657.322504840784 15:1 294:1 324:1 
281.2150436761663 26:1 327:1 
1146.650696293826 108:1 201:1 202:1 203:1 317:1 349:1 350:1 351:1 352:1 353:1 354:1 
809.167344762634 14:1 15:1 68:1 69:1 78:1 107:1 363:1 364:1 365:1 366:1 
822.0979542156559 342:1 372:1 385:1 386:1 
322.5192137776002 48:1 85:1 337:1 342:1 387:1 388:1 389:1 390:1 
6.624614938269112 248:1 342:1 391:1 392:1 393:1 394:1 395:1 396:1 397:1 
2.586290579283917 4:1 69:1 129:1 372:1 401:1 402:1 412:1 413:1 414:1 415:1 416:1 
907.5817774510822 128:1 301:1 312:1 422:1 423:1 424:1 425:1 426:1 427:1 
2785.561596986358 196:1 197:1 430:1 431:1 
259.6265696178601 4:1 240:1 372:1 432:1 437:1 438:1 439:1 440:1 441:1 442:1 
2730.578908999754 26:1 450:1 451:1 
217.0500816608743 64:1 65:1 452:1 
748.5833923670564 60:1 199:1 397:1 463:1 464:1 465:1 466:1 
1005.956919295709 482:1 483:1 484:1 
8.056182411684231 41:1 257:1 468:1 485:1 486:1 487:1 
924.80633349112 181:1 342:1 390:1 468:1 514:1 515:1 
3183.427307434154 14:1 15:1 18:1 19:1 20:1 21:1 26:1 71:1 520:1 521:1 
44.0570694946384 73:1 89:1 129:1 468:1 522:1 523:1 524:1 525:1 
1852.897575081958 129:1 524:1 525:1 526:1 527:1 528:1 529:1 
528.7736816910813 92:1 93:1 308:1 394:1 524:1 525:1 530:1 
407.5244481080018 299:1 545:1 546:1 547:1 548:1 549:1 
887.088649412744 181:1 312:1 468:1 534:1 550:1 551:1 552:1 553:1 554:1 
72.26347439493291 27:1 89:1 182:1 468:1 558:1 559:1 
1975.829980827487 397:1 558:1 569:1 570:1 571:1 572:1 
15.22166486773853 201:1 310:1 515:1 558:1 581:1 582:1 583:1 584:1 585:1 586:1 
1245.968487898793 20:1 27:1 60:1 156:1 468:1 559:1 
141.0838613395499 93:1 129:1 427:1 607:1 
4.106715021847533 169:1 172:1 468:1 631:1 632:1 633:1 634:1 635:1 
1549.015936803841 50:1 51:1 52:1 53:1 55:1 145:1 468:1 636:1 637:1 
1.962519522271529 129:1 643:1 662:1 663:1 664:1 
5981.597918053838 11:1 202:1 203:1 666:1 
864.6078021987884 715:1 
810.6038233603024 221:1 716:1 717:1 
130.0976250356934 716:1 718:1 
65.02633429302162 130:1 644:1 669:1 719:1 720:1 721:1 722:1 723:1 
322.7536878477241 40:1 644:1 727:1 728:1 729:1 730:1 731:1 
561.3633255085441 80:1 136:1 765:1 766:1 
5250.965436072359 52:1 91:1 135:1 136:1 168:1 767:1 768:1 769:1 770:1 
518.4124353629729 543:1 775:1 776:1 777:1 
1953.095151341273 346:1 420:1 789:1 790:1 
1321.049485211782 27:1 60:1 98:1 558:1 791:1 792:1 793:1 794:1 
1262.929350207797 791:1 800:1 801:1 
816.8798177389651 558:1 806:1 807:1 808:1 
261.0239255886349 814:1 
281.5793831605964 10:1 831:1 832:1 833:1 834:1 835:1 836:1 
196.65623810142 837:1 838:1 
857.6680405263231 11:1 196:1 226:1 665:1 841:1 
155.9890251185183 848:1 849:1 
71.21227106259788 852:1 
1092.025410212914 86:1 129:1 435:1 862:1 863:1 864:1 865:1 866:1 867:1 
2800.558196557084 75:1 92:1 111:1 255:1 789:1 884:1 885:1 886:1 887:1 
124.5617190084089 41:1 181:1 312:1 593:1 860:1 896:1 
92.93255759873406 52:1 120:1 129:1 182:1 288:1 473:1 899:1 900:1 
703.7239682916114 3:1 936:1 937:1 
969.8852510981136 26:1 940:1 
865.2263353770692 19:1 64:1 65:1 941:1 942:1 
222.028298158669 92:1 181:1 897:1 950:1 951:1 952:1 953:1 954:1 
56.79779450758699 504:1 945:1 955:1 956:1 957:1 958:1 959:1 
20.15741023256523 129:1 945:1 974:1 975:1 976:1 977:1 978:1 979:1 980:1 
690.987259736849 504:1 958:1 997:1 
602.7208537849601 26:1 998:1 
213.3059336186381 135:1 864:1 945:1 999:1 1000:1 1001:1 1002:1 
6537.993219303577 296:1 297:1 1003:1 1004:1 1005:1 1006:1 
2.599232680096378 85:1 181:1 257:1 491:1 534:1 1013:1 1014:1 
191.8906494704682 452:1 491:1 948:1 1015:1 1016:1 1017:1 
2302.128861667552 89:1 452:1 945:1 1017:1 1041:1 1042:1 
136.0047320994455 7:1 15:1 411:1 1047:1 1048:1 1049:1 1050:1 
379.3500166295896 41:1 89:1 360:1 954:1 1058:1 1071:1 1072:1 1073:1 
28.78535318260755 108:1 671:1 807:1 1082:1 1083:1 1084:1 1085:1 1086:1 1087:1 1088:1 
1521.465259410299 387:1 394:1 473:1 753:1 988:1 1058:1 1121:1 
434.5974250717498 571:1 
252.8847182856159 27:1 29:1 35:1 69:1 226:1 1058:1 1126:1 1127:1 1128:1 1129:1 
683.7123343228251 504:1 712:1 953:1 1130:1 1131:1 1132:1 1133:1 1134:1 1135:1 1136:1 
38.25838314045519 60:1 407:1 1140:1 1141:1 
12028.05086168968 60:1 135:1 138:1 184:1 
191.4566342846683 26:1 1144:1 
169.4420886166416 1149:1 1151:1 1152:1 1153:1 1154:1 1155:1 1156:1 
240.1575215511171 276:1 1149:1 1159:1 1160:1 1161:1 1162:1 
247.3151356461597 26:1 263:1 1167:1 1168:1 
114.7081997772355 267:1 669:1 1180:1 1181:1 1182:1 1183:1 1184:1 
730.0270433438603 60:1 1154:1 1187:1 1188:1 1189:1 1190:1 
56.90785139961768 846:1 847:1 1206:1 1207:1 1208:1 1209:1 
210.7128837451624 328:1 708:1 1214:1 1215:1 1216:1 
145.2375715045728 18:1 19:1 20:1 21:1 26:1 71:1 107:1 108:1 366:1 1227:1 
13.28486722422159 123:1 269:1 334:1 1235:1 1236:1 1237:1 1238:1 1239:1 1240:1 1241:1 1242:1 
723.3098989446898 1244:1 1245:1 1246:1 1247:1 1248:1 1249:1 
1321.473419501906 135:1 136:1 1259:1 1260:1 1261:1 1262:1 
1300.307453142396 181:1 345:1 473:1 762:1 1300:1 1301:1 
4029.141551537677 11:1 665:1 1326:1 
109.1220412485619 14:1 26:1 81:1 293:1 
3.059122838387794 20:1 27:1 60:1 73:1 181:1 1333:1 
2465.899319593324 20:1 27:1 60:1 156:1 1333:1 
2184.281673002765 268:1 862:1 1343:1 1344:1 
112.9559604586361 1341:1 1345:1 1346:1 1347:1 1348:1 1349:1 1350:1 1351:1 1352:1 
111.9246995513404 27:1 59:1 146:1 1360:1 
332.893007128076 69:1 473:1 899:1 930:1 932:1 933:1 1259:1 1260:1 1378:1 1379:1 1380:1 
63.4896121341685 60:1 69:1 92:1 93:1 152:1 184:1 308:1 1400:1 1401:1 1402:1 
408.7314632008672 69:1 152:1 1405:1 
10.87770184855343 39:1 1066:1 1067:1 1334:1 1378:1 1418:1 1419:1 
86.04589129936744 418:1 419:1 1420:1 1421:1 1422:1 
106.4831900812253 951:1 1137:1 1277:1 1423:1 
3938.395665998227 27:1 128:1 156:1 473:1 930:1 
330.1545589320945 91:1 120:1 181:1 769:1 1427:1 
404.2161097670577 500:1 1431:1 
10.74632753837655 3:1 1439:1 
70.90459396147747 181:1 183:1 789:1 1115:1 1427:1 
34.91311888434124 11:1 1480:1 1481:1 
6181.91015228064 11:1 417:1 1485:1 
361.9805177955895 26:1 1486:1 1487:1 
121.1565872292486 473:1 921:1 1427:1 1495:1 1496:1 
111.5106880537593 1509:1 
332.0009611340706 1515:1 
77.80557724469828 60:1 83:1 248:1 552:1 654:1 1520:1 1521:1 1522:1 1523:1 1524:1 
238.2921293460111 33:1 138:1 491:1 1261:1 1530:1 
33.81576345451248 51:1 92:1 181:1 269:1 950:1 951:1 1137:1 1240:1 1277:1 1531:1 1532:1 
424.1833129561542 11:1 1535:1 1536:1 
16.00007009452939 33:1 473:1 921:1 1495:1 1496:1 
42.47316726402117 1541:1 1542:1 
17.46990189671093 289:1 453:1 617:1 1562:1 1564:1 1565:1 1566:1 1567:1 1568:1 
96.44795848321198 97:1 221:1 1569:1 
6047.994752159718 97:1 
8579.715213484016 9:1 14:1 26:1 68:1 69:1 71:1 77:1 79:1 106:1 107:1 108:1 
363.6045172734749 33:1 292:1 452:1 1269:1 1581:1 
862.8993077477213 87:1 123:1 257:1 814:1 1609:1 1610:1 
804.8074869789841 15:1 28:1 69:1 92:1 138:1 758:1 1631:1 1633:1 
238.492669922647 129:1 1646:1 1647:1 
5.196317276372548 60:1 1107:1 1691:1 1692:1 1693:1 1694:1 1695:1 1696:1 1697:1 1698:1 
124.6955452131556 26:1 263:1 1700:1 1701:1 1702:1 
15.87010204984619 48:1 85:1 86:1 132:1 387:1 1641:1 1707:1 
18784.30495685593 139:1 181:1 210:1 769:1 
1708.094418252176 26:1 222:1 
121.0503894827569 85:1 210:1 387:1 508:1 624:1 1713:1 1714:1 
6.835971829488216 72:1 73:1 98:1 99:1 210:1 
115.2330534857087 27:1 28:1 167:1 210:1 768:1 1376:1 1731:1 
65.00276639195366 88:1 129:1 226:1 281:1 1748:1 1749:1 1750:1 
31.89954209702207 226:1 595:1 1763:1 
641.4842307649351 215:1 226:1 1398:1 1764:1 
7.989073478323594 39:1 107:1 226:1 243:1 844:1 970:1 1780:1 1781:1 1782:1 1783:1 1784:1 1785:1 
31.84721993940197 129:1 269:1 473:1 504:1 505:1 953:1 1786:1 
29.60542325183841 285:1 452:1 830:1 840:1 1295:1 1779:1 1787:1 1788:1 
47.78523892248222 92:1 268:1 328:1 504:1 1439:1 1794:1 1795:1 1796:1 1797:1 1798:1 
136.10033739132 123:1 196:1 197:1 202:1 203:1 228:1 251:1 1567:1 1802:1 1803:1 1804:1 
39.12408832423561 93:1 310:1 607:1 824:1 1413:1 1807:1 
126.5106833739337 68:1 69:1 110:1 839:1 1567:1 1828:1 1829:1 1833:1 
4.198912775878739 1598:1 1857:1 1858:1 1859:1 1860:1 1861:1 1862:1 
102.660982043597 358:1 1211:1 1869:1 1870:1 1871:1 1872:1 1873:1 1874:1 
18.59912392921018 127:1 681:1 1112:1 1376:1 1378:1 1883:1 1884:1 1885:1 1886:1 
289.2082624482354 79:1 371:1 625:1 1076:1 1192:1 1887:1 1888:1 1889:1 
17.81884370169933 181:1 182:1 183:1 468:1 1890:1 1891:1 
6349.690103634282 184:1 1898:1 
14.89047950798311 92:1 310:1 564:1 596:1 1537:1 1676:1 1897:1 1899:1 1900:1 1901:1 
237.9997007903327 18:1 19:1 20:1 21:1 26:1 71:1 79:1 106:1 107:1 108:1 1940:1 1941:1 
3.969254567849141 351:1 1948:1 
486.8968044495479 92:1 121:1 268:1 318:1 328:1 625:1 672:1 1255:1 1352:1 1810:1 1949:1 1950:1 1951:1 
239.7743008193096 181:1 219:1 285:1 644:1 897:1 1926:1 1953:1 1954:1 
464.2059576911686 136:1 491:1 644:1 681:1 1391:1 1972:1 1973:1 
83.50351840191203 120:1 257:1 312:1 896:1 1983:1 1987:1 1988:1 
491.8703615077278 27:1 739:1 754:1 1972:1 1992:1 1993:1 1994:1 
8.659682912103067 80:1 291:1 672:1 1721:1 1997:1 1998:1 1999:1 2000:1 2001:1 2002:1 
211.5816268771369 7:1 27:1 39:1 134:1 1995:1 2006:1 
991.8330813287937 10:1 87:1 396:1 603:1 801:1 2007:1 2010:1 2011:1 2012:1 
81.41015356342531 130:1 328:1 2060:1 2061:1 
73.19559680897356 181:1 183:1 701:1 2071:1 2072:1 2073:1 2074:1 2075:1 2076:1 
39.34855952213638 310:1 394:1 564:1 2088:1 
46.30871590828939 91:1 136:1 183:1 945:1 1972:1 
8.696080915561749 81:1 2112:1 2113:1 2116:1 
99.55829961150084 1211:1 1872:1 2117:1 
2.657612986471699 263:1 616:1 1259:1 2012:1 2025:1 2120:1 2121:1 2122:1 2123:1 2124:1 
206.8004505756239 47:1 175:1 301:1 305:1 945:1 1524:1 1859:1 
27.8221095644234 223:1 238:1 310:1 2159:1 
799.7620171215498 123:1 196:1 197:1 251:1 665:1 1111:1 2203:1 2204:1 
282.4168440395919 124:1 130:1 274:1 312:1 522:1 801:1 1798:1 1962:1 
2092.645990916935 46:1 47:1 136:1 205:1 1058:1 1330:1 
2.386040643679677 310:1 564:1 640:1 2054:1 2170:1 2223:1 2224:1 2225:1 2226:1 2227:1 2228:1 2229:1 2230:1 
460.1205430797286 690:1 1323:1 1736:1 2226:1 2227:1 2228:1 2229:1 2230:1 2231:1 2232:1 2233:1 
15.91359442600748 129:1 215:1 226:1 276:1 428:1 786:1 1184:1 1325:1 2234:1 2235:1 
5.831295260841083 21:1 152:1 169:1 292:1 338:1 339:1 758:1 1551:1 1600:1 1940:1 1941:1 2239:1 
115.4387189584329 162:1 196:1 197:1 251:1 276:1 381:1 665:1 1610:1 2240:1 2241:1 2242:1 
295.3905388830548 83:1 439:1 452:1 453:1 591:1 2248:1 2249:1 2250:1 2251:1 2252:1 
8.410374199351773 103:1 152:1 358:1 930:1 1819:1 1869:1 2261:1 
123.8296208714404 89:1 129:1 681:1 769:1 1391:1 2326:1 2327:1 2328:1 2329:1 2330:1 2331:1 
1866.931230809159 28:1 138:1 738:1 758:1 1628:1 
30.73375539910733 129:1 360:1 759:1 1996:1 2357:1 2358:1 2359:1 2360:1 2361:1 
139.7570831661286 92:1 184:1 392:1 467:1 512:1 2327:1 2384:1 2385:1 2386:1 2387:1 
1238.473823507797 92:1 93:1 182:1 308:1 744:1 787:1 899:1 1380:1 2427:1 
7.34146807896497 69:1 257:1 899:1 1482:1 2294:1 2457:1 2458:1 2459:1 2460:1 2461:1 2462:1 2463:1 
12.04084037055097 543:1 899:1 2426:1 2477:1 2484:1 2488:1 2489:1 
1794.576418048174 73:1 89:1 2279:1 
55.07544742704828 184:1 485:1 851:1 1302:1 1303:1 2500:1 
400.8537388761737 2512:1 
8.940320938733203 75:1 2200:1 2290:1 2513:1 2514:1 2515:1 2516:1 2517:1 2518:1 2519:1 
186.0563472897064 196:1 197:1 251:1 665:1 2189:1 2520:1 2521:1 2522:1 
32.76329639138351 223:1 240:1 310:1 564:1 1527:1 1848:1 2524:1 
540.1374540485442 91:1 141:1 616:1 762:1 769:1 1112:1 2527:1 2528:1 2529:1 2530:1 
271.5305097274819 15:1 141:1 257:1 616:1 758:1 762:1 770:1 1112:1 1634:1 
335.4375755561343 184:1 2335:1 2534:1 
0.2019715400765542 2586:1 2587:1 
5631.078613853228 33:1 257:1 2203:1 2597:1 2598:1 
71.8173758567752 1000:1 2169:1 
33.17344203266087 219:1 292:1 758:1 2631:1 2637:1 2638:1 2639:1 
5.225127331417815 140:1 758:1 2073:1 2179:1 2631:1 
30.41439837720369 157:1 303:1 304:1 348:1 422:1 424:1 1736:1 2652:1 2653:1 
6.965052451246965 226:1 603:1 693:1 758:1 2661:1 2662:1 2663:1 2664:1 2665:1 2666:1 
3.235368508232173 281:1 671:1 758:1 2631:1 2667:1 2668:1 2669:1 2670:1 
387.5774833281238 15:1 226:1 694:1 970:1 2631:1 2633:1 2677:1 2678:1 
77.87033157512043 424:1 600:1 1112:1 1632:1 1858:1 1862:1 2006:1 2631:1 2645:1 2656:1 2679:1 2680:1 
12.83943246563468 272:1 698:1 1340:1 1736:1 2631:1 2693:1 
191.8006358433592 120:1 440:1 693:1 1848:1 2694:1 2695:1 2696:1 2697:1 
9.744597917362976 292:1 591:1 674:1 758:1 1107:1 1761:1 2704:1 2705:1 2706:1 
10.17341499678366 272:1 698:1 753:1 1848:1 2631:1 2712:1 2713:1 2714:1 
133.721442545002 694:1 758:1 835:1 1189:1 1497:1 1816:1 2631:1 2715:1 2716:1 
21.23921884346841 15:1 136:1 359:1 758:1 2631:1 2718:1 
39.589252030069 693:1 758:1 1782:1 2631:1 2720:1 2726:1 
13.17812559883436 2073:1 2417:1 2631:1 2730:1 
78.75282241930434 392:1 527:1 528:1 2168:1 2631:1 2737:1 
220.6876856435526 603:1 758:1 2637:1 2738:1 2739:1 2740:1 
5.661348964424209 108:1 1504:1 2631:1 2730:1 2741:1 
227.1584733848144 312:1 2631:1 2675:1 2676:1 
3.270218783373346 19:1 312:1 453:1 896:1 969:1 1245:1 2762:1 
3.539269382481154 113:1 129:1 197:1 251:1 381:1 665:1 1113:1 1610:1 1686:1 2622:1 2778:1 
71.30635945899449 41:1 132:1 758:1 902:1 1275:1 2797:1 2798:1 
31.45479768162052 546:1 1011:1 1537:1 
100.0061643732613 1567:1 1711:1 
1310.104472699422 14:1 196:1 197:1 219:1 381:1 1610:1 2141:1 2828:1 
2.327605013274501 226:1 565:1 870:1 1261:1 2610:1 
1511.327920024194 98:1 99:1 181:1 182:1 183:1 210:1 
85.82145979733167 184:1 337:1 359:1 2364:1 2856:1 
269.6626289143563 2859:1 2860:1 
403.3247426856233 15:1 48:1 84:1 86:1 105:1 1600:1 2882:1 
5.409311669675152 123:1 129:1 196:1 197:1 251:1 431:1 665:1 1802:1 1803:1 1943:1 1944:1 
878.0679214281722 609:1 1224:1 2888:1 
1157.839474625231 184:1 644:1 2364:1 
580.917195136957 281:1 386:1 453:1 640:1 1748:1 
27.96403287716628 138:1 184:1 860:1 869:1 2931:1 2932:1 2933:1 
636.5736004738916 48:1 70:1 372:1 986:1 1024:1 2981:1 2982:1 2983:1 2984:1 
110.6566141595938 136:1 870:1 1925:1 2024:1 
294.3225645828343 92:1 129:1 328:1 448:1 1170:1 2207:1 2996:1 2997:1 
90.12666343331804 2950:1 2951:1 
2.146448439205852 243:1 372:1 591:1 3055:1 3056:1 
218.0920320382623 184:1 2335:1 3063:1 
15.50292876824497 4:1 83:1 328:1 508:1 1345:1 1608:1 2030:1 3085:1 
22.09182658664617 136:1 185:1 219:1 870:1 1261:1 1582:1 1583:1 2301:1 
11.00900341066332 73:1 184:1 870:1 3108:1 
211.6930017400807 73:1 204:1 812:1 813:1 2364:1 2881:1 3028:1 3109:1 3110:1 
10.99228411008197 87:1 393:1 1421:1 2218:1 2445:1 3115:1 3116:1 3117:1 3118:1 3119:1 
8.148873361056621 525:1 2438:1 2897:1 3120:1 3121:1 3122:1 
13.51779824388444 79:1 381:1 393:1 565:1 1369:1 2593:1 3041:1 3126:1 3129:1 3130:1 
192.8902144140657 83:1 92:1 1170:1 2207:1 2574:1 2996:1 2997:1 3132:1 3133:1 
340.2652835116769 875:1 2192:1 2840:1 2841:1 2842:1 3057:1 
34.11780618134748 71:1 1255:1 1700:1 2509:1 2561:1 3138:1 3139:1 3140:1 3141:1 3142:1 3143:1 
400.9447675624593 139:1 534:1 538:1 871:1 
38.54771379470603 108:1 123:1 197:1 1038:1 1111:1 1186:1 2203:1 2204:1 3134:1 3175:1 3176:1 
197.0861644980941 123:1 129:1 197:1 380:1 381:1 624:1 665:1 2806:1 2807:1 2855:1 3203:1 
11.97139690118254 201:1 206:1 381:1 585:1 665:1 1111:1 3209:1 3210:1 3211:1 
388.1283493034248 874:1 875:1 2736:1 3219:1 3222:1 3224:1 3225:1 3226:1 
18.09147966735753 1726:1 3219:1 3227:1 3228:1 3229:1 3230:1 3231:1 3232:1 3233:1 
665.5675437967901 458:1 970:1 3219:1 3220:1 3222:1 3235:1 3236:1 3237:1 3238:1 
124.730303553525 111:1 1875:1 3253:1 
54.09413360834748 263:1 306:1 307:1 327:1 2122:1 3029:1 3218:1 3256:1 3257:1 
68.49521102196748 308:1 1551:1 2978:1 3267:1 3268:1 3269:1 
200.4264249483839 129:1 197:1 294:1 337:1 417:1 431:1 1352:1 2804:1 3274:1 3275:1 
186.538192221333 14:1 15:1 64:1 367:1 368:1 3252:1 3284:1 3285:1 
116.2338686141653 14:1 79:1 106:1 107:1 108:1 125:1 263:1 379:1 1537:1 1920:1 
71.98161862684339 64:1 68:1 69:1 2276:1 3367:1 3368:1 
43.97994448175957 3374:1 
340.3212791495988 71:1 206:1 306:1 318:1 717:1 1584:1 1700:1 2509:1 3379:1 
183.974503244231 71:1 266:1 306:1 1537:1 1700:1 3144:1 3383:1 3384:1 
514.9387390001814 10:1 88:1 219:1 292:1 2170:1 3414:1 3415:1 3416:1 
61.29304145307179 10:1 81:1 418:1 419:1 621:1 2386:1 3417:1 3418:1 3419:1 3420:1 
2.894610067113235 1352:1 3426:1 3427:1 3428:1 3429:1 3430:1 3431:1 
54.60639436466769 1259:1 2120:1 
2.391855770397123 38:1 288:1 837:1 1112:1 1872:1 3442:1 3443:1 
1220.314095695675 294:1 431:1 3026:1 
168.571862944926 665:1 1111:1 2203:1 2204:1 
30.47710130989033 1187:1 2352:1 3452:1 3453:1 
119.5064764830771 204:1 2089:1 3463:1 3464:1 
57.77782995020613 864:1 3465:1 
548.3374386952044 432:1 1694:1 
4.720723588082232 508:1 851:1 2114:1 2313:1 2517:1 2646:1 3031:1 3197:1 3198:1 3488:1 3490:1 3491:1 3492:1 
251.5990589653987 310:1 372:1 386:1 851:1 2287:1 3506:1 3507:1 3508:1 
209.3223962721077 1537:1 3509:1 3510:1 
45.99911115968921 201:1 226:1 453:1 592:1 639:1 3515:1 3516:1 3517:1 3518:1 3519:1 
82.48661307691337 98:1 199:1 372:1 463:1 620:1 1982:1 3551:1 3552:1 3553:1 3554:1 3555:1 
2.60256609915264 185:1 870:1 3566:1 3568:1 
1105.542943194114 386:1 3359:1 
209.3916386301114 1828:1 1829:1 
198.9461431994457 2791:1 
1598.205768196643 3586:1 3587:1 
72.80601253514455 26:1 3588:1 3589:1 
44.12149779526099 1311:1 3593:1 3594:1 
10.08485738179345 3609:1 
191.8058306104533 204:1 1062:1 1820:1 2903:1 3446:1 3613:1 3614:1 3615:1 3616:1 
58.87450248416311 85:1 1562:1 2336:1 3624:1 3625:1 3626:1 
580.3285845584506 105:1 1891:1 2431:1 3647:1 
172.2548282136654 1249:1 
364.8828561382948 219:1 3653:1 
14.52913557235999 1111:1 1186:1 2203:1 2204:1 
223.3852380006145 85:1 305:1 3587:1 3669:1 3670:1 
836.5461327149047 3671:1 
166.3351712871957 3672:1 3673:1 
22.43240800772077 640:1 2629:1 3011:1 3012:1 
66.52294626855897 85:1 3035:1 3674:1 3675:1 3676:1 
33.31202327286316 79:1 226:1 3677:1 3678:1 3679:1 3680:1 
10.35631988585065 73:1 386:1 428:1 803:1 2191:1 2667:1 3681:1 3682:1 3683:1 
65.79784821944436 609:1 3490:1 3698:1 
43.50017272226354 335:1 2611:1 
2380.207267292205 89:1 1508:1 1516:1 1928:1 3712:1 
1155.11368186342 85:1 609:1 1319:1 
312.2050927604343 152:1 310:1 426:1 436:1 1881:1 3506:1 3713:1 3714:1 3715:1 3716:1 
277.2398597188919 372:1 1406:1 2717:1 3717:1 3718:1 
75.57780520450389 88:1 2287:1 3722:1 
29.52093339159503 455:1 1437:1 1831:1 3587:1 3723:1 3724:1 
52.44186630125415 83:1 85:1 89:1 3491:1 3732:1 
2.163700803264402 571:1 1277:1 2322:1 3273:1 3684:1 3739:1 
45.51106666691683 815:1 2239:1 3438:1 3743:1 3744:1 3745:1 3746:1 3747:1 
1939.291157807447 779:1 2051:1 2081:1 
157.720349396182 581:1 620:1 3750:1 3751:1 
59.70079567115141 131:1 226:1 565:1 814:1 870:1 1551:1 3400:1 3720:1 3769:1 3770:1 3771:1 3772:1 
16.41198200365369 3774:1 3775:1 3776:1 3777:1 
1.875071299821156 9:1 301:1 743:1 1718:1 1836:1 1842:1 
16.899118870925 359:1 372:1 814:1 872:1 1776:1 3809:1 
248.4222695327908 437:1 620:1 639:1 2549:1 3028:1 3833:1 3834:1 3835:1 3836:1 
37.70729517621444 199:1 407:1 508:1 856:1 3603:1 3838:1 3839:1 3840:1 3841:1 
153.3325904988791 7:1 226:1 814:1 1776:1 3873:1 
121.0974348442274 85:1 814:1 1776:1 3874:1 3875:1 3876:1 3877:1 
18.16542335931603 136:1 844:1 870:1 2775:1 3878:1 
50.34305782250678 594:1 780:1 1820:1 3901:1 3902:1 3903:1 
35.73413331984347 84:1 199:1 226:1 355:1 463:1 1845:1 3620:1 3805:1 3942:1 3943:1 
25.18066309850077 1649:1 1651:1 1831:1 3890:1 
10.06541923311212 19:1 69:1 103:1 304:1 3172:1 3782:1 3990:1 3991:1 3992:1 3993:1 
39.53324599660389 128:1 226:1 1378:1 2110:1 3120:1 3495:1 3587:1 3997:1 3998:1 3999:1 
184.3772636275202 178:1 226:1 252:1 1088:1 2624:1 2633:1 3505:1 3518:1 3728:1 4000:1 
79.90751251311802 69:1 226:1 564:1 650:1 1769:1 2648:1 3074:1 4001:1 
112.3260874954204 136:1 257:1 345:1 650:1 814:1 850:1 870:1 4008:1 
61.88854150653078 75:1 194:1 263:1 1700:1 1757:1 1758:1 2280:1 4010:1 
628.3977525751077 184:1 210:1 814:1 870:1 4011:1 
53.3950415062458 864:1 1831:1 3569:1 
22.69777393584945 276:1 372:1 1245:1 2367:1 3569:1 3924:1 3993:1 4045:1 4046:1 4047:1 4048:1 
487.660580104542 1777:1 1857:1 
58.27562315536287 292:1 3569:1 4052:1 4053:1 
1.944918641527442 129:1 397:1 591:1 639:1 824:1 1396:1 1661:1 2239:1 3050:1 3289:1 3592:1 4054:1 4055:1 4056:1 4057:1 
11.02089071996905 199:1 3569:1 3842:1 4060:1 4061:1 4062:1 
64.46500124121623 3569:1 3748:1 
146.6589240206151 88:1 3282:1 4065:1 4066:1 4067:1 
146.9953251554704 603:1 2492:1 2739:1 3569:1 4068:1 
84.06906595098272 4:1 564:1 3569:1 4103:1 
272.3805820659009 464:1 779:1 856:1 4106:1 4107:1 4108:1 
89.60711207547082 443:1 615:1 1848:1 2297:1 3035:1 4109:1 4110:1 
313.275446810482 373:1 839:1 4111:1 4112:1 4113:1 4114:1 
48.01333806187551 4:1 75:1 219:1 372:1 1836:1 2303:1 4118:1 4119:1 4120:1 
1.999891062993358 4:1 15:1 75:1 360:1 372:1 3501:1 3545:1 4120:1 4121:1 
45.37779763925067 288:1 732:1 1776:1 1783:1 1822:1 1849:1 2565:1 3728:1 3996:1 4122:1 4123:1 
1.513661675800134 292:1 1186:1 1340:1 3338:1 3453:1 3992:1 4137:1 4138:1 4139:1 
2.861908170398271 99:1 497:1 564:1 1514:1 1928:1 2786:1 3655:1 3796:1 4157:1 4158:1 
57.60849259121407 39:1 226:1 603:1 851:1 2739:1 4166:1 4167:1 4168:1 
220.8074405098617 14:1 15:1 1493:1 1537:1 1567:1 2840:1 2841:1 2842:1 4169:1 
1.469747752274847 93:1 394:1 592:1 2081:1 2895:1 3300:1 3939:1 4179:1 4180:1 
113.7786974429701 99:1 204:1 458:1 3075:1 4195:1 4196:1 4197:1 4198:1 
487.722144085144 15:1 183:1 812:1 813:1 814:1 1267:1 4211:1 4212:1 4213:1 
47.77093526244808 136:1 301:1 814:1 839:1 1776:1 4214:1 4215:1 
497.9875693153016 457:1 592:1 814:1 1034:1 1209:1 1246:1 4220:1 
18.49839373061427 85:1 367:1 368:1 1252:1 4233:1 4234:1 
18.60891817131221 85:1 851:1 2615:1 4245:1 4246:1 4247:1 
283.8361910631789 46:1 47:1 127:1 128:1 468:1 2717:1 4239:1 4240:1 
83.66114569841865 6:1 75:1 226:1 334:1 369:1 370:1 372:1 2145:1 4017:1 4249:1 4250:1 4251:1 
39.08141364993197 48:1 86:1 201:1 226:1 292:1 1132:1 4253:1 4254:1 4255:1 
28.4082977714466 2639:1 4275:1 
94.08325741168653 4276:1 4277:1 
7.953707442099129 4290:1 4291:1 4292:1 
10.16351040723179 429:1 963:1 1076:1 1081:1 1246:1 1869:1 3040:1 3937:1 4320:1 4321:1 4322:1 
522.7795101435404 165:1 201:1 4079:1 
131.6971916688335 292:1 317:1 583:1 1514:1 4360:1 4361:1 
18.35939133288426 272:1 4365:1 
7.55421353608997 1246:1 1323:1 3338:1 3416:1 3525:1 3942:1 4366:1 
260.4726799056291 181:1 3416:1 4379:1 
9.681245901364996 181:1 419:1 3416:1 4380:1 
5.249305437181778 138:1 272:1 2026:1 3295:1 3572:1 4381:1 4382:1 4383:1 
3.232654791852363 3251:1 4271:1 4287:1 4385:1 
8.241886680506518 3274:1 4290:1 4394:1 4399:1 4400:1 4401:1 
73.80454549028595 355:1 1720:1 1771:1 3227:1 4416:1 4417:1 4418:1 4419:1 4420:1 
140.2660968271315 211:1 821:1 2417:1 4255:1 
112.9636854639756 371:1 529:1 1041:1 1609:1 3438:1 4436:1 4437:1 4438:1 4439:1 
74.7498111748416 27:1 123:1 565:1 1837:1 2029:1 3453:1 4449:1 4450:1 
134.4118306779102 497:1 1514:1 1721:1 4413:1 
26.5262329129302 278:1 1419:1 1909:1 4287:1 4412:1 4462:1 
9.809426751356069 37:1 292:1 1199:1 2580:1 4303:1 4471:1 4472:1 
9.468220676770203 88:1 1557:1 4342:1 4473:1 4474:1 
198.6909162231344 1557:1 3766:1 4470:1 4490:1 
44.10320160808011 402:1 1847:1 1873:1 3282:1 4492:1 4493:1 4494:1 
6.871741414594291 123:1 1557:1 1567:1 3095:1 3491:1 
416.5110359725365 201:1 266:1 1246:1 3327:1 4524:1 
72.04942546351168 29:1 386:1 501:1 1184:1 1245:1 1835:1 1869:1 
37.28307777980106 4290:1 4529:1 4530:1 
22.01976533528526 334:1 2975:1 3140:1 4531:1 4532:1 4533:1 
259.9370998156515 4566:1 
204.3661363717504 1741:1 2528:1 4290:1 4573:1 4574:1 4575:1 
60.71430838600322 4576:1 4577:1 4578:1 
2.516385545573082 372:1 394:1 2171:1 3312:1 4588:1 4589:1 4590:1 4591:1 4592:1 
33.70727851917027 4602:1 
1035.89130955134 4611:1 4612:1 4613:1 4614:1 
1080.841806926504 88:1 146:1 371:1 1958:1 4615:1 4616:1 4617:1 
4.210957254000696 565:1 687:1 3068:1 4477:1 4545:1 4546:1 4618:1 4619:1 4620:1 4621:1 
16.73596451057086 297:1 859:1 1035:1 4342:1 4568:1 4630:1 4631:1 4632:1 4633:1 
14.18353460285749 124:1 3552:1 4642:1 4643:1 4644:1 
51.59884673812827 100:1 1024:1 4659:1 4660:1 4661:1 
890.5334415272946 2074:1 4511:1 
2.903360583061999 107:1 226:1 444:1 508:1 1129:1 2431:1 3952:1 4456:1 4572:1 4672:1 4673:1 
145.7639782121221 4692:1 
582.990299737914 3812:1 
23.76215895776216 3235:1 4272:1 4384:1 4695:1 
87.70554738356179 91:1 1609:1 2352:1 4495:1 4680:1 
29.07944356295468 4712:1 4714:1 4715:1 
49.7134088148813 549:1 2033:1 2754:1 
3.701778633779887 1514:1 1736:1 2351:1 4282:1 4740:1 
34.68142168388776 4290:1 4723:1 4759:1 4760:1 4761:1 4762:1 4763:1 
6.304822228005989 763:1 3572:1 4771:1 
49.38534357461513 102:1 201:1 371:1 4776:1 
61.2865330127013 193:1 549:1 1005:1 1044:1 3239:1 4547:1 4709:1 4781:1 4782:1 
166.3181836774065 3048:1 3552:1 4245:1 4414:1 4806:1 4807:1 
560.4924465346787 1616:1 4287:1 
20.59761395443895 10:1 453:1 2300:1 4816:1 
7.274854545114525 10:1 248:1 2614:1 2656:1 4271:1 
7.068220242061925 2164:1 4183:1 4838:1 4839:1 
18.16093312344863 32:1 268:1 4702:1 
182.5013022038148 4820:1 
198.4994078409488 4271:1 4451:1 4862:1 4863:1 
0.200500237471914 4867:1 4868:1 4869:1 
724.9359229930011 971:1 4878:1 
168.0880546035285 4879:1 4880:1 
107.7648844539935 124:1 859:1 3328:1 4295:1 4881:1 4882:1 
25.44438341470036 281:1 1363:1 2338:1 3892:1 4270:1 4667:1 4889:1 
21.76670274686162 220:1 426:1 3095:1 4903:1 4912:1 
4.721215330022474 1325:1 1810:1 2616:1 4278:1 4440:1 4938:1 4939:1 4940:1 
400.7351356204386 19:1 292:1 318:1 661:1 4941:1 
22.47907959496833 607:1 4372:1 
41.11032931948816 452:1 1923:1 1954:1 3095:1 4712:1 4919:1 4963:1 
4.626026553480375 165:1 219:1 292:1 1171:1 1379:1 1396:1 2208:1 4978:1 
60.21407265555037 266:1 515:1 583:1 1419:1 4077:1 4919:1 4996:1 4997:1 
25.78989169267932 124:1 201:1 292:1 585:1 975:1 2887:1 4287:1 4998:1 4999:1 
234.3721607283303 93:1 124:1 392:1 467:1 592:1 3202:1 4103:1 
16.5880776481535 185:1 1394:1 5040:1 
142.4065715492107 248:1 292:1 1846:1 4255:1 5041:1 
91.8907193246466 2124:1 2585:1 5046:1 
109.3447211161103 292:1 859:1 4190:1 4278:1 5048:1 
30.07089556912247 248:1 292:1 1846:1 4255:1 5041:1 
500.9377970542434 126:1 2248:1 4279:1 
49.04561627443356 1822:1 2073:1 4856:1 4878:1 5060:1 5061:1 
19.0693943906201 4473:1 4688:1 4834:1 4835:1 5043:1 5069:1 
2.598459078579943 268:1 499:1 2572:1 4363:1 4550:1 4608:1 
10.09688270603118 211:1 372:1 1036:1 5112:1 5113:1 
68.80956762836824 93:1 201:1 211:1 453:1 4167:1 5105:1 5115:1 5116:1 
116.4003768517105 4561:1 5092:1 
11.6290065426422 125:1 1335:1 2744:1 3338:1 5092:1 5148:1 5156:1 
28.0517735711658 108:1 494:1 5166:1 5167:1 
71.56182837423773 453:1 1501:1 3235:1 5088:1 5187:1 5188:1 
72.11223330640686 281:1 705:1 3892:1 4282:1 
40.71963011028473 10:1 200:1 2248:1 4268:1 4460:1 5204:1 
6.286596414452728 392:1 574:1 679:1 864:1 1848:1 2179:1 3686:1 
54.64652190104077 281:1 465:1 549:1 859:1 2298:1 4285:1 4785:1 4836:1 5215:1 
3.720668569946808 971:1 5228:1 5229:1 5230:1 5231:1 
29.07642743705288 172:1 213:1 3555:1 3855:1 4255:1 5223:1 5235:1 
9.6635734226869 123:1 485:1 692:1 3140:1 3180:1 4291:1 5239:1 
55.49398280907925 123:1 301:1 360:1 386:1 485:1 792:1 3546:1 5241:1 
15.34952548589269 3547:1 4247:1 5259:1 5260:1 
7.52759902633614 102:1 120:1 292:1 1192:1 3040:1 3726:1 5185:1 5263:1 
91.44336460114542 1181:1 4905:1 
0.2307060705274627 971:1 4449:1 4621:1 5014:1 5277:1 5278:1 
1.594164970461596 485:1 2723:1 3202:1 4520:1 4852:1 5291:1 
8.90098753825534 5285:1 
148.7205393780435 123:1 197:1 565:1 1320:1 2573:1 5071:1 
764.4514562808184 2494:1 
5.650672169384947 734:1 4352:1 5309:1 5310:1 5311:1 
93.74265570126929 651:1 1396:1 
7.369650527782676 2853:1 4920:1 
749.6342021782342 327:1 1493:1 3257:1 
10.90913269165557 248:1 494:1 1877:1 3272:1 4524:1 5071:1 
61.21153842682249 108:1 138:1 301:1 1132:1 2135:1 4291:1 
333.3662928259542 327:1 3257:1 5328:1 
560.3504343747114 1609:1 
46.93818070922638 4270:1 4460:1 4475:1 
8.748911705632091 465:1 3410:1 4285:1 5340:1 5341:1 
12.34264826660414 648:1 3682:1 5348:1 
306.9231747043136 2295:1 4271:1 
64.59572576912898 281:1 327:1 1737:1 4864:1 5344:1 
78.76990262941084 304:1 5356:1 5357:1 
50.45704132372535 2237:1 4352:1 5369:1 
4.57116095840577 5374:1 
5.687781292062529 5375:1 5376:1 
189.9551458469387 5377:1 
158.5101106634786 305:1 
39.51468449947541 26:1 327:1 4842:1 
435.977826165703 426:1 687:1 1044:1 2677:1 4352:1 4353:1 5387:1 5388:1 5389:1 
499.7046358049273 2347:1 5390:1 
68.43819935181138 169:1 734:1 1745:1 4577:1 5391:1 
22.40917225543349 814:1 4270:1 5392:1 5393:1 
87.94398318848769 4271:1 5367:1 
35.16898797775417 4817:1 5403:1 5404:1 
153.1843726432772 5417:1 
76.2482713783659 598:1 4201:1 4419:1 5423:1 5424:1 
348.8540100305263 42:1 83:1 124:1 360:1 1035:1 1363:1 4629:1 5430:1 
8.703406519695239 301:1 683:1 971:1 1379:1 1502:1 3168:1 4975:1 
21.33722252832724 457:1 2117:1 5009:1 5010:1 5011:1 
35.57547495094342 327:1 411:1 1024:1 1072:1 3257:1 3313:1 
34.3039114661192 255:1 346:1 355:1 565:1 1038:1 1873:1 3243:1 4023:1 4834:1 5457:1 5458:1 
62.19717869200355 257:1 1335:1 1609:1 1628:1 4342:1 4423:1 4966:1 5308:1 5428:1 5459:1 
233.1442185807672 1502:1 1697:1 
48.66193020279396 10:1 243:1 3918:1 5462:1 5463:1 5464:1 5465:1 
4.863603002915998 494:1 1246:1 1873:1 4473:1 4512:1 4688:1 5318:1 
206.2849016204849 327:1 1171:1 1335:1 4271:1 4342:1 5459:1 
6.120766829091412 83:1 598:1 1514:1 4517:1 5471:1 5477:1 5491:1 
25.76827232607042 123:1 327:1 1107:1 1335:1 4342:1 4423:1 5428:1 5493:1 5494:1 5495:1 
25.50634154143335 88:1 226:1 576:1 1335:1 1459:1 5398:1 5496:1 5497:1 5498:1 5499:1 
5.128714533516556 19:1 52:1 91:1 102:1 292:1 485:1 1603:1 5081:1 5537:1 5538:1 
533.4571586410245 1035:1 
31.47285937416904 327:1 3235:1 3257:1 3525:1 
79.89940190030551 2128:1 4270:1 4887:1 5543:1 
938.3275713795238 201:1 465:1 681:1 3338:1 
148.6626761980157 138:1 439:1 
39.79124064797557 770:1 2218:1 4132:1 4467:1 5272:1 5388:1 
33.13387348563877 327:1 985:1 1493:1 2616:1 3257:1 
132.9515874509894 3235:1 4270:1 5562:1 
158.5673473380465 304:1 1748:1 2171:1 2593:1 5563:1 5564:1 5565:1 
94.73684245064695 3552:1 4643:1 
17.49038282315388 565:1 3218:1 3662:1 5582:1 5583:1 5585:1 5586:1 
21.47959591146282 178:1 327:1 928:1 2295:1 5312:1 5313:1 5587:1 
10.1180270029803 1035:1 4271:1 5084:1 
0.7350099928888382 327:1 2295:1 3525:1 4308:1 4817:1 5152:1 5295:1 5590:1 5591:1 
53.58648147940426 211:1 1518:1 1744:1 3812:1 4593:1 
179.9488068216453 906:1 1518:1 3812:1 
5.543366254539864 1245:1 
29.37377150059362 443:1 2879:1 3018:1 4910:1 5442:1 5598:1 
48.08278757314912 211:1 243:1 397:1 5599:1 
11.376276224843 301:1 4355:1 4430:1 5602:1 5603:1 
25.2995674750987 7:1 83:1 223:1 372:1 788:1 1392:1 1909:1 5605:1 
4.310382358689472 835:1 3206:1 4286:1 4965:1 
37.62082768534739 1340:1 3172:1 5616:1 
885.0425463814184 248:1 334:1 597:1 2437:1 2966:1 3624:1 
17.91270218445974 327:1 371:1 1518:1 1566:1 3070:1 4465:1 4597:1 
152.3641249172501 141:1 789:1 3506:1 5086:1 
16.34413478548516 412:1 3406:1 5639:1 
94.13979334249507 394:1 3243:1 4023:1 4437:1 4887:1 4888:1 5642:1 5643:1 5644:1 
93.80371676722771 3385:1 
815.2255787077617 1769:1 
130.3923216467091 124:1 5654:1 
40.63941539344832 226:1 1647:1 1806:1 2615:1 4456:1 5071:1 5308:1 5662:1 5663:1 5664:1 5665:1 
5.201617572875866 5162:1 
5.334226031612798 411:1 835:1 3785:1 4286:1 4601:1 5133:1 5237:1 5676:1 5677:1 
14.64546150079343 899:1 1628:1 2135:1 5621:1 
222.5359035511288 385:1 2086:1 5071:1 5705:1 
2.305796976558828 1737:1 3977:1 4301:1 5711:1 5712:1 5713:1 5714:1 
29.96848994087599 1131:1 4308:1 4342:1 4723:1 5721:1 5722:1 
58.17854171735843 871:1 1035:1 1396:1 1681:1 4342:1 4585:1 5034:1 5071:1 5714:1 5734:1 5735:1 
1125.379324346649 1362:1 2565:1 
0.9287221970810386 1097:1 5721:1 5746:1 5747:1 
37.72322190295812 394:1 2210:1 4103:1 4316:1 5334:1 5345:1 5756:1 5757:1 5758:1 
2.171969891898411 42:1 193:1 485:1 3303:1 3447:1 4255:1 5749:1 5768:1 5769:1 
1.207547951212172 211:1 5770:1 5771:1 5772:1 5773:1 5774:1 5775:1 
24.31062683529018 123:1 592:1 2400:1 3095:1 3766:1 4102:1 5495:1 5776:1 
6.607281006352999 1567:1 5781:1 
22.57965054537241 106:1 671:1 686:1 1149:1 3650:1 3720:1 3948:1 4379:1 5534:1 5796:1 5797:1 
401.3350096225649 42:1 73:1 216:1 371:1 1255:1 1363:1 
3.07207743701555 4930:1 5811:1 
11.5450579045239 211:1 1737:1 1889:1 1949:1 
39.27989329743681 4305:1 4306:1 5820:1 
10.16933825048497 376:1 467:1 2091:1 2179:1 4091:1 4270:1 
905.4818703660732 578:1 4271:1 4751:1 5839:1 5840:1 
13.29407676858999 211:1 371:1 759:1 3812:1 4537:1 4593:1 5862:1 
82.73688829943612 138:1 386:1 4852:1 4865:1 5880:1 5881:1 5882:1 5883:1 5884:1 
65.6204828273236 2897:1 
7.507956263079183 4723:1 5809:1 5897:1 
386.7293616853033 93:1 1044:1 2426:1 2686:1 5237:1 
6.096533298514902 69:1 402:1 564:1 734:1 1319:1 3427:1 4512:1 5911:1 
2.261343534956319 371:1 759:1 783:1 3812:1 4481:1 5862:1 5913:1 
17.48085563239444 219:1 824:1 1421:1 1522:1 5762:1 5916:1 5917:1 5918:1 
167.6057682078802 4170:1 5758:1 5921:1 5922:1 5923:1 
1267.469338161076 734:1 2528:1 
212.4524916297647 734:1 2528:1 3586:1 
2.329271603056014 292:1 357:1 375:1 734:1 5925:1 
1530.42442267269 4723:1 
352.031115725904 4784:1 
3.614923180469285 1557:1 2354:1 4682:1 5954:1 5955:1 
41.77813826373554 281:1 5007:1 
30.56270703545013 146:1 429:1 512:1 1437:1 4385:1 5438:1 
707.5973619285728 3:1 3303:1 
21.75943940235795 10:1 837:1 1609:1 3202:1 3539:1 5992:1 5993:1 
16.51981271097342 5792:1 
81.59854783140177 201:1 292:1 865:1 1814:1 4132:1 4964:1 6004:1 6005:1 
13.89991367383978 123:1 248:1 1609:1 6006:1 6007:1 
20.88174104010307 10:1 859:1 1005:1 1609:1 1954:1 2135:1 5253:1 6008:1 
35.21631240518563 1603:1 2572:1 2649:1 6014:1 6015:1 6016:1 6017:1 
110.9976196152382 125:1 2570:1 6019:1 
67.13039636421925 1044:1 1736:1 1831:1 3918:1 4776:1 6020:1 6021:1 
20.87279123509446 220:1 426:1 4167:1 
130.270828618375 6025:1 
0.7230049541218408 650:1 1567:1 4287:1 4427:1 4727:1 6026:1 
4089.03642594029 304:1 579:1 
43.9561954010786 138:1 272:1 2698:1 3235:1 3586:1 4308:1 
42.88876280003371 2291:1 4271:1 4300:1 5776:1 6043:1 
3129.254396869401 138:1 272:1 397:1 
16.64676766644985 2963:1 5345:1 6048:1 6049:1 
134.4139661871274 4:1 88:1 278:1 1079:1 4270:1 5339:1 
66.92238716120389 88:1 4586:1 
4.564158508582385 211:1 304:1 1776:1 1798:1 4402:1 5345:1 5417:1 6058:1 6059:1 
529.0548586243538 3686:1 6060:1 
70.69849771593445 1530:1 2698:1 2946:1 
141.0276025145238 138:1 146:1 227:1 2026:1 4342:1 5442:1 6067:1 
890.6269099761155 220:1 426:1 
1745.749420497702 226:1 1171:1 
1358.583127285616 215:1 393:1 543:1 780:1 2211:1 2438:1 
26.04497504760109 759:1 3410:1 3812:1 4537:1 4561:1 
12.74894122077039 73:1 204:1 5125:1 
3.018793314323619 124:1 651:1 3091:1 4469:1 6039:1 6109:1 6110:1 6111:1 
6.067008707309314 98:1 301:1 739:1 4660:1 6076:1 6120:1 
4.000152405870701 301:1 2075:1 3068:1 3555:1 3956:1 5448:1 6123:1 
19.09750520398333 243:1 495:1 865:1 4287:1 6146:1 6147:1 
1.280152155850303 435:1 608:1 1419:1 2180:1 3285:1 4834:1 5924:1 
28.19709896130209 1379:1 1736:1 4749:1 5301:1 5943:1 
30.79224004191695 304:1 371:1 2494:1 3812:1 5339:1 6157:1 
74.51052855164843 1005:1 2322:1 4477:1 6159:1 
837.2826870851877 3684:1 4282:1 6178:1 
817.5805541119062 835:1 2089:1 
3.802418480063169 124:1 301:1 372:1 1379:1 5118:1 6181:1 
20.35442687811695 175:1 3483:1 4477:1 5620:1 6008:1 6159:1 6185:1 6186:1 6187:1 6188:1 
20.95243453847562 1369:1 2930:1 4419:1 5048:1 6184:1 
40.56163249032426 689:1 692:1 1254:1 1685:1 2624:1 2712:1 3282:1 4167:1 4493:1 5071:1 
21.95652682268597 620:1 1629:1 4201:1 4569:1 5164:1 6080:1 6210:1 6211:1 6212:1 6213:1 
8.363516266108947 193:1 570:1 1831:1 3834:1 5144:1 6221:1 
61.64888085811666 146:1 394:1 455:1 794:1 1769:1 2223:1 4449:1 4608:1 
768.246356296715 93:1 4271:1 4385:1 
4.813806688312765 429:1 1869:1 3336:1 6228:1 
177.0179677996914 452:1 2145:1 2821:1 3418:1 6061:1 
20.29677827434249 464:1 570:1 1806:1 4477:1 4478:1 4621:1 5308:1 6193:1 
8.753072686167998 902:1 2622:1 3277:1 3428:1 4568:1 6208:1 
23.04060314410052 584:1 4481:1 5682:1 6208:1 6240:1 6241:1 
4.224828634424248 10:1 494:1 6242:1 6243:1 6244:1 6245:1 
73.67131162275527 1421:1 1522:1 2573:1 6246:1 
10.09281657858445 2622:1 3277:1 4568:1 5308:1 5736:1 6208:1 
156.6068274067438 3670:1 
17.1454217012985 386:1 4462:1 4566:1 5354:1 5975:1 6248:1 6249:1 6250:1 
38.5276952247919 2058:1 4555:1 4577:1 4606:1 5256:1 6251:1 
3.270246890488738 648:1 3552:1 4392:1 5014:1 6258:1 6259:1 
3.51205199361433 10:1 4113:1 4707:1 4746:1 5490:1 5891:1 5892:1 
6.571996626235951 107:1 223:1 320:1 500:1 1741:1 1831:1 4287:1 4368:1 5758:1 6275:1 6276:1 
661.8244665270659 4091:1 5158:1 
9.083930396255893 455:1 4834:1 4835:1 6285:1 
24.30139356738296 648:1 803:1 1296:1 2639:1 3068:1 3555:1 4275:1 5306:1 6286:1 
6.663917030375702 272:1 567:1 580:1 3668:1 5399:1 5745:1 6287:1 
255.8087395232047 529:1 686:1 2073:1 2737:1 4392:1 5256:1 6220:1 
26.91473604263188 6289:1 6290:1 6291:1 
6.148489937735683 3992:1 4119:1 6295:1 6296:1 6297:1 
99.47766992535702 734:1 1910:1 2528:1 2644:1 3490:1 4347:1 5462:1 
25.7187436008346 201:1 1371:1 2733:1 5306:1 
4.273008065342421 10:1 185:1 248:1 597:1 3412:1 6307:1 6308:1 
7.056607046148357 529:1 2375:1 2639:1 4275:1 6310:1 6311:1 
284.7830040602203 136:1 2048:1 2610:1 3244:1 6326:1 6327:1 
20.23621408701339 3956:1 
18.38790936056557 175:1 2532:1 4186:1 4292:1 4569:1 4726:1 6328:1 6329:1 
7.950954935200567 779:1 2297:1 2338:1 5308:1 6335:1 6336:1 6337:1 6338:1 
54.56894322454668 426:1 1220:1 1396:1 2239:1 5116:1 6347:1 
4.474617032640903 1091:1 1776:1 2298:1 5390:1 6348:1 
21.10561425542245 268:1 1607:1 
112.068933874691 10:1 437:1 3795:1 
11.72621644971457 1864:1 5833:1 6362:1 
104.9646247711058 268:1 3229:1 4445:1 5506:1 6365:1 6366:1 6367:1 
20.80417689662682 211:1 278:1 5306:1 
599.9690921232847 612:1 3040:1 5776:1 
7.598585874223225 565:1 5470:1 5906:1 6372:1 6373:1 
2.398447603104056 211:1 4091:1 4437:1 
137.6294923686701 6388:1 
1.760151197384831 124:1 808:1 824:1 1421:1 1522:1 6393:1 
103.3387408981835 1255:1 2063:1 2211:1 2250:1 2822:1 4287:1 5533:1 
21.25313137343052 73:1 1024:1 1567:1 1737:1 2528:1 3511:1 3887:1 4251:1 4398:1 6397:1 
20.33308007639969 1335:1 
16.47055855903187 6291:1 
166.1220797745167 2630:1 6411:1 
17.38836552174466 592:1 3812:1 4352:1 4817:1 6395:1 6417:1 6418:1 
868.3965659591979 1447:1 2629:1 4917:1 
43.46688256353361 184:1 211:1 1145:1 1176:1 2058:1 2434:1 6431:1 6432:1 6433:1 6434:1 6435:1 
45.32438794994634 2200:1 3041:1 3974:1 4462:1 6249:1 6436:1 6437:1 6438:1 6439:1 
11.33484293007318 288:1 1907:1 1912:1 2827:1 4349:1 6442:1 6443:1 6444:1 6445:1 6446:1 
214.797973367727 4091:1 6447:1 
26.60101259565452 304:1 1923:1 2616:1 4320:1 5175:1 6450:1 6451:1 
116.719733116749 592:1 808:1 4271:1 
3.705717949864181 512:1 2209:1 4118:1 4437:1 
42.72685841435361 1267:1 3431:1 4460:1 6468:1 
1416.041267860573 304:1 3766:1 4271:1 
15.74261139617515 1747:1 
6428.210198810781 32:1 429:1 612:1 
1.978283391961669 5020:1 5947:1 5948:1 6508:1 6509:1 
30.76266907177406 27:1 2029:1 4382:1 6511:1 
27.28607068995917 6126:1 6526:1 6527:1 
0.5204939625547247 911:1 2311:1 3338:1 3423:1 3653:1 5218:1 6528:1 
296.5683238522862 10:1 1038:1 1139:1 2352:1 6529:1 
105.4468673150399 211:1 304:1 5357:1 5563:1 
7.872624679821913 1038:1 1058:1 6532:1 6533:1 6534:1 6535:1 
27.34922855606544 394:1 4232:1 4652:1 4716:1 5776:1 6510:1 6540:1 6541:1 6542:1 6543:1 
75.44805644722324 1053:1 5020:1 5252:1 5947:1 6547:1 6548:1 
4.415678979331068 5154:1 
15.13569330532949 821:1 1392:1 2607:1 3235:1 4330:1 4968:1 5020:1 6552:1 
28.63650166333012 5316:1 
733.1169104140722 6554:1 
26.32150064248929 465:1 3837:1 4857:1 5020:1 5504:1 6176:1 6366:1 6555:1 
172.6455318092514 1245:1 
137.4230152785623 4808:1 
13.34079272566234 1578:1 3202:1 6049:1 6572:1 6573:1 
63.68539037896849 5:1 3239:1 4555:1 4780:1 6160:1 6587:1 
127.5403811672582 1448:1 1954:1 3041:1 4201:1 4712:1 4780:1 5575:1 6412:1 
69.001348851283 6592:1 6593:1 
6.905079630412692 29:1 859:1 4280:1 4353:1 
30.81868528151994 322:1 394:1 1246:1 3896:1 6594:1 6595:1 6596:1 6597:1 
47.56275251328937 27:1 73:1 1351:1 1819:1 2573:1 4002:1 5483:1 6594:1 6600:1 6601:1 6602:1 
17.50703853986046 243:1 1209:1 1252:1 3720:1 5940:1 6604:1 6605:1 
6.262850160049166 127:1 803:1 2629:1 3665:1 4901:1 5306:1 6498:1 
249.466196037095 1207:1 6663:1 
10.0094875972572 4430:1 6669:1 6670:1 
49.08937205042133 211:1 4355:1 4460:1 4472:1 5490:1 
6.009057983563451 32:1 223:1 2052:1 2723:1 5086:1 5308:1 
27.61524208409611 371:1 1217:1 3587:1 4463:1 6680:1 6681:1 
80.76708440999055 4271:1 6682:1 6683:1 
20.60369378467733 5109:1 6045:1 
3.117877759790665 651:1 4271:1 5230:1 5268:1 
20.95079017801256 318:1 406:1 4817:1 6267:1 6693:1 
232.9283976960133 3050:1 4851:1 
381.2369896013357 2239:1 5045:1 
10.19819860110694 5153:1 
742.6442593404543 4668:1 
5.758578671277705 165:1 219:1 1379:1 3428:1 4794:1 6713:1 
27.19959224120183 5154:1 
98.68660290771871 434:1 1923:1 2314:1 3366:1 6717:1 
88.40492957915446 73:1 4091:1 4290:1 6726:1 
23.23971182694746 6:1 107:1 211:1 1421:1 2145:1 4460:1 4579:1 5899:1 
9.254668048905106 175:1 1842:1 4290:1 4352:1 5899:1 5975:1 6752:1 
5.852921927958537 651:1 2017:1 2880:1 4621:1 5899:1 
19.1260221895147 3726:1 4558:1 6764:1 
228.4020110118541 138:1 272:1 859:1 4271:1 6778:1 
228.3644952758866 127:1 185:1 5776:1 6791:1 
19.08042216877813 592:1 1131:1 2570:1 6792:1 6793:1 
15.5652795835352 10:1 248:1 739:1 1024:1 4163:1 6794:1 6795:1 
18.48808973002492 5256:1 6800:1 
52.9382063678893 663:1 1142:1 3726:1 6810:1 
19.87293071090613 1819:1 2194:1 5062:1 6748:1 6811:1 6823:1 
2.883740526494246 10:1 440:1 1819:1 2194:1 4352:1 5991:1 6565:1 6566:1 6811:1 
7.472121804467162 457:1 789:1 5180:1 6829:1 
288.8388286285769 4287:1 5011:1 6830:1 
1.9130430819293 5011:1 6832:1 6833:1 6834:1 6835:1 
17.47787604432607 549:1 598:1 1655:1 3095:1 6836:1 
15.17218518040247 2081:1 4193:1 4353:1 
4.018538736205396 1389:1 2081:1 4023:1 4555:1 
27.43135466276638 1389:1 2081:1 3667:1 3782:1 4561:1 4670:1 6843:1 
288.016899845433 44:1 2081:1 4353:1 5011:1 5875:1 
20.6285306434126 211:1 2573:1 3243:1 4353:1 5848:1 6838:1 
16.83650689942539 4:1 837:1 4113:1 4519:1 6363:1 6851:1 
16.19991290235238 6852:1 
4.703445936411677 870:1 3243:1 4352:1 5975:1 
377.0518818396874 3954:1 5571:1 6862:1 
2.182651163522385 125:1 1877:1 2431:1 3770:1 4194:1 4316:1 4467:1 4524:1 5011:1 5155:1 
102.4568843713961 1911:1 3691:1 4091:1 5011:1 
22.86990867154615 494:1 4473:1 4688:1 5011:1 
15.55187061583662 88:1 4190:1 4555:1 5010:1 5011:1 
58.11349316054064 213:1 494:1 3243:1 4024:1 4353:1 4931:1 5010:1 6874:1 
28.64759442035855 985:1 5011:1 5308:1 
3.053284460439653 277:1 1514:1 4671:1 6887:1 
173.8933191022485 318:1 679:1 3624:1 
1.570725443724945 426:1 950:1 2431:1 5048:1 5613:1 6898:1 6903:1 6904:1 6905:1 6906:1 6907:1 6908:1 6909:1 
7.607141339669973 4605:1 6898:1 
123.6616915801012 102:1 372:1 3095:1 4954:1 6267:1 6899:1 
6003.55042055419 213:1 1776:1 
8.165376610820863 3140:1 4607:1 5815:1 
205.6122710949596 123:1 4700:1 5857:1 
7.657398741061581 68:1 949:1 1376:1 2610:1 5583:1 6589:1 6932:1 
57.21128065344661 565:1 609:1 1610:1 2052:1 4470:1 4700:1 4964:1 5898:1 
32.96999508494036 494:1 6944:1 
31.56688300646962 6950:1 
22.53615961801725 14:1 651:1 6288:1 6951:1 6952:1 
108.5166773383544 3766:1 4353:1 5388:1 6945:1 
1072.935508552995 5011:1 
232.7526786894599 4091:1 5167:1 
19.8709069525693 2610:1 5175:1 6965:1 
1.925515677795301 2348:1 4881:1 6968:1 6969:1 
1053.697370994766 68:1 949:1 6267:1 
29.2346182325981 5226:1 6300:1 6974:1 
11.82063513057086 128:1 219:1 4586:1 4682:1 
132.8595633639144 679:1 752:1 1080:1 4964:1 
50.46620793770676 1389:1 4289:1 4561:1 5379:1 6869:1 6994:1 6995:1 
4.245126032354457 2143:1 2546:1 2573:1 4029:1 5657:1 
9.393010572889846 435:1 4973:1 5122:1 5379:1 5556:1 5871:1 6173:1 6997:1 
7.506504684217013 2753:1 3795:1 4749:1 6824:1 7003:1 7004:1 
2.687160857542174 99:1 1371:1 1911:1 2615:1 4414:1 5556:1 6174:1 6594:1 7005:1 
3.946949690339871 358:1 435:1 4775:1 6048:1 6594:1 6595:1 7008:1 7009:1 7010:1 
194.5983676858263 99:1 4352:1 5975:1 
774.6257264828159 679:1 751:1 752:1 
5.562270958005359 435:1 4775:1 5379:1 6594:1 6595:1 6829:1 
352.3033991758388 394:1 2082:1 7003:1 7041:1 
14.44782612464262 219:1 276:1 1281:1 5232:1 5379:1 5868:1 
20.60477400199434 1085:1 
105.6652986118584 628:1 1211:1 2348:1 3952:1 5198:1 5379:1 
48.81339804318814 371:1 3669:1 3952:1 5379:1 
30.86291751226365 1379:1 5122:1 5379:1 5537:1 5871:1 7054:1 
13.16762436764293 10:1 508:1 638:1 4470:1 4490:1 5006:1 7059:1 7060:1 7061:1 
44.29949359463757 84:1 136:1 911:1 4287:1 6247:1 
9.334959593550387 4908:1 5005:1 5243:1 7064:1 
33.93235714672678 211:1 620:1 4723:1 
16.91541402809145 83:1 1072:1 2065:1 3952:1 4817:1 5071:1 5198:1 
56.7277177112616 292:1 2234:1 2386:1 2632:1 3956:1 3989:1 5071:1 5461:1 7084:1 
126.2095285692404 2123:1 2531:1 7085:1 
2775.504703951366 83:1 1072:1 2985:1 5071:1 
1733.353148502856 1557:1 4651:1 5071:1 7095:1 
10.4640595701234 83:1 84:1 583:1 1877:1 2149:1 7100:1 7101:1 7102:1 
49.84648142838098 1320:1 
25.99153461816243 83:1 371:1 2065:1 3952:1 
26.69829372528296 1562:1 
15.10409122203587 84:1 1211:1 3952:1 6179:1 7103:1 
11.82208788578687 84:1 1211:1 3952:1 5248:1 7104:1 
33.27325850518637 328:1 508:1 1211:1 5071:1 5477:1 5818:1 7105:1 7106:1 
6.719270609957666 84:1 1211:1 3095:1 3952:1 6704:1 7107:1 7108:1 7109:1 
104.0531338940154 4193:1 4586:1 
6.054505278927272 650:1 4490:1 5555:1 
21.65439948254338 39:1 281:1 2441:1 5330:1 7112:1 
5.439144951829764 292:1 437:1 1737:1 3745:1 4093:1 7115:1 7116:1 7117:1 7118:1 
1.60306130553464 4:1 276:1 1328:1 2058:1 3442:1 5063:1 7123:1 
10.58572214459165 7124:1 7125:1 
15.62598853218983 490:1 4490:1 7143:1 
141.5364321491161 29:1 1112:1 3763:1 7147:1 
36.66377125702905 1439:1 1806:1 4188:1 
18.31905140895013 125:1 127:1 292:1 753:1 3202:1 4093:1 4746:1 5267:1 6329:1 7149:1 
396.0596775173726 620:1 3825:1 5604:1 
29.99661880976442 1647:1 2531:1 3202:1 3825:1 3887:1 5025:1 6698:1 7152:1 7153:1 
11.53792338585998 5775:1 7147:1 
2.890099115250317 597:1 3691:1 3812:1 4287:1 5456:1 
0.2980128022096156 1631:1 4576:1 4686:1 5072:1 7117:1 7118:1 
11.60061328455624 292:1 589:1 753:1 3941:1 6488:1 6827:1 7163:1 7164:1 7165:1 7166:1 
10.10728363641628 281:1 7167:1 
29.58102741812971 292:1 649:1 684:1 753:1 908:1 4368:1 7168:1 7169:1 
174.9500405271991 7188:1 7189:1 
34.58692449466035 6579:1 7189:1 
630.2348073586137 4091:1 7189:1 
7.487693403947207 1213:1 5011:1 5548:1 7189:1 7194:1 
18.54430972672965 268:1 3289:1 6329:1 7195:1 
403.9066969238719 3442:1 
661.3381132415269 386:1 3045:1 3308:1 4355:1 6555:1 
54.00076392022384 292:1 753:1 1405:1 4125:1 4687:1 5072:1 6329:1 6435:1 
391.5472559726719 3091:1 5582:1 
101.3515310759783 20:1 663:1 712:1 1325:1 1886:1 3040:1 3660:1 3755:1 4465:1 4765:1 5623:1 6127:1 
97.96029530546254 7201:1 7202:1 
1.899813662160135 292:1 620:1 753:1 1734:1 2338:1 3100:1 7205:1 7206:1 7207:1 
3.499654821879388 850:1 4578:1 5267:1 6329:1 7209:1 7210:1 
0.4448191667124114 2239:1 2593:1 3683:1 5045:1 7216:1 
2.409310147900316 5234:1 7219:1 7220:1 7221:1 
12.13901235366729 5266:1 7189:1 
1.341108247242797 334:1 596:1 638:1 4355:1 4484:1 7071:1 7081:1 7082:1 7231:1 
1998.78503037975 3977:1 4867:1 7189:1 
733.9674491137645 1392:1 6623:1 7189:1 
247.4784164918346 3625:1 6623:1 
38.7160819019394 1379:1 3202:1 4270:1 5317:1 5548:1 7189:1 
5.791186334685139 10:1 3587:1 5548:1 7189:1 7248:1 
16.70619132984345 5242:1 7189:1 7249:1 
381.8841875482227 7189:1 7250:1 
9.39908895592362 2065:1 2285:1 7189:1 
137.7033460347933 2973:1 
547.2480207962786 2065:1 7189:1 
5.560208780787488 754:1 804:1 1311:1 4093:1 7263:1 7264:1 7265:1 
19.22206814480344 268:1 598:1 2239:1 3235:1 4342:1 5737:1 7275:1 7276:1 7277:1 
16.78169762810979 508:1 5011:1 7279:1 
12.32494696496419 1035:1 1233:1 2298:1 2400:1 5011:1 7281:1 7282:1 
16.74209865227557 4:1 372:1 821:1 3926:1 5445:1 7307:1 7312:1 7313:1 7314:1 
106.1734172363659 371:1 372:1 1444:1 3274:1 3453:1 7315:1 7316:1 
0.4063581633041807 84:1 310:1 808:1 851:1 3501:1 3735:1 3956:1 7306:1 7325:1 7326:1 
47.56872915302274 93:1 129:1 226:1 817:1 851:1 1898:1 2570:1 4226:1 4755:1 7337:1 
21.87455643791687 104:1 130:1 281:1 310:1 1748:1 2417:1 3250:1 7369:1 7370:1 7371:1 
25.61836907320894 201:1 310:1 851:1 2024:1 7382:1 7383:1 7384:1 7385:1 
2.152715088301331 234:1 399:1 1978:1 2241:1 5293:1 6400:1 7422:1 7423:1 
31.57618502245276 7394:1 
1.45189715246504 69:1 173:1 174:1 223:1 735:1 1155:1 3738:1 6091:1 7456:1 
3.662472119400463 69:1 92:1 735:1 1475:1 2642:1 3070:1 5901:1 7456:1 7462:1 7463:1 7464:1 
80.03455551830849 26:1 124:1 125:1 1700:1 2129:1 2130:1 2135:1 2341:1 7484:1 
31.21741570274391 93:1 129:1 310:1 725:1 792:1 817:1 851:1 7491:1 
18.48449570497955 2760:1 4127:1 4561:1 4654:1 7497:1 7498:1 7499:1 7500:1 7501:1 7502:1 7503:1 
4.784988795995007 2672:1 3698:1 4601:1 7507:1 7508:1 7509:1 7510:1 7511:1 
22.46048355783397 68:1 2117:1 2283:1 2839:1 7512:1 
17.56770991933293 226:1 851:1 1053:1 1898:1 3805:1 7386:1 7517:1 7518:1 
29.66286902903692 386:1 987:1 7519:1 7520:1 7521:1 
24.25924737814303 29:1 310:1 328:1 628:1 851:1 1112:1 1806:1 2379:1 5346:1 6579:1 7537:1 7538:1 7539:1 
101.9199149619141 423:1 3805:1 5021:1 7548:1 
5.569464632753276 82:1 85:1 1049:1 3917:1 6797:1 7564:1 7565:1 7566:1 7567:1 7568:1 
57.0483560025598 91:1 169:1 359:1 1233:1 1421:1 3177:1 7402:1 
327.4104258824169 69:1 136:1 152:1 226:1 851:1 1380:1 3805:1 7465:1 7548:1 
13.60203988678017 2367:1 2760:1 3277:1 6004:1 7386:1 7500:1 7594:1 7595:1 7596:1 7597:1 
0.3736722370331443 354:1 639:1 851:1 1090:1 3151:1 7019:1 7604:1 7605:1 
39.46918713610989 328:1 3546:1 6232:1 7612:1 
38.98675600281467 201:1 1091:1 2721:1 3134:1 3474:1 7613:1 
26.54857370134576 69:1 129:1 402:1 851:1 974:1 4578:1 7627:1 
3.02540161953461 372:1 896:1 1641:1 3235:1 7631:1 7632:1 7633:1 7634:1 
9.79089365588406 248:1 467:1 859:1 1379:1 4181:1 7653:1 
13.15902542192285 310:1 372:1 851:1 6344:1 
240.4280219344586 29:1 129:1 310:1 372:1 394:1 471:1 592:1 639:1 685:1 1112:1 7657:1 7658:1 
6.970045081962076 10:1 26:1 124:1 125:1 1572:1 7667:1 7670:1 7671:1 7672:1 
68.09731745083309 26:1 64:1 65:1 263:1 293:1 1537:1 2561:1 2562:1 4393:1 
8.265362305394159 310:1 851:1 987:1 6579:1 7577:1 7675:1 
30.75556874453926 4:1 276:1 372:1 1641:1 7679:1 
235.5351664547215 41:1 91:1 92:1 219:1 276:1 372:1 422:1 728:1 7642:1 
