svm_type nu_svc
kernel_type linear
nr_class 2
total_sv 7061
rho 3.19416
label 1 -1
nr_sv 2300 4761
SV
77389.31768159273 
59553.36138900972 5:1 6:1 7:1 8:1 
79105.66092803329 9:1 10:1 11:1 12:1 
77356.77842334758 13:1 14:1 
79105.66092803329 15:1 16:1 
37517.45439679293 10:1 11:1 12:1 17:1 18:1 19:1 
79105.66092803329 20:1 
79105.66092803329 10:1 11:1 12:1 18:1 21:1 22:1 23:1 24:1 25:1 
79105.66092803329 26:1 
25726.40855889845 10:1 11:1 12:1 18:1 21:1 22:1 23:1 24:1 25:1 
79105.66092803329 26:1 
79105.66092803329 28:1 29:1 30:1 
77608.30595319762 31:1 32:1 33:1 
69466.39814319268 34:1 35:1 36:1 37:1 
20356.78951995893 38:1 
79105.66092803329 39:1 40:1 41:1 42:1 43:1 44:1 
79105.66092803329 45:1 46:1 
12491.0924903757 47:1 48:1 49:1 50:1 
77861.44044800855 47:1 48:1 49:1 51:1 52:1 53:1 54:1 55:1 56:1 57:1 
61465.4022827892 58:1 59:1 
79042.8856579641 60:1 
78240.80794302467 61:1 
68305.67256097108 50:1 62:1 63:1 
79105.66092803329 49:1 63:1 64:1 65:1 
78702.09981275978 38:1 66:1 
51063.11056515706 67:1 
52650.60137577924 68:1 69:1 70:1 71:1 72:1 
79105.66092803329 73:1 74:1 75:1 76:1 
27561.64304500506 48:1 70:1 71:1 72:1 77:1 78:1 79:1 
19951.85124079934 63:1 80:1 
79105.66092803329 81:1 82:1 
75026.53873922369 70:1 83:1 
79105.66092803329 10:1 11:1 85:1 86:1 87:1 
78737.99559053416 88:1 89:1 
76358.06609778076 44:1 90:1 91:1 
79105.66092803329 92:1 
74022.05091218941 83:1 93:1 94:1 95:1 96:1 97:1 98:1 99:1 100:1 101:1 
51826.77381160303 48:1 49:1 50:1 102:1 
41521.68432036965 27:1 70:1 105:1 106:1 107:1 108:1 
79105.66092803329 109:1 110:1 
78384.43140241697 111:1 112:1 
72731.81875146826 113:1 
79105.66092803329 114:1 
61924.3369044475 115:1 
33181.33942797124 114:1 
32479.29710329909 116:1 
49523.34237983667 103:1 
55441.79623713738 70:1 103:1 107:1 117:1 118:1 
79105.66092803329 103:1 119:1 120:1 
33420.81561616177 91:1 123:1 124:1 125:1 126:1 127:1 
79105.66092803329 46:1 89:1 128:1 129:1 130:1 
47227.04602716831 131:1 
79105.66092803329 34:1 132:1 133:1 134:1 135:1 
79105.66092803329 136:1 
13720.94873261762 137:1 138:1 
29595.60850921099 140:1 
79105.66092803329 141:1 142:1 
61689.77724641479 143:1 
38110.5141907077 34:1 107:1 139:1 142:1 
79105.66092803329 49:1 144:1 145:1 
79086.73333583916 129:1 146:1 147:1 
79105.66092803329 68:1 69:1 148:1 
71972.67722435005 48:1 69:1 148:1 149:1 150:1 
79105.66092803329 151:1 152:1 
79105.66092803329 77:1 
68942.40050796713 64:1 69:1 153:1 154:1 
79105.66092803329 27:1 155:1 156:1 157:1 158:1 
36322.62018453774 70:1 104:1 159:1 
79105.66092803329 27:1 161:1 162:1 
79105.66092803329 163:1 
79105.66092803329 164:1 
46534.0634665666 27:1 165:1 
47205.19028457188 69:1 153:1 
49302.35055940836 27:1 166:1 167:1 168:1 
79105.66092803329 89:1 
79105.66092803329 89:1 
25761.31524929402 50:1 84:1 89:1 170:1 171:1 
33796.23624359845 112:1 172:1 173:1 
79105.66092803329 129:1 
476.6830435260873 56:1 174:1 175:1 176:1 177:1 178:1 
31571.30980267098 95:1 
79105.66092803329 160:1 179:1 
47360.64628118473 163:1 
25247.07486946315 27:1 161:1 180:1 181:1 
79105.66092803329 182:1 
14827.50076225763 43:1 56:1 169:1 177:1 183:1 
31700.64374271619 34:1 148:1 
53065.32889855199 184:1 185:1 
78720.81137467475 89:1 
28939.52416411008 53:1 84:1 183:1 186:1 187:1 188:1 189:1 
12280.26687370006 190:1 
76894.70108341103 71:1 191:1 192:1 193:1 194:1 195:1 
22887.09029902567 56:1 67:1 71:1 84:1 108:1 196:1 197:1 
3351.961218627153 38:1 124:1 183:1 185:1 198:1 199:1 200:1 201:1 202:1 203:1 
75936.9377827218 204:1 205:1 
75142.40389632864 70:1 
78605.12712456813 206:1 207:1 
79105.66092803329 129:1 
79037.25618160744 77:1 208:1 
79105.66092803329 129:1 
79105.66092803329 129:1 
28497.97917842471 70:1 153:1 
79105.66092803329 70:1 207:1 
79105.66092803329 209:1 210:1 211:1 
79105.66092803329 129:1 
63733.55157400299 212:1 213:1 214:1 215:1 216:1 217:1 
79105.66092803329 129:1 
79105.66092803329 218:1 219:1 220:1 221:1 222:1 223:1 
79105.66092803329 129:1 
79105.66092803329 184:1 
1872.60838449566 76:1 218:1 223:1 224:1 225:1 226:1 227:1 
74722.26869609491 129:1 
78390.31294610107 230:1 231:1 
52258.98857292374 63:1 232:1 233:1 234:1 
62277.54876362894 175:1 235:1 236:1 
70980.15079107223 129:1 147:1 237:1 
76665.87983880188 238:1 
59612.96616082011 59:1 239:1 
2139.585683555142 64:1 223:1 227:1 240:1 241:1 
28827.43133892559 198:1 
56091.10279719028 59:1 242:1 243:1 244:1 245:1 246:1 
72320.4744765582 247:1 
62838.18149687311 84:1 246:1 248:1 249:1 250:1 251:1 252:1 253:1 
53759.53129661326 69:1 84:1 153:1 254:1 255:1 256:1 
58001.32999239767 218:1 257:1 258:1 
46427.51545618104 64:1 77:1 259:1 260:1 261:1 262:1 263:1 
43278.62245379594 223:1 264:1 265:1 266:1 267:1 
79105.66092803329 268:1 
35175.8692062671 269:1 
17407.59997649135 202:1 229:1 270:1 271:1 
79105.66092803329 272:1 
45386.76127165457 71:1 72:1 218:1 228:1 229:1 273:1 274:1 
72476.39977680209 24:1 91:1 275:1 276:1 
79105.66092803329 278:1 
79105.66092803329 279:1 
79105.66092803329 281:1 282:1 283:1 284:1 
32332.79549447875 183:1 285:1 286:1 
35566.92838000666 183:1 286:1 287:1 288:1 289:1 290:1 291:1 
52340.43243298043 34:1 292:1 
73798.50600888599 129:1 277:1 293:1 294:1 
63628.16327814721 84:1 102:1 296:1 297:1 298:1 
61486.2406269581 38:1 299:1 300:1 301:1 302:1 303:1 304:1 305:1 306:1 307:1 308:1 309:1 
56520.26340440101 129:1 313:1 
76450.58364991724 38:1 113:1 310:1 314:1 315:1 
8987.609333073495 258:1 316:1 
49731.19706667976 318:1 
41005.21191213983 64:1 137:1 153:1 218:1 319:1 
42554.88081004142 38:1 321:1 
29448.42445882507 6:1 46:1 229:1 322:1 323:1 
61810.25817434458 160:1 324:1 325:1 
19839.00344723424 160:1 326:1 
52402.94595212869 153:1 207:1 218:1 317:1 318:1 327:1 
50418.11404469916 160:1 179:1 
79105.66092803329 328:1 
79105.66092803329 329:1 330:1 331:1 332:1 333:1 334:1 
23470.91038524064 103:1 335:1 336:1 337:1 
63870.69303145164 338:1 339:1 
6993.721095879656 103:1 336:1 337:1 340:1 341:1 342:1 
6235.839331640406 169:1 176:1 343:1 344:1 345:1 
50782.6364566547 125:1 348:1 
3886.891201028118 328:1 
446.4764936887599 353:1 354:1 
4260.324413949168 358:1 359:1 360:1 361:1 
23456.88183998501 324:1 362:1 363:1 364:1 
22558.74949567283 365:1 366:1 367:1 
5825.614911537674 27:1 56:1 121:1 317:1 368:1 369:1 370:1 371:1 
4678.812800867277 318:1 376:1 377:1 
12004.33876702483 124:1 125:1 127:1 318:1 379:1 380:1 
12027.36156835221 377:1 381:1 
10258.3749933594 318:1 383:1 
6263.039653197052 384:1 385:1 386:1 
48766.104817529 387:1 388:1 389:1 
17883.40898674129 19:1 309:1 391:1 
5586.656316299199 123:1 160:1 378:1 392:1 
63016.2258981181 181:1 397:1 398:1 399:1 400:1 401:1 402:1 403:1 404:1 
844.9335442466925 310:1 401:1 405:1 
1521.949568212324 90:1 407:1 
470.8876402577676 408:1 409:1 
16047.98526645838 410:1 411:1 
17649.5707596391 10:1 11:1 12:1 280:1 336:1 412:1 413:1 414:1 415:1 416:1 417:1 418:1 419:1 
16644.85278819553 420:1 421:1 
54393.93698554752 423:1 424:1 425:1 426:1 
7891.976111628968 276:1 427:1 
44531.01746516878 248:1 386:1 429:1 
9885.490924211179 13:1 51:1 183:1 430:1 431:1 
14418.50705488915 224:1 331:1 436:1 437:1 
2058.111065223577 63:1 64:1 121:1 223:1 434:1 438:1 439:1 
140.528767812885 72:1 228:1 442:1 
12106.15084863538 68:1 444:1 445:1 446:1 
5609.572284806733 63:1 175:1 181:1 448:1 449:1 
79105.66092803329 454:1 
13373.58358504464 64:1 241:1 243:1 259:1 455:1 456:1 457:1 458:1 459:1 
3338.720547160504 64:1 229:1 240:1 241:1 460:1 461:1 462:1 
21956.29019343172 176:1 374:1 433:1 463:1 464:1 465:1 466:1 467:1 468:1 
2452.679621606995 469:1 
37.94016895511139 198:1 433:1 466:1 470:1 471:1 472:1 473:1 
9624.285625681428 276:1 476:1 
1347.047714293718 38:1 176:1 432:1 477:1 478:1 479:1 480:1 
22078.37854552477 481:1 482:1 483:1 
7720.197880017004 484:1 485:1 486:1 487:1 488:1 
2600.793728476448 298:1 432:1 489:1 490:1 
1215.574844172638 38:1 299:1 300:1 301:1 302:1 303:1 304:1 305:1 306:1 308:1 491:1 492:1 
496.2083421782952 16:1 71:1 72:1 133:1 432:1 497:1 498:1 499:1 500:1 501:1 
2423.355878942204 34:1 384:1 502:1 503:1 
5067.264380043658 107:1 206:1 432:1 441:1 504:1 505:1 
112.350177342628 275:1 432:1 507:1 
3275.059588381229 103:1 153:1 338:1 339:1 512:1 513:1 514:1 515:1 516:1 
13363.55225870534 518:1 519:1 520:1 
2481.068712768792 125:1 348:1 521:1 
54860.38184457264 38:1 522:1 523:1 524:1 525:1 526:1 527:1 
64967.26817572407 528:1 
2475.881081810248 68:1 529:1 530:1 
8156.917350313802 16:1 531:1 532:1 
6059.186511850779 130:1 534:1 
5699.448152819014 432:1 
5997.542062692442 539:1 540:1 
5659.45552055186 542:1 
11898.20403183084 543:1 
51220.16771609482 60:1 176:1 544:1 545:1 546:1 547:1 
4888.335794975535 548:1 
4745.790524773882 176:1 224:1 549:1 550:1 551:1 
1170.98583441968 234:1 322:1 443:1 
7481.687373361982 552:1 
50051.1081253642 316:1 390:1 
10428.75996673836 84:1 559:1 
3810.993875265234 172:1 558:1 
566.3008770232713 553:1 
58.41689478345231 107:1 560:1 561:1 562:1 
1250.753618453448 563:1 
16819.20896453441 280:1 382:1 564:1 565:1 
7581.510442795453 197:1 566:1 
1859.730975910663 18:1 567:1 568:1 
27161.53053694539 130:1 569:1 570:1 
19133.12674538051 375:1 571:1 572:1 573:1 574:1 575:1 
1323.941031648976 46:1 418:1 576:1 577:1 
17549.49525561204 384:1 578:1 579:1 580:1 
311.4684270012208 576:1 582:1 
17.92763849343046 176:1 280:1 448:1 583:1 584:1 
94.81339677273947 34:1 390:1 564:1 585:1 
891.7260305962649 56:1 120:1 224:1 586:1 587:1 588:1 
142.9012399609688 592:1 
1213.811545740446 59:1 198:1 576:1 593:1 594:1 595:1 
357.0204393013698 596:1 
3494.071781450057 63:1 597:1 598:1 
1645.196179647192 55:1 107:1 184:1 600:1 601:1 602:1 
4916.738660801317 64:1 224:1 240:1 241:1 243:1 603:1 604:1 
283.4719237102539 252:1 334:1 452:1 469:1 557:1 588:1 
11870.88952838253 264:1 605:1 606:1 607:1 608:1 
990.6963088922757 373:1 538:1 558:1 576:1 615:1 616:1 617:1 618:1 
813.8788554205735 169:1 229:1 619:1 620:1 621:1 
3422.890048094624 38:1 300:1 301:1 302:1 303:1 304:1 306:1 308:1 491:1 492:1 611:1 624:1 
860.5601930109964 19:1 71:1 72:1 107:1 216:1 280:1 622:1 626:1 
13666.30986785908 627:1 628:1 
852.783842295835 202:1 350:1 505:1 629:1 
18.01378340566438 125:1 179:1 273:1 348:1 630:1 
2001.768286172736 311:1 531:1 558:1 631:1 632:1 
963.5154502325713 633:1 634:1 
5025.89285204849 635:1 636:1 
787.804596696225 234:1 637:1 
2533.028150129109 350:1 642:1 
11872.38814640614 643:1 644:1 
422.1848533149993 103:1 107:1 647:1 
792.6631669381491 153:1 513:1 519:1 520:1 650:1 651:1 652:1 653:1 
5906.245069128682 153:1 347:1 651:1 652:1 654:1 
10226.23616079718 519:1 520:1 656:1 
240.8099300748063 248:1 350:1 657:1 658:1 
670.1486787444996 125:1 179:1 357:1 659:1 660:1 
73624.26310729847 90:1 359:1 360:1 361:1 407:1 
3807.930825021236 179:1 
2554.398122502299 5:1 84:1 661:1 662:1 663:1 664:1 
65.02011068309122 667:1 
740.154491414359 280:1 345:1 622:1 
14548.15087309409 18:1 19:1 22:1 23:1 558:1 
879.2979509797771 67:1 671:1 672:1 673:1 674:1 675:1 
1132.699871717361 676:1 677:1 
195.5821868150317 51:1 165:1 680:1 
3250.644336906458 425:1 681:1 
2008.564766205926 84:1 121:1 682:1 683:1 
154.7737315113183 688:1 689:1 
7241.744047961965 103:1 335:1 336:1 337:1 
1612.435939177787 692:1 693:1 
87.50554745736292 660:1 694:1 695:1 696:1 
50.59802241603828 27:1 38:1 45:1 51:1 79:1 197:1 697:1 
1039.123041990913 700:1 
70.48097650729476 63:1 207:1 394:1 458:1 589:1 
238.1080167124659 186:1 457:1 703:1 704:1 705:1 
8411.575996026873 35:1 107:1 706:1 
8674.43536257897 16:1 63:1 255:1 448:1 
177.8246450145415 529:1 590:1 707:1 
257.311083393776 84:1 713:1 714:1 715:1 
78512.89615564511 45:1 46:1 717:1 
719.3697842244682 64:1 103:1 176:1 515:1 516:1 709:1 719:1 720:1 
7186.084195746127 302:1 
138.4659851422258 303:1 
41.04840338062357 491:1 
7684.646962930923 722:1 
85.54278791293326 63:1 603:1 725:1 726:1 727:1 
273.4276852734749 198:1 590:1 732:1 
3100.226432362097 733:1 
10555.6133641597 27:1 176:1 249:1 250:1 734:1 735:1 736:1 737:1 
553.2728412104758 103:1 173:1 175:1 176:1 336:1 337:1 709:1 739:1 740:1 
207.1585391652289 741:1 
190.4075273372336 27:1 241:1 271:1 736:1 742:1 743:1 744:1 
805.135098279699 84:1 121:1 215:1 217:1 745:1 
4480.118916741696 308:1 492:1 746:1 
5846.125248813071 748:1 
13667.03164623485 750:1 751:1 
3156.462229548715 420:1 684:1 686:1 687:1 752:1 753:1 
7444.816365785206 183:1 757:1 758:1 
5244.353924660694 670:1 759:1 760:1 
288.8641253665446 299:1 300:1 301:1 302:1 303:1 304:1 306:1 308:1 491:1 624:1 761:1 762:1 
16197.59626020759 38:1 763:1 
3935.172039988784 766:1 
18028.41753275385 311:1 655:1 708:1 767:1 768:1 769:1 770:1 771:1 
6705.146725148967 772:1 773:1 774:1 775:1 
2857.48215085269 779:1 780:1 
1880.362801982612 666:1 781:1 782:1 783:1 784:1 785:1 
214.3492839370855 786:1 
3810.709023793774 56:1 787:1 788:1 789:1 
1409.127362095194 679:1 
1108.306493877966 790:1 
4529.136975216847 71:1 755:1 756:1 791:1 
3317.962226954481 47:1 93:1 792:1 793:1 
12777.28995343735 795:1 796:1 797:1 798:1 799:1 
256.96958352779 800:1 
20240.76644464919 657:1 802:1 803:1 804:1 
4927.619663040219 47:1 805:1 
2054.505041343544 806:1 807:1 808:1 
489.0915437420038 809:1 
332.5249663395772 277:1 810:1 
14020.62493840899 801:1 
5366.846852590352 14:1 22:1 23:1 24:1 277:1 
383.5763042644687 10:1 11:1 12:1 69:1 
1475.204823173828 137:1 406:1 813:1 814:1 
523.4422691731932 35:1 137:1 161:1 181:1 452:1 815:1 
694.0403093091046 27:1 161:1 816:1 817:1 
771.0545525845359 38:1 258:1 373:1 479:1 819:1 
1679.575858703747 444:1 535:1 820:1 821:1 822:1 
1473.27122349044 823:1 
12981.10909332004 34:1 293:1 311:1 636:1 824:1 
3920.545980281804 104:1 135:1 829:1 
785.065894115509 38:1 294:1 332:1 496:1 670:1 830:1 831:1 
5060.470155899178 47:1 832:1 833:1 
275.1140993658888 69:1 173:1 836:1 837:1 
8409.608640071927 838:1 
819.8781730739822 593:1 655:1 794:1 840:1 
6370.167180275949 156:1 652:1 842:1 843:1 844:1 
91.91467900639161 63:1 116:1 589:1 834:1 835:1 845:1 847:1 848:1 
778.2677732951436 14:1 84:1 216:1 736:1 825:1 849:1 
1941.626850068955 223:1 240:1 471:1 744:1 834:1 835:1 850:1 851:1 852:1 853:1 
1046.795125966054 13:1 16:1 810:1 
8372.975305842354 16:1 122:1 242:1 655:1 854:1 
4104.027235458717 93:1 94:1 103:1 121:1 176:1 189:1 856:1 
1866.748439239234 13:1 16:1 133:1 860:1 
5812.104190773661 56:1 104:1 692:1 861:1 862:1 863:1 864:1 
11233.07224980652 13:1 24:1 107:1 122:1 859:1 860:1 
1625.119493161947 63:1 812:1 870:1 
62.94255333339387 299:1 573:1 593:1 600:1 871:1 874:1 875:1 876:1 877:1 
5243.352884950825 878:1 
1830.493200268756 880:1 
6481.585198788736 469:1 885:1 886:1 
29.430949507904 84:1 170:1 509:1 736:1 887:1 888:1 
4576.75303392045 489:1 889:1 
452.2618242925522 320:1 573:1 892:1 893:1 894:1 895:1 896:1 
3303.899442790607 108:1 869:1 897:1 
481.8591242731326 13:1 38:1 310:1 480:1 901:1 
2358.330099383647 320:1 902:1 903:1 
9925.467069878787 876:1 904:1 
5343.069867341509 84:1 123:1 317:1 910:1 
11056.44465274577 912:1 
8099.963843041227 27:1 161:1 914:1 
316.0388233942484 344:1 916:1 917:1 918:1 
5009.120914638221 487:1 919:1 920:1 
386.5291263262386 38:1 68:1 322:1 
529.4391586146678 18:1 915:1 923:1 924:1 
1526.002423652001 926:1 927:1 928:1 
1600.555518412634 18:1 169:1 181:1 929:1 930:1 931:1 
9650.341422670115 800:1 932:1 
9098.671160655158 345:1 869:1 
3197.920343222819 125:1 273:1 630:1 933:1 
9114.608647733194 27:1 161:1 531:1 935:1 936:1 
702.6612161143629 940:1 
5091.810603151744 944:1 
5195.071488691477 945:1 946:1 947:1 
9353.477657387139 51:1 67:1 680:1 945:1 
1962.863929153475 37:1 950:1 
1161.496478901149 939:1 951:1 952:1 953:1 954:1 
1163.296149763265 956:1 
1454.598301147284 71:1 72:1 84:1 216:1 390:1 962:1 
4133.674627911454 48:1 668:1 963:1 
361.6078598265054 71:1 964:1 
1575.566670151464 537:1 
6517.426769450174 955:1 956:1 967:1 968:1 969:1 
7890.87311043605 48:1 321:1 971:1 
6438.531417687665 331:1 973:1 974:1 975:1 976:1 977:1 978:1 
9233.858312544538 573:1 984:1 985:1 986:1 987:1 
5226.759991588231 227:1 241:1 264:1 265:1 471:1 472:1 988:1 989:1 990:1 991:1 
1287.775851563478 224:1 463:1 979:1 
197.6361181001968 992:1 
1505.183443564716 175:1 447:1 579:1 959:1 993:1 994:1 
38.7601646635771 223:1 250:1 744:1 979:1 999:1 1000:1 1001:1 
1302.882739575612 489:1 1002:1 1003:1 
1988.489087090104 191:1 590:1 1004:1 1005:1 
96.22626721719038 300:1 301:1 611:1 624:1 885:1 905:1 
64065.65069138764 3:1 4:1 
6.509110873625146 13:1 14:1 557:1 670:1 778:1 1011:1 1012:1 
3134.070255456139 1017:1 1018:1 
3820.137042488966 107:1 122:1 496:1 505:1 959:1 
3112.790967650316 50:1 543:1 1019:1 1020:1 1021:1 
8886.739412274246 1025:1 1026:1 
2095.859221682119 1027:1 
176.0202315818725 845:1 
23766.51756978097 1034:1 1035:1 1036:1 
5410.691991455663 25:1 186:1 
1204.398007176077 614:1 694:1 764:1 1040:1 1041:1 
1987.305126580664 44:1 103:1 453:1 1046:1 1047:1 1048:1 
1646.468554501294 27:1 135:1 165:1 959:1 1039:1 1049:1 
9902.318743527692 463:1 1051:1 1052:1 
9818.615046393094 263:1 604:1 1053:1 1054:1 
93.22942965474788 611:1 1057:1 1058:1 1059:1 
5434.885982404069 264:1 480:1 727:1 1056:1 1061:1 
1538.258287098988 175:1 223:1 338:1 437:1 604:1 999:1 1064:1 1065:1 
1187.53416915604 1066:1 
1204.225206514425 64:1 241:1 460:1 1067:1 1068:1 1069:1 1070:1 1071:1 1072:1 
14132.88277629904 222:1 224:1 225:1 1073:1 
506.3728157677385 167:1 288:1 898:1 
713.7728802402158 27:1 874:1 1078:1 
349.8192676984421 63:1 1080:1 1081:1 
100.6116128221231 169:1 183:1 493:1 1050:1 1083:1 
5343.501845684304 313:1 758:1 
9721.833838073822 176:1 1084:1 
1199.449871063165 948:1 
950.7173702169671 1088:1 
21819.31151021023 1089:1 
5247.611165107597 791:1 1004:1 1090:1 1091:1 
78292.40432186659 1092:1 
4042.163395835703 1093:1 1094:1 
6672.229284333078 395:1 707:1 1097:1 
3626.117010044652 25:1 1050:1 1074:1 1096:1 
216.7636214360105 44:1 122:1 
4284.552959154453 1098:1 1099:1 
18518.98672137914 151:1 152:1 
651.792898796958 1100:1 
58.82268217173748 18:1 144:1 761:1 1050:1 1101:1 
5065.41882022475 1102:1 1103:1 
2482.766452701686 47:1 56:1 787:1 788:1 843:1 
11469.38944605255 787:1 
1655.805395346736 242:1 344:1 350:1 1104:1 1105:1 
4793.022881315477 38:1 761:1 1107:1 1109:1 1110:1 
10124.50327529675 248:1 1112:1 
106.8794207355129 18:1 68:1 496:1 537:1 1050:1 1113:1 
178.2124845360989 18:1 162:1 915:1 1085:1 
2362.678791604842 578:1 580:1 1115:1 1116:1 
347.6254603821877 925:1 1120:1 
1941.859709877764 489:1 1121:1 
2500.175674427792 127:1 1022:1 1122:1 
1653.738543723227 538:1 1123:1 
718.3555729353259 147:1 233:1 
9901.063923878151 63:1 198:1 417:1 558:1 1124:1 
5623.505971404279 558:1 1125:1 
561.2142318566742 63:1 102:1 181:1 406:1 558:1 1126:1 
1021.215964434585 13:1 197:1 402:1 1127:1 1128:1 1129:1 1130:1 1131:1 
104.7930199631578 17:1 38:1 46:1 236:1 402:1 1129:1 1132:1 1133:1 
4633.531880719936 11:1 12:1 107:1 236:1 347:1 1134:1 1135:1 1136:1 1137:1 1138:1 1139:1 
30071.01280526513 13:1 71:1 72:1 107:1 475:1 1141:1 1142:1 
3932.97976775798 1145:1 
152.695372490652 1147:1 
2289.573062409183 363:1 1148:1 
1978.40517953398 113:1 395:1 1152:1 1153:1 
810.9887695313298 48:1 137:1 492:1 511:1 983:1 1154:1 1155:1 
30455.96356023192 57:1 
428.1764334630727 64:1 241:1 264:1 593:1 604:1 608:1 1156:1 1157:1 1158:1 
1661.940212663359 27:1 71:1 590:1 678:1 736:1 1062:1 1063:1 1159:1 
1325.574059463889 224:1 264:1 587:1 608:1 826:1 1003:1 1160:1 
29.5519870257688 1161:1 
2454.512361548972 64:1 1162:1 1163:1 1164:1 
1773.360446441737 55:1 56:1 1166:1 1167:1 1168:1 1169:1 
9413.246209710212 11:1 45:1 194:1 197:1 320:1 558:1 1170:1 
20316.37149627196 122:1 276:1 
603.9618645982482 38:1 299:1 300:1 301:1 304:1 308:1 624:1 762:1 885:1 905:1 906:1 907:1 
51.98244385678974 38:1 558:1 589:1 1172:1 
134.9766593821332 422:1 614:1 
727.1506054225257 1173:1 
8759.031555062327 275:1 558:1 
293.6327544472416 47:1 70:1 1179:1 1180:1 
2371.057697409026 63:1 146:1 216:1 1181:1 
9.595954755192801 18:1 47:1 1186:1 
125.5423144189388 481:1 1038:1 
15.48233480302919 1022:1 1193:1 
1192.515685835286 18:1 22:1 23:1 223:1 1183:1 1184:1 
8816.251565708904 416:1 512:1 1055:1 1195:1 
4696.307314096301 556:1 598:1 1055:1 1197:1 1198:1 1199:1 
79105.66092803329 1200:1 
375.6688533640995 1201:1 1202:1 
250.5240471219556 369:1 472:1 744:1 1206:1 1207:1 1208:1 
1028.520242819406 64:1 176:1 1063:1 1209:1 1210:1 
328.4815540521627 170:1 240:1 744:1 874:1 1213:1 1214:1 1215:1 1216:1 
29113.32875564681 14:1 273:1 439:1 873:1 1217:1 1218:1 1219:1 
27300.90641787281 517:1 1184:1 1220:1 1221:1 
586.2555433035623 19:1 38:1 
766.2829204220167 874:1 1184:1 
584.034800990882 490:1 1008:1 1009:1 1010:1 1184:1 
261.4274012470685 13:1 1045:1 1223:1 1224:1 1225:1 
31964.69174867514 1226:1 
262.5926109765513 37:1 56:1 630:1 1227:1 
297.5404131541193 34:1 515:1 900:1 1179:1 1230:1 1231:1 
142.8429632902082 154:1 608:1 1177:1 
2545.937131362728 130:1 295:1 396:1 1235:1 
11592.3113359425 1236:1 1237:1 
10025.43592405025 34:1 127:1 175:1 1022:1 1238:1 1239:1 1240:1 
985.7455529312284 165:1 190:1 207:1 
11118.48643833738 16:1 255:1 
42134.71976014651 162:1 
284.2693419772926 10:1 11:1 27:1 197:1 206:1 475:1 1243:1 
2574.379962217 54:1 197:1 640:1 915:1 1123:1 1128:1 1244:1 
766.8202436875782 222:1 223:1 229:1 1246:1 1247:1 
20.17403582811509 176:1 217:1 529:1 1125:1 
1427.767833439072 217:1 917:1 
13812.69263086595 243:1 471:1 489:1 593:1 607:1 1248:1 
4473.365415467229 369:1 444:1 744:1 872:1 1249:1 1250:1 
3932.634334497704 600:1 755:1 756:1 1251:1 1252:1 
171.3359487061765 11:1 175:1 228:1 229:1 1253:1 
14983.09911130813 779:1 1254:1 1255:1 
11391.28930806682 243:1 252:1 253:1 736:1 1257:1 
2723.149754249233 64:1 1257:1 1258:1 1259:1 1260:1 1261:1 
515.1371079894193 1262:1 
20.1298544579 84:1 242:1 304:1 484:1 744:1 1263:1 1264:1 
69.33175539904411 161:1 250:1 304:1 435:1 1073:1 1265:1 1266:1 
763.8565038290408 18:1 271:1 535:1 1269:1 1270:1 1271:1 1272:1 1273:1 
279.0748720275449 1106:1 
156.2874476222474 38:1 299:1 300:1 301:1 302:1 304:1 308:1 624:1 885:1 983:1 1222:1 1274:1 
137.7384301904279 19:1 38:1 229:1 310:1 589:1 649:1 1172:1 1267:1 
9534.414737587151 38:1 294:1 480:1 794:1 1241:1 
748.5680442703208 1276:1 1277:1 
2486.417250835925 72:1 630:1 1023:1 1278:1 
2371.568541546518 1279:1 1280:1 
1735.745470966603 898:1 1283:1 
138.1614151134374 25:1 169:1 1037:1 
390.2845333447297 6:1 25:1 27:1 197:1 1241:1 1291:1 1292:1 
572.6165961315864 18:1 47:1 295:1 1119:1 1186:1 
14049.25104844457 61:1 252:1 
813.999500154869 1295:1 1296:1 1297:1 
55112.01356803715 1299:1 1300:1 
29.72532563983134 6:1 25:1 197:1 1039:1 1241:1 
363.6699791989981 772:1 1266:1 1301:1 1302:1 
302.0665276861855 22:1 23:1 535:1 1119:1 1183:1 
27596.64237253782 45:1 46:1 165:1 385:1 680:1 1290:1 
147.1339624436561 68:1 957:1 1303:1 
92.92770510853214 153:1 1305:1 
260.9354940940202 22:1 23:1 24:1 38:1 176:1 310:1 346:1 535:1 1241:1 1306:1 
7012.702498466794 50:1 184:1 
8181.772999447212 153:1 288:1 755:1 756:1 1307:1 1308:1 
2490.835581298433 63:1 900:1 1309:1 
1672.037438810516 313:1 1241:1 
4210.970914481424 1023:1 
554.3775736270784 45:1 67:1 668:1 1290:1 1310:1 1311:1 1312:1 1313:1 1314:1 
2966.715779755184 420:1 1290:1 1311:1 1315:1 1316:1 1317:1 1318:1 1319:1 
29545.77094449501 1290:1 1324:1 
9581.426161657188 27:1 183:1 668:1 1290:1 1325:1 1326:1 1327:1 1328:1 
2110.425106539474 56:1 165:1 176:1 1290:1 1328:1 
77.54665856242478 18:1 59:1 68:1 99:1 340:1 1330:1 
27243.14453223395 39:1 350:1 1290:1 1328:1 1332:1 
1090.608364970115 39:1 42:1 165:1 184:1 1044:1 1290:1 1328:1 1329:1 
322.0164891810779 202:1 234:1 797:1 1333:1 1334:1 
263.2379749601862 68:1 668:1 674:1 1335:1 1336:1 1337:1 
760.74595293498 25:1 277:1 304:1 576:1 1119:1 1338:1 1339:1 1340:1 1341:1 
336.4019064349894 64:1 146:1 185:1 935:1 
14337.01057109504 1342:1 
23.21338206333155 818:1 1331:1 
51.9632763240961 633:1 1344:1 1345:1 1346:1 1347:1 1348:1 
456.1578808461871 702:1 
6244.803626342105 1331:1 1353:1 
34.1846126190076 50:1 1354:1 
21798.71756424022 1360:1 1361:1 1362:1 
14.45491334674303 216:1 217:1 
1505.360932855433 435:1 1363:1 1364:1 1365:1 
314.1847070738645 1368:1 
762.2810074139451 84:1 1369:1 
2281.203997697155 1370:1 
1482.696910868574 1371:1 
68064.70981615614 58:1 
95.75366761210219 120:1 243:1 264:1 301:1 690:1 744:1 1372:1 1373:1 
3105.330237924721 147:1 302:1 727:1 731:1 1247:1 1372:1 1374:1 1375:1 1376:1 
526.5525107090411 573:1 997:1 1366:1 1380:1 1381:1 1382:1 1383:1 1384:1 
4225.719527642067 241:1 690:1 1000:1 1309:1 1379:1 1385:1 1386:1 1387:1 
916.4649630969291 229:1 1389:1 
709.6536604775063 1390:1 
2312.811500299481 34:1 706:1 716:1 1391:1 1392:1 
5856.50087157574 394:1 1393:1 
184.540336260617 416:1 1082:1 1304:1 1331:1 1395:1 1396:1 
37837.70073679613 1174:1 1397:1 1398:1 
225.3153857211725 1399:1 
2362.132893276886 127:1 450:1 1400:1 
4906.337812829272 135:1 437:1 573:1 1406:1 
289.3687527719046 1407:1 
28.64567664474617 48:1 258:1 761:1 1120:1 1408:1 
1879.445158289292 34:1 181:1 1409:1 1410:1 1411:1 1412:1 1413:1 
2177.083147230397 42:1 90:1 1414:1 
2948.551226766425 205:1 396:1 900:1 1415:1 
3051.92847356865 176:1 346:1 446:1 1416:1 1417:1 
1979.798720282888 11:1 12:1 197:1 280:1 622:1 1420:1 
10169.81420990071 71:1 72:1 184:1 1422:1 
565.3552050235382 1423:1 
4894.960568423639 131:1 813:1 
705.9962776314566 786:1 1424:1 
5834.979167976747 378:1 1418:1 1419:1 
19.09019215036461 48:1 56:1 59:1 137:1 560:1 670:1 1213:1 1427:1 1428:1 1429:1 
1266.833075954416 234:1 1430:1 1431:1 1432:1 1433:1 
8143.92313853948 173:1 599:1 
2009.701678509128 1298:1 1406:1 
233.8206160502145 344:1 1298:1 1406:1 
3267.293267456083 1174:1 
1531.167505121052 28:1 34:1 36:1 178:1 374:1 511:1 819:1 1298:1 1436:1 
1999.537711606841 130:1 174:1 410:1 489:1 865:1 
5088.435263368336 33:1 130:1 202:1 1298:1 1406:1 
6544.341572308336 966:1 1440:1 
3279.720935321907 34:1 1441:1 
2395.954899721846 394:1 1433:1 
2284.105303960157 202:1 1442:1 1443:1 
10506.73460246911 37:1 104:1 203:1 1445:1 
3103.170891575267 280:1 335:1 622:1 1444:1 
16824.3023701891 622:1 1421:1 
6574.367617395745 107:1 196:1 197:1 509:1 590:1 622:1 1421:1 1446:1 
1841.808087638231 800:1 918:1 
13053.07272096481 280:1 335:1 622:1 
2590.468915163638 1029:1 
881.9182894760318 1028:1 
19.12103505746776 63:1 68:1 206:1 593:1 1451:1 1452:1 
236.9230309603409 217:1 1453:1 1454:1 1455:1 
10.26247199038383 63:1 249:1 1194:1 1347:1 1456:1 1457:1 1458:1 
8424.724065286304 217:1 228:1 340:1 431:1 
17222.5303806737 448:1 1314:1 1461:1 
3042.464354919106 1463:1 1464:1 1465:1 
3665.273417373417 222:1 224:1 241:1 726:1 817:1 1156:1 1466:1 1467:1 
664.9639002535275 14:1 783:1 1028:1 1347:1 1468:1 1469:1 1470:1 
733.6569685929968 184:1 280:1 622:1 1190:1 1420:1 
3186.098722231543 10:1 11:1 87:1 1444:1 1471:1 
709.8313301727987 107:1 397:1 484:1 670:1 
35.24839186915015 1449:1 1473:1 
713.5896443044949 38:1 762:1 1444:1 
808.5335168217457 343:1 857:1 1242:1 1444:1 1474:1 
1941.275234851804 361:1 768:1 1475:1 1476:1 
3990.565225027797 350:1 658:1 
110.1423227778918 350:1 680:1 
613.3617329849791 127:1 176:1 458:1 639:1 1045:1 1480:1 
329.0527980811358 125:1 1481:1 1482:1 
24982.75083328599 631:1 645:1 
336.9808341393643 1483:1 
660.0610856483197 72:1 1485:1 1486:1 1487:1 
132.4887868818597 1489:1 1490:1 
1098.577968608289 1491:1 
4085.693483472371 69:1 137:1 153:1 165:1 295:1 1064:1 1494:1 
2284.245633055285 99:1 1425:1 1496:1 1497:1 
3986.905831255543 462:1 778:1 1498:1 
183.7217249084994 84:1 283:1 978:1 1501:1 
185.1036804551156 212:1 1495:1 
26180.81077039264 146:1 511:1 
2841.418599301669 538:1 1502:1 
705.3998263268057 1503:1 
6156.0245190122 71:1 72:1 112:1 531:1 1353:1 
1483.785928069312 206:1 293:1 475:1 638:1 1484:1 1500:1 1505:1 1506:1 1507:1 1508:1 
5.105316895719409 84:1 197:1 229:1 273:1 274:1 1509:1 
1490.886046251762 27:1 203:1 390:1 1510:1 1511:1 
59.30170995218666 1513:1 
2106.447629619495 84:1 437:1 1149:1 1514:1 1515:1 1516:1 
6059.336623049862 176:1 224:1 243:1 369:1 512:1 1073:1 1517:1 
3196.021337687072 271:1 321:1 593:1 744:1 1045:1 1518:1 1519:1 
12531.62856623159 132:1 216:1 228:1 320:1 1520:1 
318.7492689703942 1355:1 
5268.153177124488 1521:1 
5942.151159052686 1523:1 
2701.8485870854 64:1 198:1 206:1 223:1 241:1 875:1 980:1 1522:1 1524:1 
216.5533074431081 16:1 58:1 229:1 267:1 292:1 1294:1 1484:1 1526:1 
2453.47726332745 35:1 184:1 458:1 778:1 1114:1 1527:1 
698.8144744257653 7:1 13:1 69:1 464:1 1522:1 1528:1 
1523.311814117353 448:1 517:1 1530:1 1531:1 
2478.073963142579 34:1 169:1 1470:1 1532:1 1533:1 1534:1 
377.8776080721724 153:1 1522:1 1535:1 
68737.11881613891 7:1 94:1 1522:1 
9778.462080538033 288:1 311:1 383:1 1484:1 1536:1 1537:1 1538:1 
23244.71800930243 153:1 494:1 
40.88887371077526 495:1 
1173.020677735738 480:1 1242:1 1474:1 
1143.592283773522 311:1 614:1 1177:1 1540:1 1541:1 
8.757530141117583 63:1 317:1 791:1 1542:1 1543:1 
6770.264687649761 27:1 293:1 428:1 
2244.846724173805 1544:1 1545:1 
10311.32975661273 107:1 648:1 649:1 1425:1 1546:1 
4053.516345308815 103:1 340:1 449:1 1545:1 1549:1 1550:1 
219.1378883388397 64:1 103:1 153:1 176:1 1551:1 
19659.21847661787 519:1 520:1 1030:1 1552:1 
655.9037026652882 639:1 1320:1 
11.99228244896671 6:1 67:1 85:1 
5343.280724198402 293:1 1484:1 1500:1 
2159.213015252075 6:1 11:1 350:1 578:1 1043:1 1557:1 
1375.290966545386 50:1 154:1 350:1 608:1 
412.7103265091409 523:1 638:1 1484:1 1560:1 1561:1 
14203.30823643421 33:1 34:1 51:1 102:1 383:1 
22909.3589451001 16:1 22:1 23:1 24:1 1484:1 
367.3172082693691 561:1 638:1 1484:1 1560:1 1562:1 1563:1 
18300.64352090595 104:1 1353:1 
41610.96768829806 16:1 68:1 521:1 763:1 854:1 1329:1 1397:1 1565:1 
24.69127273081936 103:1 336:1 337:1 448:1 710:1 1566:1 
412.4110799130169 372:1 1115:1 1567:1 1568:1 1569:1 1570:1 
1885.551566295007 156:1 1578:1 1579:1 1580:1 
601.175255522901 84:1 280:1 332:1 783:1 1087:1 1440:1 1581:1 1582:1 
18.23205236216116 11:1 884:1 1583:1 1584:1 
535.8333444526676 330:1 716:1 1144:1 1585:1 1586:1 1587:1 
5039.917457767315 124:1 229:1 343:1 590:1 736:1 972:1 998:1 1158:1 1588:1 1589:1 
48.55557718509977 175:1 224:1 240:1 744:1 1064:1 1592:1 1593:1 
30.22173199059594 82:1 1111:1 1595:1 1596:1 
433.5482383697131 64:1 999:1 1090:1 1387:1 1600:1 1601:1 
3941.703913288919 224:1 243:1 434:1 471:1 1144:1 
280.1391546699159 205:1 358:1 437:1 556:1 593:1 1591:1 1602:1 1603:1 
3476.839777190317 11:1 12:1 72:1 194:1 197:1 1604:1 
73.1408317974926 343:1 1193:1 
100.0741146946185 484:1 485:1 589:1 620:1 621:1 1607:1 
482.2968839416787 229:1 670:1 1012:1 1608:1 1609:1 1610:1 
51476.03044804777 11:1 19:1 72:1 
1116.993947202717 69:1 153:1 154:1 181:1 464:1 1577:1 
8.537831645420113 154:1 183:1 680:1 1213:1 
6311.003069821522 133:1 151:1 372:1 1569:1 1575:1 1613:1 1614:1 
8538.728252290139 1611:1 1615:1 1616:1 
5808.071532150056 326:1 689:1 
3568.605122060897 229:1 1321:1 
373.8784304837282 350:1 496:1 578:1 
2368.741575238776 25:1 275:1 507:1 
2400.945211813641 22:1 23:1 1119:1 1620:1 
1538.4200233468 18:1 1055:1 1118:1 1177:1 1621:1 
48.40722705240653 48:1 131:1 1622:1 
6340.332284595934 393:1 
5092.803307724836 280:1 1126:1 1610:1 
183.0266462857186 224:1 496:1 521:1 614:1 1110:1 1164:1 1290:1 1573:1 1626:1 
38661.229294927 625:1 1195:1 1627:1 
341.5056692837329 184:1 477:1 1195:1 
6949.86217934744 51:1 515:1 680:1 1034:1 1035:1 1628:1 
16952.89708320014 53:1 236:1 416:1 437:1 1351:1 1610:1 1630:1 1631:1 1632:1 
65.540369857218 416:1 512:1 600:1 1545:1 
13468.80319737912 190:1 593:1 970:1 986:1 1633:1 1634:1 1635:1 
13327.814122269 1636:1 1637:1 
1161.384071029194 124:1 343:1 472:1 1205:1 1638:1 1639:1 
2336.408030378821 224:1 241:1 744:1 1000:1 1058:1 1634:1 1640:1 1641:1 
428.1230386079789 175:1 190:1 874:1 1233:1 1642:1 1643:1 1644:1 
106.0329204455247 175:1 216:1 439:1 873:1 1645:1 1646:1 
10678.22275076969 285:1 692:1 
823.1838898216646 66:1 369:1 726:1 973:1 1003:1 1055:1 1583:1 1647:1 
36.3105908487171 27:1 241:1 736:1 744:1 872:1 1639:1 1648:1 1649:1 
25.18560643908572 190:1 264:1 340:1 1650:1 
2737.797538638403 85:1 183:1 1610:1 
5052.587900666294 84:1 328:1 1610:1 1653:1 
4046.039788124562 69:1 464:1 1653:1 
70.89434664826943 11:1 1654:1 
1365.855035996039 874:1 1610:1 
115.7294859594347 38:1 762:1 1610:1 
594.7365682440358 38:1 1610:1 1656:1 
9582.710641122314 113:1 153:1 314:1 494:1 614:1 882:1 1610:1 1658:1 
1467.042127775325 1659:1 
1386.556131846558 1660:1 
1268.262424849094 36:1 183:1 1661:1 
565.5255830081956 577:1 580:1 994:1 
1157.058190223498 34:1 51:1 95:1 183:1 680:1 826:1 1662:1 1663:1 
956.5238506584901 378:1 529:1 1290:1 1435:1 1664:1 
12500.41938180604 108:1 480:1 496:1 1610:1 
443.7767757379374 892:1 1474:1 
3257.221190119362 98:1 125:1 1666:1 
101.4422623699504 233:1 1667:1 
4063.42005938708 121:1 236:1 828:1 1039:1 1669:1 1670:1 1671:1 
2686.346073281674 1672:1 
9769.080802156466 176:1 1020:1 
32419.53683191673 1673:1 
79105.66092803329 53:1 
512.8182959699433 1675:1 
7.324298330601432 167:1 175:1 216:1 228:1 277:1 1676:1 
1780.327406058822 175:1 1677:1 
5239.794712759538 63:1 99:1 556:1 1199:1 
11.35289771585401 363:1 
872.6367737411217 216:1 744:1 1087:1 1678:1 1679:1 1680:1 
1283.09063549126 1681:1 
1233.348312683999 1682:1 
8389.4549180217 471:1 620:1 621:1 1076:1 1077:1 1667:1 
6322.386168297681 1106:1 1684:1 
1135.580501556271 107:1 258:1 360:1 758:1 1503:1 1685:1 
505.6114654453055 176:1 857:1 1686:1 
46.82564718603823 13:1 276:1 1226:1 1667:1 
8789.447829167277 407:1 643:1 
600.6230095925125 48:1 49:1 154:1 1687:1 
1742.501689410802 169:1 350:1 497:1 793:1 1349:1 1688:1 1689:1 1690:1 1691:1 
7560.533502947094 181:1 207:1 327:1 
23.1209284568221 496:1 768:1 1692:1 
2488.667816209948 68:1 165:1 284:1 1694:1 1695:1 1696:1 
11603.1906640239 22:1 23:1 475:1 1117:1 1667:1 
1748.756724870742 807:1 937:1 1697:1 1698:1 
185.9634738093058 38:1 130:1 294:1 
1745.406304452677 38:1 58:1 176:1 625:1 1699:1 1700:1 1701:1 
622.8405648029577 1023:1 1702:1 
93.15316984009526 356:1 357:1 535:1 536:1 537:1 932:1 
2163.949866031083 71:1 148:1 348:1 1188:1 1703:1 
79105.66092803329 138:1 1704:1 
697.0373309537796 46:1 51:1 176:1 183:1 937:1 1290:1 1706:1 1707:1 
2923.560105049251 165:1 659:1 660:1 
11.37646077506021 27:1 176:1 183:1 638:1 1713:1 1714:1 1715:1 1716:1 
6178.972152937449 328:1 508:1 937:1 1719:1 1720:1 
1395.04878029307 43:1 56:1 183:1 822:1 1384:1 1495:1 1713:1 1716:1 1721:1 
934.25327740688 38:1 283:1 1713:1 1716:1 1720:1 1722:1 1723:1 
3588.155491542303 27:1 37:1 1324:1 1694:1 1696:1 1724:1 1725:1 1726:1 
11055.18315481642 284:1 316:1 394:1 698:1 
641.7319525957469 1728:1 1729:1 1730:1 1731:1 1732:1 
1160.104813350153 34:1 130:1 349:1 420:1 687:1 824:1 1733:1 1734:1 
19209.99635699058 1056:1 1737:1 
430.3998578390647 1738:1 1739:1 1740:1 
56.51013005039477 1741:1 1742:1 
24.40482405124619 63:1 1743:1 
2601.011714133499 34:1 267:1 717:1 1228:1 1480:1 1745:1 
19881.31039161701 48:1 49:1 1746:1 
3499.149490016723 14:1 146:1 1668:1 1748:1 
252.4053184374007 135:1 1738:1 1749:1 
4309.366679006075 867:1 868:1 
528.2061645256716 300:1 1009:1 1739:1 1750:1 1751:1 1752:1 
632.8695873068025 176:1 1753:1 
369.0688143673246 170:1 340:1 435:1 725:1 1593:1 1754:1 
1638.731499664986 1757:1 
13.67411216065201 84:1 736:1 772:1 1758:1 1759:1 
425.5440955688209 1642:1 
24.80944735113232 508:1 1205:1 
21.42860546928948 124:1 250:1 343:1 445:1 638:1 873:1 1382:1 
14473.76534336563 215:1 217:1 
222.2965452158553 299:1 593:1 1754:1 1763:1 1764:1 1765:1 
8066.803467564088 34:1 320:1 1082:1 1766:1 
22.25759626588417 38:1 310:1 1074:1 
336.0540122971735 197:1 1738:1 1769:1 1770:1 
731.0580381187995 137:1 529:1 1080:1 1771:1 
2867.616935047246 181:1 1353:1 1774:1 
61.88852344711412 63:1 1177:1 1405:1 
1810.965185029374 1775:1 
12311.19001304817 49:1 1776:1 
2309.550085210448 496:1 537:1 539:1 
691.8031868966617 1779:1 
7.689252098054741 34:1 120:1 305:1 1003:1 1179:1 
815.2969604696567 70:1 153:1 176:1 1084:1 1782:1 
1116.89543229813 1784:1 1785:1 1786:1 
407.5786319094005 1787:1 
2915.101647448598 10:1 11:1 176:1 334:1 357:1 589:1 1023:1 1788:1 1789:1 
76116.05813842818 7:1 509:1 510:1 1791:1 
74.16953474793556 107:1 1132:1 
1569.228299850875 1792:1 
335.3811092023985 197:1 509:1 668:1 1409:1 1446:1 1795:1 1796:1 
8294.086485119547 1176:1 
585.5984111977158 153:1 1797:1 
161.6882540743526 1798:1 
582.3793121091151 1362:1 1799:1 1800:1 
6559.98664275411 1801:1 
697.3685563090359 1802:1 
2460.065226118908 38:1 66:1 68:1 162:1 198:1 444:1 
404.6605594590199 63:1 120:1 181:1 340:1 1804:1 
1681.939494148771 57:1 452:1 466:1 469:1 898:1 1805:1 
261.6075998980388 122:1 1809:1 1810:1 1811:1 
1178.089930299414 238:1 544:1 1812:1 1813:1 
1070.75121273933 1815:1 1816:1 
1423.637657246271 27:1 167:1 373:1 1004:1 1074:1 1303:1 1817:1 1818:1 
652.3177569877134 3:1 4:1 87:1 267:1 484:1 1012:1 1819:1 1820:1 1821:1 1822:1 
23.00338810871044 1824:1 
38.272740680849 535:1 787:1 788:1 1283:1 1303:1 
7720.673517713416 79:1 313:1 1791:1 
131.3181665864364 295:1 1825:1 
739.438390629957 58:1 71:1 72:1 107:1 176:1 1339:1 
270.5273343259803 1023:1 1290:1 1564:1 
94.00272132160346 1826:1 
3795.560014711364 18:1 295:1 1119:1 1215:1 1281:1 
888.261053262867 56:1 684:1 686:1 687:1 1819:1 1828:1 1829:1 1830:1 
556.0708192729834 1831:1 1832:1 1833:1 1834:1 1835:1 1836:1 1837:1 1838:1 
368.5790563160982 33:1 36:1 127:1 183:1 1839:1 1840:1 1841:1 
43.67953961758954 674:1 1842:1 1843:1 
277.9741984961354 420:1 686:1 687:1 1828:1 1829:1 1844:1 1845:1 1846:1 
371.1836436802276 137:1 146:1 1848:1 1849:1 
491.7108021635741 18:1 350:1 1397:1 1556:1 1850:1 
3696.651892939567 372:1 1558:1 1559:1 
416.8766732325101 144:1 496:1 1296:1 1853:1 1854:1 1855:1 
197.1620092041684 13:1 39:1 51:1 121:1 169:1 800:1 1857:1 
1527.792075279551 881:1 
17382.18581260261 176:1 216:1 451:1 1861:1 1862:1 
2653.153620791228 1864:1 
42.89730334243955 317:1 1865:1 
2119.143837904982 135:1 416:1 458:1 1856:1 1866:1 1867:1 
556.6760009482648 67:1 183:1 229:1 236:1 390:1 1823:1 1868:1 
38.68008697227425 206:1 464:1 
227.848389440829 509:1 1446:1 1870:1 
217.7830361336577 197:1 418:1 451:1 1871:1 
618.2421911494779 197:1 334:1 451:1 509:1 1046:1 1446:1 1872:1 
12313.0559115528 735:1 1823:1 
3488.692031136112 746:1 1657:1 1874:1 
10811.52626756082 418:1 577:1 1544:1 
1587.623968324491 1579:1 
1391.747618460619 10:1 11:1 475:1 1876:1 
1071.904415734535 176:1 280:1 305:1 434:1 451:1 1055:1 1877:1 
2266.993631965667 64:1 77:1 243:1 302:1 471:1 573:1 1525:1 
81.20647075364373 55:1 334:1 472:1 593:1 1207:1 1878:1 1879:1 1880:1 
8924.824410636998 394:1 965:1 
1.916522424051057 124:1 343:1 457:1 678:1 1063:1 1345:1 1883:1 
1647.874932377912 64:1 224:1 240:1 243:1 261:1 1058:1 1207:1 1886:1 
9229.745564778903 252:1 
1024.817444026696 18:1 138:1 934:1 960:1 
1278.620789363516 3:1 4:1 13:1 183:1 1888:1 1889:1 
867.9382329402471 38:1 299:1 300:1 301:1 302:1 303:1 304:1 305:1 306:1 983:1 1222:1 1890:1 
3006.955772383709 34:1 523:1 1892:1 1893:1 
16323.34087060629 113:1 153:1 422:1 494:1 614:1 
4502.06941575705 703:1 1897:1 1898:1 
2807.464956224098 643:1 915:1 1226:1 1599:1 1881:1 1882:1 1901:1 
22.33245055223659 103:1 107:1 169:1 523:1 1902:1 1903:1 1904:1 
19148.41300682655 848:1 
76.77782753483727 57:1 120:1 652:1 1905:1 
1012.330596010155 103:1 173:1 499:1 589:1 
256.1515341869604 222:1 651:1 652:1 1906:1 1907:1 
508.3634389263007 103:1 519:1 520:1 625:1 652:1 845:1 848:1 1029:1 1030:1 1552:1 1908:1 1909:1 
258.0470959697023 522:1 1910:1 
159.9125364157768 60:1 1911:1 
3350.683507055882 61:1 271:1 
5171.767525047801 736:1 757:1 1022:1 1024:1 1913:1 1914:1 1915:1 
9768.916546190041 497:1 
6674.780618662976 390:1 1916:1 1917:1 
448.5825096570478 176:1 1039:1 1918:1 
6176.613781078565 1921:1 
8.969528487103471 13:1 176:1 370:1 1922:1 1923:1 1924:1 
2188.716580936253 280:1 660:1 911:1 1087:1 1581:1 1846:1 1925:1 1926:1 
1756.033174490819 206:1 392:1 587:1 1524:1 1930:1 1931:1 
2808.889868331112 217:1 1020:1 1075:1 
879.7237237686829 250:1 264:1 437:1 1931:1 1932:1 1933:1 
907.7212774578187 607:1 611:1 1055:1 1934:1 
162.6260509397117 206:1 228:1 229:1 475:1 1935:1 
2802.0657986868 223:1 340:1 884:1 917:1 1936:1 
5.751548332138076 13:1 137:1 223:1 224:1 241:1 434:1 593:1 918:1 1940:1 1941:1 
3.376434380350824 27:1 84:1 190:1 250:1 590:1 736:1 1070:1 1149:1 1942:1 1943:1 
429.8605843709974 228:1 229:1 590:1 1944:1 
130.3217961061608 112:1 795:1 1947:1 
3344.756488430355 1948:1 1949:1 1950:1 1951:1 1952:1 1953:1 1954:1 1955:1 1956:1 1957:1 1958:1 1959:1 1960:1 
1352.534586011799 897:1 1962:1 
594.6697408442415 37:1 68:1 1917:1 1963:1 
359.6074216044202 107:1 239:1 581:1 668:1 1954:1 1964:1 
2084.289610693563 132:1 383:1 827:1 1965:1 
1848.155948580664 47:1 1965:1 1966:1 1967:1 1968:1 
8985.020871197896 313:1 1474:1 1772:1 1917:1 
1800.3777295705 34:1 1228:1 1969:1 
1442.258524763285 599:1 933:1 
2847.296915517867 351:1 
392.4345924190125 169:1 197:1 1735:1 
13325.63012849917 1118:1 
3036.446768279682 10:1 11:1 12:1 1974:1 1975:1 1976:1 
974.7450903359766 1977:1 
906.2936061286321 27:1 108:1 1119:1 1978:1 
46.07114898161915 406:1 894:1 1979:1 
3993.654823982354 127:1 137:1 1394:1 1971:1 1980:1 
4417.008146736258 1917:1 
327.9226211777375 1936:1 1981:1 
1467.174395025353 125:1 169:1 350:1 798:1 938:1 1023:1 1851:1 1982:1 
119.1222662521568 680:1 709:1 1568:1 
206.3584252310309 25:1 34:1 144:1 216:1 1038:1 1256:1 1986:1 1987:1 1988:1 
532.2283461247723 103:1 474:1 1038:1 1054:1 1253:1 1785:1 1992:1 1993:1 1994:1 
463.387608140123 31:1 37:1 64:1 103:1 340:1 1082:1 1462:1 1995:1 1996:1 
423.1182028067259 103:1 107:1 122:1 656:1 1552:1 1997:1 1998:1 
993.8982255740905 10:1 11:1 12:1 1256:1 1999:1 
318.0019025299998 161:1 
700.4556548811411 234:1 2002:1 
2177.06430662002 258:1 316:1 373:1 544:1 1132:1 
5200.897451694016 10:1 11:1 12:1 172:1 
1770.682137718818 2003:1 
1507.107768549051 2000:1 
370.8636984279896 710:1 2005:1 2006:1 2007:1 
1401.269880984928 497:1 1106:1 1256:1 2010:1 
226.3626751663408 384:1 2011:1 
1950.691748477016 62:1 916:1 1744:1 2014:1 
684.0607300709232 147:1 1440:1 2016:1 
239.3954359154043 1146:1 
37.51267749931357 10:1 11:1 67:1 1256:1 
37.84937616346481 12:1 38:1 56:1 183:1 2017:1 2018:1 2019:1 
5846.832917388801 10:1 11:1 197:1 2020:1 
10218.42352440418 185:1 579:1 580:1 1875:1 
11938.37253710604 10:1 11:1 12:1 148:1 
5396.442869826354 10:1 11:1 12:1 60:1 
1553.55879098193 10:1 11:1 12:1 
7538.509595747163 1393:1 
3258.903442844591 920:1 2022:1 2023:1 
1359.267317091311 478:1 728:1 729:1 730:1 1450:1 1930:1 
2048.296771711161 198:1 223:1 437:1 1070:1 1149:1 1755:1 2024:1 2025:1 
820.5096409625788 122:1 176:1 217:1 913:1 917:1 
3201.078149117434 917:1 918:1 
3424.298811815022 68:1 870:1 924:1 1460:1 
1325.167398335489 153:1 176:1 836:1 1428:1 1749:1 2026:1 
340.214804750655 2030:1 
837.8077506713214 175:1 2033:1 
752.7018441406642 2034:1 2035:1 
31461.31033641837 301:1 
14996.90755601585 749:1 
5330.339196738485 264:1 437:1 1571:1 2037:1 2038:1 
801.0742515862421 27:1 223:1 227:1 437:1 725:1 1137:1 1939:1 2029:1 2039:1 
235.5153516883298 84:1 1156:1 2040:1 
1654.009939946001 492:1 604:1 1144:1 2025:1 2041:1 2042:1 
2803.654306099238 1939:1 
29.58982810022017 778:1 2043:1 
534.9755166998774 69:1 418:1 2044:1 2045:1 2046:1 
166.0290041605245 639:1 2047:1 
126.880527410279 13:1 34:1 194:1 462:1 1256:1 2048:1 
195.611589292534 276:1 
157.3892721926536 38:1 280:1 1213:1 
2568.971668487585 38:1 299:1 300:1 301:1 302:1 303:1 304:1 305:1 308:1 983:1 1222:1 2051:1 
9346.882936741355 10:1 11:1 12:1 181:1 484:1 1891:1 
579.2265757226733 2055:1 
874.2524277519835 505:1 1256:1 
212.1808833919382 1033:1 1256:1 
79.73032596199889 2:1 326:1 2056:1 
844.7038426784075 667:1 2057:1 
5277.617508555573 10:1 11:1 12:1 98:1 224:1 1377:1 
243.7332524560844 176:1 2059:1 
554.8175910422393 68:1 1049:1 1477:1 
248.3078575842997 103:1 512:1 2060:1 
731.4903920720031 120:1 340:1 374:1 648:1 649:1 1624:1 2061:1 2062:1 
881.9567489863755 121:1 176:1 337:1 600:1 1773:1 2065:1 2066:1 
672.4849860891492 38:1 103:1 107:1 518:1 519:1 520:1 625:1 885:1 1029:1 1079:1 2067:1 
19.11383592708753 63:1 288:1 1355:1 1743:1 
740.5129337838436 1175:1 2068:1 
6204.130415676429 39:1 48:1 50:1 295:1 824:1 1501:1 1886:1 
5241.355143754894 18:1 1135:1 2069:1 
51.12804025431792 10:1 11:1 12:1 154:1 827:1 
33336.93854812538 10:1 11:1 12:1 22:1 23:1 24:1 184:1 275:1 277:1 535:1 
894.7543580687552 353:1 
56.41674061319721 105:1 183:1 1574:1 1665:1 2053:1 2073:1 2074:1 
24.82363824915137 2075:1 
386.8687113692831 16:1 463:1 1983:1 2077:1 
37992.04082349919 49:1 
6794.705138969911 108:1 165:1 1256:1 2082:1 
3828.746491324389 68:1 84:1 167:1 2079:1 2080:1 2081:1 
66107.18360268668 62:1 
2477.302956550356 2083:1 
3972.062614848246 2084:1 2085:1 2086:1 
460.4927986673221 967:1 2087:1 2088:1 
55.31455734528969 79:1 453:1 641:1 2071:1 
636.7955979215922 444:1 1256:1 2055:1 
35.83002852461225 40:1 293:1 378:1 985:1 1327:1 2006:1 2089:1 2090:1 
1277.994140884391 356:1 1568:1 
7236.208111797966 1759:1 2091:1 2092:1 
82.61891744908066 1032:1 
818.5152627178322 107:1 439:1 2093:1 
996.0972069704677 13:1 285:1 451:1 480:1 517:1 2094:1 2095:1 2096:1 2097:1 
7.111900811282133 27:1 60:1 63:1 273:1 828:1 2100:1 2102:1 
364.3833807905617 418:1 453:1 1179:1 2100:1 2101:1 
80.25994896294492 123:1 183:1 334:1 2105:1 2106:1 2107:1 2108:1 
6004.353285955216 738:1 
516.947810717811 125:1 348:1 508:1 
15760.15040296983 777:1 1090:1 1176:1 1492:1 
488.9616045537483 63:1 176:1 278:1 1571:1 1804:1 
122.2774503740557 2109:1 2110:1 
508.2313309475978 107:1 1074:1 2112:1 2113:1 
554.788794090278 104:1 819:1 1038:1 2115:1 
115.1812929302806 2116:1 
4542.043602784702 13:1 63:1 104:1 116:1 167:1 181:1 371:1 417:1 
336.6652913267898 169:1 915:1 1287:1 2117:1 2118:1 2119:1 2120:1 
10.35243706632239 69:1 107:1 464:1 
22311.69771820001 350:1 435:1 493:1 1293:1 
2159.598348894511 21:1 34:1 190:1 1169:1 2121:1 
110.7637182578344 27:1 593:1 1647:1 2122:1 2123:1 
2144.330374075017 68:1 122:1 444:1 1425:1 2124:1 
994.8038835842225 658:1 2125:1 
1327.531433285683 917:1 1503:1 2125:1 
417.8986165624609 2128:1 
17.17850050246001 27:1 59:1 1545:1 1642:1 2126:1 2127:1 
919.0834451259168 63:1 138:1 874:1 1603:1 1685:1 2129:1 2130:1 2131:1 2132:1 
724.7237825512153 61:1 843:1 2133:1 2134:1 
12377.4596309095 57:1 170:1 253:1 435:1 980:1 2132:1 2135:1 
26.09892810920803 217:1 
5742.228093752597 668:1 2145:1 
429.7543764511498 27:1 57:1 170:1 435:1 736:1 2144:1 2147:1 
2523.008106540771 299:1 473:1 590:1 744:1 972:1 2148:1 2149:1 
801.2037900344906 63:1 236:1 252:1 1000:1 1645:1 1706:1 2143:1 2150:1 
8812.589481248486 262:1 512:1 727:1 1073:1 1108:1 1168:1 2144:1 2151:1 
79105.66092803329 504:1 
1356.232270312579 2004:1 
95.25567719155198 874:1 2125:1 
766.4722947320907 13:1 275:1 2125:1 2152:1 
93.98876693611277 68:1 232:1 1137:1 2153:1 
11.87679290628707 27:1 229:1 394:1 428:1 
263.5137803875029 383:1 1915:1 2021:1 2125:1 
1058.651934483533 25:1 197:1 275:1 1961:1 2125:1 2154:1 
60.13285106273641 13:1 34:1 282:1 421:1 1688:1 
5117.052062286628 65:1 80:1 2155:1 
168.139009025746 410:1 865:1 898:1 
4541.019963520404 50:1 2157:1 
1372.667598573023 51:1 147:1 680:1 776:1 
8380.92304536265 184:1 710:1 2164:1 
1222.232461902683 280:1 593:1 703:1 1132:1 2165:1 
462.7945156769304 34:1 372:1 861:1 
934.9899589422307 351:1 1151:1 
2350.841487606193 61:1 1475:1 
1522.403208202324 351:1 2166:1 
9294.938201225459 53:1 107:1 
121.6386866972777 2162:1 2167:1 
431.012411536813 340:1 437:1 879:1 899:1 1030:1 1144:1 1357:1 2169:1 
922.0105565343018 57:1 512:1 1028:1 2170:1 2171:1 2172:1 
51.31247881752965 64:1 593:1 997:1 1307:1 2173:1 2174:1 
138.0277435308521 71:1 72:1 228:1 2175:1 
6418.605276190356 38:1 620:1 621:1 1032:1 
130.6003616580776 239:1 1074:1 2162:1 
1481.576627613928 107:1 176:1 623:1 1542:1 
883.9730088042652 107:1 725:1 2176:1 
1805.536670026167 107:1 351:1 484:1 485:1 1529:1 
105.1028751296508 108:1 2177:1 
1026.858756652921 275:1 1474:1 2162:1 
2863.36128105528 716:1 2179:1 
35.56580802637417 55:1 638:1 2180:1 
315.9144574300698 1556:1 2182:1 2183:1 
837.7231427279929 299:1 2184:1 
3429.164828222376 1080:1 2185:1 2186:1 
125.9274877196544 304:1 2187:1 
339.9059496938807 435:1 1290:1 1322:1 1564:1 2188:1 2189:1 
162.4107428363171 8:1 34:1 717:1 1290:1 1313:1 2190:1 2191:1 
4594.449721656822 577:1 1127:1 2192:1 
179.3834739334953 38:1 194:1 197:1 2193:1 
3039.000129615377 1181:1 
299.9228128935251 5:1 18:1 68:1 397:1 
273.7652007108786 59:1 983:1 2198:1 
934.1740574359105 102:1 616:1 817:1 1454:1 
767.0197916304417 2199:1 2200:1 
489.0121029198903 50:1 2201:1 
80.59788252117164 1004:1 2202:1 
3521.249595767971 14:1 379:1 2204:1 
5688.755304644146 116:1 1171:1 
1823.377551130357 1316:1 1333:1 2205:1 
307.0333013999561 63:1 77:1 2196:1 
137.1927611599783 130:1 239:1 350:1 531:1 1332:1 2208:1 
11196.02839223895 110:1 139:1 144:1 312:1 692:1 772:1 2209:1 
1084.693852224723 390:1 2026:1 
12.00423222935884 806:1 2181:1 
43121.92982077364 233:1 1353:1 2210:1 
1114.20304289614 66:1 346:1 857:1 1573:1 2211:1 2212:1 
41.91307639799248 206:1 317:1 576:1 2213:1 
283.853355891792 59:1 2214:1 2215:1 
118.5673423741978 183:1 349:1 579:1 580:1 2217:1 
4845.111236080616 2019:1 2210:1 
2622.212691000464 772:1 2219:1 
2150.377278223431 451:1 1179:1 1545:1 
7066.763106671023 2222:1 2223:1 
1499.409747627349 2224:1 
946.8076481272735 124:1 224:1 241:1 267:1 343:1 2225:1 2226:1 
2049.01691435362 2227:1 
26.91240523808218 120:1 299:1 433:1 593:1 725:1 2028:1 2173:1 2228:1 
501.7512238970921 67:1 1859:1 
3450.020119449851 2097:1 
1427.08068299076 38:1 55:1 492:1 1104:1 2233:1 2234:1 
1877.593638911306 1240:1 
163.5234278430362 391:1 2235:1 
3233.155872010175 107:1 527:1 1195:1 
2305.503932465922 71:1 72:1 280:1 1195:1 2197:1 2238:1 
4018.175750020825 1656:1 
7866.77256233451 1195:1 
130.5661574113156 184:1 710:1 1190:1 1195:1 1614:1 1897:1 2239:1 2240:1 2241:1 2242:1 
62.35494892234581 27:1 507:1 2243:1 2244:1 2245:1 
1052.556753806457 317:1 590:1 621:1 2246:1 2247:1 
121.051615620865 224:1 462:1 703:1 2248:1 2249:1 
2155.792151312085 194:1 237:1 422:1 614:1 1238:1 2193:1 
8887.303511932148 2250:1 2251:1 
43.23256586130942 2252:1 
722.0667781648197 2253:1 2254:1 2255:1 
2694.268570708345 49:1 899:1 2078:1 2256:1 
799.9059132508484 2236:1 
1015.305651741925 410:1 2257:1 
388.201007880409 13:1 71:1 1185:1 1703:1 2258:1 
526.7414799322814 1426:1 
8829.953331821829 554:1 2260:1 
185.1378842146312 710:1 1021:1 1448:1 2261:1 
117.3822393600569 2262:1 
278.0060893865313 2264:1 
314.3140088964742 194:1 2167:1 2263:1 
84.46627789475987 63:1 70:1 253:1 452:1 2265:1 2266:1 
892.0798060897555 229:1 334:1 
1224.838453351291 1021:1 
63.2419778670255 437:1 2267:1 
2134.902488792164 176:1 589:1 720:1 1032:1 
1181.913605706937 79:1 264:1 265:1 640:1 1021:1 2270:1 
611.3760946928186 2271:1 
85.52884628068766 76:1 223:1 437:1 645:1 1144:1 2037:1 2272:1 
29.56894857533457 2273:1 
1749.920925833258 485:1 2280:1 
1148.600696555467 1459:1 1690:1 2281:1 2282:1 2283:1 2284:1 2285:1 2286:1 
819.3799316081542 2287:1 
1497.636426009746 484:1 2259:1 
647.2249765673663 107:1 224:1 293:1 311:1 1343:1 1428:1 2288:1 
23.12129569854686 326:1 555:1 
114.1665959525988 25:1 232:1 1425:1 2291:1 
701.2626219512434 385:1 409:1 418:1 933:1 2289:1 
1875.12733109044 411:1 2290:1 
2138.878848197265 273:1 343:1 409:1 412:1 1353:1 2289:1 2293:1 
483.3972171655087 429:1 2294:1 
244.3221323209272 103:1 600:1 935:1 1054:1 1055:1 1785:1 1900:1 1992:1 2300:1 
14.5143177350651 103:1 153:1 175:1 176:1 515:1 516:1 1128:1 1900:1 2301:1 
348.5386152334542 38:1 103:1 625:1 1552:1 1908:1 1992:1 1997:1 2302:1 2303:1 2304:1 2305:1 
8170.138852725262 12:1 103:1 122:1 169:1 345:1 517:1 
1814.936959535409 2306:1 
131.2530585710785 2308:1 
293.0403340614763 27:1 38:1 84:1 728:1 2248:1 2309:1 2310:1 2311:1 2312:1 2313:1 
1438.646640681979 79:1 703:1 1897:1 
1623.131337467152 116:1 382:1 1747:1 2315:1 2316:1 2317:1 2318:1 
1894.712736075091 13:1 84:1 206:1 229:1 475:1 1128:1 2319:1 2320:1 
207.1139392983334 50:1 183:1 184:1 284:1 1425:1 2231:1 2291:1 2314:1 
2448.985779913167 794:1 
2949.869909870673 2322:1 
12575.84594756881 226:1 1339:1 2323:1 
4397.005366064783 2324:1 
1300.75563635143 2325:1 2326:1 
384.8181415124977 216:1 304:1 1740:1 1750:1 2327:1 2328:1 
494.5726873963973 749:1 2329:1 2330:1 
71.46272588768221 63:1 66:1 201:1 246:1 452:1 469:1 512:1 2331:1 
22.23067704001385 120:1 874:1 1211:1 1941:1 2334:1 
410.7496125930905 220:1 221:1 246:1 2313:1 2334:1 2337:1 2338:1 2339:1 2340:1 2341:1 2342:1 2343:1 2344:1 
838.9838287572164 38:1 299:1 300:1 302:1 303:1 304:1 305:1 308:1 762:1 983:1 1222:1 
11168.65219193524 19:1 38:1 310:1 
43.5075289355708 827:1 1630:1 2231:1 2345:1 
431.5083786489223 79:1 504:1 2231:1 
326.3736865766601 173:1 236:1 499:1 669:1 836:1 1045:1 2231:1 
310.10586156415 25:1 320:1 
15.88524775565258 915:1 961:1 2231:1 2347:1 
197.9808211735327 102:1 135:1 1887:1 
1812.20191285234 102:1 135:1 
4568.102528029981 68:1 2348:1 2349:1 
691.924099142999 63:1 69:1 84:1 2259:1 2351:1 2352:1 
18080.10882066791 151:1 
351.572406318274 153:1 278:1 2353:1 2354:1 
370.4307067021766 899:1 
40171.69526869056 130:1 1162:1 
28.35195062883244 1025:1 2279:1 
23.68650971990441 57:1 334:1 1014:1 1454:1 2356:1 
1909.381449068291 107:1 418:1 577:1 
319.2821254831066 2362:1 
90.29636422137548 669:1 2363:1 
7531.953641437041 2364:1 
877.5824590984566 351:1 475:1 
2693.698522113379 66:1 343:1 843:1 1558:1 2366:1 2367:1 
116.9620646799251 64:1 176:1 1625:1 1885:1 2368:1 
16.95953512261537 63:1 222:1 1601:1 2374:1 
97.81821470201881 38:1 762:1 
67.26230633135958 79:1 183:1 630:1 899:1 2379:1 
2388.114320526067 2058:1 
1887.979268944746 25:1 197:1 273:1 274:1 507:1 
70.58696275654886 151:1 1560:1 1896:1 
3176.624373015004 1114:1 
1203.660310069988 68:1 2384:1 2385:1 
243.5010820608304 25:1 320:1 2386:1 
3327.112297516927 323:1 350:1 578:1 1119:1 
928.8600577563054 1912:1 
804.9844149090621 36:1 176:1 183:1 278:1 2387:1 2388:1 
4392.489417599122 176:1 2389:1 
307.9582293106442 120:1 264:1 651:1 652:1 744:1 1367:1 2393:1 
2445.570508991321 63:1 103:1 340:1 612:1 1079:1 2394:1 
214.2919826844484 103:1 107:1 122:1 169:1 345:1 
16691.01521619693 183:1 508:1 826:1 
1684.900194432442 68:1 215:1 537:1 2399:1 
663.5443802583227 477:1 744:1 745:1 1073:1 1519:1 1885:1 1941:1 
6335.898744297695 1058:1 1059:1 2403:1 
1288.975800894519 593:1 1002:1 1185:1 1227:1 2333:1 2404:1 2405:1 2406:1 
79105.66092803329 2408:1 
29.84451888868002 2410:1 2411:1 
3256.668987644755 1171:1 
38.45949798752512 24:1 276:1 
1658.89126461107 699:1 
3764.847857816606 505:1 
757.1431893002416 13:1 276:1 1226:1 2399:1 
1756.27143043019 1038:1 1225:1 1845:1 2163:1 
3593.159774523634 273:1 635:1 1491:1 2422:1 
4962.640139930546 669:1 958:1 2423:1 2424:1 2425:1 2426:1 
5061.891039952004 544:1 660:1 
10014.39858255557 1124:1 2427:1 2428:1 
1734.503850487187 1115:1 
199.0435432930115 2431:1 
115.3861908697006 234:1 322:1 496:1 
1953.354844771291 124:1 175:1 527:1 528:1 531:1 2433:1 2434:1 2435:1 2436:1 2437:1 2438:1 2439:1 2440:1 
3295.013823267478 25:1 548:1 854:1 2441:1 2442:1 
1853.087572748892 68:1 176:1 401:1 2443:1 
729.3060471264756 275:1 853:1 2417:1 2418:1 2444:1 
874.6743137280426 90:1 761:1 2445:1 2446:1 
1104.128247790142 59:1 102:1 499:1 1207:1 1457:1 2447:1 
781.8772815028429 1223:1 1668:1 2449:1 2450:1 2451:1 
962.0938779738659 377:1 885:1 2452:1 2453:1 
488.3962252158673 84:1 206:1 882:1 2455:1 
1034.549241029021 745:1 1606:1 2078:1 2456:1 
1782.785129132802 113:1 1491:1 
6217.559705884895 883:1 
504.9615728606821 27:1 2457:1 
18746.02655900761 854:1 
185.0885147050003 68:1 104:1 2458:1 
154.3039683509966 1608:1 2459:1 
15400.65388200839 2460:1 
70.43604111156361 137:1 184:1 2175:1 2461:1 
20751.01918779079 107:1 135:1 576:1 
14.11434216872724 59:1 141:1 576:1 2462:1 
3940.005487326516 2463:1 2464:1 
3810.778861964736 224:1 2467:1 
529.4090456879898 145:1 471:1 496:1 620:1 621:1 
2196.983771648981 2468:1 
550.5496160713345 176:1 284:1 428:1 898:1 1393:1 1542:1 
1316.603936114636 1245:1 2469:1 2470:1 2471:1 
389.4124174223207 51:1 680:1 2472:1 
34.04856215384422 51:1 680:1 1911:1 2473:1 
3455.702979203933 2472:1 
2242.156742356164 107:1 1074:1 2408:1 2478:1 
367.3290008915149 84:1 239:1 255:1 422:1 2398:1 
3683.795726912917 2480:1 
2617.926086090224 1058:1 
78.30157485394123 529:1 853:1 1025:1 2479:1 
493.5077517944857 120:1 173:1 576:1 2482:1 2483:1 2484:1 
1670.426253847872 259:1 418:1 453:1 1179:1 2465:1 2485:1 
1106.366309761081 908:1 
427.2239092323141 763:1 2487:1 
789.4831342537227 2488:1 2489:1 
112.8598796283712 2486:1 
32.51403389962979 27:1 77:1 161:1 2490:1 
65.75858489042292 25:1 34:1 38:1 361:1 2401:1 2492:1 2493:1 2494:1 2495:1 2496:1 2497:1 
73.73418221982473 69:1 123:1 124:1 413:1 2463:1 2498:1 2499:1 
63.12739641189516 344:1 496:1 
762.1210583615768 125:1 224:1 348:1 1428:1 1875:1 2500:1 
339.6928299786096 2501:1 
264.6545299451328 69:1 104:1 416:1 418:1 453:1 646:1 1163:1 1229:1 2502:1 2503:1 2504:1 
265.2065572355847 122:1 2505:1 
53.56173648164867 229:1 2506:1 2507:1 
1048.954966703489 27:1 45:1 680:1 2508:1 
123.5113010010638 2111:1 
1551.895966114616 27:1 161:1 2408:1 
9582.347800287005 1414:1 
1077.573325078818 673:1 2509:1 
178.3528646065292 2444:1 
439.784229178259 56:1 922:1 
549.1647345967887 723:1 2510:1 2511:1 
4157.982459566327 223:1 680:1 
22179.82462911225 133:1 1324:1 1435:1 
95.14471326194825 1074:1 
413.9902819801522 2519:1 
25846.77850594998 174:1 
1079.064651171893 2520:1 
1166.094220788302 641:1 736:1 2521:1 2522:1 2523:1 
835.1755616517878 63:1 2525:1 
1313.656629986664 177:1 288:1 496:1 1296:1 1853:1 
135.3912558449915 50:1 2526:1 
237.7154703688926 60:1 334:1 2527:1 
3434.427863081233 61:1 64:1 80:1 1544:1 1881:1 1882:1 2528:1 
348.3947074214565 658:1 966:1 
2640.755011061501 348:1 375:1 487:1 614:1 1294:1 
53.75984965174627 63:1 1068:1 2529:1 2530:1 2531:1 
742.1551980273691 252:1 288:1 1749:1 
27382.71916597068 159:1 701:1 
5078.370382001403 46:1 60:1 165:1 747:1 
307.8352014661328 2533:1 
218.2029123144585 2534:1 
306.6149047747264 350:1 2008:1 2009:1 2073:1 
473.8358025919217 51:1 2535:1 
286.4311449200303 153:1 529:1 2413:1 2537:1 
3349.061037446009 84:1 1924:1 
43612.30594162348 17:1 197:1 487:1 2538:1 2539:1 
354.3702521420146 60:1 197:1 322:1 2540:1 
10201.30435236472 122:1 176:1 372:1 817:1 
49719.55901892344 184:1 
264.8113441760368 243:1 264:1 747:1 1163:1 1211:1 
1885.671948906916 84:1 176:1 340:1 380:1 590:1 1149:1 2541:1 2542:1 
3896.014136716339 720:1 1872:1 2454:1 
32.55539913298284 2546:1 2547:1 
7287.846372303075 223:1 271:1 434:1 1064:1 
810.5646376905038 1574:1 2053:1 
317.6053865924097 658:1 2532:1 
579.7413927707579 25:1 1860:1 2552:1 
786.8580802020213 71:1 197:1 1130:1 1133:1 1479:1 2550:1 
4110.123587416975 2553:1 2554:1 2555:1 
52.27861969391051 183:1 1793:1 2409:1 
32.17279294168615 680:1 
1705.217803022781 34:1 130:1 349:1 420:1 687:1 824:1 1733:1 
66.58157602301888 4:1 44:1 72:1 139:1 1860:1 2517:1 2559:1 2560:1 2561:1 
52628.02947726323 69:1 464:1 
393.847430966345 437:1 458:1 978:1 2292:1 
45.65724699158902 130:1 2562:1 
11214.97537541093 207:1 
5513.528281641805 239:1 255:1 356:1 1860:1 
691.5534534718797 531:1 786:1 1332:1 2564:1 
3001.033227144823 63:1 206:1 475:1 1437:1 2565:1 
25826.78703392007 2566:1 
510.3650787516413 112:1 148:1 1703:1 2567:1 
47.06308047657278 34:1 112:1 1031:1 2568:1 
1097.100349068574 1031:1 
196.0177314223855 224:1 241:1 261:1 726:1 1000:1 1003:1 2569:1 
1743.756887331739 170:1 216:1 250:1 435:1 471:1 726:1 874:1 2570:1 2571:1 2572:1 
641.1732298818877 2551:1 
180.9290388090203 269:1 425:1 1674:1 2573:1 2574:1 2575:1 2576:1 
384.6955801023763 102:1 131:1 2577:1 
221.4079718701682 175:1 2578:1 
1612.014466555238 79:1 216:1 223:1 317:1 2579:1 2580:1 2581:1 
31.99627203437093 905:1 2582:1 
52.77527296455327 222:1 874:1 1810:1 2583:1 
6.895490775653196 27:1 61:1 593:1 1157:1 2042:1 2584:1 2585:1 2586:1 
1153.908025386353 69:1 102:1 437:1 573:1 665:1 817:1 972:1 2335:1 
23789.06606639726 278:1 
19861.65653270336 53:1 169:1 
1953.241859682621 184:1 1929:1 2377:1 
454.8597493687549 630:1 2563:1 2593:1 
33159.70556263187 322:1 328:1 2563:1 
846.7482715498501 176:1 608:1 985:1 1054:1 1105:1 
1394.149399915859 349:1 384:1 643:1 2563:1 2596:1 
7981.778223137064 326:1 
3734.864406432457 411:1 
1506.223177975565 447:1 1104:1 1105:1 
136.5781254987655 224:1 1560:1 2597:1 2598:1 
731.4545600871695 18:1 1104:1 1105:1 2596:1 2599:1 
536.5612174370683 2596:1 2600:1 
246.1162129367507 350:1 496:1 1296:1 2602:1 2603:1 
4226.802197874887 1491:1 2529:1 
28092.69199135992 7:1 
10.32260841077136 233:1 447:1 1016:1 
1142.51643917137 197:1 2604:1 
516.9783044382932 50:1 206:1 2291:1 
3018.710276238282 34:1 148:1 1004:1 2605:1 2606:1 
334.9461210490995 51:1 1858:1 
2364.7830040689 1073:1 2032:1 
38895.10583616717 508:1 
24.33525122757037 2607:1 
2904.1277342369 1674:1 
631.8282714772807 1163:1 
72.18116726133519 2601:1 
21.3290563024587 51:1 680:1 2610:1 
605.9879600375539 1282:1 2386:1 2618:1 
3402.50050563804 1032:1 2612:1 2614:1 2615:1 
80.81657277328196 323:1 932:1 
15919.58941453784 48:1 49:1 65:1 409:1 
27.73714551635062 1213:1 1244:1 2621:1 2622:1 2623:1 
251.8342251972498 227:1 1055:1 2626:1 2628:1 2636:1 
4.986023942118687 416:1 557:1 606:1 2628:1 2635:1 2641:1 2642:1 
1727.548903031764 124:1 343:1 1095:1 1941:1 2628:1 
49.96577055249051 13:1 589:1 2632:1 2656:1 2657:1 
2975.80487231314 107:1 1326:1 2628:1 
227.4061101124027 124:1 343:1 956:1 2628:1 2658:1 
89.13570764415023 261:1 726:1 1194:1 2142:1 2628:1 2659:1 2660:1 2661:1 
7.072283651254302 97:1 153:1 217:1 589:1 2143:1 2628:1 2631:1 2665:1 2666:1 
641.2025193592776 271:1 604:1 1070:1 2161:1 2527:1 2626:1 2629:1 2667:1 2668:1 
309.3703066063287 38:1 334:1 761:1 981:1 1792:1 2669:1 2670:1 
368.1298194631417 124:1 343:1 557:1 1150:1 1219:1 1642:1 1869:1 2628:1 2673:1 
291.7153784329327 107:1 258:1 538:1 726:1 1055:1 2612:1 2628:1 2659:1 2674:1 2675:1 2676:1 
85.7259976606142 176:1 184:1 250:1 593:1 2634:1 2680:1 2681:1 
201.3165087641389 153:1 295:1 589:1 638:1 2612:1 2628:1 2676:1 2683:1 
378.6631680646474 121:1 124:1 295:1 343:1 645:1 1082:1 1095:1 2612:1 2659:1 2684:1 2685:1 
6921.437024790225 184:1 292:1 343:1 1282:1 1955:1 2625:1 2626:1 2628:1 
1743.809122655373 59:1 175:1 176:1 463:1 988:1 2164:1 2698:1 2711:1 2712:1 
523.0268269506248 380:1 538:1 812:1 988:1 2129:1 2695:1 2719:1 
3740.578070462596 184:1 223:1 264:1 276:1 692:1 1159:1 2401:1 
835.0387066396307 19:1 229:1 
447.3965314917966 1173:1 2307:1 2415:1 2732:1 
187.4739361988586 2733:1 
46.48964989245654 56:1 72:1 104:1 176:1 2482:1 2734:1 2735:1 
4370.360215188406 72:1 107:1 121:1 142:1 874:1 1042:1 1955:1 2612:1 
44.49363987591312 716:1 900:1 1687:1 2612:1 2734:1 2736:1 2737:1 
250.2628511068411 828:1 1555:1 
392.8328187082514 83:1 206:1 2098:1 
28351.18036243413 47:1 49:1 63:1 153:1 374:1 
2748.778382939739 2739:1 2740:1 2741:1 
5.358605776445995 66:1 176:1 206:1 466:1 589:1 1229:1 2628:1 2658:1 2744:1 2745:1 2746:1 
1163.029727136608 249:1 340:1 716:1 1207:1 2612:1 2651:1 2750:1 2751:1 
122.5906279447983 97:1 538:1 951:1 2266:1 2628:1 2631:1 2738:1 2748:1 2749:1 2752:1 2753:1 2754:1 
11689.769421474 97:1 175:1 203:1 216:1 320:1 670:1 1276:1 2757:1 2758:1 
9.200740809691345 269:1 2628:1 2742:1 
116.1336093958339 15:1 64:1 736:1 1070:1 1588:1 2684:1 2759:1 2760:1 2761:1 2762:1 2763:1 
863.2605878557644 453:1 458:1 2631:1 2760:1 2767:1 2768:1 2769:1 2770:1 2771:1 
312.9523866812119 589:1 719:1 884:1 2628:1 2743:1 2772:1 
35.9479045338699 57:1 170:1 470:1 593:1 956:1 1592:1 2742:1 2776:1 2777:1 
59.37626253909865 57:1 124:1 224:1 343:1 439:1 790:1 892:1 2220:1 2645:1 2655:1 2756:1 2780:1 
28.23427687454032 13:1 350:1 480:1 1307:1 1454:1 1858:1 2243:1 2687:1 2787:1 2788:1 
1091.903183635518 203:1 990:1 1010:1 1113:1 2321:1 2656:1 2687:1 
30477.24470752758 2791:1 
478.8023082070234 451:1 1350:1 2742:1 2792:1 2793:1 
463.034045307558 183:1 1853:1 2082:1 2510:1 2620:1 2796:1 
67.7978828319348 13:1 165:1 204:1 777:1 837:1 1339:1 1792:1 2687:1 2692:1 2804:1 
200.0131401396656 64:1 224:1 593:1 610:1 2818:1 2819:1 2820:1 2821:1 
196.6633897465669 63:1 264:1 593:1 996:1 1188:1 2393:1 2572:1 2798:1 2824:1 2825:1 
23.37329085595151 119:1 120:1 453:1 593:1 871:1 996:1 1070:1 2413:1 2798:1 2824:1 2826:1 
199.5781598922609 222:1 250:1 573:1 887:1 995:1 1159:1 2798:1 2830:1 
1.619321270410276 13:1 332:1 870:1 988:1 1735:1 2206:1 2612:1 2798:1 2833:1 
1085.429627240528 216:1 241:1 604:1 725:1 902:1 1645:1 2798:1 
134.8540756057837 120:1 871:1 2798:1 2836:1 
5425.000465455993 107:1 169:1 202:1 320:1 466:1 1178:1 1904:1 2838:1 
799.6840569972974 1946:1 2839:1 
15.59736624338353 27:1 138:1 610:1 1156:1 1603:1 2513:1 2833:1 2840:1 2841:1 
1406.809518474516 27:1 557:1 2392:1 2778:1 2844:1 
4.907122204826935 147:1 573:1 593:1 1046:1 1143:1 2722:1 2847:1 2848:1 2849:1 2850:1 
139.4259574961079 37:1 217:1 252:1 2798:1 2816:1 2853:1 2854:1 
21.20029413959231 121:1 347:1 589:1 2798:1 2857:1 
104.9816985376538 224:1 243:1 606:1 610:1 1207:1 2612:1 2798:1 2833:1 2850:1 
1417.812688150901 473:1 670:1 736:1 996:1 2027:1 2824:1 2865:1 2866:1 
942.7342785440837 66:1 84:1 380:1 725:1 2849:1 2869:1 2870:1 2871:1 
1487.815440662748 63:1 64:1 240:1 471:1 852:1 1504:1 2012:1 2798:1 
1103.888238445855 138:1 458:1 606:1 610:1 2833:1 2872:1 
294.5448215026519 2798:1 2876:1 
1309.807327413152 561:1 859:1 1904:1 2876:1 
140.2060261749928 107:1 202:1 293:1 311:1 557:1 674:1 2879:1 2880:1 2881:1 2882:1 2883:1 2884:1 
256.5442506083077 2797:1 
224.1335311078449 355:1 531:1 2886:1 
489.2422112211158 344:1 523:1 1904:1 2876:1 2887:1 
96.47816925799337 202:1 397:1 466:1 523:1 1904:1 2876:1 
74637.04404801237 51:1 464:1 
6892.180130152355 383:1 1560:1 
126.4494969193795 2893:1 
1014.385146189977 2888:1 
498.5953623249233 437:1 494:1 2894:1 
5477.340220707239 418:1 453:1 1823:1 
2117.951290987784 383:1 548:1 807:1 820:1 837:1 2098:1 2687:1 2897:1 
153.9706437654708 6:1 56:1 68:1 183:1 203:1 662:1 2687:1 2854:1 2898:1 
59.43742392091802 68:1 206:1 475:1 507:1 807:1 1073:1 1991:1 2687:1 2899:1 
10.28958296862491 13:1 99:1 176:1 297:1 1010:1 1113:1 1522:1 1820:1 2687:1 2707:1 2900:1 
2816.366398056264 19:1 22:1 23:1 2692:1 
220.7476941336943 218:1 1388:1 2628:1 2639:1 
164.0833405058432 264:1 1070:1 1596:1 2628:1 2630:1 2911:1 2912:1 2913:1 2914:1 2915:1 
49.96896420278911 63:1 64:1 84:1 590:1 1258:1 1937:1 2628:1 2916:1 2917:1 2918:1 2919:1 
633.9105148594086 58:1 176:1 280:1 549:1 589:1 2628:1 2772:1 2920:1 
236.4493922773626 465:1 469:1 970:1 1162:1 2630:1 2703:1 2738:1 2916:1 2921:1 
2611.370431212464 15:1 63:1 218:1 250:1 261:1 726:1 2628:1 2926:1 2927:1 2928:1 2929:1 
15.03262757352541 280:1 744:1 1087:1 2651:1 2912:1 2930:1 2931:1 2932:1 
408.1176191915467 252:1 437:1 1070:1 1750:1 1939:1 2919:1 2926:1 2935:1 2936:1 2937:1 
1281.002396873801 124:1 250:1 343:1 458:1 1381:1 2220:1 2630:1 2738:1 2938:1 2939:1 
1326.21297945088 15:1 64:1 593:1 725:1 1156:1 1174:1 2129:1 2940:1 2941:1 2942:1 
6153.061153521504 218:1 269:1 2628:1 
2317.349150952713 15:1 224:1 531:1 589:1 2028:1 2612:1 2631:1 2945:1 
674.2303126986991 394:1 538:1 541:1 725:1 1264:1 2906:1 2946:1 2947:1 2948:1 2949:1 
1403.030822101385 63:1 170:1 189:1 218:1 265:1 435:1 446:1 458:1 1381:1 2628:1 2926:1 2943:1 2950:1 
629.7063608508238 133:1 218:1 228:1 557:1 2378:1 2628:1 2951:1 
1595.913027035866 27:1 38:1 87:1 218:1 874:1 2628:1 2906:1 2923:1 2934:1 
21.60672949598735 186:1 823:1 
105.1412967963868 1119:1 2955:1 
19243.5946614485 2958:1 
44.57439551556027 56:1 108:1 112:1 710:1 2959:1 2960:1 2961:1 2962:1 2963:1 2964:1 2965:1 
5.05251073520397 27:1 153:1 183:1 509:1 710:1 1446:1 2968:1 2969:1 2970:1 
16.54021877407926 48:1 183:1 478:1 557:1 670:1 780:1 789:1 2808:1 2974:1 2975:1 
6.268874726935789 84:1 108:1 557:1 2967:1 2976:1 
79.91839852592716 90:1 169:1 224:1 1294:1 1346:1 1971:1 2237:1 2903:1 2967:1 2977:1 2978:1 2979:1 
2905.473524354923 56:1 640:1 736:1 1375:1 1930:1 2903:1 2978:1 2980:1 2981:1 2982:1 2983:1 
188.071860275102 121:1 280:1 589:1 1522:1 2967:1 2985:1 2986:1 
1419.420152510341 458:1 1143:1 1210:1 1358:1 2967:1 2978:1 2987:1 
949.2418684905332 271:1 593:1 610:1 1156:1 2634:1 2823:1 2967:1 2978:1 
10.19414577785519 241:1 327:1 458:1 610:1 744:1 2903:1 2967:1 2997:1 2998:1 2999:1 
66.13120975124582 573:1 610:1 1211:1 1522:1 1941:1 2816:1 2911:1 2967:1 3001:1 3002:1 3003:1 3004:1 3005:1 
55.21267269324816 121:1 175:1 216:1 393:1 589:1 711:1 972:1 2967:1 3006:1 
1353.157463285583 218:1 517:1 557:1 2222:1 3008:1 
348.043862682873 57:1 176:1 334:1 588:1 1979:1 2967:1 2981:1 3009:1 
1360.151089753307 57:1 271:1 477:1 588:1 736:1 1722:1 2816:1 2967:1 3000:1 3010:1 
8.145241951019736 57:1 271:1 444:1 465:1 606:1 610:1 2149:1 2903:1 3011:1 
498.8995557593539 59:1 63:1 783:1 2612:1 2828:1 3018:1 3019:1 
160.4213340710889 138:1 242:1 593:1 1000:1 1143:1 1811:1 2967:1 2996:1 3023:1 
3013.547323309534 620:1 621:1 2967:1 
272.6793179389103 176:1 239:1 2967:1 
30.76424554695082 11:1 1435:1 3034:1 3035:1 3036:1 
3251.319289328257 416:1 736:1 1055:1 1546:1 3038:1 3040:1 3041:1 3042:1 
25.31568712634746 175:1 176:1 720:1 857:1 956:1 3038:1 3050:1 3051:1 
28.60341293100645 176:1 280:1 720:1 2197:1 2395:1 2640:1 2940:1 3038:1 3052:1 3053:1 
99.4213914398813 176:1 216:1 223:1 252:1 417:1 891:1 2396:1 3038:1 3054:1 3055:1 3056:1 
1267.302496355506 176:1 223:1 720:1 736:1 1032:1 3038:1 3057:1 3058:1 3059:1 3060:1 
76.72232396782692 224:1 451:1 645:1 727:1 1592:1 1941:1 3038:1 3047:1 
9.283474645007965 170:1 457:1 758:1 2395:1 2812:1 3047:1 3059:1 3061:1 3062:1 3063:1 
793.4808930828581 120:1 175:1 216:1 1054:1 2612:1 2859:1 3039:1 3064:1 3070:1 
80.67902308190197 10:1 121:1 280:1 720:1 857:1 884:1 1174:1 1584:1 2197:1 2656:1 
1236.291288315374 213:1 214:1 1070:1 2294:1 2395:1 3071:1 
433.7488744772561 123:1 183:1 908:1 3084:1 3085:1 3086:1 3087:1 
46681.94485602144 108:1 
296.6581014064419 38:1 778:1 3089:1 
83.69949726306609 121:1 317:1 669:1 989:1 1579:1 2687:1 2730:1 3091:1 
2991.911994366892 84:1 206:1 479:1 621:1 
305.703832932749 620:1 621:1 3094:1 
44326.10439227254 135:1 
30.16005178696726 451:1 573:1 606:1 611:1 1131:1 3096:1 3097:1 
445.4307321969968 161:1 589:1 590:1 1073:1 1131:1 3098:1 
782.5064171055845 457:1 
6.133995449233236 437:1 1131:1 1932:1 2816:1 2833:1 3102:1 
2988.105053776986 562:1 589:1 1131:1 1545:1 3104:1 
12.54127795122772 302:1 465:1 466:1 606:1 970:1 974:1 1231:1 1381:1 3114:1 
119.1351847404636 71:1 320:1 589:1 1131:1 1142:1 3025:1 
89.12512931633592 138:1 224:1 241:1 458:1 593:1 606:1 975:1 1131:1 1206:1 2539:1 2719:1 3121:1 3122:1 
651.1420449650889 264:1 308:1 500:1 606:1 1090:1 2531:1 2580:1 2619:1 2719:1 3123:1 3124:1 
6999.332708592816 119:1 121:1 214:1 588:1 589:1 879:1 1131:1 2248:1 3125:1 
1926.556792775391 56:1 271:1 303:1 588:1 624:1 1131:1 1229:1 1683:1 3043:1 3058:1 3126:1 
209.8281338283812 71:1 1131:1 3127:1 
2667.296488168817 68:1 1624:1 3129:1 
194.4004479742442 19:1 71:1 1131:1 
480.2017712121443 12:1 2612:1 3130:1 3131:1 3132:1 3133:1 
5828.393403678472 35:1 1447:1 
161.0234885890789 356:1 2098:1 3134:1 
486.0815856117373 133:1 2098:1 2124:1 2378:1 3135:1 3136:1 
164.0630617874297 239:1 1131:1 
187.235358685481 27:1 45:1 680:1 3137:1 
347.4275061087599 94:1 2628:1 3138:1 3146:1 
2051.267376405219 215:1 604:1 736:1 1588:1 2612:1 2655:1 2925:1 3153:1 3154:1 3155:1 
1233.850589907981 57:1 137:1 223:1 224:1 1211:1 2628:1 3138:1 3156:1 3157:1 3158:1 3159:1 
50.29700406425017 57:1 63:1 974:1 2275:1 2630:1 2651:1 3152:1 3161:1 
168.694168265117 64:1 170:1 874:1 1087:1 2630:1 2768:1 2917:1 2918:1 3162:1 
33.33128789800288 34:1 313:1 1233:1 
8257.813917209196 49:1 63:1 341:1 633:1 2997:1 
1509.99288906464 203:1 609:1 657:1 961:1 1091:1 2687:1 2788:1 3168:1 
78.62608420939748 48:1 275:1 401:1 529:1 761:1 2687:1 2788:1 
14.50056034440825 13:1 280:1 285:1 499:1 1073:1 2205:1 2687:1 3169:1 
511.0588163875273 51:1 680:1 3137:1 3171:1 
286.1903883643984 94:1 176:1 1007:1 1084:1 1282:1 2628:1 2640:1 3138:1 
99.98743931696079 97:1 258:1 790:1 2243:1 3172:1 3173:1 3174:1 
367.7738445273417 273:1 274:1 2027:1 
46.95701243781132 63:1 137:1 181:1 525:1 3169:1 3175:1 
21.43043332035854 557:1 685:1 898:1 1844:1 1845:1 1846:1 3176:1 3177:1 3178:1 
4337.892458315114 691:1 
2140.034746454795 397:1 839:1 
115.0613130114443 234:1 3182:1 
4539.421973384209 341:1 343:1 555:1 837:1 2246:1 2321:1 2687:1 2900:1 2997:1 
127.5887738386595 38:1 56:1 68:1 837:1 1010:1 1991:1 2246:1 2687:1 3186:1 3191:1 
101.4714686509475 13:1 125:1 638:1 3186:1 3192:1 
357.5536528633805 686:1 3186:1 
177.7096734875209 469:1 471:1 509:1 726:1 1446:1 2709:1 3186:1 
8.763101457585948 206:1 589:1 2612:1 3186:1 3193:1 3194:1 
24.04355537774556 557:1 1037:1 1143:1 2696:1 3186:1 
23098.87667080689 119:1 525:1 3186:1 3201:1 3202:1 3203:1 3204:1 
319.0007214805246 267:1 529:1 589:1 1820:1 2707:1 3186:1 3208:1 3209:1 
477.3141329580326 463:1 525:1 593:1 606:1 1592:1 2149:1 2206:1 3210:1 
66.61927674985392 59:1 394:1 638:1 1966:1 3186:1 3212:1 3213:1 
3182.397358108144 27:1 63:1 66:1 84:1 241:1 472:1 604:1 692:1 2388:1 2902:1 3186:1 
32.41679159911287 63:1 243:1 458:1 593:1 606:1 625:1 979:1 1207:1 2512:1 2722:1 3216:1 3217:1 
116.5409001413453 525:1 726:1 1055:1 1159:1 3206:1 3219:1 3220:1 3221:1 
1119.07424852533 736:1 
79.12732802915785 736:1 744:1 1159:1 2541:1 3227:1 3228:1 3229:1 
84.43204597440888 61:1 198:1 320:1 1478:1 2727:1 
2875.664056105671 3236:1 
5.563893566819629 6:1 99:1 183:1 986:1 996:1 2900:1 3093:1 3186:1 3242:1 3243:1 
61.66538653354984 176:1 239:1 3186:1 
1711.050897162448 56:1 1133:1 2248:1 3186:1 
174.2482809811332 72:1 3187:1 
662.5696139708351 184:1 778:1 2620:1 3246:1 
280.4716634794145 369:1 674:1 937:1 990:1 2687:1 2904:1 3250:1 3251:1 
154.2418539268328 68:1 285:1 294:1 310:1 2687:1 3190:1 
2336.175859270289 25:1 475:1 480:1 643:1 1117:1 1253:1 3215:1 
1833.629478825888 230:1 355:1 560:1 3258:1 3259:1 3260:1 
286.1651267272072 6:1 68:1 640:1 672:1 822:1 900:1 2238:1 3261:1 3262:1 3263:1 
656.8484626735125 372:1 480:1 1904:1 2104:1 3087:1 
3376.559722322136 104:1 117:1 977:1 
356.2937988702386 51:1 680:1 3264:1 3265:1 
533.1109715875568 2576:1 3101:1 3270:1 
680.1043009083934 1179:1 3271:1 
180.2229157943579 1179:1 3272:1 
441.4700797988443 57:1 588:1 1099:1 2276:1 
244.1777994396551 176:1 531:1 720:1 
95.74236545923532 2640:1 3267:1 
87.19589003057052 124:1 222:1 343:1 588:1 995:1 3267:1 3273:1 
31.16907894222678 216:1 610:1 1973:1 2284:1 3267:1 3276:1 3277:1 3278:1 
179.1483741842808 132:1 222:1 589:1 990:1 2265:1 3267:1 3281:1 
4137.13065338157 609:1 2164:1 2719:1 3267:1 3286:1 
19.1026578892388 223:1 437:1 573:1 890:1 1075:1 1393:1 2843:1 3267:1 3273:1 3287:1 
1318.040076030729 121:1 176:1 264:1 555:1 588:1 589:1 2612:1 2745:1 3288:1 3289:1 
623.9802027841868 57:1 458:1 573:1 610:1 990:1 1143:1 1228:1 1811:1 3072:1 3292:1 
155.9445122777071 54:1 57:1 458:1 529:1 736:1 1159:1 1588:1 2265:1 2745:1 3267:1 
100.7536022440794 370:1 458:1 490:1 1073:1 1511:1 2719:1 2982:1 2997:1 3295:1 
132.9700973788819 678:1 736:1 1063:1 3296:1 
10.47149602910143 252:1 610:1 2164:1 2265:1 3167:1 3267:1 3274:1 3297:1 
45.12674086530117 124:1 343:1 555:1 588:1 1933:1 2911:1 3267:1 3299:1 
3.320983443431268 390:1 880:1 1587:1 2265:1 2711:1 3267:1 3301:1 3302:1 
1324.943606207031 57:1 1383:1 1941:1 2805:1 2997:1 3267:1 3303:1 3304:1 
322.9641108812581 84:1 124:1 343:1 588:1 1058:1 1158:1 1820:1 2265:1 2707:1 3305:1 
183.4609241893852 343:1 589:1 2239:1 3267:1 3311:1 3312:1 
73.22081831388132 55:1 107:1 184:1 609:1 657:1 1178:1 1332:1 1458:1 3313:1 3314:1 
96.80956510648133 3025:1 3318:1 
127.8353135402915 137:1 161:1 1424:1 3322:1 
16982.83340098494 25:1 64:1 555:1 623:1 
12.99064271448365 13:1 25:1 90:1 555:1 1012:1 3329:1 
88.13631847071642 84:1 181:1 606:1 669:1 1010:1 2246:1 2619:1 2687:1 3330:1 
5.724551443725583 295:1 673:1 674:1 983:1 2035:1 2687:1 
227.6325579381786 44:1 988:1 1010:1 1113:1 1226:1 2724:1 2802:1 2834:1 2874:1 3331:1 
63.69856586927601 1181:1 2908:1 2909:1 
1374.274183281242 104:1 526:1 689:1 1310:1 2120:1 3241:1 3335:1 
418.8779188457272 27:1 153:1 206:1 475:1 1165:1 1174:1 1388:1 2395:1 2628:1 2639:1 2795:1 3336:1 
43.00442263170611 63:1 122:1 727:1 2216:1 2642:1 2654:1 2728:1 2754:1 3112:1 
600.4260121955662 10:1 85:1 228:1 517:1 1584:1 2395:1 2628:1 2635:1 2875:1 3341:1 
922.1410792815282 343:1 345:1 800:1 2395:1 2628:1 2860:1 
91.15168363581256 10:1 284:1 761:1 1119:1 1174:1 1584:1 2395:1 
457.4266898590924 38:1 232:1 657:1 2687:1 3353:1 3354:1 
149.638201566418 57:1 573:1 593:1 645:1 979:1 1159:1 1679:1 2268:1 3352:1 3364:1 3365:1 
57.14616464615194 223:1 736:1 1868:1 2719:1 3352:1 3358:1 3367:1 
5.170098063076241 37:1 175:1 216:1 549:1 725:1 783:1 1469:1 
177.5667312200355 66:1 264:1 670:1 1070:1 2668:1 2742:1 2823:1 2942:1 3352:1 3378:1 3379:1 
616.8975285234542 57:1 225:1 458:1 670:1 826:1 2933:1 3019:1 3352:1 3363:1 3366:1 3392:1 
151.6607461865614 15:1 258:1 1381:1 2742:1 3368:1 3370:1 3380:1 3393:1 3394:1 
499.0661674349878 3101:1 3397:1 
273.5572460215648 13:1 183:1 357:1 754:1 1047:1 1048:1 
12134.57782297293 285:1 1244:1 1773:1 
96.52001014255542 1047:1 1048:1 1388:1 2671:1 3038:1 
13.01030057376038 305:1 332:1 600:1 1137:1 2572:1 2595:1 2665:1 3401:1 3402:1 
2854.687956586549 37:1 323:1 3407:1 
13304.52905797521 25:1 122:1 
527.2654917600829 3408:1 
233.5928309916941 94:1 169:1 633:1 1505:1 1522:1 1974:1 2521:1 3409:1 3410:1 
1013.538834368675 1401:1 1431:1 1705:1 2620:1 2649:1 2687:1 3411:1 3412:1 3413:1 3414:1 
3324.72413664039 970:1 3417:1 3418:1 
311.3246109832044 1827:1 
128.1301063854186 13:1 107:1 176:1 1039:1 1133:1 1409:1 1440:1 3425:1 
2945.444419102802 203:1 334:1 1418:1 2687:1 2692:1 3382:1 
1037.146459448062 224:1 264:1 333:1 437:1 988:1 1974:1 2843:1 2903:1 2942:1 3426:1 
6.320010676620647 84:1 124:1 198:1 343:1 593:1 990:1 1642:1 2841:1 3427:1 
47.15280150953906 146:1 147:1 306:1 357:1 469:1 1213:1 1229:1 2035:1 2722:1 2814:1 2865:1 3341:1 
270.0521852072218 34:1 57:1 190:1 306:1 458:1 744:1 2291:1 3290:1 3431:1 
9243.594493526565 645:1 2512:1 
7164.829075133431 340:1 2653:1 
1306.426571900557 121:1 200:1 222:1 224:1 593:1 988:1 1156:1 2220:1 
1738.22592906183 224:1 606:1 906:1 907:1 988:1 1814:1 2612:1 3438:1 
25.94044629858266 175:1 285:1 589:1 979:1 1414:1 
37.38912753136006 34:1 107:1 125:1 346:1 348:1 557:1 904:1 1195:1 2904:1 3449:1 3450:1 
881.4234092796256 55:1 107:1 138:1 609:1 657:1 1006:1 1007:1 1332:1 1458:1 3313:1 3314:1 
19809.7144648054 3451:1 
1996.597477092089 189:1 678:1 725:1 874:1 1055:1 2628:1 2754:1 2822:1 2937:1 3460:1 
636.4205529956786 2628:1 3045:1 3453:1 
234.3845700278514 719:1 725:1 1264:1 2031:1 2453:1 2896:1 3344:1 3465:1 3466:1 
16.8977682714518 119:1 175:1 216:1 217:1 278:1 1082:1 1364:1 2628:1 3459:1 3467:1 3468:1 3469:1 
79.98896359330597 589:1 1253:1 2628:1 3215:1 3453:1 3470:1 
195.7969209438139 561:1 649:1 667:1 2931:1 3471:1 3472:1 3473:1 3474:1 3475:1 
20.23412495759501 64:1 1108:1 1150:1 1357:1 1885:1 2580:1 2655:1 3476:1 3477:1 3478:1 3479:1 
930.0800218732569 175:1 857:1 986:1 1287:1 1727:1 2216:1 2631:1 2650:1 2651:1 2665:1 3117:1 
69.96504123479552 250:1 267:1 589:1 1425:1 2612:1 2642:1 2659:1 2676:1 3484:1 
1363.232244907221 107:1 184:1 613:1 670:1 1421:1 1703:1 2197:1 2628:1 
43.6644532312946 107:1 343:1 589:1 800:1 874:1 1253:1 2628:1 3215:1 3485:1 
426.9380118225423 16:1 34:1 63:1 585:1 641:1 3486:1 
1668.340000922365 25:1 224:1 280:1 1085:1 2205:1 2687:1 3488:1 
7.508052246794048 13:1 25:1 34:1 499:1 1790:1 2687:1 3169:1 
92.34860399631899 181:1 183:1 401:1 1853:1 2395:1 3490:1 3491:1 3492:1 
1599.475076981397 121:1 1234:1 2984:1 
1093.179401354985 125:1 348:1 1023:1 
116.8108238484192 116:1 925:1 1409:1 1474:1 3493:1 
56.23875525487382 3179:1 
239.1908820581153 1437:1 
458.384004993451 34:1 557:1 1208:1 2222:1 
7883.044914588495 495:1 680:1 997:1 
1253.44010465903 183:1 1665:1 3241:1 3495:1 
422.2547314135963 2345:1 2687:1 3496:1 3497:1 3498:1 3499:1 3500:1 3501:1 3502:1 3503:1 
337.5203148014147 68:1 397:1 555:1 662:1 1138:1 2687:1 3335:1 3503:1 3504:1 
25.1523145427368 884:1 1195:1 2307:1 3503:1 3506:1 
204.8928966078056 47:1 184:1 778:1 1006:1 1007:1 3335:1 3507:1 
923.629655695203 1481:1 2203:1 
2739.02663448404 512:1 540:1 710:1 1006:1 1087:1 2653:1 
188.1888303224308 13:1 57:1 137:1 189:1 241:1 604:1 610:1 875:1 1003:1 2265:1 2719:1 
24.76842626883818 64:1 161:1 241:1 557:1 975:1 1159:1 1606:1 3143:1 3364:1 
97.06525428343504 153:1 533:1 1128:1 3503:1 
2262.087989467464 225:1 264:1 472:1 557:1 1143:1 3399:1 3514:1 
503.7278226625016 367:1 539:1 593:1 1504:1 1813:1 
31.32852833030054 390:1 1503:1 2142:1 2612:1 2719:1 3528:1 3529:1 3530:1 
20.25807866387772 334:1 555:1 2274:1 2424:1 2816:1 2856:1 3139:1 
101.939635712512 176:1 469:1 670:1 678:1 1169:1 1820:1 2707:1 3503:1 
618.1462937576721 79:1 3503:1 
29.31318828812292 3503:1 3526:1 
1307.614490403135 19:1 2307:1 3506:1 
15.18538121827248 27:1 63:1 215:1 375:1 441:1 1227:1 1388:1 2628:1 2671:1 2748:1 2749:1 2944:1 3537:1 
367.5407476685074 16:1 63:1 555:1 585:1 2206:1 2791:1 3321:1 3538:1 
249.4662743770023 63:1 555:1 2791:1 3320:1 3321:1 
1010.988301430023 3539:1 
7899.295501012656 385:1 
6492.472901203516 312:1 578:1 3494:1 
14214.72591633179 355:1 531:1 
513.2278029383585 68:1 294:1 925:1 1232:1 1773:1 2687:1 2803:1 3545:1 
60.31294112415657 13:1 33:1 42:1 689:1 1288:1 1863:1 2687:1 3547:1 3548:1 3549:1 
92.72550506950644 181:1 922:1 2064:1 2687:1 3170:1 
6.055957287277278 276:1 800:1 2687:1 2692:1 2867:1 3170:1 
71636.41231204316 50:1 65:1 
1143.154558268824 6:1 1119:1 1471:1 2620:1 
42860.67858747187 50:1 341:1 409:1 
505.1468243880713 3556:1 3557:1 3558:1 3559:1 3560:1 
1575.289203280316 13:1 56:1 71:1 1409:1 3561:1 
29.80050697457717 38:1 57:1 280:1 416:1 678:1 1195:1 1991:1 2612:1 3558:1 3562:1 3563:1 3564:1 3565:1 3566:1 
1.103830821226617 236:1 295:1 624:1 1055:1 2398:1 2687:1 3571:1 3572:1 
389.3636929169539 11:1 12:1 19:1 22:1 23:1 231:1 712:1 1131:1 2687:1 2692:1 
697.9056963028168 61:1 475:1 1131:1 1141:1 1142:1 2941:1 
609.6318511826395 34:1 63:1 243:1 264:1 300:1 458:1 589:1 593:1 894:1 1131:1 1157:1 1592:1 3575:1 
443.6762310582768 63:1 181:1 989:1 1131:1 1736:1 1904:1 
1526.324387010155 45:1 71:1 120:1 589:1 970:1 1131:1 1258:1 3098:1 3577:1 
4848.954728658304 176:1 341:1 529:1 557:1 906:1 907:1 977:1 1131:1 1159:1 2997:1 
276.4055270029208 299:1 606:1 1058:1 1059:1 1070:1 2608:1 2653:1 3584:1 3585:1 
132.545870781184 34:1 63:1 102:1 121:1 124:1 223:1 434:1 471:1 589:1 593:1 624:1 874:1 1131:1 2991:1 
48.39328956342796 736:1 1131:1 
541.0156142462384 27:1 34:1 224:1 471:1 472:1 473:1 1131:1 2221:1 2676:1 2823:1 3589:1 
85.55497826656187 301:1 606:1 1131:1 1456:1 3590:1 
147.7040078531228 175:1 589:1 979:1 986:1 1131:1 1143:1 1727:1 2716:1 
2849.526843173643 121:1 589:1 905:1 988:1 1131:1 2164:1 3105:1 
302.5243233074521 170:1 260:1 606:1 988:1 2722:1 3430:1 3592:1 3593:1 
103.8452898606787 121:1 593:1 602:1 624:1 913:1 988:1 1131:1 2677:1 2858:1 3064:1 3594:1 
5494.39659278418 34:1 38:1 479:1 772:1 988:1 1324:1 1428:1 2035:1 2922:1 
5645.129147529864 27:1 34:1 250:1 267:1 308:1 593:1 3595:1 3596:1 
1141.629194340728 243:1 252:1 726:1 970:1 988:1 1159:1 1248:1 1264:1 3364:1 
9260.821666215228 261:1 557:1 593:1 624:1 875:1 988:1 1131:1 
729.8625013012725 437:1 589:1 645:1 1131:1 1159:1 1571:1 2851:1 3227:1 
6.542721333661651 46:1 320:1 589:1 1131:1 3603:1 
14014.71653003564 858:1 
791.9077724618448 1849:1 3606:1 
3231.23774156422 228:1 394:1 1131:1 3610:1 
49.26538830893324 1131:1 1173:1 2732:1 
26.54115089161007 169:1 176:1 234:1 252:1 641:1 1131:1 3612:1 
319.2314620966834 7:1 34:1 2346:1 
737.9343101891278 183:1 2923:1 2934:1 3342:1 3613:1 3614:1 3615:1 
1152.774420424567 107:1 623:1 1131:1 1203:1 
2093.327825105803 1255:1 
8747.710328975558 53:1 153:1 417:1 726:1 1055:1 
380.0166140905176 25:1 71:1 310:1 524:1 1032:1 3241:1 
118.0986684969686 68:1 457:1 535:1 704:1 2248:1 3623:1 
17.60987467890933 18:1 68:1 175:1 181:1 216:1 837:1 1131:1 3625:1 
3648.615407101157 34:1 64:1 270:1 623:1 
1841.776802343695 14:1 56:1 79:1 84:1 203:1 663:1 1268:1 2687:1 
299.5436636163744 63:1 169:1 223:1 239:1 341:1 422:1 480:1 2997:1 3644:1 3645:1 3646:1 
1173.869923402509 217:1 589:1 1159:1 1450:1 2722:1 2785:1 3364:1 3655:1 3656:1 
38.01451864805784 122:1 1159:1 3227:1 3639:1 3657:1 
14.01416360592443 56:1 57:1 64:1 147:1 241:1 593:1 610:1 2853:1 2997:1 3659:1 3660:1 
253.0410103553102 63:1 79:1 452:1 593:1 612:1 1472:1 2141:1 3663:1 3664:1 
1094.789056584655 64:1 161:1 435:1 2722:1 2922:1 3381:1 3668:1 3669:1 
90.96913294753131 146:1 198:1 252:1 477:1 610:1 1211:1 2719:1 3672:1 3673:1 
73.69031963044343 147:1 369:1 593:1 1215:1 2042:1 2372:1 2724:1 2865:1 3661:1 3674:1 
1222.356735461607 341:1 2997:1 3639:1 
24.14148803239597 63:1 341:1 557:1 593:1 703:1 812:1 1571:1 2220:1 2997:1 
3791.702232521876 55:1 1106:1 2620:1 
6.171278208040579 22:1 23:1 183:1 231:1 860:1 1614:1 2692:1 
957.8743624322019 295:1 695:1 1010:1 2687:1 2952:1 2953:1 3415:1 3685:1 
6361.286865299969 61:1 181:1 285:1 591:1 1281:1 2021:1 2687:1 
17831.80273477086 18:1 68:1 180:1 1085:1 2069:1 
6944.133508069082 19:1 22:1 23:1 25:1 284:1 480:1 535:1 621:1 1472:1 2620:1 
9170.387994877519 51:1 60:1 79:1 274:1 332:1 641:1 1736:1 
224.8011814989927 258:1 719:1 1397:1 1852:1 
1516.138996284815 56:1 3691:1 
971.3596164462105 3249:1 3694:1 3695:1 3696:1 
11.94879885432347 223:1 525:1 573:1 1378:1 2850:1 2942:1 3690:1 3707:1 
156.2386529302262 13:1 59:1 153:1 458:1 589:1 990:1 2388:1 2612:1 2683:1 2896:1 
1320.752816603662 181:1 279:1 464:1 3690:1 
9.656894133189489 224:1 241:1 593:1 604:1 606:1 1159:1 2541:1 2612:1 2815:1 2853:1 3690:1 3710:1 
1843.96822170748 64:1 84:1 593:1 606:1 975:1 988:1 1258:1 1642:1 3716:1 
1696.176638703332 175:1 198:1 223:1 857:1 979:1 1007:1 1064:1 1287:1 2656:1 3717:1 
9281.259308727147 271:1 374:1 437:1 988:1 1159:1 3374:1 3718:1 3719:1 
381.2748418498018 223:1 224:1 593:1 988:1 1504:1 1679:1 2816:1 2939:1 3720:1 
10.06091552355954 13:1 14:1 258:1 369:1 725:1 981:1 3203:1 3690:1 3725:1 3726:1 3727:1 
2005.563726280309 292:1 1475:1 
4.903547507492782 183:1 1006:1 1007:1 1397:1 3640:1 3690:1 
413.5071604325148 3559:1 3734:1 3738:1 
44.98860367457592 11:1 334:1 475:1 649:1 3739:1 
9785.294001683422 517:1 1576:1 
17.37927644635408 512:1 2653:1 3737:1 
167.7679724027037 176:1 264:1 589:1 2341:1 2939:1 3737:1 
26.29970907056284 63:1 218:1 224:1 416:1 457:1 1214:1 2816:1 3743:1 3744:1 
0.6501774683007401 63:1 218:1 340:1 458:1 589:1 1600:1 2612:1 3737:1 3746:1 3747:1 3748:1 
276.7099261347886 606:1 2248:1 3737:1 3752:1 
234.4118664785824 125:1 232:1 593:1 979:1 1346:1 3764:1 3765:1 
672.041474641056 275:1 620:1 621:1 1656:1 3737:1 
155.8307520885443 3770:1 
618.1282551768799 218:1 
25.13226906028299 3777:1 
6956.552002500575 689:1 1657:1 
6.80915130453133 83:1 133:1 206:1 317:1 757:1 3136:1 3778:1 
18.48623201198189 27:1 2493:1 
660.2280548933256 181:1 355:1 3779:1 
24839.79313290058 1430:1 
534.7455589821985 51:1 680:1 2893:1 3780:1 
1119.326913753177 995:1 3781:1 
433.747843268622 2634:1 2638:1 
1408.49991572663 16:1 422:1 614:1 2634:1 2989:1 3611:1 
3.212122037292887 1133:1 3184:1 3185:1 3785:1 
541.8876066982676 13:1 27:1 59:1 84:1 320:1 2164:1 2634:1 2687:1 2798:1 2989:1 3787:1 
6860.326959618516 622:1 1421:1 2798:1 
186.3792278812049 264:1 480:1 588:1 1070:1 2668:1 2798:1 2973:1 3792:1 
472.4592166285755 253:1 469:1 744:1 876:1 1143:1 2798:1 
21.42248570567192 343:1 606:1 990:1 995:1 1169:1 1207:1 1930:1 2530:1 2545:1 2823:1 
9722.908335469232 121:1 338:1 416:1 465:1 557:1 589:1 593:1 988:1 2164:1 2798:1 
767.8244081816754 48:1 496:1 917:1 1090:1 2164:1 2711:1 2798:1 3123:1 3167:1 
1249.84666731877 876:1 1143:1 2164:1 2798:1 3109:1 3671:1 
333.4230134590656 121:1 589:1 606:1 2612:1 2903:1 3108:1 3725:1 3801:1 
543.0965256157722 57:1 124:1 243:1 458:1 1525:1 2634:1 2798:1 3399:1 3798:1 
2190.902553295551 250:1 264:1 472:1 1001:1 1878:1 3016:1 3803:1 3804:1 
309.4260423957326 686:1 2798:1 
521.1032700153837 175:1 458:1 589:1 2388:1 2798:1 
4224.39135976482 500:1 589:1 876:1 988:1 1973:1 2798:1 3807:1 
757.1777460346353 243:1 267:1 573:1 905:1 1143:1 1524:1 2798:1 2903:1 3396:1 
181.4182753666222 57:1 63:1 593:1 604:1 1143:1 1157:1 1525:1 1592:1 2903:1 3792:1 3808:1 3809:1 
32.16274416364269 465:1 902:1 1143:1 1503:1 1649:1 2903:1 3442:1 
153.1037626174133 338:1 452:1 593:1 1503:1 1548:1 1590:1 1945:1 2634:1 3810:1 3811:1 
1946.583631727382 589:1 2798:1 3812:1 3813:1 3814:1 
18.64550618300086 1108:1 1966:1 
901.0820007306439 107:1 623:1 2798:1 
694.3487267584326 396:1 1820:1 3816:1 
3401.221889577574 79:1 123:1 
189.9424033962983 107:1 122:1 562:1 710:1 1447:1 
522.583675716514 167:1 288:1 900:1 2634:1 2989:1 
181.0974063882085 63:1 181:1 369:1 1204:1 3064:1 3065:1 3140:1 3820:1 3822:1 3823:1 
123.8870648471224 13:1 589:1 1735:1 2628:1 2743:1 2772:1 
1110.154264997818 119:1 184:1 521:1 1558:1 2628:1 2642:1 2748:1 2749:1 2767:1 3064:1 3065:1 3824:1 
146.8360478394576 1229:1 1656:1 2631:1 2754:1 2939:1 3825:1 
520.2892044144106 57:1 63:1 84:1 458:1 471:1 1452:1 1525:1 1937:1 2746:1 3827:1 3828:1 
390.0144731391334 27:1 97:1 589:1 670:1 806:1 2628:1 2630:1 2631:1 2686:1 3461:1 
33487.4068669766 280:1 2628:1 3833:1 
335.7649500968892 13:1 25:1 206:1 707:1 1010:1 1820:1 2656:1 2687:1 2707:1 
30.55470544540404 25:1 2153:1 2384:1 2687:1 3005:1 
9167.259814361458 521:1 
34.00381056914119 282:1 288:1 1585:1 1642:1 3837:1 
26.08248859395414 3838:1 
297.1372159513639 3839:1 
242.2287064125328 25:1 531:1 1332:1 
387.8613769061008 68:1 374:1 638:1 2153:1 2687:1 3840:1 
34.53621445802196 13:1 27:1 53:1 390:1 590:1 1792:1 2959:1 3842:1 3843:1 3844:1 3845:1 
22.39732733659676 989:1 1101:1 1143:1 1226:1 2421:1 2687:1 3846:1 3847:1 
42.27199161709904 225:1 250:1 273:1 444:1 593:1 2612:1 3110:1 3841:1 3858:1 3859:1 3860:1 
543.2334956371275 989:1 1250:1 1383:1 1639:1 1941:1 2762:1 3841:1 3860:1 
391.0306038855416 458:1 996:1 1648:1 1651:1 2762:1 2818:1 3841:1 3853:1 
4.51898361646037 56:1 206:1 590:1 744:1 1060:1 1524:1 2719:1 2980:1 3867:1 
92.21266840668649 189:1 606:1 1854:1 2164:1 3105:1 3719:1 3841:1 3864:1 3868:1 
82.78279521118048 223:1 227:1 587:1 610:1 1383:1 2393:1 2823:1 3067:1 3841:1 3869:1 
575.1274308281857 19:1 229:1 343:1 3841:1 3878:1 
388.2189890928524 2295:1 3879:1 
601.9076665843565 269:1 1576:1 3038:1 3059:1 3403:1 3880:1 3882:1 3883:1 3884:1 
3695.787068739293 15:1 473:1 898:1 1157:1 2042:1 2393:1 2939:1 
91.32663584212276 13:1 84:1 162:1 541:1 589:1 2676:1 3880:1 3892:1 
462.4653141462579 228:1 337:1 2612:1 2743:1 3007:1 3038:1 3166:1 3898:1 
3646.165304251762 323:1 2218:1 
258.0272756848401 480:1 719:1 742:1 
4.576725375689459 43:1 557:1 819:1 1337:1 1560:1 1665:1 3905:1 3906:1 
55.89840328164448 1282:1 3908:1 3909:1 3910:1 
340.694193177216 49:1 557:1 899:1 2078:1 3325:1 
296.7627442760133 51:1 1619:1 
174.660746953327 463:1 793:1 1700:1 2687:1 3498:1 3783:1 3919:1 
203.8719554065721 63:1 509:1 1305:1 1377:1 1446:1 1539:1 2687:1 3920:1 
3717.341016060359 273:1 274:1 
605.1873264869217 223:1 573:1 979:1 1803:1 2634:1 2989:1 3305:1 3926:1 
237.3228339246661 181:1 216:1 217:1 341:1 401:1 557:1 2216:1 2722:1 2778:1 2997:1 3912:1 
5.333076359307973 280:1 347:1 606:1 640:1 3641:1 3928:1 
30.05993882179308 222:1 665:1 744:1 996:1 3912:1 3932:1 3933:1 
122.2898285273957 3912:1 3934:1 
14.45936903522213 217:1 1198:1 3470:1 3658:1 3912:1 3937:1 3938:1 3939:1 
98.30465772937063 241:1 606:1 812:1 2169:1 2982:1 3912:1 3937:1 3946:1 3947:1 
108.6704395183679 3912:1 3948:1 3949:1 
6557.158810840337 1023:1 1629:1 3912:1 
1417.65774326853 453:1 1038:1 1747:1 3912:1 
8.708749695680414 13:1 107:1 680:1 2419:1 3130:1 3955:1 
1849.848628544197 674:1 857:1 1291:1 3395:1 3487:1 3655:1 
1662.53637973966 3956:1 
1048.641381783337 72:1 338:1 515:1 
4144.968089515307 25:1 275:1 
112.7899240924521 484:1 1624:1 3957:1 
768.6911386918955 12:1 13:1 25:1 524:1 726:1 1174:1 1291:1 2693:1 3958:1 3959:1 
260.8725011045104 317:1 529:1 1177:1 1478:1 1809:1 3960:1 
2807.577667793117 53:1 1792:1 2081:1 3130:1 
922.0765964668834 121:1 593:1 610:1 812:1 979:1 988:1 1685:1 
380.6643359437518 175:1 216:1 556:1 593:1 2612:1 3976:1 3977:1 
22.24247913487053 369:1 436:1 670:1 990:1 1063:1 1143:1 1205:1 2807:1 2942:1 
9.231472477335409 56:1 469:1 1229:1 1591:1 2676:1 3002:1 3008:1 3962:1 
1626.578902267621 38:1 138:1 334:1 361:1 556:1 1727:1 
89.23334146198182 334:1 998:1 1322:1 2676:1 3990:1 
491.0799576013466 20:1 440:1 556:1 1347:1 1459:1 3962:1 3964:1 3991:1 3992:1 3993:1 
29.32562161942906 38:1 556:1 1589:1 1591:1 2692:1 3962:1 3965:1 3967:1 3971:1 3973:1 3975:1 3987:1 3988:1 3994:1 
170.8131896146975 453:1 556:1 3995:1 3996:1 
1426.225977649954 3997:1 
126.1759864592262 198:1 368:1 557:1 1168:1 1169:1 3998:1 
1832.645232055517 153:1 422:1 556:1 990:1 1117:1 2157:1 2791:1 3799:1 
5278.678107638222 556:1 
167.448799650203 556:1 935:1 1054:1 3408:1 
60.29976917067777 34:1 1283:1 1495:1 4000:1 
187.3000454589616 48:1 150:1 156:1 2687:1 2722:1 2971:1 3593:1 4002:1 4003:1 
452.0670040061981 13:1 48:1 925:1 1244:1 2173:1 2687:1 3447:1 4004:1 4005:1 
202.7226871017486 27:1 68:1 556:1 678:1 704:1 2146:1 2687:1 3119:1 3169:1 
393.7264633528736 341:1 350:1 1113:1 1820:1 2321:1 2687:1 2707:1 2997:1 3700:1 
146.106741878119 63:1 69:1 218:1 1195:1 2612:1 2791:1 3321:1 3907:1 
441.0800443509261 95:1 898:1 4008:1 
5435.902259292535 51:1 515:1 680:1 3037:1 
1901.988727552264 1711:1 4009:1 4010:1 
320.6262366152943 183:1 557:1 761:1 1340:1 1397:1 4011:1 4012:1 
843.7006001631615 3090:1 4015:1 
1514.070097780648 4016:1 
8.434708305946419 104:1 273:1 1282:1 2628:1 
1602.161166816154 120:1 121:1 857:1 2612:1 4021:1 4022:1 
197.4605712351704 61:1 108:1 176:1 1162:1 2149:1 2903:1 2909:1 3653:1 4023:1 
19.04396553559022 122:1 124:1 343:1 446:1 477:1 1811:1 2024:1 2858:1 3244:1 4024:1 4025:1 
775.780991057702 190:1 225:1 725:1 1041:1 1168:1 1169:1 2041:1 2646:1 2647:1 3167:1 3881:1 4027:1 
212.6143569484241 1600:1 1685:1 2173:1 2268:1 2612:1 2659:1 2738:1 2903:1 3099:1 4030:1 
1173.790807688384 15:1 213:1 214:1 469:1 744:1 1213:1 1229:1 2269:1 2628:1 2672:1 2921:1 4029:1 
921.1326596748564 215:1 472:1 645:1 1003:1 1073:1 1095:1 2612:1 3522:1 4028:1 4031:1 
30.70140175201109 57:1 63:1 458:1 900:1 2646:1 2647:1 2950:1 3144:1 4032:1 
685.9390392590418 538:1 1502:1 2244:1 2628:1 2659:1 2738:1 3395:1 3897:1 
402.690221523163 27:1 87:1 122:1 678:1 1282:1 2628:1 4021:1 4022:1 
1781.917843034468 25:1 529:1 3234:1 
6.249724506895797 18:1 344:1 569:1 686:1 1159:1 1624:1 3227:1 
141.9565318612333 446:1 3620:1 4036:1 4039:1 4040:1 
29.51485979156148 1642:1 2612:1 2656:1 4036:1 4042:1 
81.97007455098826 4036:1 4043:1 4044:1 
95.39861077276295 121:1 589:1 2216:1 3631:1 4036:1 4040:1 4045:1 
4.836638934385467 59:1 151:1 332:1 333:1 418:1 728:1 1545:1 4036:1 
187.1321792595243 48:1 116:1 529:1 557:1 2612:1 2719:1 3495:1 3580:1 4036:1 
155.4728223932501 610:1 979:1 1161:1 1652:1 4048:1 4049:1 
191.4640779997463 121:1 589:1 1159:1 4036:1 
14.15559866478804 223:1 264:1 265:1 267:1 1135:1 1467:1 4036:1 4050:1 4053:1 
367.1425315781969 57:1 223:1 417:1 437:1 1678:1 1683:1 1885:1 3516:1 4054:1 4055:1 4056:1 
381.2123384494178 121:1 416:1 466:1 589:1 1143:1 2164:1 4036:1 4046:1 
107.6132284093561 264:1 573:1 606:1 988:1 2939:1 4057:1 4058:1 
969.094975089658 264:1 374:1 608:1 736:1 982:1 1143:1 1511:1 3058:1 4036:1 4047:1 
149.3089524663147 250:1 606:1 654:1 783:1 1169:1 1381:1 2153:1 3107:1 3290:1 4036:1 
416.9727531054148 121:1 589:1 889:1 4036:1 
16.5598441971615 243:1 509:1 573:1 593:1 606:1 1157:1 1159:1 1940:1 2396:1 2524:1 3092:1 
271.4310292930893 4036:1 4060:1 
26.46538189505208 57:1 241:1 261:1 826:1 990:1 1003:1 2277:1 4061:1 
144.4288298784453 63:1 271:1 606:1 988:1 2531:1 2693:1 3390:1 4063:1 4064:1 
172.9849116007574 121:1 122:1 275:1 285:1 4036:1 4066:1 
2379.426042978419 19:1 394:1 677:1 2612:1 4036:1 
1499.718941789073 176:1 645:1 1488:1 
1205.449940340744 351:1 964:1 2612:1 
413.9534642306384 190:1 343:1 853:1 1055:1 1059:1 1070:1 2630:1 3338:1 3653:1 4091:1 
67.36022568198284 56:1 176:1 223:1 469:1 1214:1 3038:1 3056:1 3631:1 
23.53868270278685 133:1 292:1 343:1 351:1 589:1 1475:1 2612:1 2620:1 2889:1 4095:1 
4564.768582364971 239:1 4036:1 
1158.230124972108 1175:1 2513:1 
211.9717772527095 23:1 3170:1 4097:1 
11358.81532063434 36:1 428:1 704:1 988:1 1129:1 1352:1 
1154.370135896558 59:1 190:1 960:1 988:1 1203:1 1811:1 2323:1 2447:1 3725:1 
451.768294827664 2791:1 4105:1 
2028.983333934035 79:1 153:1 394:1 481:1 1849:1 
64.27134598739438 557:1 778:1 861:1 2014:1 2735:1 3905:1 4107:1 
4856.45296256042 51:1 680:1 1310:1 
119.3732876777253 334:1 3092:1 
138.7774312412149 165:1 
243.0945916584583 165:1 2611:1 
23.73738086382044 13:1 44:1 180:1 275:1 351:1 480:1 1173:1 1174:1 2893:1 2967:1 3699:1 4069:1 
141.5732797165402 175:1 176:1 658:1 2967:1 4111:1 
127.4103629847668 13:1 38:1 183:1 320:1 341:1 1847:1 2687:1 2725:1 2997:1 4112:1 
13.08630381112532 79:1 343:1 606:1 1054:1 1055:1 1418:1 2687:1 2967:1 4113:1 4114:1 
15.47587508847782 252:1 343:1 606:1 979:1 988:1 1054:1 1055:1 2619:1 3023:1 3116:1 3653:1 4120:1 4121:1 
269.7085289472301 222:1 225:1 979:1 1073:1 2709:1 2924:1 2978:1 4122:1 
1270.319418292263 122:1 243:1 477:1 606:1 986:1 990:1 1503:1 
92.26267918553293 56:1 175:1 320:1 557:1 593:1 758:1 1169:1 3225:1 4124:1 
170.720088232311 27:1 2430:1 2967:1 4125:1 
12.7116333887291 124:1 241:1 343:1 726:1 1055:1 1058:1 1382:1 2816:1 2842:1 2967:1 
31.4442060375576 417:1 451:1 573:1 606:1 796:1 990:1 1683:1 2653:1 2709:1 2978:1 
359.8293479083798 606:1 1534:1 2677:1 2678:1 2967:1 3753:1 4132:1 
535.4474930060694 169:1 341:1 422:1 1108:1 2967:1 2997:1 
23220.00983023403 68:1 391:1 
184.1059697571378 504:1 1777:1 
442.562082981802 58:1 113:1 562:1 2967:1 4133:1 
276.0675261241124 535:1 3918:1 3945:1 4135:1 
8.418072668174288 93:1 786:1 793:1 1352:1 2687:1 4136:1 
51.80840068238091 239:1 1064:1 3539:1 3554:1 
0.4872569109996112 288:1 323:1 778:1 1853:1 4142:1 4143:1 
215.1463086063839 202:1 206:1 331:1 374:1 583:1 779:1 2470:1 2559:1 
4716.13061687173 105:1 206:1 583:1 4144:1 
487.1005867256552 169:1 418:1 
2245.750363362747 1349:1 
14.55931821398002 509:1 1446:1 
1589.880754062151 4145:1 4146:1 4147:1 
453.894684799981 38:1 475:1 641:1 1872:1 3130:1 3184:1 3185:1 
85.14611825338412 13:1 448:1 1458:1 1461:1 1705:1 2687:1 4145:1 4149:1 
91.11759004896005 317:1 361:1 509:1 1446:1 2219:1 2939:1 
80.30847121280704 990:1 1740:1 2328:1 3476:1 4145:1 
48.22208490105429 189:1 440:1 441:1 573:1 589:1 988:1 990:1 1213:1 4145:1 4155:1 
4.810688795287787 27:1 264:1 330:1 437:1 441:1 990:1 1642:1 2425:1 2684:1 3336:1 4160:1 4161:1 
323.0776506684646 57:1 455:1 1158:1 2277:1 2612:1 2719:1 2930:1 3860:1 
29.89109244869603 441:1 589:1 4145:1 4162:1 4163:1 
52.46408675938842 121:1 176:1 264:1 271:1 477:1 744:1 1259:1 2012:1 2722:1 4156:1 4170:1 
38.45283804107391 57:1 241:1 243:1 330:1 437:1 458:1 988:1 989:1 1207:1 1940:1 4176:1 
4.279577238344366 54:1 455:1 471:1 593:1 610:1 645:1 826:1 995:1 1003:1 2139:1 4177:1 
22284.6216413865 180:1 866:1 1828:1 
1912.117236786233 38:1 343:1 451:1 827:1 1025:1 1819:1 1828:1 1945:1 4178:1 
269.1923124342136 1624:1 1655:1 2612:1 3129:1 
306.4228812551762 343:1 643:1 827:1 910:1 1348:1 3728:1 4145:1 
1774.234151360489 507:1 1395:1 2245:1 
190.1098661037181 3092:1 4016:1 4182:1 
231.5619321820163 13:1 107:1 526:1 1195:1 3531:1 4184:1 
525.0783309501512 293:1 2732:1 
231.1530057475858 373:1 549:1 710:1 900:1 1206:1 4142:1 4143:1 4185:1 4186:1 4187:1 
215.3200981444841 59:1 61:1 351:1 638:1 2612:1 2628:1 4017:1 4018:1 4189:1 
168.2947581722896 120:1 280:1 589:1 1258:1 1282:1 2248:1 2628:1 4191:1 
104.2757327849405 87:1 217:1 1216:1 1364:1 2628:1 2748:1 2749:1 2753:1 3064:1 3065:1 3822:1 
140.4370069060069 1282:1 1388:1 2628:1 2671:1 4190:1 
279.7899900352991 269:1 2628:1 4190:1 
2618.210441346362 162:1 199:1 589:1 711:1 2248:1 2628:1 3760:1 4196:1 4197:1 
457.4464349756208 63:1 79:1 243:1 267:1 593:1 874:1 1207:1 3967:1 4190:1 4198:1 4199:1 
444.4633571400097 68:1 87:1 359:1 822:1 1232:1 1287:1 1846:1 1971:1 4200:1 
460.5641297003659 977:1 1055:1 1195:1 1364:1 2612:1 4193:1 4201:1 
