svm_type nu_svc
kernel_type linear
nr_class 2
total_sv 6650
rho 48.5024
label 1 -1
nr_sv 2146 4504
SV
1547182.892116895 5:1 6:1 7:1 8:1 
3105504.96485362 9:1 10:1 11:1 12:1 
3010656.065525862 13:1 14:1 
3102503.390530188 15:1 16:1 
2344023.713536665 10:1 11:1 12:1 17:1 18:1 19:1 
3105504.96485362 20:1 
3105504.96485362 10:1 11:1 12:1 18:1 21:1 22:1 23:1 24:1 25:1 
3105504.96485362 26:1 
545106.07178249 10:1 11:1 12:1 18:1 21:1 22:1 23:1 24:1 25:1 
3105504.96485362 26:1 
3105504.96485362 28:1 29:1 30:1 
3103795.392876508 31:1 32:1 33:1 
3093162.326651618 34:1 35:1 36:1 37:1 
2387909.223646405 38:1 
3105504.96485362 39:1 40:1 41:1 42:1 43:1 44:1 
3105504.96485362 45:1 46:1 
25130.96799004638 47:1 48:1 49:1 50:1 
2621223.166837074 47:1 48:1 49:1 51:1 52:1 53:1 54:1 55:1 56:1 57:1 
2956147.876584596 58:1 59:1 
2729241.248002086 60:1 
2855284.816913527 61:1 
2790080.767208656 50:1 62:1 63:1 
3105504.96485362 49:1 63:1 64:1 65:1 
2463742.216336021 38:1 66:1 
1934914.526423655 67:1 
3105504.96485362 68:1 69:1 70:1 71:1 72:1 
3105504.96485362 73:1 74:1 75:1 76:1 
1268251.479125497 48:1 70:1 71:1 72:1 77:1 78:1 79:1 
3086970.123458275 81:1 82:1 
3061398.721154028 70:1 83:1 
3105504.96485362 10:1 11:1 85:1 86:1 87:1 
3035868.507136039 88:1 89:1 
2676270.522983698 44:1 90:1 91:1 
3105504.96485362 92:1 
3105258.900797147 83:1 93:1 94:1 95:1 96:1 97:1 98:1 99:1 100:1 101:1 
2629456.684554454 48:1 49:1 50:1 102:1 
1834915.51260467 27:1 70:1 105:1 106:1 107:1 108:1 
3105504.96485362 109:1 110:1 
2724833.228507307 111:1 112:1 
1714519.280314954 113:1 
3105504.96485362 114:1 
2992279.45750092 115:1 
1631397.195190302 114:1 
2659607.87497948 116:1 
2080711.121121818 70:1 103:1 107:1 117:1 118:1 
3105152.593794147 103:1 119:1 120:1 
740671.1922611104 38:1 99:1 103:1 107:1 121:1 122:1 
2780415.880230884 91:1 123:1 124:1 125:1 126:1 127:1 
3104413.48722193 46:1 89:1 128:1 129:1 130:1 
1476750.914247935 131:1 
3105504.96485362 34:1 132:1 133:1 134:1 135:1 
3105504.96485362 136:1 
1897900.820852184 137:1 138:1 
424694.9887883934 139:1 
2274910.822810437 140:1 
3099616.042344015 141:1 142:1 
2870086.172142237 143:1 
2219174.241660829 34:1 107:1 139:1 142:1 
3105504.96485362 49:1 144:1 145:1 
2875097.527533469 129:1 146:1 147:1 
2770977.614031338 68:1 69:1 148:1 
2682535.044478713 48:1 69:1 148:1 149:1 150:1 
3079231.507044925 151:1 152:1 
3105504.96485362 77:1 
2731663.780490708 64:1 69:1 153:1 154:1 
3088549.426033553 27:1 155:1 156:1 157:1 158:1 
1750999.121042083 70:1 104:1 159:1 
3044654.619779225 160:1 
3086911.738244497 27:1 161:1 162:1 
3105504.96485362 163:1 
2995799.842031419 164:1 
1005021.26450491 27:1 165:1 
2795470.840220361 69:1 153:1 
1638851.605350432 27:1 166:1 167:1 168:1 
3105504.96485362 89:1 
3105504.96485362 89:1 
651367.2908183334 112:1 172:1 173:1 
3105504.96485362 129:1 
87488.69222101862 56:1 174:1 175:1 176:1 177:1 178:1 
351505.0266248122 95:1 
1692310.609052574 160:1 179:1 
1834068.298615314 163:1 
1451936.362419695 27:1 161:1 180:1 181:1 
3105504.96485362 182:1 
279795.4367161418 43:1 56:1 169:1 177:1 183:1 
1013601.278357847 34:1 148:1 
1520470.548476442 184:1 185:1 
2627564.799375728 89:1 
2050349.194663295 53:1 84:1 183:1 186:1 187:1 188:1 189:1 
1886359.43025159 190:1 
3105504.96485362 71:1 191:1 192:1 193:1 194:1 195:1 
1327358.487173025 56:1 67:1 71:1 84:1 108:1 196:1 197:1 
861773.0466736273 38:1 124:1 183:1 185:1 198:1 199:1 200:1 201:1 202:1 203:1 
3035851.352101469 204:1 205:1 
2970930.42276634 70:1 
2717485.670759739 206:1 207:1 
3105504.96485362 129:1 
3105504.96485362 77:1 208:1 
3105504.96485362 129:1 
3105504.96485362 129:1 
35629.90846843465 70:1 153:1 
2903161.415594234 70:1 207:1 
3105504.96485362 209:1 210:1 211:1 
3105504.96485362 129:1 
2798261.772467447 212:1 213:1 214:1 215:1 216:1 217:1 
3105504.96485362 129:1 
3036083.121099107 218:1 219:1 220:1 221:1 222:1 223:1 
2005885.757481018 129:1 
3105504.96485362 184:1 
73498.81156638663 76:1 218:1 223:1 224:1 225:1 226:1 227:1 
2743383.88442274 230:1 231:1 
2449977.52764588 63:1 232:1 233:1 234:1 
2510428.537155725 175:1 235:1 236:1 
1644897.6745457 129:1 147:1 237:1 
1900001.304268335 238:1 
1125127.197730418 59:1 239:1 
274150.2578685048 64:1 223:1 227:1 240:1 241:1 
297083.3612195669 59:1 242:1 243:1 244:1 245:1 246:1 
3105504.96485362 247:1 
1739942.791405509 84:1 246:1 248:1 249:1 250:1 251:1 252:1 253:1 
2172709.537354021 69:1 84:1 153:1 254:1 255:1 256:1 
2386570.663114935 218:1 257:1 258:1 
178074.1424529946 64:1 77:1 259:1 260:1 261:1 262:1 263:1 
17533.30659574843 223:1 264:1 265:1 266:1 267:1 
3105504.96485362 268:1 
144043.9023208149 24:1 91:1 275:1 276:1 
636411.5363238911 279:1 
617747.1981990056 281:1 282:1 283:1 284:1 
53934.36852119886 183:1 285:1 286:1 
90243.37878498259 183:1 286:1 287:1 288:1 289:1 290:1 291:1 
342862.9574759384 84:1 102:1 296:1 297:1 298:1 
2046838.739108278 38:1 299:1 300:1 301:1 302:1 303:1 304:1 305:1 306:1 307:1 308:1 309:1 
4236.501726630304 129:1 313:1 
2219245.580458622 38:1 113:1 310:1 314:1 315:1 
250751.8548435878 64:1 137:1 153:1 218:1 319:1 
7299.732890898104 38:1 321:1 
79046.78723264299 6:1 46:1 229:1 322:1 323:1 
2156.037609665084 160:1 326:1 
36685.46923406642 153:1 207:1 218:1 317:1 318:1 327:1 
3105504.96485362 329:1 330:1 331:1 332:1 333:1 334:1 
438173.8141688918 338:1 339:1 
26124.62468937729 103:1 336:1 337:1 340:1 341:1 342:1 
1546752.522084829 328:1 
60348.33340396728 6:1 176:1 323:1 351:1 
67041.73965223097 353:1 354:1 
358.9186496234631 129:1 166:1 320:1 
143044.2678875923 358:1 359:1 360:1 361:1 
446965.9868188793 324:1 362:1 363:1 364:1 
601227.3576352284 365:1 366:1 367:1 
194124.211457958 27:1 56:1 121:1 317:1 368:1 369:1 370:1 371:1 
136875.6882279527 48:1 59:1 60:1 308:1 373:1 374:1 375:1 
274355.2335112863 318:1 376:1 377:1 
252279.1670864424 124:1 125:1 127:1 318:1 379:1 380:1 
218317.1886915291 377:1 381:1 
478391.6504442326 318:1 383:1 
208212.4404808192 384:1 385:1 386:1 
941592.8835531303 387:1 388:1 389:1 
839.3963476559861 6:1 349:1 350:1 
197936.9613807701 19:1 309:1 391:1 
57991.1186553378 123:1 160:1 378:1 392:1 
947900.0390983762 160:1 324:1 325:1 
2443738.64326791 181:1 397:1 398:1 399:1 400:1 401:1 402:1 403:1 404:1 
89644.03509027969 310:1 401:1 405:1 
2743.187856638077 90:1 407:1 
92583.21890597521 408:1 409:1 
304037.0624964015 10:1 11:1 12:1 280:1 336:1 412:1 413:1 414:1 415:1 416:1 417:1 418:1 419:1 
287823.6499541582 420:1 421:1 
393503.5900979768 423:1 424:1 425:1 426:1 
456849.3685239287 276:1 427:1 
66777.96823235796 378:1 428:1 
581865.8007916636 248:1 386:1 429:1 
85422.41161987085 13:1 51:1 183:1 430:1 431:1 
160509.9936663957 224:1 331:1 436:1 437:1 
3633.998629640581 63:1 64:1 121:1 223:1 434:1 438:1 439:1 
169992.4410656159 122:1 166:1 
8468.263003685226 72:1 228:1 442:1 
239124.0365661622 46:1 181:1 
5473.881205081221 443:1 
434771.6897775483 68:1 444:1 445:1 446:1 
1191.948985920175 63:1 175:1 181:1 448:1 449:1 
531168.2549826183 454:1 
2250158.477695504 64:1 241:1 243:1 259:1 455:1 456:1 457:1 458:1 459:1 
49261.17638138038 64:1 229:1 240:1 241:1 460:1 461:1 462:1 
267132.2071832443 176:1 374:1 433:1 463:1 464:1 465:1 466:1 467:1 468:1 
12033.28482839199 469:1 
84520.29014457494 276:1 476:1 
8055.075312516546 166:1 
10861.57732806877 38:1 176:1 432:1 477:1 478:1 479:1 480:1 
335595.6128955982 481:1 482:1 483:1 
70567.76400530648 484:1 485:1 486:1 487:1 488:1 
55115.95772505482 298:1 432:1 489:1 490:1 
27482.80035474697 38:1 299:1 300:1 301:1 302:1 303:1 304:1 305:1 306:1 308:1 491:1 492:1 
22483.87260222678 394:1 493:1 
6475.275837258488 16:1 71:1 72:1 133:1 432:1 497:1 498:1 499:1 500:1 501:1 
65841.37842037345 34:1 384:1 502:1 503:1 
56985.12212556947 107:1 206:1 432:1 441:1 504:1 505:1 
1938.454431725139 275:1 432:1 507:1 
121179.0646611854 103:1 153:1 338:1 339:1 512:1 513:1 514:1 515:1 516:1 
1266.150087231961 120:1 338:1 339:1 513:1 
28559.54614300569 518:1 519:1 520:1 
3723.494782964622 125:1 348:1 521:1 
8865.886010943466 38:1 522:1 523:1 524:1 525:1 526:1 527:1 
449058.1674265482 528:1 
283459.5376085581 68:1 529:1 530:1 
60160.87984009773 16:1 531:1 532:1 
66267.44843600738 130:1 534:1 
15270.88549824321 432:1 
52815.89619911186 539:1 540:1 
18970.48288848559 18:1 541:1 
104193.7385804196 14:1 22:1 23:1 535:1 
120316.6331373086 542:1 
22502.39135167176 280:1 527:1 
64435.05374232487 543:1 
368288.9667365729 60:1 176:1 544:1 545:1 546:1 547:1 
135225.6903157194 548:1 
148507.3321715311 176:1 224:1 549:1 550:1 551:1 
41201.77158377435 280:1 501:1 526:1 
93468.19783789942 552:1 
420109.1501276806 316:1 390:1 
100065.1300723474 84:1 559:1 
238217.8061914402 172:1 558:1 
16591.29818016668 553:1 
33147.82069507183 563:1 
267556.8481657499 280:1 382:1 564:1 565:1 
17962.17008176773 17:1 
91639.49531648082 197:1 566:1 
654565.5794829198 18:1 567:1 568:1 
91786.17757295519 130:1 569:1 570:1 
73863.31898244272 375:1 571:1 572:1 573:1 574:1 575:1 
15967.53883711898 46:1 418:1 576:1 577:1 
8487.518399605129 384:1 578:1 579:1 580:1 
13952.83462577944 576:1 582:1 
16680.84992070721 176:1 280:1 448:1 583:1 584:1 
52951.92604481909 34:1 390:1 564:1 585:1 
40989.91979787825 56:1 120:1 224:1 586:1 587:1 588:1 
1114.22905107986 59:1 198:1 576:1 593:1 594:1 595:1 
73108.85198375446 63:1 597:1 598:1 
11172.70329973019 55:1 107:1 184:1 600:1 601:1 602:1 
67006.79182969633 64:1 224:1 240:1 241:1 243:1 603:1 604:1 
155443.7883770801 264:1 605:1 606:1 607:1 608:1 
138244.9667754417 24:1 476:1 
25721.31848980974 373:1 538:1 558:1 576:1 615:1 616:1 617:1 618:1 
68967.73871443358 169:1 229:1 619:1 620:1 621:1 
196704.4182652689 38:1 300:1 301:1 302:1 303:1 304:1 306:1 308:1 491:1 492:1 611:1 624:1 
17957.15679500702 19:1 71:1 72:1 107:1 216:1 280:1 622:1 626:1 
86108.55247717895 627:1 628:1 
18395.48629821243 202:1 350:1 505:1 629:1 
418463.9435364382 311:1 531:1 558:1 631:1 632:1 
42885.76986377309 633:1 634:1 
65332.20499170922 635:1 636:1 
2628.330120252391 234:1 637:1 
251198.6825780338 643:1 644:1 
80272.64575629476 153:1 513:1 519:1 520:1 650:1 651:1 652:1 653:1 
14751.78708726105 153:1 347:1 651:1 652:1 654:1 
35003.7515250709 248:1 350:1 657:1 658:1 
590078.8219552675 90:1 359:1 360:1 361:1 407:1 
48275.89828708246 5:1 84:1 661:1 662:1 663:1 664:1 
2983.235842196406 667:1 
1344.510609755236 280:1 345:1 622:1 
453151.426175761 18:1 19:1 22:1 23:1 558:1 
33553.49694945664 166:1 378:1 
9910.918589435465 67:1 671:1 672:1 673:1 674:1 675:1 
8388.917107444018 676:1 677:1 
1586.148116698816 276:1 384:1 678:1 679:1 
444744.5617423338 51:1 165:1 680:1 
171620.2484938658 425:1 681:1 
71707.47552434669 84:1 121:1 682:1 683:1 
53872.54838685677 34:1 420:1 684:1 685:1 686:1 687:1 
20909.41504402635 688:1 689:1 
28423.85092823847 660:1 694:1 695:1 696:1 
11596.63816991243 700:1 
42486.8216254897 186:1 457:1 703:1 704:1 705:1 
32747.13459324553 35:1 107:1 706:1 
78444.16425392072 529:1 590:1 707:1 
23226.82784111563 84:1 713:1 714:1 715:1 
3088180.684245592 45:1 46:1 717:1 
62098.85968867814 64:1 103:1 176:1 515:1 516:1 709:1 719:1 720:1 
34079.43755953074 302:1 
113250.7852841497 303:1 
206072.5078568344 722:1 
33058.02379892072 63:1 603:1 725:1 726:1 727:1 
12345.86433381553 733:1 
31122.32300275642 27:1 176:1 249:1 250:1 734:1 735:1 736:1 737:1 
35442.65113513391 103:1 173:1 175:1 176:1 336:1 337:1 709:1 739:1 740:1 
13136.59694302587 741:1 
10825.34848549401 27:1 241:1 271:1 736:1 742:1 743:1 744:1 
461770.872400436 84:1 121:1 215:1 217:1 745:1 
72083.03523684376 272:1 
80057.9726562531 748:1 
247793.1385493813 750:1 751:1 
82565.79490208783 420:1 684:1 686:1 687:1 752:1 753:1 
89014.1274627206 183:1 757:1 758:1 
102238.6215889719 670:1 759:1 760:1 
3016.201658810805 299:1 300:1 301:1 302:1 303:1 304:1 306:1 308:1 491:1 624:1 761:1 762:1 
13317.44735143109 38:1 763:1 
41956.82842463919 766:1 
340498.7998583674 311:1 655:1 708:1 767:1 768:1 769:1 770:1 771:1 
144384.4622751208 772:1 773:1 774:1 775:1 
273684.7358449909 779:1 780:1 
45313.95887756764 666:1 781:1 782:1 783:1 784:1 785:1 
4319.011193462375 786:1 
48196.79392370696 56:1 787:1 788:1 789:1 
39026.12513693744 679:1 
105172.2636277675 71:1 755:1 756:1 791:1 
73642.26708313284 47:1 93:1 792:1 793:1 
40906.36449074296 795:1 796:1 797:1 798:1 799:1 
75828.40888036336 657:1 802:1 803:1 804:1 
45451.9904496118 47:1 805:1 
66192.70000667611 806:1 807:1 808:1 
12140.54412770742 809:1 
140845.3583446801 801:1 
1362127.470182565 14:1 22:1 23:1 24:1 277:1 
441756.7302777981 10:1 11:1 12:1 69:1 
35344.64405076795 137:1 406:1 813:1 814:1 
824.9250365719802 35:1 137:1 161:1 181:1 452:1 815:1 
12545.31323218599 27:1 161:1 816:1 817:1 
8017.8175733157 36:1 791:1 818:1 
2633.657560684991 38:1 258:1 373:1 479:1 819:1 
84183.62468384116 444:1 535:1 820:1 821:1 822:1 
66313.39019631743 823:1 
106950.1641941113 34:1 293:1 311:1 636:1 824:1 
141529.4387577937 104:1 135:1 829:1 
31965.31515088516 38:1 294:1 332:1 496:1 670:1 830:1 831:1 
139659.4306158582 47:1 832:1 833:1 
5001.581510299297 69:1 173:1 836:1 837:1 
21196.66265521493 838:1 
6742.641724009482 593:1 655:1 794:1 840:1 
85436.26853018545 156:1 652:1 842:1 843:1 844:1 
20488.5297136574 14:1 84:1 216:1 736:1 825:1 849:1 
13410.4321308389 223:1 240:1 471:1 744:1 834:1 835:1 850:1 851:1 852:1 853:1 
468.1264658575743 13:1 16:1 810:1 
1904680.399378215 16:1 122:1 242:1 655:1 854:1 
325876.7624581059 93:1 94:1 103:1 121:1 176:1 189:1 856:1 
119031.7670489366 56:1 104:1 692:1 861:1 862:1 863:1 864:1 
102978.8211488934 13:1 24:1 107:1 122:1 859:1 860:1 
155161.085589032 63:1 812:1 870:1 
68803.53470574766 878:1 
61886.70915050218 880:1 
83141.38227315899 469:1 885:1 886:1 
5414.845570562591 84:1 170:1 509:1 736:1 887:1 888:1 
189575.997803805 489:1 889:1 
1049.525219168823 320:1 573:1 892:1 893:1 894:1 895:1 896:1 
65764.06761698858 108:1 869:1 897:1 
34107.03144782084 320:1 902:1 903:1 
190277.1654168715 876:1 904:1 
39175.4948785332 19:1 38:1 176:1 310:1 346:1 
483858.0983838285 84:1 123:1 317:1 910:1 
17597.32158013972 912:1 
63359.83094923059 27:1 161:1 914:1 
18901.55941916088 487:1 919:1 920:1 
859.4588410764599 919:1 920:1 
37660.60004546754 38:1 68:1 322:1 
12574.36620410968 18:1 915:1 923:1 924:1 
60399.5293166452 926:1 927:1 928:1 
64640.64709435494 18:1 169:1 181:1 929:1 930:1 931:1 
9238.388770081383 345:1 869:1 
3283.154485352433 125:1 273:1 630:1 933:1 
158507.8256621429 27:1 161:1 531:1 935:1 936:1 
14669.28942723032 940:1 
208808.076366254 944:1 
66939.53170133913 945:1 946:1 947:1 
160852.0720212627 51:1 67:1 680:1 945:1 
13303.22585046684 939:1 951:1 952:1 953:1 954:1 
79345.82503275506 956:1 
81619.8263246853 169:1 233:1 
63198.48889162896 71:1 72:1 84:1 216:1 390:1 962:1 
59812.04032108976 48:1 668:1 963:1 
40075.09387493828 537:1 
177835.81252783 955:1 956:1 967:1 968:1 969:1 
210422.872763297 48:1 321:1 971:1 
172678.9800466729 331:1 973:1 974:1 975:1 976:1 977:1 978:1 
1757.373906133122 744:1 970:1 979:1 980:1 981:1 982:1 
92572.50808143846 573:1 984:1 985:1 986:1 987:1 
58526.28465996982 227:1 241:1 264:1 265:1 471:1 472:1 988:1 989:1 990:1 991:1 
94877.38152333246 224:1 463:1 979:1 
7713.097165688183 992:1 
51072.68164287045 175:1 447:1 579:1 959:1 993:1 994:1 
7336.3329413888 223:1 250:1 744:1 979:1 999:1 1000:1 1001:1 
4292.034600024549 489:1 1002:1 1003:1 
38055.30834424611 191:1 590:1 1004:1 1005:1 
2604515.950038783 3:1 4:1 
255.8958822511329 13:1 14:1 557:1 670:1 778:1 1011:1 1012:1 
58447.76742203203 1017:1 1018:1 
59588.21944017184 50:1 543:1 1019:1 1020:1 1021:1 
111577.7416307841 1025:1 1026:1 
11007.22148821222 1027:1 
10453.0991209587 1033:1 
214782.2890466635 1034:1 1035:1 1036:1 
30112.612881146 13:1 176:1 915:1 1039:1 
45712.08701851034 614:1 694:1 764:1 1040:1 1041:1 
2486.830390621491 6:1 11:1 39:1 133:1 176:1 640:1 643:1 1042:1 1043:1 1044:1 
57010.13011839753 44:1 103:1 453:1 1046:1 1047:1 1048:1 
132204.2743392618 27:1 135:1 165:1 959:1 1039:1 1049:1 
2110.627567520535 678:1 898:1 
58724.75878520062 463:1 1051:1 1052:1 
57471.98671934913 263:1 604:1 1053:1 1054:1 
140656.7177549255 224:1 338:1 
154781.9202331787 264:1 480:1 727:1 1056:1 1061:1 
115079.5795453862 175:1 223:1 338:1 437:1 604:1 999:1 1064:1 1065:1 
116692.4563094316 1066:1 
116858.4678612719 64:1 241:1 460:1 1067:1 1068:1 1069:1 1070:1 1071:1 1072:1 
1002053.920815671 222:1 224:1 225:1 1073:1 
4244.912023590675 167:1 288:1 898:1 
8967.503717024134 169:1 183:1 493:1 1050:1 1083:1 
340256.8594371906 313:1 758:1 
194034.5055295259 948:1 
4196.211935481414 1088:1 
93925.32673451198 35:1 900:1 
154398.65285164 1089:1 
54621.21315130284 791:1 1004:1 1090:1 1091:1 
1975901.046350239 1092:1 
24828.33370392981 1093:1 1094:1 
6280.388758075239 395:1 707:1 1097:1 
38273.55986891295 25:1 1050:1 1074:1 1096:1 
29176.61407001537 1098:1 1099:1 
2183.310053541496 1100:1 
221474.4070333265 1102:1 1103:1 
540317.3889117015 787:1 
69134.21175998708 242:1 344:1 350:1 1104:1 1105:1 
14475.29819382342 84:1 181:1 1107:1 
202769.7840807074 38:1 761:1 1107:1 1109:1 1110:1 
43107.42083810684 248:1 1112:1 
7423.644971972095 18:1 68:1 496:1 537:1 1050:1 1113:1 
10190.02554200957 18:1 162:1 915:1 1085:1 
4985.321922679122 578:1 580:1 1115:1 1116:1 
1356.695517984925 925:1 1120:1 
27239.80124641223 489:1 1121:1 
18995.3561083056 127:1 1022:1 1122:1 
383933.1507485636 63:1 198:1 417:1 558:1 1124:1 
94592.39996111432 558:1 1125:1 
61174.92176381707 63:1 102:1 181:1 406:1 558:1 1126:1 
15131.41293846485 13:1 197:1 402:1 1127:1 1128:1 1129:1 1130:1 1131:1 
151490.5852893745 17:1 38:1 46:1 236:1 402:1 1129:1 1132:1 1133:1 
187572.2394529043 11:1 12:1 107:1 236:1 347:1 1134:1 1135:1 1136:1 1137:1 1138:1 1139:1 
7004.300232608347 13:1 107:1 197:1 557:1 1140:1 
692037.3346292948 13:1 71:1 72:1 107:1 475:1 1141:1 1142:1 
37827.08177037451 1145:1 
45618.61155764476 817:1 
39029.9951568757 363:1 1148:1 
9777.02076900065 113:1 395:1 1152:1 1153:1 
2057.118215113878 48:1 137:1 492:1 511:1 983:1 1154:1 1155:1 
899001.4981757647 57:1 
93734.91824989217 64:1 1162:1 1163:1 1164:1 
7976.362647574028 63:1 241:1 509:1 744:1 990:1 1165:1 
60626.62006409397 55:1 56:1 1166:1 1167:1 1168:1 1169:1 
235368.7590750035 11:1 45:1 194:1 197:1 320:1 558:1 1170:1 
748276.1967672597 34:1 276:1 558:1 882:1 
8217.798399826548 38:1 299:1 300:1 301:1 304:1 308:1 624:1 762:1 885:1 905:1 906:1 907:1 
29467.28030605909 38:1 625:1 
8732.603231497204 38:1 558:1 589:1 1172:1 
74400.47152294341 422:1 614:1 
11446.4280665012 1173:1 
53534.68307288668 63:1 181:1 557:1 933:1 1174:1 1175:1 1176:1 
1061736.599205034 275:1 558:1 
5003.379333166158 47:1 70:1 1179:1 1180:1 
280836.8412128426 313:1 413:1 558:1 754:1 1184:1 
797.7498951928484 18:1 47:1 1186:1 
2571.305525905459 360:1 361:1 761:1 1187:1 1188:1 1189:1 1190:1 
248.9661244574645 273:1 336:1 900:1 1191:1 1192:1 
19774.29819644679 1022:1 1193:1 
55013.29749449615 18:1 22:1 23:1 223:1 1183:1 1184:1 
165459.5834410563 416:1 512:1 1055:1 1195:1 
1505.546196924238 1179:1 1196:1 
22613.88757025016 556:1 598:1 1055:1 1197:1 1198:1 1199:1 
300987.8476070618 1200:1 
8416.861284511757 1201:1 1202:1 
3850.050119813158 170:1 176:1 1073:1 1203:1 1204:1 
34302.05907990901 369:1 472:1 744:1 1206:1 1207:1 1208:1 
56506.99960748612 64:1 176:1 1063:1 1209:1 1210:1 
7999.146811784125 170:1 240:1 744:1 874:1 1213:1 1214:1 1215:1 1216:1 
406113.3742114546 14:1 273:1 439:1 873:1 1217:1 1218:1 1219:1 
221915.2156615428 275:1 292:1 
779372.7883019606 517:1 1184:1 1220:1 1221:1 
206400.0348942941 509:1 510:1 1184:1 
749734.7869551856 19:1 38:1 
53489.23569501805 874:1 1184:1 
8036.752676099 490:1 1008:1 1009:1 1010:1 1184:1 
1986.312985463155 13:1 1045:1 1223:1 1224:1 1225:1 
305232.6404838891 1226:1 
2541.045627901894 37:1 56:1 630:1 1227:1 
11582.82440557195 34:1 515:1 900:1 1179:1 1230:1 1231:1 
3225.140133122484 176:1 280:1 326:1 
84416.35205095158 13:1 169:1 345:1 350:1 1184:1 
106141.0778405529 130:1 295:1 396:1 1235:1 
210422.4478772559 1236:1 1237:1 
73571.20792280207 34:1 127:1 175:1 1022:1 1238:1 1239:1 1240:1 
424391.0858832485 16:1 255:1 
887925.6237622438 162:1 
28652.80097171912 54:1 197:1 640:1 915:1 1123:1 1128:1 1244:1 
45001.38307717692 50:1 68:1 1241:1 
10394.20437152002 222:1 223:1 229:1 1246:1 1247:1 
349836.0439714491 243:1 471:1 489:1 593:1 607:1 1248:1 
97980.3689136699 369:1 444:1 744:1 872:1 1249:1 1250:1 
75169.43782357562 600:1 755:1 756:1 1251:1 1252:1 
202588.6161670997 779:1 1254:1 1255:1 
270884.626482411 243:1 252:1 253:1 736:1 1257:1 
46429.98944581594 64:1 1257:1 1258:1 1259:1 1260:1 1261:1 
12604.59892363668 1262:1 
180330.8505305384 84:1 242:1 304:1 484:1 744:1 1263:1 1264:1 
79999.00310443211 161:1 250:1 304:1 435:1 1073:1 1265:1 1266:1 
16061.89438720459 18:1 271:1 535:1 1269:1 1270:1 1271:1 1272:1 1273:1 
83038.54877466518 1106:1 
3084.108457833664 38:1 299:1 300:1 301:1 302:1 304:1 308:1 624:1 885:1 983:1 1222:1 1274:1 
77840.43857582507 38:1 294:1 480:1 794:1 1241:1 
34991.54172312838 1276:1 1277:1 
9402.643308890472 72:1 630:1 1023:1 1278:1 
11838.59004061194 1279:1 1280:1 
32607.20694048145 898:1 1283:1 
561.3427852822235 649:1 1267:1 
7861.157663549337 25:1 169:1 1037:1 
7915.285347752155 6:1 25:1 27:1 197:1 1241:1 1291:1 1292:1 
1596.913363453426 18:1 47:1 295:1 1119:1 1186:1 
20444.92692341534 630:1 1023:1 1293:1 1294:1 
179301.8909177309 61:1 252:1 
108355.9175509102 1295:1 1296:1 1297:1 
526561.0886393756 1299:1 1300:1 
102191.7940664087 6:1 25:1 197:1 1039:1 1241:1 
18613.67008273331 772:1 1266:1 1301:1 1302:1 
576927.684818322 45:1 46:1 165:1 385:1 680:1 1290:1 
33223.67457795667 68:1 206:1 480:1 800:1 932:1 1241:1 
50860.62985407469 68:1 957:1 1303:1 
8886.757175054465 153:1 1305:1 
25493.75019250602 22:1 23:1 24:1 38:1 176:1 310:1 346:1 535:1 1241:1 1306:1 
11338.59890809003 50:1 184:1 
124779.9958157365 153:1 288:1 755:1 756:1 1307:1 1308:1 
40003.28631790478 45:1 67:1 668:1 1290:1 1310:1 1311:1 1312:1 1313:1 1314:1 
109638.987871321 420:1 1290:1 1311:1 1315:1 1316:1 1317:1 1318:1 1319:1 
622073.6388572189 1290:1 1324:1 
6193.963368756356 27:1 183:1 668:1 1290:1 1325:1 1326:1 1327:1 1328:1 
39561.94133626582 18:1 59:1 68:1 99:1 340:1 1330:1 
66559.85474956695 39:1 350:1 1290:1 1328:1 1332:1 
254844.7584981156 39:1 42:1 165:1 184:1 1044:1 1290:1 1328:1 1329:1 
1325.956103856806 202:1 234:1 797:1 1333:1 1334:1 
32890.17545600435 68:1 668:1 674:1 1335:1 1336:1 1337:1 
2808.993773884525 25:1 277:1 304:1 576:1 1119:1 1338:1 1339:1 1340:1 1341:1 
365925.4666995171 64:1 146:1 185:1 935:1 
49795.59048155589 1342:1 
113115.5024215266 818:1 1331:1 
2762.07425770585 633:1 1344:1 1345:1 1346:1 1347:1 1348:1 
42255.26445952944 702:1 
3281.607765218918 50:1 1354:1 
1741.251102875997 13:1 1129:1 1350:1 1356:1 
313266.0034588579 1360:1 1361:1 1362:1 
7405.110276191796 170:1 744:1 1358:1 1359:1 
106978.1908305078 435:1 1363:1 1364:1 1365:1 
12281.26388578385 1368:1 
11607.64113883461 84:1 1369:1 
51575.87831735891 1370:1 
213694.9535867968 1371:1 
1248548.153468719 58:1 
208926.5598061659 147:1 302:1 727:1 731:1 1247:1 1372:1 1374:1 1375:1 1376:1 
109410.9756048032 241:1 690:1 1000:1 1309:1 1379:1 1385:1 1386:1 1387:1 
4020.385217216291 1390:1 
83307.89183565568 34:1 706:1 716:1 1391:1 1392:1 
10867.65579840805 394:1 1393:1 
8025.685355618493 416:1 1082:1 1304:1 1331:1 1395:1 1396:1 
50441.00566610019 1174:1 1397:1 1398:1 
4152.972209382383 1399:1 
91513.50697439196 127:1 450:1 1400:1 
139597.6944730952 135:1 437:1 573:1 1406:1 
7535.259726348506 1407:1 
56754.26722673194 34:1 181:1 1409:1 1410:1 1411:1 1412:1 1413:1 
1853.886634408331 42:1 90:1 1414:1 
67506.89279520884 205:1 396:1 900:1 1415:1 
28997.45449449304 176:1 346:1 446:1 1416:1 1417:1 
152390.0927482555 11:1 12:1 197:1 280:1 622:1 1420:1 
54148.7383901291 121:1 557:1 622:1 625:1 1195:1 1421:1 
237885.9207442688 71:1 72:1 184:1 1422:1 
43193.83225211731 1423:1 
35476.13245005877 131:1 813:1 
20638.66254768128 378:1 1418:1 1419:1 
395.5584236542692 48:1 56:1 59:1 137:1 560:1 670:1 1213:1 1427:1 1428:1 1429:1 
84998.27404807143 234:1 1430:1 1431:1 1432:1 1433:1 
332526.2839071892 173:1 599:1 
1540311.073498421 1174:1 
631.9927972149522 48:1 56:1 137:1 258:1 312:1 1424:1 1437:1 1438:1 1439:1 
349786.1747770013 130:1 174:1 410:1 489:1 865:1 
476982.7120908668 33:1 130:1 202:1 1298:1 1406:1 
173737.6991779715 966:1 1440:1 
47616.07719872397 34:1 1441:1 
65574.07240275231 202:1 1442:1 1443:1 
33856.28957603702 169:1 702:1 1444:1 
234781.5247756359 37:1 104:1 203:1 1445:1 
54251.98284284456 280:1 335:1 622:1 1444:1 
606725.9670912238 622:1 1421:1 
400401.9114222729 107:1 196:1 197:1 509:1 590:1 622:1 1421:1 1446:1 
658.8680364535485 27:1 197:1 280:1 622:1 668:1 1448:1 1449:1 
11193.3345444608 27:1 84:1 394:1 420:1 779:1 
1439.582153377901 800:1 918:1 
17740.77865264657 50:1 1444:1 
103687.6303459628 280:1 335:1 622:1 
198685.4243699651 1028:1 
13649.52250790274 63:1 68:1 206:1 593:1 1451:1 1452:1 
2506.460916008638 217:1 1453:1 1454:1 1455:1 
98981.17717208441 448:1 1314:1 1461:1 
81243.91791259697 1463:1 1464:1 1465:1 
96688.98723706673 222:1 224:1 241:1 726:1 817:1 1156:1 1466:1 1467:1 
22861.49561710647 14:1 783:1 1028:1 1347:1 1468:1 1469:1 1470:1 
72971.67285873614 10:1 11:1 87:1 1444:1 1471:1 
867.7683379906421 1449:1 1473:1 
40207.81026000668 343:1 857:1 1242:1 1444:1 1474:1 
29556.9373559529 361:1 768:1 1475:1 1476:1 
1910.676782876972 395:1 1425:1 1477:1 
200938.7044599774 350:1 658:1 
57156.91406823806 51:1 680:1 983:1 
5623.186640164143 1444:1 1479:1 
18103.49814365482 127:1 176:1 458:1 639:1 1045:1 1480:1 
7054.395257025859 125:1 1481:1 1482:1 
88963.17309128286 631:1 645:1 
8051.732333428142 1483:1 
49287.41544559013 72:1 1485:1 1486:1 1487:1 
480.118894639701 1489:1 1490:1 
14144.82505269233 80:1 
9444.604610981783 34:1 1493:1 
19225.52162917588 99:1 1425:1 1496:1 1497:1 
21321.97316082248 462:1 778:1 1498:1 
34245.28447527434 293:1 561:1 1499:1 1500:1 
47897.4740264551 84:1 283:1 978:1 1501:1 
74531.35149607604 146:1 511:1 
122691.007505851 538:1 1502:1 
28367.82664428433 206:1 293:1 475:1 638:1 1484:1 1500:1 1505:1 1506:1 1507:1 1508:1 
9466.558584043058 27:1 203:1 390:1 1510:1 1511:1 
13022.63513250583 1513:1 
138147.3449171999 84:1 437:1 1149:1 1514:1 1515:1 1516:1 
204092.0649577912 176:1 224:1 243:1 369:1 512:1 1073:1 1517:1 
95066.50690496768 271:1 321:1 593:1 744:1 1045:1 1518:1 1519:1 
262589.9488026351 132:1 216:1 228:1 320:1 1520:1 
4136.628009423129 1355:1 
84733.35498585316 1521:1 
84753.05146145973 1523:1 
87607.04940758838 64:1 198:1 206:1 223:1 241:1 875:1 980:1 1522:1 1524:1 
39740.35183656053 35:1 184:1 458:1 778:1 1114:1 1527:1 
9207.110457041092 448:1 517:1 1530:1 1531:1 
33932.86220552929 34:1 169:1 1470:1 1532:1 1533:1 1534:1 
2124104.546462001 7:1 94:1 1522:1 
12657.85598753944 288:1 311:1 383:1 1484:1 1536:1 1537:1 1538:1 
550686.5152137981 153:1 494:1 
80139.88843542333 495:1 
8781.207422839532 480:1 1242:1 1474:1 
24843.19501328189 176:1 1425:1 1539:1 
32642.22128918224 311:1 614:1 1177:1 1540:1 1541:1 
322.2849925625651 63:1 317:1 791:1 1542:1 1543:1 
31007.54157493942 27:1 293:1 428:1 
69250.47046177396 1544:1 1545:1 
130900.4029771471 107:1 648:1 649:1 1425:1 1546:1 
172208.9646754954 103:1 340:1 449:1 1545:1 1549:1 1550:1 
22409.7671844902 64:1 103:1 153:1 176:1 1551:1 
3984.869025202927 6:1 67:1 85:1 
427874.5368569074 293:1 1484:1 1500:1 
47053.19196789872 6:1 11:1 350:1 578:1 1043:1 1557:1 
18728.77228728028 523:1 638:1 1484:1 1560:1 1561:1 
37215.70911893307 33:1 34:1 51:1 102:1 383:1 
51970.63216109286 16:1 22:1 23:1 24:1 1484:1 
5629.686160686078 561:1 638:1 1484:1 1560:1 1562:1 1563:1 
74815.29229953988 16:1 68:1 521:1 763:1 854:1 1329:1 1397:1 1565:1 
7791.080057353526 103:1 336:1 337:1 448:1 710:1 1566:1 
55552.48184867006 384:1 1115:1 1567:1 1574:1 1575:1 
52976.90753619727 156:1 1578:1 1579:1 1580:1 
5193.447236691805 84:1 280:1 332:1 783:1 1087:1 1440:1 1581:1 1582:1 
8731.574245504926 330:1 716:1 1144:1 1585:1 1586:1 1587:1 
7468.270477652163 1104:1 
81552.57522880154 124:1 229:1 343:1 590:1 736:1 972:1 998:1 1158:1 1588:1 1589:1 
14172.88218714316 64:1 999:1 1090:1 1387:1 1600:1 1601:1 
431.8087550054177 205:1 358:1 437:1 556:1 593:1 1591:1 1602:1 1603:1 
2042.653282035849 882:1 1605:1 1606:1 
122968.8091785397 38:1 299:1 300:1 302:1 303:1 304:1 306:1 308:1 624:1 906:1 907:1 983:1 
3739.45211508333 229:1 670:1 1012:1 1608:1 1609:1 1610:1 
1722645.77643971 11:1 19:1 72:1 
7560.170876926079 69:1 153:1 154:1 181:1 464:1 1577:1 
10100.24410097172 133:1 151:1 372:1 1569:1 1575:1 1613:1 1614:1 
104006.9190024315 1611:1 1615:1 1616:1 
112274.0389475752 51:1 130:1 394:1 680:1 
61815.72508643747 326:1 689:1 
36858.58690646676 229:1 1321:1 
53401.60130772072 11:1 12:1 72:1 197:1 1577:1 1618:1 
126020.6771478525 22:1 23:1 1119:1 1620:1 
9398.204441502061 18:1 1055:1 1118:1 1177:1 1621:1 
5523.206912117485 48:1 131:1 1622:1 
257540.3140316034 393:1 
28655.33758195491 280:1 1126:1 1610:1 
345211.4422394314 625:1 1195:1 1627:1 
216609.3793164456 51:1 515:1 680:1 1034:1 1035:1 1628:1 
233584.8123824874 53:1 236:1 416:1 437:1 1351:1 1610:1 1630:1 1631:1 1632:1 
1446.414918495975 416:1 512:1 600:1 1545:1 
134112.8895370689 190:1 593:1 970:1 986:1 1633:1 1634:1 1635:1 
203603.5347301531 1636:1 1637:1 
10591.20798870447 124:1 343:1 472:1 1205:1 1638:1 1639:1 
47447.35864598805 224:1 241:1 744:1 1000:1 1058:1 1634:1 1640:1 1641:1 
2673.914761611036 175:1 190:1 874:1 1233:1 1642:1 1643:1 1644:1 
612425.9834573126 285:1 692:1 
28257.3553898446 66:1 369:1 726:1 973:1 1003:1 1055:1 1583:1 1647:1 
3615.614768598582 27:1 241:1 736:1 744:1 872:1 1639:1 1648:1 1649:1 
1774.048812244078 190:1 264:1 340:1 1650:1 
113216.7749792469 84:1 328:1 1610:1 1653:1 
6310.417401143939 69:1 464:1 1653:1 
3055.179281424236 11:1 1654:1 
5106.62280697035 874:1 1610:1 
46211.74079506331 38:1 762:1 1610:1 
111393.848304407 38:1 1610:1 1656:1 
262314.1208268537 113:1 153:1 314:1 494:1 614:1 882:1 1610:1 1658:1 
29648.39686247718 1659:1 
16738.3988225032 1660:1 
3321.386500714591 167:1 422:1 499:1 
9426.1555535846 36:1 183:1 1661:1 
108403.192237118 275:1 1610:1 
28548.79153899467 34:1 51:1 95:1 183:1 680:1 826:1 1662:1 1663:1 
30391.28130963708 378:1 529:1 1290:1 1435:1 1664:1 
234380.4363736365 108:1 480:1 496:1 1610:1 
52549.9686315885 98:1 125:1 1666:1 
10785.69473317591 233:1 1667:1 
103167.6469490842 121:1 236:1 828:1 1039:1 1669:1 1670:1 1671:1 
36913.3160027904 1672:1 
137099.4978605083 176:1 1020:1 
2703189.126450122 1673:1 
1816635.994828943 53:1 
3086.729165539396 1675:1 
22831.84659818274 167:1 175:1 216:1 228:1 277:1 1676:1 
54193.12734709123 175:1 1677:1 
136776.7133766341 63:1 99:1 556:1 1199:1 
27840.64172695693 216:1 744:1 1087:1 1678:1 1679:1 1680:1 
95492.80215482233 1681:1 
87633.97969041688 1682:1 
102401.9788536698 471:1 620:1 621:1 1076:1 1077:1 1667:1 
120196.1502982796 1106:1 1684:1 
9573.74240541886 107:1 258:1 360:1 758:1 1503:1 1685:1 
13455.05035109165 176:1 857:1 1686:1 
929.2805490327877 13:1 107:1 122:1 173:1 280:1 351:1 390:1 499:1 1279:1 
39488.78883784539 169:1 350:1 497:1 793:1 1349:1 1688:1 1689:1 1690:1 1691:1 
201001.546694068 181:1 207:1 327:1 
328.9137358064723 496:1 768:1 1692:1 
22220.00086532917 68:1 165:1 284:1 1694:1 1695:1 1696:1 
83483.21547042005 22:1 23:1 475:1 1117:1 1667:1 
32137.19486306925 807:1 937:1 1697:1 1698:1 
122546.1576089528 38:1 130:1 294:1 
55348.57170998306 38:1 58:1 176:1 625:1 1699:1 1700:1 1701:1 
8491.955636180739 1023:1 1702:1 
2506.368081733036 356:1 357:1 535:1 536:1 537:1 932:1 
17345.75320316997 71:1 148:1 348:1 1188:1 1703:1 
1237527.876987142 138:1 1704:1 
92574.64939908353 165:1 659:1 660:1 
65780.6400161702 34:1 56:1 165:1 284:1 1711:1 1712:1 
7317.945789643749 27:1 176:1 183:1 638:1 1713:1 1714:1 1715:1 1716:1 
117294.9317787138 328:1 508:1 937:1 1719:1 1720:1 
9826.379161639645 43:1 56:1 183:1 822:1 1384:1 1495:1 1713:1 1716:1 1721:1 
10619.94152636564 38:1 283:1 1713:1 1716:1 1720:1 1722:1 1723:1 
61394.90870825775 27:1 37:1 1324:1 1694:1 1696:1 1724:1 1725:1 1726:1 
140448.6202002144 284:1 316:1 394:1 698:1 
30004.80486889993 1728:1 1729:1 1730:1 1731:1 1732:1 
31287.40403614124 34:1 130:1 349:1 420:1 687:1 824:1 1733:1 1734:1 
368366.1648185845 1056:1 1737:1 
1841.909225902231 527:1 
1011.310351998837 1738:1 1739:1 1740:1 
555.1472458562438 1741:1 1742:1 
131171.642128772 34:1 267:1 717:1 1228:1 1480:1 1745:1 
72967.88120694846 48:1 49:1 1746:1 
29863.12778993238 55:1 778:1 1747:1 
351733.3842427321 14:1 146:1 1668:1 1748:1 
20451.5576581541 135:1 1738:1 1749:1 
44106.41132777847 867:1 868:1 
8837.391962904403 217:1 280:1 1185:1 
17490.45345881631 300:1 1009:1 1739:1 1750:1 1751:1 1752:1 
9437.823071132407 176:1 1753:1 
27152.22646364467 1757:1 
59467.09264242418 508:1 1205:1 
4807.664587794884 265:1 304:1 305:1 492:1 744:1 1645:1 1706:1 1761:1 1762:1 
353066.7717407761 215:1 217:1 
101765.0073268282 34:1 320:1 1082:1 1766:1 
2747.686569646324 197:1 1738:1 1769:1 1770:1 
11405.37383435519 137:1 529:1 1080:1 1771:1 
468.951859948188 1738:1 1772:1 
200651.203150958 181:1 1353:1 1774:1 
1565.275059339646 1775:1 
387452.6983211766 49:1 1776:1 
31047.57478399431 496:1 537:1 539:1 
6432.416859483117 234:1 239:1 
20386.07145711378 70:1 153:1 176:1 1084:1 1782:1 
19699.44241808531 1784:1 1785:1 1786:1 
11437.18585120774 1787:1 
12306.08883652288 10:1 11:1 176:1 334:1 357:1 589:1 1023:1 1788:1 1789:1 
470874.7542565529 7:1 509:1 510:1 1791:1 
37575.20569994824 197:1 509:1 668:1 1409:1 1446:1 1795:1 1796:1 
33245.6589347444 153:1 1797:1 
1687.398926217421 1798:1 
60332.41924601868 318:1 
30363.98343324526 1362:1 1799:1 1800:1 
96814.29492231761 1801:1 
25202.65926248244 1802:1 
18320.10246202581 68:1 589:1 1477:1 
847980.8573898791 38:1 66:1 68:1 162:1 198:1 444:1 
111613.8618569416 57:1 452:1 466:1 469:1 898:1 1805:1 
28406.87080404914 161:1 250:1 1803:1 1806:1 1807:1 1808:1 
5556.359871877265 238:1 544:1 1812:1 1813:1 
8666.330216722476 1815:1 1816:1 
30409.10969697796 27:1 167:1 373:1 1004:1 1074:1 1303:1 1817:1 1818:1 
5532.703934408722 3:1 4:1 87:1 267:1 484:1 1012:1 1819:1 1820:1 1821:1 1822:1 
6789.134125365262 535:1 787:1 788:1 1283:1 1303:1 
8617.083377012625 295:1 1825:1 
53077.64486721643 181:1 509:1 510:1 
10494.2375109856 1023:1 1290:1 1564:1 
104352.3876780342 18:1 295:1 1119:1 1215:1 1281:1 
15841.71469971503 56:1 684:1 686:1 687:1 1819:1 1828:1 1829:1 1830:1 
23616.39588513532 1831:1 1832:1 1833:1 1834:1 1835:1 1836:1 1837:1 1838:1 
11162.11775879208 33:1 36:1 127:1 183:1 1839:1 1840:1 1841:1 
339.8307122189058 674:1 1842:1 1843:1 
31964.37338585227 137:1 146:1 1848:1 1849:1 
24402.77877097592 18:1 350:1 1397:1 1556:1 1850:1 
87557.34435297053 372:1 1558:1 1559:1 
7159.759556193861 144:1 496:1 1296:1 1853:1 1854:1 1855:1 
5010.830828609703 13:1 39:1 51:1 121:1 169:1 800:1 1857:1 
46880.91146901953 881:1 
647001.0019110454 176:1 216:1 451:1 1861:1 1862:1 
48843.54498038033 1864:1 
30618.69227299304 509:1 510:1 1865:1 
33960.80131753281 288:1 631:1 
77953.16420919998 135:1 416:1 458:1 1856:1 1866:1 1867:1 
35660.98221737557 206:1 464:1 
3175.040405077468 509:1 1446:1 1870:1 
3229.484061382616 197:1 418:1 451:1 1871:1 
5263.446556919271 197:1 334:1 451:1 509:1 1046:1 1446:1 1872:1 
169559.4860244421 735:1 1823:1 
985812.4309236159 746:1 1657:1 1874:1 
183.3598193703758 384:1 580:1 1512:1 1875:1 
11816.42405706701 1579:1 
886.1306924599035 10:1 11:1 475:1 1876:1 
5702.909832535523 176:1 280:1 305:1 434:1 451:1 1055:1 1877:1 
3987.305237214491 55:1 334:1 472:1 593:1 1207:1 1878:1 1879:1 1880:1 
186695.4213213564 394:1 965:1 
21894.85312061523 64:1 224:1 240:1 243:1 261:1 1058:1 1207:1 1886:1 
1049020.714436034 252:1 
2087.727555513247 18:1 138:1 934:1 960:1 
46044.23275790736 3:1 4:1 13:1 183:1 1888:1 1889:1 
3117.078767177484 38:1 299:1 300:1 301:1 302:1 303:1 304:1 305:1 306:1 983:1 1222:1 1890:1 
205231.5588674064 34:1 523:1 1892:1 1893:1 
581338.1686200006 113:1 153:1 422:1 494:1 614:1 
182703.9264983847 703:1 1897:1 1898:1 
917.5585821465085 1088:1 1238:1 
31157.84770159746 230:1 576:1 1899:1 
8130.616192652087 643:1 915:1 1226:1 1599:1 1881:1 1882:1 1901:1 
2430.154144825657 103:1 107:1 169:1 523:1 1902:1 1903:1 1904:1 
331025.4491337062 848:1 
20402.40473357355 57:1 120:1 652:1 1905:1 
7777.043440052195 103:1 173:1 499:1 589:1 
22925.01635120732 222:1 651:1 652:1 1906:1 1907:1 
71471.17688197408 103:1 519:1 520:1 625:1 652:1 845:1 848:1 1029:1 1030:1 1552:1 1908:1 1909:1 
82603.00010919481 522:1 1910:1 
34459.96484255354 60:1 1911:1 
7814.359389975936 61:1 271:1 
106543.5038314247 736:1 757:1 1022:1 1024:1 1913:1 1914:1 1915:1 
18814.20290279114 497:1 
19184.93336799678 390:1 1916:1 1917:1 
17876.33502872983 176:1 1039:1 1918:1 
58004.69365548158 777:1 1917:1 
47525.90741079451 1921:1 
17942.77253715416 13:1 176:1 370:1 1922:1 1923:1 1924:1 
30382.57296255955 280:1 660:1 911:1 1087:1 1581:1 1846:1 1925:1 1926:1 
4037.610804401727 206:1 392:1 587:1 1524:1 1930:1 1931:1 
635.9685985159769 250:1 264:1 437:1 1931:1 1932:1 1933:1 
113633.59636907 223:1 340:1 884:1 917:1 1936:1 
7741.472745907535 64:1 176:1 223:1 439:1 918:1 1040:1 1937:1 1938:1 
358.3114247809212 13:1 137:1 223:1 224:1 241:1 434:1 593:1 918:1 1940:1 1941:1 
3556.859119966603 27:1 84:1 190:1 250:1 590:1 736:1 1070:1 1149:1 1942:1 1943:1 
5496.608636447429 1284:1 
41384.59093441018 1948:1 1949:1 1950:1 1951:1 1952:1 1953:1 1954:1 1955:1 1956:1 1957:1 1958:1 1959:1 1960:1 
16155.07721367463 897:1 1962:1 
28986.44781545213 37:1 68:1 1917:1 1963:1 
24784.29670727378 107:1 239:1 581:1 668:1 1954:1 1964:1 
127770.6991134526 132:1 383:1 827:1 1965:1 
9624.985112570548 47:1 1965:1 1966:1 1967:1 1968:1 
74458.45705544483 313:1 1474:1 1772:1 1917:1 
9461.2849062818 34:1 1228:1 1969:1 
890.1533825085826 462:1 1322:1 
201456.273376865 599:1 933:1 
99112.06985484913 351:1 
302.5376117768684 34:1 435:1 569:1 716:1 1278:1 1394:1 1839:1 1970:1 1971:1 
3961.974422354971 169:1 197:1 1735:1 
111202.0295187254 1118:1 
18228.73585674388 10:1 11:1 12:1 1974:1 1975:1 1976:1 
19457.78267656792 1977:1 
19196.47033936346 27:1 108:1 1119:1 1978:1 
829.6675322405441 406:1 894:1 1979:1 
13488.77217344335 127:1 137:1 1394:1 1971:1 1980:1 
120584.038190396 1917:1 
8572.147039846284 1936:1 1981:1 
56585.57793037503 125:1 169:1 350:1 798:1 938:1 1023:1 1851:1 1982:1 
43752.40728178086 680:1 709:1 1568:1 
2115.728137466239 280:1 453:1 1983:1 1984:1 1985:1 
7843.180345018772 25:1 34:1 144:1 216:1 1038:1 1256:1 1986:1 1987:1 1988:1 
13805.44482458451 234:1 680:1 
10455.61691031705 103:1 474:1 1038:1 1054:1 1253:1 1785:1 1992:1 1993:1 1994:1 
19326.02642205699 31:1 37:1 64:1 103:1 340:1 1082:1 1462:1 1995:1 1996:1 
20157.94095684259 103:1 107:1 122:1 656:1 1552:1 1997:1 1998:1 
41323.06202767818 10:1 11:1 12:1 1256:1 1999:1 
38697.6503428393 234:1 2002:1 
822745.6429430727 10:1 11:1 12:1 172:1 
23465.27506857548 2003:1 
115373.4168689614 710:1 2005:1 2006:1 2007:1 
43786.0710887399 497:1 1106:1 1256:1 2010:1 
10776.95761219389 384:1 2011:1 
57231.02077598483 62:1 916:1 1744:1 2014:1 
49169.6176399236 147:1 1440:1 2016:1 
3974.405547304958 1146:1 
578.0603938043818 12:1 38:1 56:1 183:1 2017:1 2018:1 2019:1 
47313.15985199827 10:1 11:1 197:1 2020:1 
556.6526796943517 1:1 12:1 139:1 197:1 387:1 388:1 2020:1 
58202.05176142998 185:1 579:1 580:1 1875:1 
1008.386520255912 10:1 11:1 12:1 148:1 
45509.60222847597 10:1 11:1 12:1 60:1 
1017196.257559113 10:1 11:1 12:1 
31800.04093813011 1393:1 
92048.20292281843 920:1 2022:1 2023:1 
60964.24752863385 478:1 728:1 729:1 730:1 1450:1 1930:1 
36853.69879644365 198:1 223:1 437:1 1070:1 1149:1 1755:1 2024:1 2025:1 
877.3596211956839 122:1 176:1 217:1 913:1 917:1 
12925.1602703075 917:1 918:1 
83408.04969648788 68:1 870:1 924:1 1460:1 
11634.31033641213 153:1 176:1 836:1 1428:1 1749:1 2026:1 
7020.922074509155 2030:1 
5702.974430582038 175:1 2033:1 
8097.755823538523 2034:1 2035:1 
372023.8172875258 749:1 
15435.80496109787 2036:1 
69446.64487474198 264:1 437:1 1571:1 2037:1 2038:1 
3183.451923532543 27:1 223:1 227:1 437:1 725:1 1137:1 1939:1 2029:1 2039:1 
2422.64640252765 84:1 1156:1 2040:1 
12282.10825323904 1939:1 
2355.861129078988 778:1 2043:1 
24257.48414027482 69:1 418:1 2044:1 2045:1 2046:1 
31480.40829227447 668:1 
33093.25020360344 639:1 2047:1 
29116.64442523398 13:1 34:1 194:1 462:1 1256:1 2048:1 
3337.750282278872 13:1 130:1 234:1 922:1 2049:1 
27396.5410386493 38:1 299:1 300:1 301:1 302:1 303:1 304:1 305:1 308:1 983:1 1222:1 2051:1 
70883.96079426871 10:1 11:1 12:1 181:1 484:1 1891:1 
2452.608717923718 797:1 1614:1 2052:1 2053:1 2054:1 
58123.44435418858 2055:1 
598.9394249320839 1033:1 1256:1 
662.1455185709951 2:1 326:1 2056:1 
28983.695369769 667:1 2057:1 
85347.5966053669 10:1 11:1 12:1 98:1 224:1 1377:1 
21908.75126302343 176:1 2059:1 
12013.35336451969 68:1 1049:1 1477:1 
9765.791631781551 103:1 512:1 2060:1 
14353.15710609409 120:1 340:1 374:1 648:1 649:1 1624:1 2061:1 2062:1 
499.7707976143353 71:1 72:1 264:1 288:1 717:1 1744:1 2063:1 
29975.78022880997 121:1 176:1 337:1 600:1 1773:1 2065:1 2066:1 
11070.2361983865 38:1 103:1 107:1 518:1 519:1 520:1 625:1 885:1 1029:1 1079:1 2067:1 
14912.26570728587 1175:1 2068:1 
179994.3679468302 39:1 48:1 50:1 295:1 824:1 1501:1 1886:1 
89521.06683601627 18:1 1135:1 2069:1 
3902.765444271284 10:1 11:1 12:1 154:1 827:1 
247203.8050498519 10:1 11:1 12:1 22:1 23:1 24:1 184:1 275:1 277:1 535:1 
7998.310578784572 105:1 183:1 1574:1 1665:1 2053:1 2073:1 2074:1 
2876.471574164438 2075:1 
1326.771855180911 290:1 2076:1 
16595.62237852529 16:1 463:1 1983:1 2077:1 
1386138.235282671 49:1 
38462.32514085544 108:1 165:1 1256:1 2082:1 
45174.11101459794 68:1 84:1 167:1 2079:1 2080:1 2081:1 
423668.7744084445 62:1 
17942.76497339336 2083:1 
64695.74076891089 2084:1 2085:1 2086:1 
14038.19887035136 967:1 2087:1 2088:1 
10079.33802918747 79:1 453:1 641:1 2071:1 
57203.81900620689 40:1 293:1 378:1 985:1 1327:1 2006:1 2089:1 2090:1 
246200.637804992 1759:1 2091:1 2092:1 
40265.45699024032 176:1 639:1 1335:1 
802400.6266775639 1032:1 
11782.14779136248 107:1 439:1 2093:1 
25858.24613592264 13:1 285:1 451:1 480:1 517:1 2094:1 2095:1 2096:1 2097:1 
6634.384584498295 153:1 1279:1 2099:1 
580.5346203628818 418:1 453:1 1179:1 2100:1 2101:1 
81297.64744230782 738:1 
237972.8366653581 125:1 348:1 508:1 
88934.83639266086 777:1 1090:1 1176:1 1492:1 
61913.23102307437 63:1 176:1 278:1 1571:1 1804:1 
842.8915828995773 2109:1 2110:1 
1602.517958613633 107:1 320:1 625:1 2111:1 
18081.29514272585 107:1 1074:1 2112:1 2113:1 
2378.428958761359 104:1 819:1 1038:1 2115:1 
3170.007005024575 2116:1 
42775.56436029246 169:1 915:1 1287:1 2117:1 2118:1 2119:1 2120:1 
7942.519633144279 350:1 435:1 493:1 1293:1 
6427.582376212488 21:1 34:1 190:1 1169:1 2121:1 
9193.495838317216 27:1 593:1 1647:1 2122:1 2123:1 
33675.24442135102 68:1 122:1 444:1 1425:1 2124:1 
135450.8458288386 658:1 2125:1 
2461.953682192057 917:1 1503:1 2125:1 
993.6370541860047 27:1 59:1 1545:1 1642:1 2126:1 2127:1 
18066.9090614125 2128:1 
2632.400916706319 61:1 843:1 2133:1 2134:1 
34977.89305701646 57:1 170:1 253:1 435:1 980:1 2132:1 2135:1 
164046.5694122139 668:1 2145:1 
53831.55203669949 27:1 57:1 170:1 435:1 736:1 2144:1 2147:1 
20837.23050142848 299:1 473:1 590:1 744:1 972:1 2148:1 2149:1 
7148.665395969409 63:1 236:1 252:1 1000:1 1645:1 1706:1 2143:1 2150:1 
287914.8505181435 262:1 512:1 727:1 1073:1 1108:1 1168:1 2144:1 2151:1 
289084.1556422852 504:1 
882.8666551807919 2004:1 
124787.1965769122 38:1 299:1 300:1 302:1 303:1 304:1 305:1 306:1 308:1 762:1 918:1 1222:1 
1280.313932751283 13:1 275:1 2125:1 2152:1 
12627.08434092362 25:1 197:1 275:1 1961:1 2125:1 2154:1 
267006.7801790877 65:1 80:1 2155:1 
35892.6894272799 48:1 49:1 65:1 797:1 2156:1 
11402.43824881795 51:1 147:1 680:1 776:1 
19517.71830620662 567:1 590:1 2162:1 2163:1 
64366.46795510178 280:1 593:1 703:1 1132:1 2165:1 
19140.44230414628 351:1 1151:1 
8101.676871265367 61:1 1475:1 
56236.37773496012 351:1 2166:1 
2414.188564131184 53:1 107:1 
3817.030438899837 2162:1 2167:1 
290.6627878826245 63:1 265:1 593:1 744:1 982:1 2168:1 
61669.74527458944 654:1 
11709.33745580141 340:1 437:1 879:1 899:1 1030:1 1144:1 1357:1 2169:1 
30983.80417303445 57:1 512:1 1028:1 2170:1 2171:1 2172:1 
118856.615386131 38:1 620:1 621:1 1032:1 
37990.85117785851 275:1 1474:1 2162:1 
142546.2948646189 48:1 181:1 360:1 361:1 395:1 
75031.20790803156 716:1 2179:1 
4387.10909772483 1556:1 2182:1 2183:1 
1420.82825813187 299:1 2184:1 
30430.19131245356 1080:1 2185:1 2186:1 
8036.698876169586 304:1 2187:1 
9003.156421956604 435:1 1290:1 1322:1 1564:1 2188:1 2189:1 
6325.253973564659 8:1 34:1 717:1 1290:1 1313:1 2190:1 2191:1 
70893.68836305066 577:1 1127:1 2192:1 
25781.39974781122 183:1 773:1 900:1 1236:1 
21205.02086964683 1181:1 
680.6202107317769 59:1 983:1 2198:1 
98170.82205169357 102:1 616:1 817:1 1454:1 
15363.28945817584 2199:1 2200:1 
148289.7355109747 34:1 95:1 2014:1 
5869.574955022797 50:1 2201:1 
11600.69507065739 34:1 485:1 2202:1 2203:1 
62745.5482193499 14:1 379:1 2204:1 
6858.34721147722 116:1 1171:1 
43709.0207557418 1316:1 1333:1 2205:1 
1381.532508830851 2206:1 
5693.55921687554 130:1 239:1 350:1 531:1 1332:1 2208:1 
7542.139671658062 110:1 139:1 144:1 312:1 692:1 772:1 2209:1 
14214.2146979078 390:1 2026:1 
338237.2858809239 233:1 1353:1 2210:1 
23138.21276091381 66:1 346:1 857:1 1573:1 2211:1 2212:1 
3715.997337520979 206:1 317:1 576:1 2213:1 
780.0909863592593 27:1 480:1 778:1 826:1 1039:1 
10475.93786999322 59:1 2214:1 2215:1 
23285.00860651043 183:1 349:1 579:1 580:1 2217:1 
144262.9054393548 2019:1 2210:1 
104322.1694069594 772:1 2219:1 
14636.72800189017 451:1 1179:1 1545:1 
43851.81654384554 2222:1 2223:1 
16004.54482935951 2224:1 
3352.768324293115 124:1 224:1 241:1 267:1 343:1 2225:1 2226:1 
671.6656387381036 120:1 299:1 433:1 593:1 725:1 2028:1 2173:1 2228:1 
14184.48320384438 67:1 1859:1 
2167.275073155623 38:1 113:1 169:1 176:1 310:1 313:1 350:1 480:1 496:1 532:1 1393:1 2210:1 
18358.14682632297 69:1 181:1 441:1 464:1 
32265.4917011709 38:1 55:1 492:1 1104:1 2233:1 2234:1 
22611.37954040798 1240:1 
224609.9249640293 107:1 527:1 1195:1 
128203.6726861804 1656:1 
14741.64298202171 1195:1 
5987.279574408243 184:1 710:1 1190:1 1195:1 1614:1 1897:1 2239:1 2240:1 2241:1 2242:1 
14663.63733722437 27:1 507:1 2243:1 2244:1 2245:1 
40956.09359481933 224:1 462:1 703:1 2248:1 2249:1 
127952.6654204841 194:1 237:1 422:1 614:1 1238:1 2193:1 
157463.7728652413 2250:1 2251:1 
1118.053187248003 2253:1 2254:1 2255:1 
53748.14837298766 49:1 899:1 2078:1 2256:1 
4172.927070625229 344:1 422:1 614:1 
14152.76921275847 2236:1 
22257.19998603406 410:1 2257:1 
84506.02273445601 1426:1 
1104.14833759356 280:1 338:1 339:1 390:1 513:1 
12345.41951505398 84:1 121:1 481:1 1021:1 
126970.654301726 554:1 2260:1 
426.1947110262023 169:1 2259:1 
19629.39630086903 710:1 1021:1 1448:1 2261:1 
24519.07721434504 2262:1 
29621.43215223683 2264:1 
2075.432543495073 194:1 2167:1 2263:1 
13868.22973499425 437:1 2267:1 
527386.7479037518 176:1 589:1 720:1 1032:1 
13965.86365645555 79:1 264:1 265:1 640:1 1021:1 2270:1 
11784.06696514559 2271:1 
5435.181660153331 2273:1 
72456.48786434434 38:1 169:1 294:1 
249038.248586321 181:1 1025:1 2279:1 
106731.943495667 485:1 2280:1 
15813.20168267648 1459:1 1690:1 2281:1 2282:1 2283:1 2284:1 2285:1 2286:1 
36885.25108221541 2287:1 
3593.712740472424 484:1 2259:1 
68109.79637374554 396:1 
3917.185295151446 107:1 224:1 293:1 311:1 1343:1 1428:1 2288:1 
15848.38674088551 326:1 555:1 
143926.407029211 411:1 2290:1 
3924.698241882195 273:1 343:1 409:1 412:1 1353:1 2289:1 2293:1 
47868.35460428436 375:1 411:1 412:1 1307:1 1454:1 
472.5955522906083 409:1 418:1 2289:1 2295:1 
2782.608768300757 2259:1 
440.25555156734 103:1 600:1 935:1 1054:1 1055:1 1785:1 1900:1 1992:1 2300:1 
9394.048016702693 103:1 153:1 175:1 176:1 515:1 516:1 1128:1 1900:1 2301:1 
59956.00737042253 38:1 103:1 625:1 1552:1 1908:1 1992:1 1997:1 2302:1 2303:1 2304:1 2305:1 
42426.1329235953 12:1 103:1 122:1 169:1 345:1 517:1 
45630.79372114329 489:1 1163:1 
57349.79055054008 2306:1 
17420.46040187672 2308:1 
12317.27874444959 27:1 38:1 84:1 728:1 2248:1 2309:1 2310:1 2311:1 2312:1 2313:1 
68172.06125945208 116:1 382:1 1747:1 2315:1 2316:1 2317:1 2318:1 
18423.32063294266 13:1 84:1 206:1 229:1 475:1 1128:1 2319:1 2320:1 
13318.31882076282 50:1 183:1 184:1 284:1 1425:1 2231:1 2291:1 2314:1 
28623.56147495249 2322:1 
92678.88148867083 226:1 1339:1 2323:1 
18408.17361199612 2324:1 
13972.24619367664 2325:1 2326:1 
6312.559756154495 216:1 304:1 1740:1 1750:1 2327:1 2328:1 
9703.286241174672 749:1 2329:1 2330:1 
34441.48948307182 121:1 176:1 218:1 
18270.59177838769 220:1 221:1 246:1 2313:1 2334:1 2337:1 2338:1 2339:1 2340:1 2341:1 2342:1 2343:1 2344:1 
40908.96968695255 38:1 299:1 300:1 302:1 303:1 304:1 305:1 308:1 762:1 983:1 1222:1 
452537.0579077079 19:1 38:1 310:1 
963.7136593627444 827:1 1630:1 2231:1 2345:1 
3176.713583102056 173:1 236:1 499:1 669:1 836:1 1045:1 2231:1 
37567.18171690116 435:1 630:1 1293:1 1322:1 1394:1 2000:1 
106289.4693580979 102:1 135:1 
54337.45573558348 68:1 2348:1 2349:1 
62477.76251374997 63:1 69:1 84:1 2259:1 2351:1 2352:1 
20441.60344835143 153:1 278:1 2353:1 2354:1 
2077.080357377752 61:1 198:1 2355:1 2356:1 
7308.582171221395 136:1 169:1 418:1 489:1 2356:1 
11040.22555965131 899:1 
13265.11472698352 130:1 1162:1 
1230.670535854863 57:1 334:1 1014:1 1454:1 2356:1 
776.0531516965943 107:1 418:1 577:1 
12106.10773190286 2362:1 
7294.623577989841 669:1 2363:1 
31032.50889509714 2364:1 
40960.07206101148 978:1 2292:1 
28538.31328762471 351:1 475:1 
130942.389877254 66:1 343:1 843:1 1558:1 2366:1 2367:1 
12990.39633076407 64:1 176:1 1625:1 1885:1 2368:1 
227.7622240626869 590:1 736:1 972:1 1384:1 2372:1 2373:1 
64479.30962028674 956:1 1683:1 
10442.16585076542 79:1 183:1 630:1 899:1 2379:1 
113621.3114689993 25:1 197:1 273:1 274:1 507:1 
31710.08315017422 151:1 1560:1 1896:1 
152702.0639766943 1114:1 
19267.52425565329 68:1 2384:1 2385:1 
6103.634466095182 25:1 320:1 2386:1 
50539.43052487875 323:1 350:1 578:1 1119:1 
75741.18235643515 1912:1 
14876.34751432898 36:1 176:1 183:1 278:1 2387:1 2388:1 
39733.98984107353 372:1 781:1 
25304.0439048021 176:1 2389:1 
63875.75393225591 63:1 103:1 340:1 612:1 1079:1 2394:1 
507.9191660428194 103:1 107:1 122:1 169:1 345:1 
135430.0461549132 68:1 215:1 537:1 2399:1 
2341.652041670596 120:1 170:1 435:1 1767:1 2400:1 2401:1 
67.87013978538677 223:1 227:1 744:1 2402:1 
28718.56132332309 1058:1 1059:1 2403:1 
27793.24861988719 593:1 1002:1 1185:1 1227:1 2333:1 2404:1 2405:1 2406:1 
3105504.96485362 2408:1 
228013.7682249967 1171:1 
199337.1152735239 24:1 276:1 
13974.2681982343 699:1 
2894.856172717283 38:1 299:1 300:1 302:1 303:1 304:1 306:1 491:1 762:1 1222:1 2416:1 
31276.70865375407 1038:1 1225:1 1845:1 2163:1 
29893.53198912713 273:1 635:1 1491:1 2422:1 
67961.20934027531 669:1 958:1 2423:1 2424:1 2425:1 2426:1 
619.6112660819228 544:1 660:1 
667144.5508728484 1124:1 2427:1 2428:1 
14253.04731884307 396:1 544:1 
131084.2688118703 1115:1 
18248.99292508666 2431:1 
8381.290933934974 396:1 477:1 1025:1 2432:1 
22062.22430175065 124:1 175:1 527:1 528:1 531:1 2433:1 2434:1 2435:1 2436:1 2437:1 2438:1 2439:1 2440:1 
12247.26305850874 34:1 458:1 900:1 2441:1 
64330.27560471574 25:1 548:1 854:1 2441:1 2442:1 
17295.61032088493 68:1 176:1 401:1 2443:1 
32433.60787719199 275:1 853:1 2417:1 2418:1 2444:1 
12396.66152403233 90:1 761:1 2445:1 2446:1 
8758.65996857728 33:1 80:1 119:1 169:1 535:1 2448:1 
8663.124987537622 1223:1 1668:1 2449:1 2450:1 2451:1 
9636.517242821859 84:1 206:1 882:1 2455:1 
81482.47307969905 176:1 495:1 
53219.59975148678 745:1 1606:1 2078:1 2456:1 
581775.0572106839 883:1 
2650.471562685056 27:1 2457:1 
19987.7799533271 409:1 702:1 772:1 773:1 2289:1 
2622.035592765864 854:1 
7123.100981226306 68:1 104:1 2458:1 
32022.82914291428 2460:1 
10390.29961373253 137:1 184:1 2175:1 2461:1 
8382.508298470042 59:1 141:1 576:1 2462:1 
64751.03679692728 2463:1 2464:1 
43530.2519561874 224:1 2467:1 
52027.47570404261 2468:1 
30999.29676079169 176:1 284:1 428:1 898:1 1393:1 1542:1 
58718.28316776662 1245:1 2469:1 2470:1 2471:1 
16080.13541202301 51:1 680:1 2472:1 
41911.03456671697 51:1 680:1 1911:1 2473:1 
34627.68172241508 625:1 2474:1 2475:1 
35220.66207599368 51:1 680:1 2476:1 
25145.87304035018 107:1 1074:1 2408:1 2478:1 
83565.18565711231 84:1 239:1 255:1 422:1 2398:1 
30537.10418631892 2480:1 
380447.5788151725 1058:1 
46166.68312829999 529:1 853:1 1025:1 2479:1 
5427.356510203571 120:1 173:1 576:1 2482:1 2483:1 2484:1 
79237.96844551493 259:1 418:1 453:1 1179:1 2465:1 2485:1 
213.5630771637111 948:1 2158:1 
7137.828353890511 908:1 
1816.498217314185 763:1 2487:1 
8779.497252376483 2488:1 2489:1 
848.3459934226618 2486:1 
1212.738009060319 77:1 120:1 122:1 474:1 1809:1 2483:1 2490:1 2491:1 
978.4281174061825 27:1 77:1 161:1 2490:1 
1053.490883500385 25:1 34:1 38:1 361:1 2401:1 2492:1 2493:1 2494:1 2495:1 2496:1 2497:1 
378.1976942925484 69:1 123:1 124:1 413:1 2463:1 2498:1 2499:1 
1677.028841626208 68:1 107:1 527:1 824:1 
10741.04686684339 768:1 
4108.418162354072 125:1 224:1 348:1 1428:1 1875:1 2500:1 
16169.28189521166 2501:1 
36290.20307482751 69:1 104:1 416:1 418:1 453:1 646:1 1163:1 1229:1 2502:1 2503:1 2504:1 
37525.80081211028 122:1 2505:1 
2364.71606059417 229:1 2506:1 2507:1 
16456.77768905921 27:1 45:1 680:1 2508:1 
27556.29485051772 27:1 161:1 2408:1 
922.464823387905 1414:1 
11457.91204723777 673:1 2509:1 
24501.58564456157 56:1 922:1 
63222.79751540581 723:1 2510:1 2511:1 
73610.62085913635 2512:1 2513:1 
15081.48025652919 68:1 90:1 107:1 122:1 
787036.2947092807 223:1 680:1 
292742.2346110909 133:1 1324:1 1435:1 
5846.66210580902 2519:1 
14730.47242855025 2520:1 
9097.985474562764 641:1 736:1 2521:1 2522:1 2523:1 
6607.907093857209 63:1 2525:1 
112337.8139378484 177:1 288:1 496:1 1296:1 1853:1 
1311.828910909569 50:1 2526:1 
625.0236082359706 181:1 340:1 686:1 
29467.90074913117 60:1 334:1 2527:1 
37317.1668466318 61:1 64:1 80:1 1544:1 1881:1 1882:1 2528:1 
6579.798381893536 658:1 966:1 
44819.75817365502 348:1 375:1 487:1 614:1 1294:1 
1088.660303371768 63:1 1068:1 2529:1 2530:1 2531:1 
189681.9259856375 252:1 288:1 1749:1 
795516.9821800066 159:1 701:1 
549886.4394129429 46:1 60:1 165:1 747:1 
7664.414465779011 2533:1 
139841.2382791738 271:1 
16692.2136405065 2534:1 
13317.23912669044 350:1 2008:1 2009:1 2073:1 
1778.098330216433 51:1 2535:1 
935.0653467114914 153:1 529:1 2413:1 2537:1 
241007.5296612976 84:1 1924:1 
5985.112186404567 17:1 197:1 487:1 2538:1 2539:1 
869.2826406043513 60:1 197:1 322:1 2540:1 
449527.4529024123 122:1 176:1 372:1 817:1 
4314.873042766223 176:1 217:1 529:1 
89577.52523225192 84:1 176:1 340:1 380:1 590:1 1149:1 2541:1 2542:1 
42970.54717639809 720:1 1872:1 2454:1 
3192.650622341742 2546:1 2547:1 
133383.3309644112 223:1 271:1 434:1 1064:1 
1891.94093787717 1574:1 2053:1 
17593.49753552321 625:1 
5435.084631263959 658:1 2532:1 
55143.42460136332 25:1 1860:1 2552:1 
63347.48008554496 71:1 197:1 1130:1 1133:1 1479:1 2550:1 
98195.18323292727 2553:1 2554:1 2555:1 
3300.396234566032 34:1 281:1 561:1 898:1 1340:1 
679.149725077662 154:1 578:1 
247.9641284213663 130:1 173:1 317:1 1307:1 1454:1 2482:1 
112730.2149803832 34:1 130:1 349:1 420:1 687:1 824:1 1733:1 
49911.07467702794 69:1 464:1 
1189.053467634049 437:1 458:1 978:1 2292:1 
2232.23857391363 34:1 153:1 985:1 1088:1 
2071.486484712526 130:1 2562:1 
96522.74200184732 239:1 255:1 356:1 1860:1 
22848.60059441577 531:1 786:1 1332:1 2564:1 
18764.14419460666 63:1 206:1 475:1 1437:1 2565:1 
628.4739717934605 51:1 67:1 153:1 173:1 2563:1 
223398.3694097605 2566:1 
7990.395618571773 1031:1 
16153.83787476687 224:1 241:1 261:1 726:1 1000:1 1003:1 2569:1 
722.1979803590795 170:1 216:1 250:1 435:1 471:1 726:1 874:1 2570:1 2571:1 2572:1 
1665.520948189029 2551:1 2563:1 
56277.26727276072 2551:1 
999.0395211339935 269:1 425:1 1674:1 2573:1 2574:1 2575:1 2576:1 
3650.999957326607 102:1 131:1 2577:1 
699.8533900324896 175:1 2578:1 
33408.64696044808 79:1 216:1 223:1 317:1 2579:1 2580:1 2581:1 
8096.977054938107 905:1 2582:1 
4669.305864911924 222:1 874:1 1810:1 2583:1 
3983.726995048708 27:1 61:1 593:1 1157:1 2042:1 2584:1 2585:1 2586:1 
7564.545078130302 102:1 131:1 624:1 2563:1 2587:1 
122816.7197861328 69:1 102:1 437:1 573:1 665:1 817:1 972:1 2335:1 
1108598.049903066 278:1 
457039.7744404436 53:1 169:1 
35376.85849721157 184:1 1929:1 2377:1 
348.7088354297323 630:1 2563:1 2593:1 
589549.5050621004 322:1 328:1 2563:1 
9379.514916299906 176:1 608:1 985:1 1054:1 1105:1 
15313.97334896383 349:1 384:1 643:1 2563:1 2596:1 
40731.99693424509 360:1 361:1 504:1 950:1 2594:1 2595:1 
65038.89892179446 326:1 
196270.6595520439 411:1 
113250.7160720366 447:1 1104:1 1105:1 
499591.3032341737 328:1 824:1 2563:1 
6139.476517486548 224:1 1560:1 2597:1 2598:1 
18986.78085705614 18:1 1104:1 1105:1 2596:1 2599:1 
1353.650239201133 2596:1 2600:1 
3628.940081488136 350:1 496:1 1296:1 2602:1 2603:1 
55902.15348516178 1491:1 2529:1 
1631311.98229034 7:1 
5682.818186685878 229:1 631:1 2601:1 
28693.04111931434 197:1 2604:1 
823.129370689222 50:1 206:1 2291:1 
62053.89931117485 34:1 148:1 1004:1 2605:1 2606:1 
4978.602815187728 51:1 1858:1 
646.2181377070283 1073:1 2032:1 
2831672.428684003 508:1 
2320.86933651595 2607:1 
95920.06609071804 1674:1 
2332.801046835732 1163:1 
228379.5909410059 51:1 680:1 2610:1 
2021.049472708202 72:1 524:1 2517:1 2611:1 2612:1 2613:1 2614:1 2615:1 2616:1 2617:1 
10208.24533560832 1282:1 2386:1 2618:1 
70787.8217966728 1032:1 2612:1 2614:1 2615:1 
42946.40115152728 323:1 932:1 
201215.6545342478 48:1 49:1 65:1 409:1 
2970.203772045958 50:1 68:1 
42477.13172813413 1179:1 2626:1 2628:1 2629:1 
20201.27808951718 1099:1 2626:1 2628:1 2631:1 2632:1 
5538.431638740984 1179:1 2626:1 2628:1 2633:1 
34978.68768461441 227:1 1055:1 2626:1 2628:1 2636:1 
10503.82001523613 63:1 122:1 241:1 437:1 557:1 589:1 594:1 772:1 1982:1 2628:1 2637:1 2638:1 
26983.26664533557 416:1 557:1 606:1 2628:1 2635:1 2641:1 2642:1 
1798.75345849199 124:1 343:1 1095:1 1941:1 2628:1 
61288.16849583419 2628:1 
191198.0191567984 107:1 1326:1 2628:1 
29885.54031228431 124:1 343:1 956:1 2628:1 2658:1 
4078.673915127998 261:1 726:1 1194:1 2142:1 2628:1 2659:1 2660:1 2661:1 
1895.748582665718 97:1 153:1 217:1 589:1 2143:1 2628:1 2631:1 2665:1 2666:1 
1881.572409124578 175:1 216:1 280:1 622:1 1955:1 2625:1 2628:1 
2203.636528611569 38:1 334:1 761:1 981:1 1792:1 2669:1 2670:1 
30197.56100958693 124:1 343:1 557:1 1150:1 1219:1 1642:1 1869:1 2628:1 2673:1 
14916.90601804228 107:1 258:1 538:1 726:1 1055:1 2612:1 2628:1 2659:1 2674:1 2675:1 2676:1 
26742.44749386114 241:1 557:1 1168:1 1169:1 2164:1 2630:1 2659:1 2677:1 2678:1 2679:1 
6894.160209612268 176:1 184:1 250:1 593:1 2634:1 2680:1 2681:1 
3147.465255038927 121:1 124:1 295:1 343:1 645:1 1082:1 1095:1 2612:1 2659:1 2684:1 2685:1 
2177.419666286665 184:1 292:1 343:1 1282:1 1955:1 2625:1 2626:1 2628:1 
16695.02738413235 176:1 1916:1 
6168.547135966341 772:1 837:1 1244:1 2687:1 2688:1 2689:1 
214.9736541751579 269:1 606:1 1236:1 1994:1 2619:1 2695:1 2702:1 
8163.422710762123 59:1 175:1 176:1 463:1 988:1 2164:1 2698:1 2711:1 2712:1 
21981.52815981 184:1 223:1 264:1 276:1 692:1 1159:1 2401:1 
1141.825585337241 13:1 59:1 1159:1 1740:1 2328:1 2402:1 2580:1 2677:1 2695:1 2721:1 
3013.319091612173 121:1 241:1 264:1 589:1 877:1 1467:1 1592:1 2401:1 2403:1 2695:1 2728:1 
1026.989803127579 252:1 473:1 996:1 1108:1 1159:1 2695:1 2698:1 
4487.531591030499 1173:1 2307:1 2415:1 2732:1 
3896.956807266861 2733:1 
282.8488137259495 56:1 72:1 104:1 176:1 2482:1 2734:1 2735:1 
23123.85517035212 72:1 107:1 121:1 142:1 874:1 1042:1 1955:1 2612:1 
59433.10942749203 716:1 900:1 1687:1 2612:1 2734:1 2736:1 2737:1 
816680.0348215827 47:1 49:1 63:1 153:1 374:1 
59055.29153075786 2739:1 2740:1 2741:1 
2241.570529099434 206:1 280:1 361:1 475:1 589:1 1258:1 2628:1 2743:1 
29887.47979977051 249:1 340:1 716:1 1207:1 2612:1 2651:1 2750:1 2751:1 
17944.67061776812 97:1 538:1 951:1 2266:1 2628:1 2631:1 2738:1 2748:1 2749:1 2752:1 2753:1 2754:1 
2476.827605976667 63:1 119:1 181:1 477:1 1462:1 2650:1 2651:1 2656:1 2755:1 
12674.69219639007 97:1 175:1 203:1 216:1 320:1 670:1 1276:1 2757:1 2758:1 
3761.894848307618 162:1 206:1 680:1 744:1 2649:1 2650:1 2651:1 2699:1 2754:1 
2037.508856296472 15:1 64:1 736:1 1070:1 1588:1 2684:1 2759:1 2760:1 2761:1 2762:1 2763:1 
31395.02119732476 453:1 458:1 2631:1 2760:1 2767:1 2768:1 2769:1 2770:1 2771:1 
5414.144325339895 57:1 124:1 224:1 343:1 439:1 790:1 892:1 2220:1 2645:1 2655:1 2756:1 2780:1 
160.3057791233027 13:1 350:1 480:1 1307:1 1454:1 1858:1 2243:1 2687:1 2787:1 2788:1 
65289.78041036581 203:1 990:1 1010:1 1113:1 2321:1 2656:1 2687:1 
10043.83105309606 451:1 1350:1 2742:1 2792:1 2793:1 
1721.970452648084 56:1 156:1 181:1 463:1 2687:1 2799:1 2800:1 
351.5928196773595 27:1 68:1 332:1 662:1 837:1 1133:1 1990:1 2687:1 2689:1 2798:1 2803:1 
2917.707497405074 252:1 340:1 610:1 989:1 1534:1 2798:1 2814:1 2815:1 
18070.50502693391 64:1 224:1 593:1 610:1 2818:1 2819:1 2820:1 2821:1 
95301.96152155449 216:1 241:1 604:1 725:1 902:1 1645:1 2798:1 
2506.120438175803 107:1 169:1 202:1 320:1 466:1 1178:1 1904:1 2838:1 
22388.05566517378 1946:1 2839:1 
3491.759403840914 223:1 224:1 225:1 439:1 458:1 852:1 989:1 1143:1 1762:1 2842:1 2843:1 
1828.180622470023 27:1 557:1 2392:1 2778:1 2844:1 
279.659120442973 213:1 214:1 275:1 2483:1 2612:1 2798:1 2801:1 2816:1 2855:1 2856:1 
4420.493089841859 121:1 347:1 589:1 2798:1 2857:1 
3342.344994184696 57:1 64:1 458:1 459:1 593:1 610:1 975:1 980:1 2798:1 2864:1 
175.3386072888515 224:1 243:1 606:1 610:1 1207:1 2612:1 2798:1 2833:1 2850:1 
8497.333856091947 473:1 670:1 736:1 996:1 2027:1 2824:1 2865:1 2866:1 
25883.98242497104 66:1 84:1 380:1 725:1 2849:1 2869:1 2870:1 2871:1 
4912.37868401266 63:1 64:1 240:1 471:1 852:1 1504:1 2012:1 2798:1 
10765.87214080806 138:1 458:1 606:1 610:1 2833:1 2872:1 
79257.53454709674 68:1 292:1 
78451.35267868009 561:1 859:1 1904:1 2876:1 
978.484887019792 48:1 105:1 112:1 190:1 557:1 2612:1 2877:1 
20972.29905268155 320:1 416:1 509:1 510:1 590:1 1212:1 1416:1 
5214.865393698299 107:1 202:1 293:1 311:1 557:1 674:1 2879:1 2880:1 2881:1 2882:1 2883:1 2884:1 
14988.85967630718 2797:1 
25152.36304004072 355:1 531:1 2886:1 
466.0092299422279 202:1 397:1 466:1 523:1 1904:1 2876:1 
7224.34734304513 51:1 464:1 
644.8259473986595 293:1 2798:1 
29190.02039497671 2888:1 
193588.4404931471 437:1 494:1 2894:1 
200764.1468827621 418:1 453:1 1823:1 
134767.7289882999 19:1 22:1 23:1 2692:1 
61702.36221261098 218:1 1388:1 2628:1 2639:1 
9069.746316836288 264:1 1070:1 1596:1 2628:1 2630:1 2911:1 2912:1 2913:1 2914:1 2915:1 
5791.212901932434 63:1 64:1 84:1 590:1 1258:1 1937:1 2628:1 2916:1 2917:1 2918:1 2919:1 
15132.43454443994 58:1 176:1 280:1 549:1 589:1 2628:1 2772:1 2920:1 
847.5073411379589 465:1 469:1 970:1 1162:1 2630:1 2703:1 2738:1 2916:1 2921:1 
11478.45703116014 15:1 63:1 218:1 250:1 261:1 726:1 2628:1 2926:1 2927:1 2928:1 2929:1 
7490.269787301439 252:1 437:1 1070:1 1750:1 1939:1 2919:1 2926:1 2935:1 2936:1 2937:1 
959.7197958482732 15:1 64:1 593:1 725:1 1156:1 1174:1 2129:1 2940:1 2941:1 2942:1 
453595.2828520145 218:1 269:1 2628:1 
24806.97768383852 15:1 224:1 531:1 589:1 2028:1 2612:1 2631:1 2945:1 
7591.330623605737 394:1 538:1 541:1 725:1 1264:1 2906:1 2946:1 2947:1 2948:1 2949:1 
9735.510060331724 63:1 170:1 189:1 218:1 265:1 435:1 446:1 458:1 1381:1 2628:1 2926:1 2943:1 2950:1 
778.3012842159621 133:1 218:1 228:1 557:1 2378:1 2628:1 2951:1 
64244.93361191557 27:1 38:1 87:1 218:1 874:1 2628:1 2906:1 2923:1 2934:1 
1982.647277860674 1119:1 2955:1 
124821.6304095204 2958:1 
3358.345297477494 56:1 108:1 112:1 710:1 2959:1 2960:1 2961:1 2962:1 2963:1 2964:1 2965:1 
1990.219883292873 6:1 25:1 176:1 297:1 320:1 990:1 1010:1 2687:1 2904:1 2971:1 
2442.588200301748 36:1 175:1 779:1 1847:1 2687:1 2903:1 2972:1 
6284.923595611664 90:1 169:1 224:1 1294:1 1346:1 1971:1 2237:1 2903:1 2967:1 2977:1 2978:1 2979:1 
7864.700822998352 56:1 640:1 736:1 1375:1 1930:1 2903:1 2978:1 2980:1 2981:1 2982:1 2983:1 
3387.231775375047 121:1 280:1 589:1 1522:1 2967:1 2985:1 2986:1 
26196.81116981758 458:1 1143:1 1210:1 1358:1 2967:1 2978:1 2987:1 
6460.598773524447 271:1 593:1 610:1 1156:1 2634:1 2823:1 2967:1 2978:1 
10647.10169099101 241:1 327:1 458:1 610:1 744:1 2903:1 2967:1 2997:1 2998:1 2999:1 
1431.209105502787 573:1 610:1 1211:1 1522:1 1941:1 2816:1 2911:1 2967:1 3001:1 3002:1 3003:1 3004:1 3005:1 
24453.75992086517 218:1 517:1 557:1 2222:1 3008:1 
12519.8804014749 57:1 176:1 334:1 588:1 1979:1 2967:1 2981:1 3009:1 
38006.48876796898 57:1 271:1 477:1 588:1 736:1 1722:1 2816:1 2967:1 3000:1 3010:1 
607.4098350688893 57:1 271:1 444:1 465:1 606:1 610:1 2149:1 2903:1 3011:1 
217.9859417208366 59:1 63:1 783:1 2612:1 2828:1 3018:1 3019:1 
1370.449132972801 252:1 271:1 606:1 610:1 758:1 783:1 989:1 1045:1 2237:1 2857:1 3020:1 
6265.024414680315 138:1 242:1 593:1 1000:1 1143:1 1811:1 2967:1 2996:1 3023:1 
1444.893965093484 11:1 1435:1 3034:1 3035:1 3036:1 
38420.3747688662 416:1 736:1 1055:1 1546:1 3038:1 3040:1 3041:1 3042:1 
2096.763690004132 175:1 176:1 720:1 857:1 956:1 3038:1 3050:1 3051:1 
8342.002375061518 176:1 280:1 720:1 2197:1 2395:1 2640:1 2940:1 3038:1 3052:1 3053:1 
717.340595788835 176:1 216:1 223:1 252:1 417:1 891:1 2396:1 3038:1 3054:1 3055:1 3056:1 
18297.42765081781 176:1 223:1 720:1 736:1 1032:1 3038:1 3057:1 3058:1 3059:1 3060:1 
4419.591772136689 170:1 457:1 758:1 2395:1 2812:1 3047:1 3059:1 3061:1 3062:1 3063:1 
18812.87008634251 120:1 175:1 216:1 1054:1 2612:1 2859:1 3039:1 3064:1 3070:1 
419.1742947055939 10:1 121:1 280:1 720:1 857:1 884:1 1174:1 1584:1 2197:1 2656:1 
11089.95015470498 213:1 214:1 1070:1 2294:1 2395:1 3071:1 
203.9089472583513 123:1 183:1 908:1 3084:1 3085:1 3086:1 3087:1 
2264.438051778703 3088:1 
140800.5264817249 108:1 
22411.66541996001 38:1 778:1 3089:1 
8667.175091224703 121:1 317:1 669:1 989:1 1579:1 2687:1 2730:1 3091:1 
68727.84612862174 84:1 206:1 479:1 621:1 
5896.306066095884 620:1 621:1 3094:1 
161444.3065355213 135:1 
653267.7113126785 34:1 119:1 305:1 306:1 492:1 589:1 1131:1 1222:1 
540.1482442352758 437:1 1131:1 1932:1 2816:1 2833:1 3102:1 
32126.96536608041 562:1 589:1 1131:1 1545:1 3104:1 
405.2779262673751 303:1 606:1 1131:1 2164:1 3105:1 3106:1 3107:1 
25935.38065631369 57:1 223:1 271:1 308:1 477:1 1131:1 1645:1 1760:1 
3796.701491080051 27:1 297:1 390:1 492:1 772:1 1131:1 1326:1 2539:1 2709:1 
20861.34871688984 71:1 320:1 589:1 1131:1 1142:1 3025:1 
10246.82097275303 264:1 308:1 500:1 606:1 1090:1 2531:1 2580:1 2619:1 2719:1 3123:1 3124:1 
61441.5740726287 119:1 121:1 214:1 588:1 589:1 879:1 1131:1 2248:1 3125:1 
32575.37251558567 56:1 271:1 303:1 588:1 624:1 1131:1 1229:1 1683:1 3043:1 3058:1 3126:1 
2155.788632145875 71:1 1131:1 3127:1 
3863.003649815253 34:1 38:1 300:1 301:1 302:1 303:1 304:1 306:1 308:1 491:1 492:1 611:1 624:1 
742.9718001642731 68:1 1624:1 3129:1 
23898.42046069321 19:1 71:1 1131:1 
18861.09693644272 12:1 2612:1 3130:1 3131:1 3132:1 3133:1 
69135.44843692199 35:1 1447:1 
18244.79610564006 356:1 2098:1 3134:1 
7308.161548239608 133:1 2098:1 2124:1 2378:1 3135:1 3136:1 
4856.763565930721 94:1 2628:1 3138:1 3146:1 
5014.565014290129 190:1 280:1 331:1 744:1 1925:1 2628:1 2646:1 2647:1 3147:1 3148:1 3149:1 3150:1 3151:1 3152:1 
14547.99390869668 215:1 604:1 736:1 1588:1 2612:1 2655:1 2925:1 3153:1 3154:1 3155:1 
61482.64804870192 57:1 137:1 223:1 224:1 1211:1 2628:1 3138:1 3156:1 3157:1 3158:1 3159:1 
4338.349818916786 64:1 170:1 874:1 1087:1 2630:1 2768:1 2917:1 2918:1 3162:1 
2718.227913012641 94:1 122:1 133:1 275:1 292:1 1282:1 2628:1 3138:1 3166:1 
14496.0055482478 34:1 313:1 1233:1 
99018.51004958421 49:1 63:1 341:1 633:1 2997:1 
66881.80375433825 203:1 609:1 657:1 961:1 1091:1 2687:1 2788:1 3168:1 
21881.15422679827 48:1 275:1 401:1 529:1 761:1 2687:1 2788:1 
24660.03249055378 51:1 680:1 3137:1 3171:1 
8033.604719463298 273:1 274:1 2027:1 
575.0999928217418 63:1 137:1 181:1 525:1 3169:1 3175:1 
51052.38383547446 691:1 
190364.411459782 397:1 839:1 
6353.00769329977 234:1 3182:1 
56581.95693595317 374:1 561:1 3186:1 
318.8926045375703 13:1 125:1 638:1 3186:1 3192:1 
4972.60673069876 686:1 3186:1 
0.6965900024469902 206:1 589:1 2612:1 3186:1 3193:1 3194:1 
9762.591264235227 979:1 2716:1 3186:1 
245060.8309688487 119:1 525:1 3186:1 3201:1 3202:1 3203:1 3204:1 
5548.361289884105 267:1 529:1 589:1 1820:1 2707:1 3186:1 3208:1 3209:1 
2510.679371553606 59:1 394:1 638:1 1966:1 3186:1 3212:1 3213:1 
2695.364491106252 27:1 153:1 175:1 216:1 2612:1 3186:1 3214:1 3215:1 
3734.914869245266 27:1 63:1 66:1 84:1 241:1 472:1 604:1 692:1 2388:1 2902:1 3186:1 
2510.314281196195 63:1 243:1 458:1 593:1 606:1 625:1 979:1 1207:1 2512:1 2722:1 3216:1 3217:1 
741.3063674840673 525:1 726:1 1055:1 1159:1 3206:1 3219:1 3220:1 3221:1 
2120.668882963025 525:1 593:1 606:1 758:1 2719:1 2903:1 3223:1 3224:1 3225:1 
5668.839819503386 736:1 744:1 1159:1 2541:1 3227:1 3228:1 3229:1 
502.3246141166564 61:1 198:1 320:1 1478:1 2727:1 
803.2612617730404 63:1 312:1 361:1 557:1 606:1 783:1 2619:1 3186:1 3235:1 
18189.73544152489 3236:1 
6634.311706700391 434:1 2702:1 2719:1 
3450.238085366108 6:1 99:1 183:1 986:1 996:1 2900:1 3093:1 3186:1 3242:1 3243:1 
8102.742223069215 38:1 310:1 529:1 3186:1 
83783.37052470933 176:1 239:1 3186:1 
11180.6594620469 56:1 1133:1 2248:1 3186:1 
959.9406198696842 72:1 3187:1 
1986.024105615987 184:1 778:1 2620:1 3246:1 
1742.161454777741 6:1 25:1 169:1 280:1 323:1 
8093.145853184838 369:1 674:1 937:1 990:1 2687:1 2904:1 3250:1 3251:1 
465748.9454965013 68:1 285:1 294:1 310:1 2687:1 3190:1 
39194.65832158487 25:1 475:1 480:1 643:1 1117:1 1253:1 3215:1 
89235.58727595747 230:1 355:1 560:1 3258:1 3259:1 3260:1 
16250.36536287592 6:1 68:1 640:1 672:1 822:1 900:1 2238:1 3261:1 3262:1 3263:1 
4260.739293793335 372:1 480:1 1904:1 2104:1 3087:1 
456763.0950419432 104:1 117:1 977:1 
36748.40555801144 51:1 680:1 3264:1 3265:1 
809.1257954108897 51:1 216:1 990:1 1740:1 2328:1 2687:1 2691:1 2904:1 3268:1 
5271.237794897609 430:1 609:1 837:1 1668:1 2687:1 3267:1 3269:1 
6917.354719570139 1179:1 3271:1 
19568.13328671309 1179:1 3272:1 
28873.62127473499 57:1 588:1 1099:1 2276:1 
1268.073116996842 2640:1 3267:1 
1771.773767081018 216:1 3267:1 3268:1 3274:1 
4457.152215075267 451:1 555:1 2785:1 3267:1 3279:1 3280:1 
1541.878892244416 132:1 222:1 589:1 990:1 2265:1 3267:1 3281:1 
48316.90349269081 609:1 2164:1 2719:1 3267:1 3286:1 
17625.61449501337 121:1 176:1 264:1 555:1 588:1 589:1 2612:1 2745:1 3288:1 3289:1 
7722.774061362731 57:1 458:1 573:1 610:1 990:1 1143:1 1228:1 1811:1 3072:1 3292:1 
2154.180000401789 678:1 736:1 1063:1 3296:1 
1243.892271268747 252:1 610:1 2164:1 2265:1 3167:1 3267:1 3274:1 3297:1 
486.8440582744186 124:1 343:1 555:1 588:1 1933:1 2911:1 3267:1 3299:1 
18216.2503992514 57:1 1383:1 1941:1 2805:1 2997:1 3267:1 3303:1 3304:1 
13324.03508522681 343:1 589:1 2239:1 3267:1 3311:1 3312:1 
47209.60301820356 55:1 107:1 184:1 609:1 657:1 1178:1 1332:1 1458:1 3313:1 3314:1 
548.2704671519265 3025:1 3318:1 
327044.9784614106 25:1 64:1 555:1 623:1 
2803.148958709597 84:1 181:1 606:1 669:1 1010:1 2246:1 2619:1 2687:1 3330:1 
11884.83612000442 44:1 988:1 1010:1 1113:1 1226:1 2724:1 2802:1 2834:1 2874:1 3331:1 
34218.40603885717 104:1 526:1 689:1 1310:1 2120:1 3241:1 3335:1 
6538.355294518979 27:1 153:1 206:1 475:1 1165:1 1174:1 1388:1 2395:1 2628:1 2639:1 2795:1 3336:1 
3222.092242904966 63:1 122:1 727:1 2216:1 2642:1 2654:1 2728:1 2754:1 3112:1 
4260.469699831349 10:1 85:1 228:1 517:1 1584:1 2395:1 2628:1 2635:1 2875:1 3341:1 
5461.952030853362 13:1 541:1 589:1 1082:1 1258:1 1685:1 2628:1 3342:1 
54254.26447322424 269:1 2395:1 2628:1 
38776.94788398063 343:1 345:1 800:1 2395:1 2628:1 2860:1 
14292.8382220087 317:1 529:1 951:1 1792:1 1849:1 2245:1 
13140.20299891071 38:1 232:1 657:1 2687:1 3353:1 3354:1 
6178.117090024195 223:1 736:1 1868:1 2719:1 3352:1 3358:1 3367:1 
601.2095278176457 223:1 225:1 727:1 2040:1 3352:1 3360:1 3368:1 
19886.46725502896 57:1 225:1 458:1 670:1 826:1 2933:1 3019:1 3352:1 3363:1 3366:1 3392:1 
883.5888532041604 15:1 258:1 1381:1 2742:1 3368:1 3370:1 3380:1 3393:1 3394:1 
18179.96302076726 3101:1 3397:1 
330370.8488179112 285:1 1244:1 1773:1 
10152.86610473401 293:1 904:1 
34810.79479201539 37:1 323:1 3407:1 
70612.43431475628 25:1 122:1 
6075.617112013972 94:1 169:1 633:1 1505:1 1522:1 1974:1 2521:1 3409:1 3410:1 
12500.95368803896 1401:1 1431:1 1705:1 2620:1 2649:1 2687:1 3411:1 3412:1 3413:1 3414:1 
8879.041962144363 970:1 3417:1 3418:1 
265.6193138823466 183:1 202:1 557:1 674:1 3326:1 3422:1 3423:1 3424:1 
1170.284953999239 1827:1 
63551.69933886518 13:1 107:1 176:1 1039:1 1133:1 1409:1 1440:1 3425:1 
573.4898054274724 224:1 264:1 333:1 437:1 988:1 1974:1 2843:1 2903:1 2942:1 3426:1 
572.215409872333 84:1 124:1 198:1 343:1 593:1 990:1 1642:1 2841:1 3427:1 
27169.93984182516 1364:1 1508:1 
24063.13492139426 34:1 57:1 190:1 306:1 458:1 744:1 2291:1 3290:1 3431:1 
8041.394872069221 645:1 2512:1 
36235.8379234586 340:1 2653:1 
18609.50357646558 121:1 200:1 222:1 224:1 593:1 988:1 1156:1 2220:1 
710.5825392779793 224:1 606:1 906:1 907:1 988:1 1814:1 2612:1 3438:1 
17396.13009645659 300:1 416:1 988:1 1477:1 1966:1 3426:1 
9558.746455906597 84:1 301:1 437:1 1571:1 1854:1 2851:1 2938:1 3426:1 
16450.37075795787 13:1 34:1 137:1 224:1 369:1 492:1 624:1 1367:1 1592:1 2571:1 
11554.0455709995 55:1 107:1 138:1 609:1 657:1 1006:1 1007:1 1332:1 1458:1 3313:1 3314:1 
200330.0154479609 3451:1 
20552.77696964081 189:1 678:1 725:1 874:1 1055:1 2628:1 2754:1 2822:1 2937:1 3460:1 
21724.75161791914 2628:1 3045:1 3453:1 
7666.792113605813 719:1 725:1 1264:1 2031:1 2453:1 2896:1 3344:1 3465:1 3466:1 
739.0261447601134 119:1 175:1 216:1 217:1 278:1 1082:1 1364:1 2628:1 3459:1 3467:1 3468:1 3469:1 
4898.062083519074 589:1 1253:1 2628:1 3215:1 3453:1 3470:1 
4373.668607816935 561:1 649:1 667:1 2931:1 3471:1 3472:1 3473:1 3474:1 3475:1 
2163.478313889785 64:1 1108:1 1150:1 1357:1 1885:1 2580:1 2655:1 3476:1 3477:1 3478:1 3479:1 
7097.199229475465 222:1 223:1 241:1 573:1 645:1 1933:1 2628:1 2655:1 2925:1 3480:1 3481:1 
3898.368194424075 250:1 267:1 589:1 1425:1 2612:1 2642:1 2659:1 2676:1 3484:1 
48970.10008202949 107:1 184:1 613:1 670:1 1421:1 1703:1 2197:1 2628:1 
1482.896947749627 107:1 343:1 589:1 800:1 874:1 1253:1 2628:1 3215:1 3485:1 
6228.854047515617 25:1 224:1 280:1 1085:1 2205:1 2687:1 3488:1 
13487.89633720318 181:1 183:1 401:1 1853:1 2395:1 3490:1 3491:1 3492:1 
22834.80728000548 121:1 1234:1 2984:1 
1295.010612113157 3179:1 
27831.50831406568 34:1 557:1 1208:1 2222:1 
206087.930089191 495:1 680:1 997:1 
18562.12870997908 183:1 1665:1 3241:1 3495:1 
2838.478800779343 2345:1 2687:1 3496:1 3497:1 3498:1 3499:1 3500:1 3501:1 3502:1 3503:1 
17137.0519848252 68:1 397:1 555:1 662:1 1138:1 2687:1 3335:1 3503:1 3504:1 
45594.10506672128 884:1 1195:1 2307:1 3503:1 3506:1 
3064.601711548879 47:1 184:1 778:1 1006:1 1007:1 3335:1 3507:1 
48072.77560241142 1481:1 2203:1 
53336.03892883025 512:1 540:1 710:1 1006:1 1087:1 2653:1 
5505.694955249283 241:1 726:1 1881:1 2909:1 3503:1 3508:1 
1815.747746077054 555:1 1425:1 1524:1 
13645.82673523805 153:1 533:1 1128:1 3503:1 
125743.9560146294 225:1 264:1 472:1 557:1 1143:1 3399:1 3514:1 
11825.50445990646 367:1 539:1 593:1 1504:1 1813:1 
6903.463839970561 224:1 271:1 477:1 555:1 726:1 1157:1 1820:1 2707:1 3514:1 
12801.58168071969 390:1 1503:1 2142:1 2612:1 2719:1 3528:1 3529:1 3530:1 
170.7413458435235 59:1 214:1 222:1 555:1 1961:1 2728:1 3167:1 3280:1 3503:1 3533:1 
6648.182152325335 334:1 555:1 2274:1 2424:1 2816:1 2856:1 3139:1 
101436.3982701513 176:1 469:1 670:1 678:1 1169:1 1820:1 2707:1 3503:1 
2533.642636881104 79:1 3503:1 
13641.86966878872 87:1 874:1 3503:1 
10492.73095621193 569:1 1010:1 1012:1 2027:1 3503:1 
1110.441944226265 3503:1 3526:1 
9432.058961921346 19:1 2307:1 3506:1 
85762.63107617282 68:1 1624:1 3129:1 3503:1 
331.079463278599 27:1 63:1 215:1 375:1 441:1 1227:1 1388:1 2628:1 2671:1 2748:1 2749:1 2944:1 3537:1 
6208.398211342806 16:1 63:1 555:1 585:1 2206:1 2791:1 3321:1 3538:1 
103130.031493355 3539:1 
50040.50490264858 312:1 578:1 3494:1 
32874.93192259152 355:1 531:1 
2161.271245688165 68:1 294:1 925:1 1232:1 1773:1 2687:1 2803:1 3545:1 
12924.72056822288 13:1 33:1 42:1 689:1 1288:1 1863:1 2687:1 3547:1 3548:1 3549:1 
2798.063996954037 181:1 922:1 2064:1 2687:1 3170:1 
642.7019153435069 674:1 807:1 1658:1 2687:1 3550:1 3551:1 3552:1 
3105504.96485362 50:1 65:1 
800275.4864513575 50:1 341:1 409:1 
27730.61114174801 153:1 173:1 181:1 361:1 1289:1 1571:1 1854:1 3419:1 
145999.6088595591 183:1 728:1 3555:1 
558.664228771717 3556:1 3557:1 3558:1 3559:1 3560:1 
1530.109109319003 38:1 57:1 280:1 416:1 678:1 1195:1 1991:1 2612:1 3558:1 3562:1 3563:1 3564:1 3565:1 3566:1 
1657.702886944011 236:1 295:1 624:1 1055:1 2398:1 2687:1 3571:1 3572:1 
1869.282878036103 27:1 34:1 121:1 2687:1 3573:1 
8803.663656415707 11:1 12:1 19:1 22:1 23:1 231:1 712:1 1131:1 2687:1 2692:1 
73377.27217066436 61:1 475:1 1131:1 1141:1 1142:1 2941:1 
31703.01997129528 45:1 71:1 120:1 589:1 970:1 1131:1 1258:1 3098:1 3577:1 
6844.541131447986 176:1 341:1 529:1 557:1 906:1 907:1 977:1 1131:1 1159:1 2997:1 
404.8255620850614 34:1 63:1 102:1 121:1 124:1 223:1 434:1 471:1 589:1 593:1 624:1 874:1 1131:1 2991:1 
2609.472480585961 27:1 34:1 224:1 471:1 472:1 473:1 1131:1 2221:1 2676:1 2823:1 3589:1 
2001.377427784486 121:1 589:1 905:1 988:1 1131:1 2164:1 3105:1 
6795.917513271154 170:1 260:1 606:1 988:1 2722:1 3430:1 3592:1 3593:1 
990.3470140513264 121:1 593:1 602:1 624:1 913:1 988:1 1131:1 2677:1 2858:1 3064:1 3594:1 
128614.8070694003 34:1 38:1 479:1 772:1 988:1 1324:1 1428:1 2035:1 2922:1 
71516.06983477439 27:1 34:1 250:1 267:1 308:1 593:1 3595:1 3596:1 
15189.87031383351 243:1 252:1 726:1 970:1 988:1 1159:1 1248:1 1264:1 3364:1 
6981.148985664948 261:1 557:1 593:1 624:1 875:1 988:1 1131:1 
10909.65530677117 437:1 589:1 645:1 1131:1 1159:1 1571:1 2851:1 3227:1 
563.0737883907919 1849:1 3606:1 
775278.6157284438 228:1 394:1 1131:1 3610:1 
1575.159266158189 169:1 176:1 234:1 252:1 641:1 1131:1 3612:1 
11408.32587226125 7:1 34:1 2346:1 
1854.320439928179 183:1 2923:1 2934:1 3342:1 3613:1 3614:1 3615:1 
132488.1889423801 107:1 623:1 1131:1 1203:1 
29853.7466859057 53:1 153:1 417:1 726:1 1055:1 
34137.18597294529 25:1 71:1 310:1 524:1 1032:1 3241:1 
729.2147604728694 68:1 779:1 2687:1 3005:1 3619:1 
294842.3347518527 34:1 64:1 270:1 623:1 
917.2687654868294 3447:1 3638:1 
172881.3169995357 14:1 56:1 79:1 84:1 203:1 663:1 1268:1 2687:1 
1936.946114537134 57:1 84:1 124:1 343:1 512:1 557:1 610:1 995:1 1504:1 2830:1 3431:1 3639:1 3650:1 3651:1 
956.4272137329366 217:1 589:1 1159:1 1450:1 2722:1 2785:1 3364:1 3655:1 3656:1 
406.1392708988571 122:1 1159:1 3227:1 3639:1 3657:1 
4618.633782193839 56:1 57:1 64:1 147:1 241:1 593:1 610:1 2853:1 2997:1 3659:1 3660:1 
9101.582733745943 63:1 79:1 452:1 593:1 612:1 1472:1 2141:1 3663:1 3664:1 
14627.7071208667 122:1 175:1 589:1 1854:1 1966:1 3639:1 3665:1 
41666.91713481944 64:1 161:1 435:1 2722:1 2922:1 3381:1 3668:1 3669:1 
2104.897030579372 146:1 198:1 252:1 477:1 610:1 1211:1 2719:1 3672:1 3673:1 
9764.940635248586 147:1 369:1 593:1 1215:1 2042:1 2372:1 2724:1 2865:1 3661:1 3674:1 
51104.66139683449 63:1 341:1 557:1 593:1 703:1 812:1 1571:1 2220:1 2997:1 
13370.21512053138 124:1 343:1 670:1 812:1 875:1 979:1 1063:1 3639:1 3682:1 
6347.788222282877 69:1 153:1 181:1 357:1 1073:1 1472:1 2032:1 
15450.01040877206 55:1 1106:1 2620:1 
10239.10856706204 295:1 695:1 1010:1 2687:1 2952:1 2953:1 3415:1 3685:1 
88242.64689893616 61:1 181:1 285:1 591:1 1281:1 2021:1 2687:1 
383623.21845658 18:1 68:1 180:1 1085:1 2069:1 
46264.84831468316 19:1 22:1 23:1 25:1 284:1 480:1 535:1 621:1 1472:1 2620:1 
23608.76068692856 25:1 623:1 1203:1 3639:1 
263473.2608511571 51:1 60:1 79:1 274:1 332:1 641:1 1736:1 
1322.830590405897 48:1 202:1 900:1 1687:1 2463:1 2611:1 3325:1 3689:1 
63523.81756016414 56:1 3691:1 
4464.336067290026 3249:1 3694:1 3695:1 3696:1 
3028.787138865054 13:1 59:1 153:1 458:1 589:1 990:1 2388:1 2612:1 2683:1 2896:1 
69454.05625398099 181:1 279:1 464:1 3690:1 
31812.31187469778 64:1 84:1 593:1 606:1 975:1 988:1 1258:1 1642:1 3716:1 
22137.10265518143 175:1 198:1 223:1 857:1 979:1 1007:1 1064:1 1287:1 2656:1 3717:1 
133953.8656079928 271:1 374:1 437:1 988:1 1159:1 3374:1 3718:1 3719:1 
254.9119787434242 223:1 224:1 593:1 988:1 1504:1 1679:1 2816:1 2939:1 3720:1 
75.29168442907421 13:1 14:1 258:1 369:1 725:1 981:1 3203:1 3690:1 3725:1 3726:1 3727:1 
403.1522382885118 14:1 206:1 458:1 1502:1 2724:1 2816:1 2845:1 2856:1 2874:1 3447:1 3690:1 
125616.7796070918 292:1 1475:1 
426.9470248986271 63:1 234:1 1290:1 3408:1 3730:1 
1399.43135475772 183:1 475:1 1290:1 1311:1 2246:1 2612:1 3731:1 3732:1 3733:1 3734:1 3735:1 3736:1 
1639.070646842325 3559:1 3734:1 3738:1 
34726.61504973038 11:1 334:1 475:1 649:1 3739:1 
11524.17715302278 517:1 1576:1 
5400.257124510668 63:1 218:1 224:1 416:1 457:1 1214:1 2816:1 3743:1 3744:1 
4971.827393143775 224:1 587:1 610:1 1099:1 1159:1 1511:1 2245:1 3761:1 3762:1 
11161.36191799594 125:1 232:1 593:1 979:1 1346:1 3764:1 3765:1 
5646.518818822567 275:1 620:1 621:1 1656:1 3737:1 
10779.65010078487 638:1 3737:1 3769:1 
19671.95060280987 3770:1 
1732.76744846169 649:1 3739:1 
333664.8654258946 218:1 
5991.90090467859 3777:1 
37383.15621904845 689:1 1657:1 
21410.85068150576 693:1 
18503.70581249826 83:1 133:1 206:1 317:1 757:1 3136:1 3778:1 
17874.35918244081 181:1 355:1 3779:1 
20426.59068127551 1430:1 
14073.07394913857 51:1 680:1 2893:1 3780:1 
11619.41803720988 995:1 3781:1 
2105.832088088722 2634:1 2638:1 
912.8341953003219 176:1 808:1 900:1 1049:1 2687:1 3783:1 
5006.658640528498 622:1 1421:1 2798:1 3130:1 
305554.9036502591 622:1 1421:1 2798:1 
745.4324822916489 253:1 469:1 744:1 876:1 1143:1 2798:1 
924.5520355581715 64:1 176:1 224:1 261:1 588:1 589:1 903:1 972:1 2798:1 3160:1 
1003.565396934178 63:1 451:1 903:1 1065:1 2798:1 
3109.067951481381 232:1 416:1 772:1 2612:1 3794:1 3795:1 
2739.737946000587 57:1 223:1 477:1 588:1 1063:1 1387:1 1941:1 2412:1 
16847.88458167975 876:1 1143:1 2164:1 2798:1 3109:1 3671:1 
3003.005057051571 121:1 589:1 606:1 2612:1 2903:1 3108:1 3725:1 3801:1 
10452.59768068231 57:1 124:1 243:1 458:1 1525:1 2634:1 2798:1 3399:1 3798:1 
15195.63522186174 250:1 264:1 472:1 1001:1 1878:1 3016:1 3803:1 3804:1 
18250.12185001908 264:1 437:1 588:1 1326:1 1571:1 2798:1 2851:1 3531:1 3805:1 3806:1 
3133.614760912635 175:1 458:1 589:1 2388:1 2798:1 
13424.35289998733 500:1 589:1 876:1 988:1 1973:1 2798:1 3807:1 
3553.579728124009 243:1 267:1 573:1 905:1 1143:1 1524:1 2798:1 2903:1 3396:1 
2513.427816755128 57:1 63:1 593:1 604:1 1143:1 1157:1 1525:1 1592:1 2903:1 3792:1 3808:1 3809:1 
1696.59767610615 465:1 902:1 1143:1 1503:1 1649:1 2903:1 3442:1 
8942.488871222884 338:1 452:1 593:1 1503:1 1548:1 1590:1 1945:1 2634:1 3810:1 3811:1 
9057.599316160238 589:1 2798:1 3812:1 3813:1 3814:1 
73320.34776512157 396:1 1820:1 3816:1 
2464.713001716597 107:1 122:1 562:1 710:1 1447:1 
138186.9219188394 167:1 288:1 900:1 2634:1 2989:1 
7383.997068841897 206:1 416:1 475:1 711:1 1173:1 1544:1 2628:1 2743:1 3818:1 
5196.371488763853 63:1 181:1 369:1 1204:1 3064:1 3065:1 3140:1 3820:1 3822:1 3823:1 
293.4368043806471 13:1 589:1 1735:1 2628:1 2743:1 2772:1 
15904.01517125211 119:1 184:1 521:1 1558:1 2628:1 2642:1 2748:1 2749:1 2767:1 3064:1 3065:1 3824:1 
8025.163020039882 1229:1 1656:1 2631:1 2754:1 2939:1 3825:1 
6471.894261918041 223:1 338:1 437:1 593:1 852:1 2628:1 2630:1 2754:1 3595:1 
7555.60381015725 57:1 63:1 84:1 458:1 471:1 1452:1 1525:1 1937:1 2746:1 3827:1 3828:1 
2837.21795641603 27:1 97:1 589:1 670:1 806:1 2628:1 2630:1 2631:1 2686:1 3461:1 
72946.13832598833 280:1 2628:1 3833:1 
71087.23960267383 521:1 
3193.920501082593 282:1 288:1 1585:1 1642:1 3837:1 
3400.795038717531 3838:1 
23729.75909728371 25:1 531:1 1332:1 
4778.013063680707 68:1 374:1 638:1 2153:1 2687:1 3840:1 
13834.98756335152 125:1 137:1 202:1 321:1 625:1 638:1 1038:1 1324:1 
895.2231394434128 13:1 27:1 53:1 390:1 590:1 1792:1 2959:1 3842:1 3843:1 3844:1 3845:1 
4124.717656319019 989:1 1101:1 1143:1 1226:1 2421:1 2687:1 3846:1 3847:1 
4861.557786846138 589:1 990:1 1090:1 2164:1 3841:1 3853:1 3854:1 3855:1 
2201.700455641309 223:1 241:1 727:1 882:1 996:1 1651:1 3583:1 3841:1 
2343.264497667839 225:1 250:1 273:1 444:1 593:1 2612:1 3110:1 3841:1 3858:1 3859:1 3860:1 
212.3816348955584 989:1 1250:1 1383:1 1639:1 1941:1 2762:1 3841:1 3860:1 
9034.209850104262 37:1 64:1 606:1 610:1 979:1 1264:1 1525:1 2834:1 3862:1 3863:1 3864:1 
20533.56940185611 458:1 996:1 1648:1 1651:1 2762:1 2818:1 3841:1 3853:1 
5782.455305766834 121:1 589:1 744:1 1519:1 2070:1 2531:1 3029:1 3030:1 3447:1 3841:1 
28578.87782176902 890:1 1393:1 3841:1 
26912.41913988047 189:1 606:1 1854:1 2164:1 3105:1 3719:1 3841:1 3864:1 3868:1 
2126.598966340434 223:1 227:1 587:1 610:1 1383:1 2393:1 2823:1 3067:1 3841:1 3869:1 
5906.887995657228 57:1 266:1 573:1 640:1 976:1 989:1 1070:1 1639:1 2719:1 2991:1 3513:1 
5157.815032327265 14:1 458:1 606:1 610:1 725:1 1169:1 1814:1 2082:1 3016:1 
12761.85654170068 517:1 625:1 3130:1 3877:1 
10643.6509460251 19:1 229:1 343:1 3841:1 3878:1 
5986.749610918096 2295:1 3879:1 
15354.51980663727 269:1 1576:1 3038:1 3059:1 3403:1 3880:1 3882:1 3883:1 3884:1 
35629.3125223721 15:1 473:1 898:1 1157:1 2042:1 2393:1 2939:1 
318.3062657245843 120:1 170:1 189:1 264:1 573:1 1646:1 1814:1 3038:1 3039:1 3073:1 3889:1 
264.7719821763819 13:1 84:1 162:1 541:1 589:1 2676:1 3880:1 3892:1 
6217.139560787822 228:1 337:1 2612:1 2743:1 3007:1 3038:1 3166:1 3898:1 
776.2185862923043 38:1 87:1 337:1 535:1 710:1 757:1 1087:1 3038:1 3405:1 3406:1 
15062.26404973534 27:1 87:1 336:1 337:1 1004:1 2743:1 3899:1 3900:1 
149188.1415216947 323:1 2218:1 
869.0471693569207 480:1 719:1 742:1 
15805.64337065069 2735:1 
2865.308736443473 290:1 948:1 3907:1 
1223.799001189364 1282:1 3908:1 3909:1 3910:1 
20169.59251511022 590:1 998:1 
4402.994557439736 49:1 557:1 899:1 2078:1 3325:1 
2926.746603046489 51:1 1619:1 
256.4892675996509 38:1 561:1 797:1 965:1 3914:1 3915:1 3916:1 3917:1 
107330.8016896553 273:1 274:1 
354.516942428647 280:1 347:1 606:1 640:1 3641:1 3928:1 
200.87627927804 222:1 665:1 744:1 996:1 3912:1 3932:1 3933:1 
1695.506050768813 3912:1 3934:1 
636.8732762420902 84:1 261:1 472:1 606:1 744:1 1159:1 1264:1 1878:1 3912:1 3931:1 3935:1 3936:1 
282.3510927456193 217:1 1198:1 3470:1 3658:1 3912:1 3937:1 3938:1 3939:1 
1439.108914858005 206:1 224:1 469:1 610:1 1803:1 3912:1 3941:1 3942:1 
680.8709914576937 3912:1 3943:1 3944:1 
6499.380092318858 241:1 606:1 812:1 2169:1 2982:1 3912:1 3937:1 3946:1 3947:1 
3036.922875047375 3912:1 3948:1 3949:1 
206999.9667977934 1023:1 1629:1 3912:1 
137109.9194410903 453:1 1038:1 1747:1 3912:1 
996.8544527633574 13:1 107:1 680:1 2419:1 3130:1 3955:1 
6528.23896806803 674:1 857:1 1291:1 3395:1 3487:1 3655:1 
4517.924316627402 3956:1 
167844.9044895989 72:1 338:1 515:1 
961203.0633052702 25:1 275:1 
95190.01891196558 642:1 3554:1 
133016.8701593371 206:1 285:1 2612:1 
2035.199851733116 484:1 1624:1 3957:1 
9852.864932716217 165:1 1129:1 1548:1 1900:1 2611:1 
70102.15048142332 12:1 13:1 25:1 524:1 726:1 1174:1 1291:1 2693:1 3958:1 3959:1 
2674.818503485468 317:1 529:1 1177:1 1478:1 1809:1 3960:1 
6322.013324930735 53:1 1792:1 2081:1 3130:1 
3571.954689134849 227:1 252:1 979:1 988:1 1589:1 2704:1 3378:1 3962:1 
38536.78836659642 121:1 593:1 610:1 812:1 979:1 988:1 1685:1 
8422.306724385691 175:1 216:1 556:1 593:1 2612:1 3976:1 3977:1 
13690.46409685572 369:1 436:1 670:1 990:1 1063:1 1143:1 1205:1 2807:1 2942:1 
244.2510884914637 56:1 469:1 1229:1 1591:1 2676:1 3002:1 3008:1 3962:1 
53055.11890438999 38:1 138:1 334:1 361:1 556:1 1727:1 
18186.2978414199 334:1 998:1 1322:1 2676:1 3990:1 
6179.263765213109 20:1 440:1 556:1 1347:1 1459:1 3962:1 3964:1 3991:1 3992:1 3993:1 
475.8915953041375 38:1 556:1 1589:1 1591:1 2692:1 3962:1 3965:1 3967:1 3971:1 3973:1 3975:1 3987:1 3988:1 3994:1 
5167.664010910915 453:1 556:1 3995:1 3996:1 
11324.42369156077 3997:1 
41118.15988093626 153:1 422:1 556:1 990:1 1117:1 2157:1 2791:1 3799:1 
48184.18769124943 12:1 
88709.73554177175 556:1 
2061.478787239863 34:1 1283:1 1495:1 4000:1 
4247.02573747453 48:1 150:1 156:1 2687:1 2722:1 2971:1 3593:1 4002:1 4003:1 
335.5404305612078 13:1 48:1 925:1 1244:1 2173:1 2687:1 3447:1 4004:1 4005:1 
2565.423329269922 27:1 68:1 556:1 678:1 704:1 2146:1 2687:1 3119:1 3169:1 
5479.959326201579 95:1 898:1 4008:1 
82743.76504952859 51:1 515:1 680:1 3037:1 
47634.26264828928 1711:1 4009:1 4010:1 
3099.435577248732 183:1 557:1 761:1 1340:1 1397:1 4011:1 4012:1 
56914.40544435747 3090:1 4015:1 
91114.70557198854 4016:1 
3875.873933086967 119:1 606:1 1918:1 2628:1 2635:1 2641:1 2642:1 2646:1 2647:1 2659:1 
2123.800095689845 122:1 124:1 343:1 446:1 477:1 1811:1 2024:1 2858:1 3244:1 4024:1 4025:1 
12461.89374865686 190:1 225:1 725:1 1041:1 1168:1 1169:1 2041:1 2646:1 2647:1 3167:1 3881:1 4027:1 
367.6129203467517 170:1 458:1 573:1 875:1 1545:1 2634:1 2942:1 3441:1 4017:1 4018:1 4028:1 4029:1 
16805.83981690131 1600:1 1685:1 2173:1 2268:1 2612:1 2659:1 2738:1 2903:1 3099:1 4030:1 
21408.68537467793 15:1 213:1 214:1 469:1 744:1 1213:1 1229:1 2269:1 2628:1 2672:1 2921:1 4029:1 
9846.752577084595 215:1 472:1 645:1 1003:1 1073:1 1095:1 2612:1 3522:1 4028:1 4031:1 
488.0078287568138 57:1 63:1 458:1 900:1 2646:1 2647:1 2950:1 3144:1 4032:1 
23846.53590828338 538:1 1502:1 2244:1 2628:1 2659:1 2738:1 3395:1 3897:1 
1664.614445672948 27:1 87:1 122:1 678:1 1282:1 2628:1 4021:1 4022:1 
30923.16509243271 25:1 529:1 3234:1 
2190.72298458196 446:1 3620:1 4036:1 4039:1 4040:1 
13619.49485501947 1642:1 2612:1 2656:1 4036:1 4042:1 
1593.359609584077 4036:1 4043:1 4044:1 
7982.410268771608 610:1 979:1 1161:1 1652:1 4048:1 4049:1 
1370.69196680363 84:1 241:1 1003:1 1642:1 3217:1 4036:1 4039:1 
10362.99260793908 121:1 589:1 1159:1 4036:1 
10025.58299908432 610:1 1624:1 4036:1 
942.6108437022805 369:1 557:1 561:1 730:1 2216:1 3631:1 4036:1 4050:1 4051:1 4052:1 
1812.360128483645 223:1 264:1 265:1 267:1 1135:1 1467:1 4036:1 4050:1 4053:1 
6422.49847656853 57:1 223:1 417:1 437:1 1678:1 1683:1 1885:1 3516:1 4054:1 4055:1 4056:1 
7492.338121799197 121:1 416:1 466:1 589:1 1143:1 2164:1 4036:1 4046:1 
16892.3473177605 264:1 374:1 608:1 736:1 982:1 1143:1 1511:1 3058:1 4036:1 4047:1 
7112.678071905607 243:1 509:1 573:1 593:1 606:1 1157:1 1159:1 1940:1 2396:1 2524:1 3092:1 
5749.20408477645 4036:1 4060:1 
42072.54301884676 57:1 241:1 261:1 826:1 990:1 1003:1 2277:1 4061:1 
4965.934254553295 63:1 271:1 606:1 988:1 2531:1 2693:1 3390:1 4063:1 4064:1 
6467.423135368302 63:1 104:1 241:1 458:1 471:1 852:1 1143:1 1519:1 2206:1 4036:1 
37655.25918377723 121:1 122:1 275:1 285:1 4036:1 4066:1 
20557.93750155873 181:1 361:1 670:1 1488:1 4067:1 
99280.90015748763 19:1 394:1 677:1 2612:1 4036:1 
43229.1579445179 203:1 480:1 1772:1 4036:1 4068:1 
764.8101675433359 107:1 1203:1 1773:1 4036:1 
59387.60273140124 351:1 964:1 2612:1 
395.6092064685675 264:1 2483:1 3073:1 3631:1 3709:1 4074:1 
512.2025846982071 233:1 589:1 1518:1 2216:1 2630:1 3038:1 3059:1 4075:1 
205.9540629200137 190:1 343:1 853:1 1055:1 1059:1 1070:1 2630:1 3338:1 3653:1 4091:1 
1414.46812852639 133:1 292:1 343:1 351:1 589:1 1475:1 2612:1 2620:1 2889:1 4095:1 
246898.8728425326 239:1 4036:1 
1435.075950941811 23:1 3170:1 4097:1 
1314.527420727327 36:1 428:1 704:1 988:1 1129:1 1352:1 
54142.90283856655 59:1 190:1 960:1 988:1 1203:1 1811:1 2323:1 2447:1 3725:1 
6640.733881258706 2791:1 4105:1 
157815.5515101216 79:1 153:1 394:1 481:1 1849:1 
37113.59481301187 51:1 680:1 1310:1 
16532.97902149409 165:1 2611:1 
258.622171233092 175:1 176:1 658:1 2967:1 4111:1 
6953.487599535795 13:1 38:1 183:1 320:1 341:1 1847:1 2687:1 2725:1 2997:1 4112:1 
35050.68299946161 222:1 225:1 979:1 1073:1 2709:1 2924:1 2978:1 4122:1 
4122.807708470785 27:1 2430:1 2967:1 4125:1 
33848.90429314513 417:1 451:1 573:1 606:1 796:1 990:1 1683:1 2653:1 2709:1 2978:1 
374.8884065682851 606:1 1534:1 2677:1 2678:1 2967:1 3753:1 4132:1 
1975.546337788767 1064:1 1536:1 1537:1 1780:1 
994.2071820304761 2064:1 
13613.56742581401 293:1 
70959.53057663621 68:1 391:1 
4937.735116386894 504:1 1777:1 
31407.38634248951 58:1 113:1 562:1 2967:1 4133:1 
24737.01161790901 535:1 3918:1 3945:1 4135:1 
9252.65085773904 93:1 786:1 793:1 1352:1 2687:1 4136:1 
1374.481341721615 56:1 90:1 535:1 1232:1 1482:1 1533:1 2234:1 2687:1 4137:1 4138:1 
55583.49202449164 239:1 1064:1 3539:1 3554:1 
17100.40149055502 202:1 206:1 331:1 374:1 583:1 779:1 2470:1 2559:1 
88938.81115482868 105:1 206:1 583:1 4144:1 
83079.08842355537 1349:1 
16686.35786812748 4145:1 4146:1 4147:1 
30505.44933449712 38:1 475:1 641:1 1872:1 3130:1 3184:1 3185:1 
787.3858599951351 4148:1 
838.0910489555397 13:1 448:1 1458:1 1461:1 1705:1 2687:1 4145:1 4149:1 
1108.13511928354 990:1 1740:1 2328:1 3476:1 4145:1 
1860.589903814879 46:1 577:1 2070:1 3029:1 3030:1 4145:1 
4181.824344407342 441:1 589:1 4145:1 4162:1 4163:1 
3050.755231959458 57:1 461:1 990:1 1073:1 1228:1 1642:1 1854:1 4145:1 4164:1 
80.18011382517136 278:1 842:1 843:1 1046:1 2719:1 2816:1 3383:1 4145:1 4165:1 4166:1 4167:1 
1015.829132607695 121:1 176:1 264:1 271:1 477:1 744:1 1259:1 2012:1 2722:1 4156:1 4170:1 
26320.54413820776 43:1 225:1 340:1 415:1 441:1 988:1 1811:1 2612:1 2844:1 4145:1 
301860.5472916642 180:1 866:1 1828:1 
2859.705436912115 124:1 170:1 223:1 241:1 343:1 458:1 1383:1 1645:1 1862:1 2719:1 2850:1 3381:1 4145:1 
724.0057190778177 14:1 66:1 573:1 610:1 990:1 1055:1 1154:1 2751:1 4080:1 4145:1 
18964.71807237634 38:1 343:1 451:1 827:1 1025:1 1819:1 1828:1 1945:1 4178:1 
1966.439425553259 1624:1 1655:1 2612:1 3129:1 
7631.86616927583 343:1 643:1 827:1 910:1 1348:1 3728:1 4145:1 
3345.347180322806 206:1 313:1 
17016.58242532186 1772:1 2000:1 4145:1 
8028.751026293753 507:1 1395:1 2245:1 
77924.55894885589 293:1 2732:1 
1813.107483077648 373:1 549:1 710:1 900:1 1206:1 4142:1 4143:1 4185:1 4186:1 4187:1 
19591.40865652789 59:1 61:1 351:1 638:1 2612:1 2628:1 4017:1 4018:1 4189:1 
31312.49030347391 225:1 273:1 437:1 725:1 875:1 1075:1 2143:1 3140:1 
3673.739131749748 120:1 280:1 589:1 1258:1 1282:1 2248:1 2628:1 4191:1 
1850.011689105231 1282:1 1388:1 2628:1 2671:1 4190:1 
17933.00479385256 269:1 2628:1 4190:1 
89736.43928735459 162:1 199:1 589:1 711:1 2248:1 2628:1 3760:1 4196:1 4197:1 
8829.489022578793 63:1 79:1 243:1 267:1 593:1 874:1 1207:1 3967:1 4190:1 4198:1 4199:1 
12581.24393920544 68:1 87:1 359:1 822:1 1232:1 1287:1 1846:1 1971:1 4200:1 
4593.11065793223 15:1 27:1 85:1 87:1 250:1 649:1 793:1 1282:1 2628:1 4190:1 4202:1 
1406.977286946166 84:1 181:1 320:1 779:1 965:1 1276:1 1847:1 2687:1 4209:1 
3480.039404555008 55:1 68:1 394:1 460:1 638:1 1025:1 1333:1 1828:1 2687:1 4210:1 
658.9185035473009 13:1 165:1 4001:1 
103220.971776674 703:1 916:1 
216.4342154072741 2786:1 3905:1 4068:1 4103:1 4104:1 
25721.39581310366 287:1 2735:1 
2425.29564178242 72:1 1585:1 2612:1 2735:1 3220:1 
28933.60268087581 812:1 981:1 1159:1 1247:1 1372:1 1379:1 4219:1 4224:1 
1898.089000536056 124:1 138:1 251:1 252:1 343:1 975:1 990:1 1046:1 1159:1 2142:1 2865:1 4216:1 
27809.36969218493 690:1 2392:1 2612:1 2747:1 3982:1 4236:1 
1707.678196975207 57:1 241:1 357:1 573:1 1213:1 1592:1 1966:1 4219:1 4228:1 4240:1 
207.881912271888 59:1 147:1 206:1 227:1 593:1 606:1 1159:1 2027:1 3220:1 3591:1 
47346.92804828246 68:1 206:1 593:1 606:1 670:1 783:1 875:1 1469:1 1599:1 
1121.173675768706 343:1 1478:1 
3876.181808563058 343:1 549:1 638:1 742:1 2612:1 2735:1 3117:1 4142:1 4242:1 
665.3220564629494 343:1 1778:1 2735:1 3905:1 4243:1 
12684.03921566823 690:1 1366:1 1376:1 1380:1 1459:1 4216:1 4218:1 4221:1 4244:1 4245:1 4246:1 
4218.97123179359 38:1 690:1 1359:1 1372:1 1379:1 4216:1 4219:1 4225:1 4227:1 4228:1 4234:1 4239:1 4247:1 4248:1 
3478.947994352457 524:1 1488:1 2258:1 2735:1 
7865.131319908795 269:1 556:1 2220:1 2768:1 3038:1 4266:1 4267:1 4268:1 
4968.89604973642 523:1 557:1 662:1 1892:1 4277:1 4278:1 4279:1 4280:1 
105008.3634790543 709:1 
3450.473091592724 650:1 778:1 899:1 2893:1 3247:1 4281:1 
845.5161665403207 49:1 63:1 64:1 80:1 147:1 702:1 2401:1 
311.0899714747316 13:1 68:1 133:1 641:1 924:1 1146:1 2687:1 3573:1 4285:1 4286:1 
1709.186162546028 176:1 216:1 837:1 952:1 2687:1 4287:1 4288:1 
96481.02086576854 38:1 952:1 2687:1 3666:1 4289:1 4290:1 
160104.2224281234 4297:1 
17430.01386316538 202:1 557:1 674:1 1844:1 1845:1 1846:1 1854:1 4298:1 4299:1 4300:1 
7469.28845115545 1842:1 
1742.42286049868 4302:1 4303:1 
18102.26952443806 543:1 4304:1 
2061.182029064453 275:1 288:1 557:1 1394:1 1971:1 2295:1 4305:1 
13675.88288672736 3843:1 3917:1 4307:1 
428.3200515533478 643:1 1469:1 2021:1 2166:1 3130:1 3184:1 4069:1 4183:1 4290:1 
84066.4806533604 184:1 333:1 728:1 1530:1 1705:1 4311:1 
548.036290779668 57:1 252:1 610:1 1207:1 1650:1 2719:1 4306:1 4313:1 
1905.70970752772 988:1 1179:1 4306:1 4318:1 4319:1 
23438.1332169329 252:1 469:1 610:1 875:1 972:1 988:1 1603:1 4312:1 4322:1 4323:1 
6064.396955831789 267:1 446:1 589:1 988:1 3096:1 4306:1 4312:1 
2988.610261152797 66:1 606:1 610:1 988:1 1557:1 2719:1 2835:1 2869:1 4325:1 
4988.918472454307 394:1 2397:1 3610:1 4306:1 
13435.63452620455 38:1 121:1 176:1 2194:1 2298:1 4038:1 4069:1 4334:1 
1792.993431852334 351:1 638:1 1469:1 2612:1 2792:1 
6888.099750825377 225:1 463:1 557:1 593:1 1740:1 2275:1 2328:1 2630:1 2721:1 3038:1 4336:1 4337:1 
4935.776233564487 48:1 812:1 1785:1 1992:1 2216:1 3038:1 3047:1 4079:1 
2854.786804681206 63:1 184:1 589:1 670:1 870:1 3038:1 3039:1 3078:1 4078:1 4341:1 4342:1 
11378.52155704334 13:1 224:1 241:1 261:1 726:1 1592:1 2631:1 2664:1 3400:1 4344:1 
780.836301887887 108:1 292:1 2245:1 3038:1 
6891.678271173627 72:1 1487:1 4290:1 
6543.244940308961 285:1 361:1 780:1 1226:1 1488:1 1529:1 2687:1 4353:1 4354:1 
1040.31994668818 68:1 99:1 206:1 258:1 1085:1 2069:1 2687:1 3068:1 4355:1 
1174.178132667339 18:1 1118:1 3093:1 
545.2240263755132 294:1 996:1 3093:1 3170:1 4290:1 
438.8689312257701 11:1 361:1 643:1 1488:1 4290:1 4360:1 4361:1 4362:1 
2248.781972336777 4290:1 4363:1 
4218.059671981855 2955:1 
5284.057797389079 13:1 165:1 1106:1 3180:1 3181:1 
59551.81700427448 165:1 453:1 761:1 1900:1 
4942.313626619448 234:1 4366:1 
3474.397001965048 37:1 146:1 148:1 183:1 216:1 1010:1 2722:1 3398:1 3593:1 
5555.757426361839 147:1 369:1 557:1 593:1 990:1 1209:1 2544:1 2722:1 2865:1 4371:1 
7668.807284924145 1213:1 4372:1 4373:1 4374:1 4375:1 4376:1 4377:1 4378:1 4379:1 4380:1 
5363.849650795572 1227:1 4374:1 4375:1 4381:1 
15972.37471332721 786:1 1074:1 1378:1 4384:1 4385:1 
50895.98277887531 57:1 64:1 119:1 2001:1 4386:1 4387:1 4388:1 4389:1 4390:1 
2767.04720193754 1252:1 1477:1 2702:1 4377:1 4378:1 4391:1 4392:1 4393:1 4394:1 
6140.491435540608 4395:1 
17160.9690982106 119:1 1027:1 2130:1 3276:1 4386:1 4396:1 4397:1 
17567.59845811244 1133:1 1868:1 4399:1 4400:1 4401:1 4402:1 4403:1 4404:1 
11275.20749738793 4412:1 4413:1 4414:1 4415:1 4416:1 
22716.63311109821 1736:1 4384:1 4412:1 4417:1 4418:1 4419:1 4420:1 
16340.49755134291 4423:1 
12260.53845889446 169:1 448:1 861:1 2778:1 4419:1 4424:1 4425:1 4426:1 4427:1 4428:1 4429:1 4430:1 
4920.287751564781 38:1 176:1 1038:1 1225:1 1665:1 4404:1 4431:1 4432:1 
5290.008340928469 4110:1 4422:1 
6866.930959382881 64:1 119:1 323:1 641:1 772:1 4409:1 4424:1 4425:1 4436:1 
1165.636542606919 4398:1 4438:1 
9304.286372814488 27:1 562:1 593:1 790:1 925:1 972:1 4428:1 4429:1 4439:1 
180.9159769634753 232:1 1168:1 2070:1 2130:1 2268:1 4412:1 4413:1 4428:1 4429:1 4440:1 
24742.59021130101 670:1 1116:1 4441:1 4442:1 
6420.425345531493 593:1 875:1 2266:1 3254:1 4164:1 4424:1 4425:1 4448:1 4449:1 4450:1 4451:1 
772.2164637034796 61:1 475:1 638:1 1133:1 4452:1 
58179.76024887923 20:1 4463:1 
57808.84074505632 4464:1 4465:1 
23134.31667938145 4407:1 4437:1 4443:1 4458:1 4468:1 
4737.135503605223 4469:1 4470:1 4471:1 4472:1 4473:1 
2444.860206216534 206:1 1253:1 1585:1 4342:1 4459:1 4460:1 4461:1 4474:1 
83997.42533145162 601:1 1253:1 1990:1 2194:1 2545:1 4461:1 4475:1 4476:1 
