svm_type nu_svc
kernel_type linear
nr_class 2
total_sv 7094
rho 2.71726
label 1 -1
nr_sv 2276 4818
SV
60894.36607147692 
6.352464423854708e-12 1:1 2:1 3:1 4:1 
67694.9069294389 5:1 6:1 7:1 8:1 
114435.8256486256 9:1 10:1 11:1 12:1 
109521.5672518621 13:1 14:1 
114435.8256486256 15:1 16:1 
104745.5539045046 10:1 11:1 12:1 17:1 18:1 19:1 
114435.8256486256 20:1 
114435.8256486256 10:1 11:1 12:1 18:1 21:1 22:1 23:1 24:1 25:1 
114435.8256486256 26:1 
18421.60669879736 10:1 11:1 12:1 18:1 21:1 22:1 23:1 24:1 25:1 
114435.8256486256 26:1 
114435.8256486256 28:1 29:1 30:1 
112393.1735950306 31:1 32:1 33:1 
96376.49302633204 34:1 35:1 36:1 37:1 
82992.42398001802 38:1 
114435.8256486256 39:1 40:1 41:1 42:1 43:1 44:1 
114435.8256486256 45:1 46:1 
90830.50550686287 47:1 48:1 49:1 50:1 
98464.20803255157 47:1 48:1 49:1 51:1 52:1 53:1 54:1 55:1 56:1 57:1 
69249.24299680674 58:1 59:1 
114435.8256486256 60:1 
103727.3270796577 61:1 
113950.9877076428 50:1 62:1 63:1 
114435.8256486256 49:1 63:1 64:1 65:1 
111024.6233771519 38:1 66:1 
76145.54621803938 67:1 
90075.91027387646 68:1 69:1 70:1 71:1 72:1 
114435.8256486256 73:1 74:1 75:1 76:1 
42990.9347917035 48:1 70:1 71:1 72:1 77:1 78:1 79:1 
60047.51332526928 63:1 80:1 
114435.8256486256 81:1 82:1 
110176.113695612 70:1 83:1 
114435.8256486256 10:1 11:1 85:1 86:1 87:1 
114435.8256486256 88:1 89:1 
97951.51697329262 44:1 90:1 91:1 
114435.8256486256 92:1 
108981.8357643695 83:1 93:1 94:1 95:1 96:1 97:1 98:1 99:1 100:1 101:1 
64404.97529841916 27:1 70:1 105:1 106:1 107:1 108:1 
114435.8256486256 109:1 110:1 
111411.5951594661 111:1 112:1 
103539.4417215547 113:1 
114435.8256486256 114:1 
113344.1881448185 115:1 
86384.60014290645 114:1 
88231.54570965229 116:1 
77431.43574113271 70:1 103:1 107:1 117:1 118:1 
114435.8256486256 103:1 119:1 120:1 
36469.51374218024 38:1 99:1 103:1 107:1 121:1 122:1 
78074.61964954395 91:1 123:1 124:1 125:1 126:1 127:1 
114413.0013206889 46:1 89:1 128:1 129:1 130:1 
31096.84790243481 131:1 
114435.8256486256 34:1 132:1 133:1 134:1 135:1 
114435.8256486256 136:1 
73045.21571909194 137:1 138:1 
80785.6095581156 140:1 
114435.8256486256 141:1 142:1 
105233.6648753487 143:1 
103979.0422294155 34:1 107:1 139:1 142:1 
114435.8256486256 49:1 144:1 145:1 
108233.8347000819 129:1 146:1 147:1 
84259.19389640409 68:1 69:1 148:1 
113193.1837258847 48:1 69:1 148:1 149:1 150:1 
114435.8256486256 151:1 152:1 
114435.8256486256 77:1 
106147.1028533018 64:1 69:1 153:1 154:1 
113994.1993728561 27:1 155:1 156:1 157:1 158:1 
38172.61113317725 70:1 104:1 159:1 
106733.5928915239 160:1 
114435.8256486256 27:1 161:1 162:1 
114435.8256486256 163:1 
113451.7454361981 164:1 
39716.1230926834 27:1 165:1 
53781.28160250778 69:1 153:1 
90368.74130907128 27:1 166:1 167:1 168:1 
114435.8256486256 89:1 
114435.8256486256 89:1 
30468.04753810244 112:1 172:1 173:1 
114435.8256486256 129:1 
9035.196964774499 56:1 174:1 175:1 176:1 177:1 178:1 
114435.8256486256 160:1 179:1 
66494.11981255942 163:1 
29858.12820571839 27:1 161:1 180:1 181:1 
114435.8256486256 182:1 
16599.40430816318 43:1 56:1 169:1 177:1 183:1 
19167.15184396025 34:1 148:1 
73637.01667683425 184:1 185:1 
95236.91070397808 89:1 
40532.84197803909 53:1 84:1 183:1 186:1 187:1 188:1 189:1 
22411.77285648515 190:1 
97613.68268516152 71:1 191:1 192:1 193:1 194:1 195:1 
64514.10912148644 56:1 67:1 71:1 84:1 108:1 196:1 197:1 
14586.93393582225 38:1 124:1 183:1 185:1 198:1 199:1 200:1 201:1 202:1 203:1 
109420.254952913 204:1 205:1 
109868.3454259133 70:1 
107983.6621271147 206:1 207:1 
114435.8256486256 129:1 
114435.8256486256 77:1 208:1 
114435.8256486256 129:1 
114435.8256486256 129:1 
94723.93717106832 70:1 207:1 
114435.8256486256 209:1 210:1 211:1 
114435.8256486256 129:1 
108497.5247347247 212:1 213:1 214:1 215:1 216:1 217:1 
114435.8256486256 129:1 
111667.2099123397 218:1 219:1 220:1 221:1 222:1 223:1 
114435.8256486256 129:1 
114435.8256486256 184:1 
4193.021090195474 76:1 218:1 223:1 224:1 225:1 226:1 227:1 
114435.8256486256 129:1 
24385.09484447725 175:1 176:1 
114435.8256486256 129:1 
32578.04073170388 129:1 
110830.5162152454 230:1 231:1 
1363.133472510849 175:1 235:1 236:1 
64415.70613237653 129:1 147:1 237:1 
82559.77272125971 238:1 
56351.53169844055 59:1 239:1 
9336.96247453706 64:1 223:1 227:1 240:1 241:1 
80221.51611294998 59:1 242:1 243:1 244:1 245:1 246:1 
113453.4703964797 247:1 
90225.79007103498 84:1 246:1 248:1 249:1 250:1 251:1 252:1 253:1 
82816.88051987089 69:1 84:1 153:1 254:1 255:1 256:1 
96633.43433059222 218:1 257:1 258:1 
89205.17054629927 64:1 77:1 259:1 260:1 261:1 262:1 263:1 
68193.92669950002 223:1 264:1 265:1 266:1 267:1 
114435.8256486256 268:1 
19268.59320525657 269:1 
53797.25234851567 202:1 229:1 270:1 271:1 
99619.50435897415 272:1 
24167.51710462826 71:1 72:1 218:1 228:1 229:1 273:1 274:1 
97028.96846594826 24:1 91:1 275:1 276:1 
114435.8256486256 278:1 
114435.8256486256 279:1 
72821.83946906947 79:1 280:1 
114435.8256486256 281:1 282:1 283:1 284:1 
59566.78911519966 183:1 285:1 286:1 
35216.92055424346 183:1 286:1 287:1 288:1 289:1 290:1 291:1 
74583.88756504038 34:1 292:1 
89444.05058648645 129:1 277:1 293:1 294:1 
106408.2247942819 84:1 102:1 296:1 297:1 298:1 
75527.82078896298 38:1 299:1 300:1 301:1 302:1 303:1 304:1 305:1 306:1 307:1 308:1 309:1 
34.91207453181737 129:1 313:1 
103681.3914985171 38:1 113:1 310:1 314:1 315:1 
12360.35993717611 258:1 316:1 
41700.29887259921 60:1 153:1 317:1 
74213.65093021659 318:1 
28439.82743983822 64:1 137:1 153:1 218:1 319:1 
21937.50861443689 38:1 321:1 
37338.43030695959 6:1 46:1 229:1 322:1 323:1 
1345.56753756905 153:1 207:1 218:1 317:1 318:1 327:1 
114435.8256486256 329:1 330:1 331:1 332:1 333:1 334:1 
11299.31128573628 338:1 339:1 
3536.259149998182 103:1 336:1 337:1 340:1 341:1 342:1 
68227.63020280287 328:1 
224.7087580080914 353:1 354:1 
399.6243200617869 129:1 166:1 320:1 
5692.690730189759 358:1 359:1 360:1 361:1 
18209.39236172447 324:1 362:1 363:1 364:1 
18172.52370605994 365:1 366:1 367:1 
12048.10604928437 27:1 56:1 121:1 317:1 368:1 369:1 370:1 371:1 
4735.466077979535 318:1 376:1 377:1 
10800.81431029057 124:1 125:1 127:1 318:1 379:1 380:1 
11116.0514558773 377:1 381:1 
2377.017941451038 318:1 383:1 
13922.00582049567 384:1 385:1 386:1 
59790.15394397348 387:1 388:1 389:1 
71.25711925960937 6:1 349:1 350:1 
21.28139559983221 160:1 179:1 
9536.214659191426 19:1 309:1 391:1 
525.7357777885157 123:1 160:1 378:1 392:1 
31476.41041636328 160:1 324:1 325:1 
95507.90823857735 181:1 397:1 398:1 399:1 400:1 401:1 402:1 403:1 404:1 
3141.509408375668 310:1 401:1 405:1 
3823.272152935147 90:1 407:1 
51361.61354112422 408:1 409:1 
11100.79534286636 410:1 411:1 
10258.04055283393 10:1 11:1 12:1 280:1 336:1 412:1 413:1 414:1 415:1 416:1 417:1 418:1 419:1 
15763.38539169772 420:1 421:1 
32080.10776234604 423:1 424:1 425:1 426:1 
3806.331876950138 276:1 427:1 
4132.289783500208 378:1 428:1 
35457.71365989251 248:1 386:1 429:1 
4395.631087966284 13:1 51:1 183:1 430:1 431:1 
14804.57661236063 224:1 331:1 436:1 437:1 
1432.508517342806 63:1 64:1 121:1 223:1 434:1 438:1 439:1 
4457.433776779979 122:1 166:1 
71.39848374341723 72:1 228:1 442:1 
35714.64055504951 46:1 181:1 
512.9839446179128 443:1 
6711.948671282597 68:1 444:1 445:1 446:1 
11740.96161763937 63:1 175:1 181:1 448:1 449:1 
114435.8256486256 454:1 
4786.228325638908 64:1 241:1 243:1 259:1 455:1 456:1 457:1 458:1 459:1 
3964.650396520921 64:1 229:1 240:1 241:1 460:1 461:1 462:1 
38091.19536338782 176:1 374:1 433:1 463:1 464:1 465:1 466:1 467:1 468:1 
14529.80076994224 469:1 
41206.88224833536 276:1 476:1 
2136.440998959699 166:1 
4967.416614082775 38:1 176:1 432:1 477:1 478:1 479:1 480:1 
44235.94537563818 481:1 482:1 483:1 
38718.54653410891 484:1 485:1 486:1 487:1 488:1 
1847.178891897391 298:1 432:1 489:1 490:1 
216.4938712082157 38:1 299:1 300:1 301:1 302:1 303:1 304:1 305:1 306:1 308:1 491:1 492:1 
380.9650852007497 394:1 493:1 
113.9065336496919 16:1 71:1 72:1 133:1 432:1 497:1 498:1 499:1 500:1 501:1 
4051.922840666436 34:1 384:1 502:1 503:1 
3689.177394546691 107:1 206:1 432:1 441:1 504:1 505:1 
26374.42010260619 103:1 153:1 338:1 339:1 512:1 513:1 514:1 515:1 516:1 
83.79655058858135 120:1 338:1 339:1 513:1 
5220.916188639577 518:1 519:1 520:1 
135.8900121539853 125:1 348:1 521:1 
57733.59109891192 38:1 522:1 523:1 524:1 525:1 526:1 527:1 
77505.52175298726 528:1 
890.5792195574732 68:1 529:1 530:1 
15689.63317034285 16:1 531:1 532:1 
24.85432367001626 181:1 533:1 
8257.753469638223 130:1 534:1 
788.658929146147 357:1 535:1 536:1 537:1 
9583.081501855922 432:1 
4965.85268533254 539:1 540:1 
14372.35689163551 14:1 22:1 23:1 535:1 
1901.698574536421 542:1 
4833.771982272905 543:1 
104057.1084712961 60:1 176:1 544:1 545:1 546:1 547:1 
8901.045600391633 548:1 
10745.83850291189 176:1 224:1 549:1 550:1 551:1 
375.1790794215922 234:1 322:1 443:1 
1380.064502460292 280:1 501:1 526:1 
1711.996053990973 552:1 
52702.71952351459 316:1 390:1 
7492.942748437858 84:1 559:1 
6683.162087704268 172:1 558:1 
2076.816061363884 553:1 
78.04500221417993 107:1 560:1 561:1 562:1 
938.7393468245444 563:1 
11766.6912390959 280:1 382:1 564:1 565:1 
9412.691148563763 197:1 566:1 
5109.459714208747 18:1 567:1 568:1 
21415.68942297421 130:1 569:1 570:1 
16318.91689925678 375:1 571:1 572:1 573:1 574:1 575:1 
940.5406972954004 46:1 418:1 576:1 577:1 
1008.777161235771 576:1 582:1 
742.2237558819967 34:1 390:1 564:1 585:1 
4340.514045913242 56:1 120:1 224:1 586:1 587:1 588:1 
128.0763128560525 592:1 
1591.468039787399 59:1 198:1 576:1 593:1 594:1 595:1 
3707.78615861136 596:1 
3419.567052745938 63:1 597:1 598:1 
1232.034772726885 55:1 107:1 184:1 600:1 601:1 602:1 
1321.079104692717 64:1 224:1 240:1 241:1 243:1 603:1 604:1 
7390.559861995344 264:1 605:1 606:1 607:1 608:1 
1713.725854810162 184:1 229:1 613:1 
417.1720347194018 373:1 538:1 558:1 576:1 615:1 616:1 617:1 618:1 
749.5253336199901 169:1 229:1 619:1 620:1 621:1 
4257.62162049688 38:1 300:1 301:1 302:1 303:1 304:1 306:1 308:1 491:1 492:1 611:1 624:1 
624.8712190210641 19:1 71:1 72:1 107:1 216:1 280:1 622:1 626:1 
14064.1999227066 627:1 628:1 
613.237791044484 202:1 350:1 505:1 629:1 
208.986489364889 125:1 179:1 273:1 348:1 630:1 
2372.29999703619 311:1 531:1 558:1 631:1 632:1 
1541.303660123209 633:1 634:1 
3751.391640932236 635:1 636:1 
527.1698827854885 234:1 637:1 
6399.502039238027 350:1 642:1 
6235.649092106178 643:1 644:1 
1432.284666124379 153:1 513:1 519:1 520:1 650:1 651:1 652:1 653:1 
4053.992087872857 153:1 347:1 651:1 652:1 654:1 
76.56159829448183 519:1 520:1 656:1 
1333.06120257334 248:1 350:1 657:1 658:1 
121.7276017203911 125:1 179:1 357:1 659:1 660:1 
114435.8256486256 90:1 359:1 360:1 361:1 407:1 
142.7353162680419 179:1 
2102.877801023834 5:1 84:1 661:1 662:1 663:1 664:1 
451.2028634716158 667:1 
2534.33780697245 280:1 345:1 622:1 
288.0219830438937 669:1 670:1 
2194.922620314926 67:1 671:1 672:1 673:1 674:1 675:1 
2577.088479427645 676:1 677:1 
77.4716300113658 51:1 165:1 680:1 
11527.79917861619 425:1 681:1 
1233.07272793591 84:1 121:1 682:1 683:1 
1769.736961665499 34:1 420:1 684:1 685:1 686:1 687:1 
2987.179059562097 688:1 689:1 
4704.946848874743 103:1 335:1 336:1 337:1 
1333.695482642234 46:1 
138.5083841590356 660:1 694:1 695:1 696:1 
630.4850283775646 27:1 38:1 45:1 51:1 79:1 197:1 697:1 
966.0612149320871 700:1 
9795.924643057813 186:1 457:1 703:1 704:1 705:1 
12425.50201287801 35:1 107:1 706:1 
2020.621374943737 529:1 590:1 707:1 
18.1762580470838 103:1 336:1 337:1 350:1 711:1 712:1 
941.6605200191292 84:1 713:1 714:1 715:1 
11452.0316549978 45:1 46:1 717:1 
467.6519464218356 64:1 103:1 176:1 515:1 516:1 709:1 719:1 720:1 
11375.07986829306 300:1 
423.4523323938107 491:1 
21652.6703351116 722:1 
88.97949953709761 27:1 723:1 
120.8890930326519 84:1 183:1 259:1 724:1 
1071.995057601783 63:1 603:1 725:1 726:1 727:1 
60.58386558543325 198:1 590:1 732:1 
3143.383722625319 733:1 
9485.287616162987 27:1 176:1 249:1 250:1 734:1 735:1 736:1 737:1 
6481.022504056486 103:1 173:1 175:1 176:1 336:1 337:1 709:1 739:1 740:1 
1055.973588270487 741:1 
256.9217135405298 27:1 241:1 271:1 736:1 742:1 743:1 744:1 
7781.457604745096 84:1 121:1 215:1 217:1 745:1 
20468.9038022029 748:1 
7670.267839493112 750:1 751:1 
1781.611614243115 420:1 684:1 686:1 687:1 752:1 753:1 
1942.415381213066 183:1 757:1 758:1 
4308.271046020028 670:1 759:1 760:1 
2849.544675707527 38:1 763:1 
1221.292343853167 766:1 
38500.95930686063 311:1 655:1 708:1 767:1 768:1 769:1 770:1 771:1 
1282.287084214359 772:1 773:1 774:1 775:1 
25911.54124989218 779:1 780:1 
2595.692934488764 666:1 781:1 782:1 783:1 784:1 785:1 
36.91493254793782 786:1 
16130.19957365387 56:1 787:1 788:1 789:1 
4343.747924612562 679:1 
588.859277199236 790:1 
220.0575199864584 71:1 755:1 756:1 791:1 
2603.029852074404 47:1 93:1 792:1 793:1 
13682.77520993923 795:1 796:1 797:1 798:1 799:1 
73.52994146857691 800:1 
20076.16117943835 657:1 802:1 803:1 804:1 
4911.400232215079 47:1 805:1 
2511.640873896732 806:1 807:1 808:1 
1167.601883203143 809:1 
220.5108614493878 277:1 810:1 
14889.50798256878 801:1 
56370.78632446914 14:1 22:1 23:1 24:1 277:1 
2338.320918532453 10:1 11:1 12:1 69:1 
3312.167231348846 137:1 406:1 813:1 814:1 
1575.011971411846 35:1 137:1 161:1 181:1 452:1 815:1 
3151.832958861537 27:1 161:1 816:1 817:1 
4880.714497193586 38:1 258:1 373:1 479:1 819:1 
1339.682452842014 444:1 535:1 820:1 821:1 822:1 
146.7716696856313 823:1 
2018.012557993894 34:1 293:1 311:1 636:1 824:1 
13513.20068710828 104:1 135:1 829:1 
6493.191477067065 38:1 294:1 332:1 496:1 670:1 830:1 831:1 
10314.76413991235 47:1 832:1 833:1 
1305.277242441709 69:1 173:1 836:1 837:1 
5299.497613974499 838:1 
881.9122882905926 593:1 655:1 794:1 840:1 
3345.378675075326 156:1 652:1 842:1 843:1 844:1 
188.4944747389984 120:1 170:1 652:1 655:1 845:1 846:1 
9.844291553654346 63:1 116:1 589:1 834:1 835:1 845:1 847:1 848:1 
1242.120373339872 14:1 84:1 216:1 736:1 825:1 849:1 
1890.580542290878 223:1 240:1 471:1 744:1 834:1 835:1 850:1 851:1 852:1 853:1 
13.83762252491343 13:1 16:1 810:1 
12314.80853946951 93:1 94:1 103:1 121:1 176:1 189:1 856:1 
8211.647617234274 56:1 104:1 692:1 861:1 862:1 863:1 864:1 
9711.025419810308 13:1 24:1 107:1 122:1 859:1 860:1 
6332.699017840942 63:1 812:1 870:1 
1221.371045320809 299:1 573:1 593:1 600:1 871:1 874:1 875:1 876:1 877:1 
5341.527119215621 878:1 
2128.580130046241 880:1 
4689.170671033864 469:1 885:1 886:1 
1293.553474968173 84:1 170:1 509:1 736:1 887:1 888:1 
2339.528981909268 489:1 889:1 
90.8518127884263 320:1 573:1 892:1 893:1 894:1 895:1 896:1 
296.6008330994518 13:1 38:1 310:1 480:1 901:1 
1574.077244030831 320:1 902:1 903:1 
8435.435993136329 876:1 904:1 
1267.02824446825 19:1 38:1 176:1 310:1 346:1 
5011.419483446904 84:1 123:1 317:1 910:1 
4429.353991135507 487:1 828:1 
378.3606734621065 912:1 
4025.424679048173 27:1 161:1 914:1 
30455.72999171053 487:1 919:1 920:1 
1000.920228724888 18:1 915:1 923:1 924:1 
3002.562063216521 926:1 927:1 928:1 
3863.88957611501 18:1 169:1 181:1 929:1 930:1 931:1 
2375.187412219461 800:1 932:1 
7110.350435968341 345:1 869:1 
871.2913583407538 125:1 273:1 630:1 933:1 
1326.469795395111 176:1 346:1 372:1 
11659.4428870848 27:1 161:1 531:1 935:1 936:1 
63.49838770874331 940:1 
16.30859291998718 137:1 352:1 941:1 
14160.38526468596 944:1 
15.3520324961695 27:1 161:1 917:1 
190.2911052691205 945:1 946:1 947:1 
21218.01644817938 51:1 67:1 680:1 945:1 
1748.965933211991 37:1 950:1 
944.417035326775 939:1 951:1 952:1 953:1 954:1 
2973.463424413917 956:1 
2283.581642946177 136:1 170:1 860:1 957:1 958:1 
2235.089982987373 71:1 72:1 84:1 216:1 390:1 962:1 
2963.571651304963 48:1 668:1 963:1 
4770.186350612717 537:1 
7253.022156214276 955:1 956:1 967:1 968:1 969:1 
8001.502831971199 48:1 321:1 971:1 
13738.27265057492 331:1 973:1 974:1 975:1 976:1 977:1 978:1 
3033.626421612691 573:1 984:1 985:1 986:1 987:1 
6982.141618745379 227:1 241:1 264:1 265:1 471:1 472:1 988:1 989:1 990:1 991:1 
12408.39451044685 224:1 463:1 979:1 
5517.66421901271 992:1 
10627.24649524318 175:1 447:1 579:1 959:1 993:1 994:1 
1299.327107618077 340:1 884:1 
4693.221470341041 223:1 250:1 744:1 979:1 999:1 1000:1 1001:1 
3542.517885475856 489:1 1002:1 1003:1 
2582.358288929352 167:1 320:1 589:1 
2275.667809736704 191:1 590:1 1004:1 1005:1 
28.81708950601916 90:1 
83140.06163814972 3:1 4:1 
55.55598167267597 13:1 14:1 557:1 670:1 778:1 1011:1 1012:1 
267.9659578759393 772:1 1016:1 
8131.491281789186 1017:1 1018:1 
8558.809666574898 50:1 543:1 1019:1 1020:1 1021:1 
17361.43662304605 1025:1 1026:1 
494.9470659159907 1027:1 
33.17015717849323 845:1 
35078.8261165318 1034:1 1035:1 1036:1 
2607.049552423679 614:1 694:1 764:1 1040:1 1041:1 
1511.538677771033 44:1 103:1 453:1 1046:1 1047:1 1048:1 
9799.71941860998 463:1 1051:1 1052:1 
15711.91699896838 263:1 604:1 1053:1 1054:1 
2759.361241345443 224:1 338:1 
1656.075857934036 611:1 1057:1 1058:1 1059:1 
8668.453897135572 264:1 480:1 727:1 1056:1 1061:1 
3299.828701290359 175:1 223:1 338:1 437:1 604:1 999:1 1064:1 1065:1 
1841.903604283048 1066:1 
1954.009242573036 64:1 241:1 460:1 1067:1 1068:1 1069:1 1070:1 1071:1 1072:1 
16996.14090428503 222:1 224:1 225:1 1073:1 
1897.688458082752 16:1 58:1 175:1 343:1 857:1 1050:1 
6898.039578806734 167:1 288:1 898:1 
641.5208980002931 27:1 874:1 1078:1 
350.9974450943604 63:1 1080:1 1081:1 
24.57614289517484 169:1 183:1 493:1 1050:1 1083:1 
30667.98316594443 313:1 758:1 
1615.880055256773 948:1 
42018.18284849056 1089:1 
7641.221905398865 791:1 1004:1 1090:1 1091:1 
44126.00656788926 1092:1 
2938.069857472758 1093:1 1094:1 
2148.707007805488 395:1 707:1 1097:1 
1270.104983476242 25:1 1050:1 1074:1 1096:1 
1745.840595001022 1098:1 1099:1 
19890.83907491725 151:1 152:1 
1398.218919205732 1100:1 
1858.958780287538 36:1 889:1 
3893.023578619443 1102:1 1103:1 
3628.079761383618 242:1 344:1 350:1 1104:1 1105:1 
4522.226721974581 38:1 761:1 1107:1 1109:1 1110:1 
7826.756912345844 248:1 1112:1 
32.49841059886813 18:1 162:1 915:1 1085:1 
3955.360996972364 578:1 580:1 1115:1 1116:1 
105.3827943971741 925:1 1120:1 
227.5643179556356 489:1 1121:1 
2119.242057302588 127:1 1022:1 1122:1 
157.1831590010453 538:1 1123:1 
6240.590726122377 63:1 198:1 417:1 558:1 1124:1 
3404.595011270056 558:1 1125:1 
5240.432426849983 63:1 102:1 181:1 406:1 558:1 1126:1 
5245.276096630558 11:1 12:1 107:1 236:1 347:1 1134:1 1135:1 1136:1 1137:1 1138:1 1139:1 
51859.49219195241 13:1 71:1 72:1 107:1 475:1 1141:1 1142:1 
1887.645543087146 1145:1 
254.3552353864734 1147:1 
1528.775429964295 363:1 1148:1 
4942.742137536303 113:1 395:1 1152:1 1153:1 
2187.795001492807 48:1 137:1 492:1 511:1 983:1 1154:1 1155:1 
53755.03969054121 57:1 
550.454981195196 27:1 71:1 590:1 678:1 736:1 1062:1 1063:1 1159:1 
1226.140998623045 224:1 264:1 587:1 608:1 826:1 1003:1 1160:1 
247.9785324518882 1161:1 
334.5948463326372 64:1 1162:1 1163:1 1164:1 
172.6923440816984 716:1 
1822.308019699597 55:1 56:1 1166:1 1167:1 1168:1 1169:1 
26247.50602126987 11:1 45:1 194:1 197:1 320:1 558:1 1170:1 
4485.63273434413 122:1 276:1 
1068.157635079223 38:1 558:1 589:1 1172:1 
3035.595195273735 480:1 558:1 
2093.100067914258 63:1 181:1 557:1 933:1 1174:1 1175:1 1176:1 
115.3795236243272 275:1 558:1 
375.0259030994096 47:1 70:1 1179:1 1180:1 
5040.047016879198 63:1 146:1 216:1 1181:1 
1408.788221529204 558:1 
2417.53211625489 313:1 413:1 558:1 754:1 1184:1 
2548.079345903426 360:1 361:1 761:1 1187:1 1188:1 1189:1 1190:1 
260.8513347668829 273:1 336:1 900:1 1191:1 1192:1 
208.4899109357582 1022:1 1193:1 
1913.873887148261 18:1 22:1 23:1 223:1 1183:1 1184:1 
13858.35035016652 416:1 512:1 1055:1 1195:1 
171.1654496959603 1179:1 1196:1 
3541.264407587426 556:1 598:1 1055:1 1197:1 1198:1 1199:1 
114435.8256486256 1200:1 
4568.21882803841 1201:1 1202:1 
1341.301080238743 170:1 176:1 1073:1 1203:1 1204:1 
2504.578303399824 369:1 472:1 744:1 1206:1 1207:1 1208:1 
164.2522835037294 10:1 11:1 475:1 
2914.472819375872 64:1 176:1 1063:1 1209:1 1210:1 
147.2979868305189 170:1 240:1 744:1 874:1 1213:1 1214:1 1215:1 1216:1 
31529.72168121005 14:1 273:1 439:1 873:1 1217:1 1218:1 1219:1 
51986.53959123464 517:1 1184:1 1220:1 1221:1 
2401.0114484151 509:1 510:1 1184:1 
40724.05433162138 19:1 38:1 
4897.933966143242 874:1 1184:1 
1228.64013903355 490:1 1008:1 1009:1 1010:1 1184:1 
259.84132455513 13:1 1045:1 1223:1 1224:1 1225:1 
34264.69810968291 1226:1 
73.91485107074205 37:1 56:1 630:1 1227:1 
9696.314373354322 1184:1 
2803.550667150566 13:1 169:1 345:1 350:1 1184:1 
4424.974675054762 130:1 295:1 396:1 1235:1 
21390.8624515342 1236:1 1237:1 
14189.18521202231 34:1 127:1 175:1 1022:1 1238:1 1239:1 1240:1 
4281.374418768915 16:1 255:1 
10240.14978517322 162:1 
1264.083008604336 10:1 11:1 27:1 197:1 206:1 475:1 1243:1 
5459.552978021048 54:1 197:1 640:1 915:1 1123:1 1128:1 1244:1 
1278.216461945437 222:1 223:1 229:1 1246:1 1247:1 
251.6771220395511 176:1 217:1 529:1 1125:1 
278.9797871002621 217:1 917:1 
7384.533157881693 243:1 471:1 489:1 593:1 607:1 1248:1 
6779.731452392558 369:1 444:1 744:1 872:1 1249:1 1250:1 
5097.581037874291 600:1 755:1 756:1 1251:1 1252:1 
16.26357242212027 11:1 175:1 228:1 229:1 1253:1 
16872.32178290192 779:1 1254:1 1255:1 
10657.34509401528 243:1 252:1 253:1 736:1 1257:1 
3911.807680003946 64:1 1257:1 1258:1 1259:1 1260:1 1261:1 
1087.601397381642 1262:1 
727.5388453885 161:1 250:1 304:1 435:1 1073:1 1265:1 1266:1 
1293.156985784155 18:1 271:1 535:1 1269:1 1270:1 1271:1 1272:1 1273:1 
3754.918008903621 1106:1 
9.079972028139139 19:1 38:1 229:1 310:1 589:1 649:1 1172:1 1267:1 
14185.8412565255 38:1 294:1 480:1 794:1 1241:1 
1399.21079403702 1276:1 1277:1 
99.44366350741564 64:1 154:1 1241:1 
287.8067729100037 72:1 630:1 1023:1 1278:1 
107.5051243217344 1279:1 1280:1 
932.6490805578287 898:1 1283:1 
1121.108214511166 25:1 169:1 1037:1 
83.41681589796571 18:1 47:1 295:1 1119:1 1186:1 
9858.60621988461 630:1 1023:1 1293:1 1294:1 
785.3572982086574 175:1 1240:1 
3304.353789678722 61:1 252:1 
3190.951495704575 1295:1 1296:1 1297:1 
19011.52658758311 1299:1 1300:1 
1409.777342109873 6:1 25:1 197:1 1039:1 1241:1 
1062.356960140424 772:1 1266:1 1301:1 1302:1 
32613.65239445774 45:1 46:1 165:1 385:1 680:1 1290:1 
56.33129398920124 68:1 206:1 480:1 800:1 932:1 1241:1 
884.0787604430701 22:1 23:1 24:1 38:1 176:1 310:1 346:1 535:1 1241:1 1306:1 
7867.97195052242 50:1 184:1 
8056.882142784244 153:1 288:1 755:1 756:1 1307:1 1308:1 
3861.130492630349 313:1 1241:1 
1022.799002658009 45:1 67:1 668:1 1290:1 1310:1 1311:1 1312:1 1313:1 1314:1 
5272.84810184489 420:1 1290:1 1311:1 1315:1 1316:1 1317:1 1318:1 1319:1 
63.02591508771643 34:1 183:1 1320:1 1323:1 
45241.89763586519 1290:1 1324:1 
7126.956378684982 27:1 183:1 668:1 1290:1 1325:1 1326:1 1327:1 1328:1 
47101.34610100333 39:1 42:1 165:1 184:1 1044:1 1290:1 1328:1 1329:1 
1215.479539087615 202:1 234:1 797:1 1333:1 1334:1 
4235.049868805318 68:1 668:1 674:1 1335:1 1336:1 1337:1 
1574.772811319039 25:1 277:1 304:1 576:1 1119:1 1338:1 1339:1 1340:1 1341:1 
675.6463813002231 64:1 146:1 185:1 935:1 
4286.996139350127 1342:1 
1089.017133086681 818:1 1331:1 
348.7267167454664 633:1 1344:1 1345:1 1346:1 1347:1 1348:1 
1163.779965994253 702:1 
213.0495009504239 13:1 16:1 124:1 1349:1 
3627.279164427481 1331:1 1353:1 
219.5852657597626 50:1 1354:1 
10084.88900065972 1360:1 1361:1 1362:1 
2251.501163492135 435:1 1363:1 1364:1 1365:1 
76.77312555998164 1368:1 
37.22004648299589 84:1 1369:1 
3228.462458446188 1370:1 
1872.174149165363 1371:1 
107392.9077149657 58:1 
113.5856672461289 120:1 243:1 264:1 301:1 690:1 744:1 1372:1 1373:1 
6834.991284604873 147:1 302:1 727:1 731:1 1247:1 1372:1 1374:1 1375:1 1376:1 
126.733043105417 573:1 997:1 1366:1 1380:1 1381:1 1382:1 1383:1 1384:1 
6563.28928975472 241:1 690:1 1000:1 1309:1 1379:1 1385:1 1386:1 1387:1 
26.69282790998579 1388:1 
742.5435123943489 229:1 1389:1 
171.9133595089631 1390:1 
5693.610026562287 34:1 706:1 716:1 1391:1 1392:1 
116.773500348935 38:1 1178:1 1331:1 
2221.092718776493 394:1 1393:1 
555.7095128046172 416:1 1082:1 1304:1 1331:1 1395:1 1396:1 
2215.315094544877 1174:1 1397:1 1398:1 
396.7345615833207 1399:1 
6326.347920993725 127:1 450:1 1400:1 
11303.80674575522 135:1 437:1 573:1 1406:1 
569.9825623290604 1407:1 
358.3773156815955 48:1 258:1 761:1 1120:1 1408:1 
1686.836468858987 34:1 181:1 1409:1 1410:1 1411:1 1412:1 1413:1 
3060.521592645537 42:1 90:1 1414:1 
991.4401709800524 205:1 396:1 900:1 1415:1 
1159.272920509811 176:1 346:1 446:1 1416:1 1417:1 
1773.570952115817 11:1 12:1 197:1 280:1 622:1 1420:1 
7715.474482624035 71:1 72:1 184:1 1422:1 
2074.542956013888 1423:1 
3824.963124097112 131:1 813:1 
37.94035991755895 772:1 933:1 1298:1 1406:1 
2764.085993238921 786:1 1424:1 
4948.416061297748 378:1 1418:1 1419:1 
57.3469693920589 48:1 56:1 59:1 137:1 560:1 670:1 1213:1 1427:1 1428:1 1429:1 
2871.387622914284 234:1 1430:1 1431:1 1432:1 1433:1 
27708.86483822468 173:1 599:1 
2313.634381831178 1298:1 1406:1 
72957.1088198818 1174:1 
63.75767153084259 27:1 161:1 1298:1 1406:1 1424:1 
2628.717697210564 123:1 772:1 1406:1 
260.1208536779535 28:1 34:1 36:1 178:1 374:1 511:1 819:1 1298:1 1436:1 
6.505118118312245 48:1 56:1 137:1 258:1 312:1 1424:1 1437:1 1438:1 1439:1 
4200.913270173412 130:1 174:1 410:1 489:1 865:1 
903.4577947948668 33:1 130:1 202:1 1298:1 1406:1 
3061.387651279267 966:1 1440:1 
4139.002753806102 34:1 1441:1 
2335.045212197626 202:1 1442:1 1443:1 
917.8723205201831 169:1 702:1 1444:1 
23645.48055411148 37:1 104:1 203:1 1445:1 
2382.933606168955 273:1 1444:1 
11648.58457884587 280:1 335:1 622:1 1444:1 
7561.359120191859 622:1 1421:1 
9278.925533639785 107:1 196:1 197:1 509:1 590:1 622:1 1421:1 1446:1 
39.18160695227735 27:1 197:1 280:1 622:1 668:1 1448:1 1449:1 
3351.649417157959 800:1 918:1 
4970.124006071746 1029:1 
1060.400488986704 63:1 68:1 206:1 593:1 1451:1 1452:1 
765.6206907015184 217:1 1453:1 1454:1 1455:1 
650.9899615637462 63:1 249:1 1194:1 1347:1 1456:1 1457:1 1458:1 
3091.100803515346 217:1 228:1 340:1 431:1 
12322.95756952822 448:1 1314:1 1461:1 
333.2577787523108 1201:1 
280.0692543612906 175:1 176:1 277:1 658:1 1444:1 
10416.93009075327 1463:1 1464:1 1465:1 
3496.114628172593 222:1 224:1 241:1 726:1 817:1 1156:1 1466:1 1467:1 
952.632964771073 14:1 783:1 1028:1 1347:1 1468:1 1469:1 1470:1 
4415.285657692998 10:1 11:1 87:1 1444:1 1471:1 
2420.79278007697 107:1 397:1 484:1 670:1 
386.0537278682507 1449:1 1473:1 
919.386209290922 38:1 762:1 1444:1 
1208.718779016703 343:1 857:1 1242:1 1444:1 1474:1 
1986.826613486296 361:1 768:1 1475:1 1476:1 
37.34700333831902 350:1 658:1 
16.90682035206657 51:1 680:1 983:1 
77.36944783482849 38:1 1444:1 
28.54678845271346 1444:1 1479:1 
1876.093617438572 127:1 176:1 458:1 639:1 1045:1 1480:1 
287.0001107196902 125:1 1481:1 1482:1 
16010.60176572037 631:1 645:1 
276.0316799662398 1483:1 
10640.66849336534 72:1 1485:1 1486:1 1487:1 
4023.268769127979 1491:1 
391.8347403402997 34:1 1493:1 
9374.124624221058 69:1 137:1 153:1 165:1 295:1 1064:1 1494:1 
7487.217212413895 10:1 11:1 88:1 517:1 915:1 
3014.103949676607 99:1 1425:1 1496:1 1497:1 
2207.734998673428 462:1 778:1 1498:1 
5003.889405614431 84:1 283:1 978:1 1501:1 
6324.907889520184 212:1 1495:1 
17603.78465577243 146:1 511:1 
1052.205536482955 197:1 475:1 509:1 1446:1 
6055.47303717665 538:1 1502:1 
659.0110430834388 206:1 293:1 475:1 638:1 1484:1 1500:1 1505:1 1506:1 1507:1 1508:1 
441.7416564256778 84:1 197:1 229:1 273:1 274:1 1509:1 
2533.010639982688 27:1 203:1 390:1 1510:1 1511:1 
717.8009046788521 1513:1 
4015.287505645891 84:1 437:1 1149:1 1514:1 1515:1 1516:1 
3608.893076917158 176:1 224:1 243:1 369:1 512:1 1073:1 1517:1 
3006.962321974586 271:1 321:1 593:1 744:1 1045:1 1518:1 1519:1 
9575.433205856558 132:1 216:1 228:1 320:1 1520:1 
269.0601986985213 1355:1 
1450.720134651914 1521:1 
269.9497168800261 250:1 261:1 262:1 1522:1 
2183.416000639351 1523:1 
5982.844073455924 64:1 198:1 206:1 223:1 241:1 875:1 980:1 1522:1 1524:1 
7944.236135498834 16:1 58:1 229:1 267:1 292:1 1294:1 1484:1 1526:1 
11967.389985081 35:1 184:1 458:1 778:1 1114:1 1527:1 
17674.22886939474 7:1 13:1 69:1 464:1 1522:1 1528:1 
24846.22614462913 7:1 1522:1 
1716.683589070334 34:1 169:1 1470:1 1532:1 1533:1 1534:1 
607.4708839140548 153:1 1522:1 1535:1 
4746.013668616935 7:1 94:1 1522:1 
1418.7797098939 288:1 311:1 383:1 1484:1 1536:1 1537:1 1538:1 
32784.6224422732 153:1 494:1 
968.5491452380054 495:1 
1973.760642048033 311:1 614:1 1177:1 1540:1 1541:1 
1325.939427791154 27:1 293:1 428:1 
13913.76089981754 1544:1 1545:1 
6653.693438362886 107:1 648:1 649:1 1425:1 1546:1 
2855.329297114532 103:1 340:1 449:1 1545:1 1549:1 1550:1 
35767.12241000425 519:1 520:1 1030:1 1552:1 
764.1819807978707 639:1 1320:1 
4139.343567474548 6:1 11:1 350:1 578:1 1043:1 1557:1 
2618.663733980468 50:1 154:1 350:1 608:1 
101.027317121515 523:1 638:1 1484:1 1560:1 1561:1 
35217.89087893188 33:1 34:1 51:1 102:1 383:1 
35617.73216837303 16:1 22:1 23:1 24:1 1484:1 
77.70124298496589 561:1 638:1 1484:1 1560:1 1562:1 1563:1 
5786.397582402569 104:1 1353:1 
45.85231794695705 16:1 68:1 521:1 763:1 854:1 1329:1 1397:1 1565:1 
802.8861349455301 372:1 1115:1 1567:1 1568:1 1569:1 1570:1 
731.2702920583891 384:1 1115:1 1567:1 1574:1 1575:1 
4562.37917190555 156:1 1578:1 1579:1 1580:1 
762.4357892037903 84:1 280:1 332:1 783:1 1087:1 1440:1 1581:1 1582:1 
2034.547294780399 330:1 716:1 1144:1 1585:1 1586:1 1587:1 
9308.595917564338 124:1 229:1 343:1 590:1 736:1 972:1 998:1 1158:1 1588:1 1589:1 
275.9610299690306 250:1 469:1 582:1 1064:1 1590:1 1591:1 
149.0051867349759 82:1 1111:1 1595:1 1596:1 
97.19700688831308 170:1 175:1 1458:1 1597:1 1598:1 1599:1 
994.1114041901649 64:1 999:1 1090:1 1387:1 1600:1 1601:1 
6557.908671896701 224:1 243:1 434:1 471:1 1144:1 
666.8000466011219 11:1 12:1 72:1 194:1 197:1 1604:1 
1306.906327616616 343:1 1193:1 
16.31183147864526 882:1 1605:1 1606:1 
311.0386919282244 1473:1 1604:1 
1826.675007355989 229:1 670:1 1012:1 1608:1 1609:1 1610:1 
77838.20483887044 11:1 19:1 72:1 
3556.68017022321 69:1 153:1 154:1 181:1 464:1 1577:1 
6799.718496546139 133:1 151:1 372:1 1569:1 1575:1 1613:1 1614:1 
3931.782772859693 1611:1 1615:1 1616:1 
8854.04723798546 326:1 689:1 
5761.308780834916 229:1 1321:1 
12.3188783353531 6:1 25:1 38:1 507:1 1617:1 
2434.118808831212 22:1 23:1 1119:1 1620:1 
431.7066622181922 25:1 643:1 
144.8294864062876 18:1 1055:1 1118:1 1177:1 1621:1 
10249.20592543519 393:1 
405.1384109117869 280:1 1126:1 1610:1 
4578.872882797046 224:1 496:1 521:1 614:1 1110:1 1164:1 1290:1 1573:1 1626:1 
37669.59823359452 625:1 1195:1 1627:1 
7755.967542602955 51:1 515:1 680:1 1034:1 1035:1 1628:1 
7055.351106131673 53:1 236:1 416:1 437:1 1351:1 1610:1 1630:1 1631:1 1632:1 
2789.055842649089 416:1 512:1 600:1 1545:1 
11511.67462284357 190:1 593:1 970:1 986:1 1633:1 1634:1 1635:1 
11572.02606280942 1636:1 1637:1 
6635.602478434453 124:1 343:1 472:1 1205:1 1638:1 1639:1 
7814.616246432613 224:1 241:1 744:1 1000:1 1058:1 1634:1 1640:1 1641:1 
16.40852913716268 390:1 1201:1 
176.0174239402575 175:1 190:1 874:1 1233:1 1642:1 1643:1 1644:1 
75.27144828230848 175:1 216:1 439:1 873:1 1645:1 1646:1 
303.940350206452 285:1 692:1 
1396.896006330639 66:1 369:1 726:1 973:1 1003:1 1055:1 1583:1 1647:1 
375.4833629749029 27:1 241:1 736:1 744:1 872:1 1639:1 1648:1 1649:1 
10769.97761191437 69:1 464:1 1653:1 
1046.632456266258 11:1 1654:1 
3645.585798267333 38:1 1610:1 1656:1 
10100.85109077888 113:1 153:1 314:1 494:1 614:1 882:1 1610:1 1658:1 
658.5502335585504 1659:1 
801.2044248535738 1660:1 
1469.12793294789 167:1 422:1 499:1 
581.040245031932 36:1 183:1 1661:1 
266.67911853914 577:1 580:1 994:1 
835.5040214198704 34:1 51:1 95:1 183:1 680:1 826:1 1662:1 1663:1 
613.6961660075214 378:1 529:1 1290:1 1435:1 1664:1 
1328.008003891712 108:1 480:1 496:1 1610:1 
3034.56596613753 98:1 125:1 1666:1 
80.97462211104971 233:1 1667:1 
2036.74282133717 121:1 236:1 828:1 1039:1 1669:1 1670:1 1671:1 
575.8036531240324 1672:1 
5274.228049446257 176:1 1020:1 
95300.21850858496 1673:1 
101044.918166754 53:1 
1420.643969062872 167:1 175:1 216:1 228:1 277:1 1676:1 
5753.292101486502 175:1 1677:1 
10786.5244169304 63:1 99:1 556:1 1199:1 
5703.588726913874 216:1 744:1 1087:1 1678:1 1679:1 1680:1 
2211.657703890127 1681:1 
2222.669893422175 1682:1 
3793.871074829337 471:1 620:1 621:1 1076:1 1077:1 1667:1 
4727.613135280901 1106:1 1684:1 
1164.557691190195 107:1 258:1 360:1 758:1 1503:1 1685:1 
12711.21961911612 176:1 857:1 1686:1 
99.47083634973028 13:1 276:1 1226:1 1667:1 
1427.610794366112 48:1 49:1 154:1 1687:1 
1238.313883502298 169:1 350:1 497:1 793:1 1349:1 1688:1 1689:1 1690:1 1691:1 
14182.09286719358 181:1 207:1 327:1 
117.0237335976183 496:1 768:1 1692:1 
55.52268626757668 1234:1 1667:1 1693:1 
919.2131000436884 68:1 165:1 284:1 1694:1 1695:1 1696:1 
14809.616324874 22:1 23:1 475:1 1117:1 1667:1 
3836.889935234003 807:1 937:1 1697:1 1698:1 
31778.40353283991 38:1 130:1 294:1 
3775.595814387083 38:1 58:1 176:1 625:1 1699:1 1700:1 1701:1 
1541.531696909724 1023:1 1702:1 
1495.027153680602 71:1 148:1 348:1 1188:1 1703:1 
110914.4690301914 138:1 1704:1 
637.7922692793571 46:1 51:1 176:1 183:1 937:1 1290:1 1706:1 1707:1 
4963.8477652232 165:1 659:1 660:1 
11.47097271287017 34:1 56:1 165:1 284:1 1711:1 1712:1 
7.384588653073866 56:1 176:1 183:1 202:1 284:1 641:1 1472:1 1696:1 1709:1 1717:1 1718:1 
6540.447365660789 328:1 508:1 937:1 1719:1 1720:1 
1062.48017706414 43:1 56:1 183:1 822:1 1384:1 1495:1 1713:1 1716:1 1721:1 
1158.649966817673 38:1 283:1 1713:1 1716:1 1720:1 1722:1 1723:1 
2731.489265067692 27:1 37:1 1324:1 1694:1 1696:1 1724:1 1725:1 1726:1 
11659.7949348725 284:1 316:1 394:1 698:1 
1199.682624140415 1728:1 1729:1 1730:1 1731:1 1732:1 
1713.28130236371 34:1 130:1 349:1 420:1 687:1 824:1 1733:1 1734:1 
24773.15633118189 1056:1 1737:1 
788.7315044988916 1738:1 1739:1 1740:1 
109.7271035308756 1741:1 1742:1 
13187.27857896995 34:1 267:1 717:1 1228:1 1480:1 1745:1 
437.6130861780948 537:1 1738:1 
19159.81637570581 48:1 49:1 1746:1 
84.26165647798935 55:1 778:1 1747:1 
14596.86120506384 14:1 146:1 1668:1 1748:1 
4226.021856353632 867:1 868:1 
1340.815778399322 300:1 1009:1 1739:1 1750:1 1751:1 1752:1 
1573.215585971666 176:1 1753:1 
470.6556241400814 170:1 340:1 435:1 725:1 1593:1 1754:1 
1068.573801587815 1757:1 
453.1519829382578 124:1 250:1 343:1 445:1 638:1 873:1 1382:1 
2399.858885103977 215:1 217:1 
21.2108928541185 299:1 593:1 1754:1 1763:1 1764:1 1765:1 
3555.499539528681 34:1 320:1 1082:1 1766:1 
477.3600852254993 197:1 1738:1 1769:1 1770:1 
1024.864901619273 137:1 529:1 1080:1 1771:1 
644.2942793443967 1738:1 1772:1 
1640.760050506492 181:1 1353:1 1774:1 
70.03610414329113 63:1 1177:1 1405:1 
5443.661592980821 1775:1 
28836.18555938951 49:1 1776:1 
6745.755635036378 496:1 537:1 539:1 
508.8006114648634 234:1 239:1 
1510.865921176428 70:1 153:1 176:1 1084:1 1782:1 
1458.196976626733 1784:1 1785:1 1786:1 
1380.665006199173 1787:1 
1621.308556160324 10:1 11:1 176:1 334:1 357:1 589:1 1023:1 1788:1 1789:1 
45901.37263718266 7:1 509:1 510:1 1791:1 
1811.596833405348 197:1 509:1 668:1 1409:1 1446:1 1795:1 1796:1 
9500.826412797913 1176:1 
3074.214670160803 153:1 1797:1 
255.1106304823588 1798:1 
971.9506979821994 1362:1 1799:1 1800:1 
6107.265936678559 1801:1 
768.7268235505182 1802:1 
54433.77029678407 38:1 66:1 68:1 162:1 198:1 444:1 
1066.618093433965 63:1 120:1 181:1 340:1 1804:1 
3990.626244385152 57:1 452:1 466:1 469:1 898:1 1805:1 
2187.415495751663 161:1 250:1 1803:1 1806:1 1807:1 1808:1 
1134.847793987043 122:1 1809:1 1810:1 1811:1 
740.9737266471781 238:1 544:1 1812:1 1813:1 
1087.326144537798 1815:1 1816:1 
983.0076700919624 27:1 167:1 373:1 1004:1 1074:1 1303:1 1817:1 1818:1 
205.9391437040883 3:1 4:1 87:1 267:1 484:1 1012:1 1819:1 1820:1 1821:1 1822:1 
198.1190703213921 217:1 453:1 670:1 1823:1 
509.2196764965975 1824:1 
796.2740409785799 535:1 787:1 788:1 1283:1 1303:1 
608.2146319063511 295:1 1825:1 
24.37064650386615 107:1 1032:1 1791:1 
45.24171803409958 58:1 71:1 72:1 107:1 176:1 1339:1 
31.09724555811041 1023:1 1290:1 1564:1 
604.0351500561728 1826:1 
287.1162985722628 56:1 684:1 686:1 687:1 1819:1 1828:1 1829:1 1830:1 
1065.075816472365 1831:1 1832:1 1833:1 1834:1 1835:1 1836:1 1837:1 1838:1 
660.8392690297359 33:1 36:1 127:1 183:1 1839:1 1840:1 1841:1 
426.9991910481278 674:1 1842:1 1843:1 
619.4041895718367 480:1 537:1 1791:1 
1546.139709347482 420:1 686:1 687:1 1828:1 1829:1 1844:1 1845:1 1846:1 
1213.903429333812 137:1 146:1 1848:1 1849:1 
100.4522136060496 18:1 350:1 1397:1 1556:1 1850:1 
775.0611163355643 372:1 1558:1 1559:1 
3057.436827995793 13:1 39:1 51:1 121:1 169:1 800:1 1857:1 
600.8306736172551 1823:1 1859:1 
2223.530827414469 881:1 
12569.61806040238 176:1 216:1 451:1 1861:1 1862:1 
2422.992711973068 1864:1 
56.20949379753474 509:1 510:1 1865:1 
6001.901425954634 135:1 416:1 458:1 1856:1 1866:1 1867:1 
10929.10281827099 206:1 464:1 
411.6813262206992 509:1 1446:1 1870:1 
360.8160474754422 197:1 418:1 451:1 1871:1 
99.22105584600426 197:1 334:1 451:1 509:1 1046:1 1446:1 1872:1 
758.939429807739 735:1 1823:1 
23.37738203536162 1873:1 
48005.52329181592 746:1 1657:1 1874:1 
142.6480293537938 418:1 577:1 1544:1 
723.8871071456839 384:1 580:1 1512:1 1875:1 
1663.969500045148 1579:1 
1483.805862110887 10:1 11:1 475:1 1876:1 
4275.947158957224 176:1 280:1 305:1 434:1 451:1 1055:1 1877:1 
3852.271945713826 64:1 77:1 243:1 302:1 471:1 573:1 1525:1 
64.06106091303806 55:1 334:1 472:1 593:1 1207:1 1878:1 1879:1 1880:1 
11744.59107933846 394:1 965:1 
96.40215409663709 124:1 343:1 457:1 678:1 1063:1 1345:1 1883:1 
33250.57721040849 252:1 
3043.573224985384 18:1 138:1 934:1 960:1 
10691.93858994524 3:1 4:1 13:1 183:1 1888:1 1889:1 
2945.825523896704 38:1 299:1 300:1 301:1 302:1 303:1 304:1 305:1 306:1 983:1 1222:1 1890:1 
6343.048464554096 34:1 523:1 1892:1 1893:1 
18502.75465819042 113:1 153:1 422:1 494:1 614:1 
6341.901496947552 703:1 1897:1 1898:1 
3272.143518445916 1088:1 1238:1 
296.5508370070302 643:1 915:1 1226:1 1599:1 1881:1 1882:1 1901:1 
337.7526392278432 103:1 107:1 169:1 523:1 1902:1 1903:1 1904:1 
25440.68104885706 848:1 
4832.584940891841 57:1 120:1 652:1 1905:1 
101.878075460401 103:1 173:1 499:1 589:1 
3109.365109787148 222:1 651:1 652:1 1906:1 1907:1 
1026.626467494124 103:1 519:1 520:1 625:1 652:1 845:1 848:1 1029:1 1030:1 1552:1 1908:1 1909:1 
787.2676815738948 522:1 1910:1 
677.5162994685169 60:1 1911:1 
4053.707403681545 736:1 757:1 1022:1 1024:1 1913:1 1914:1 1915:1 
12217.62392625303 497:1 
6058.706962277925 390:1 1916:1 1917:1 
14623.76573056057 1921:1 
4013.456865105646 13:1 176:1 370:1 1922:1 1923:1 1924:1 
2322.99890954761 280:1 660:1 911:1 1087:1 1581:1 1846:1 1925:1 1926:1 
24.85126255235613 206:1 392:1 587:1 1524:1 1930:1 1931:1 
3251.908520083633 250:1 264:1 437:1 1931:1 1932:1 1933:1 
1307.157267830089 607:1 611:1 1055:1 1934:1 
447.0819599486626 206:1 228:1 229:1 475:1 1935:1 
2246.243054285921 223:1 340:1 884:1 917:1 1936:1 
163.5394851031266 64:1 176:1 223:1 439:1 918:1 1040:1 1937:1 1938:1 
133.4551916724419 13:1 137:1 223:1 224:1 241:1 434:1 593:1 918:1 1940:1 1941:1 
277.0893581046084 27:1 84:1 190:1 250:1 590:1 736:1 1070:1 1149:1 1942:1 1943:1 
46.87369606526229 1284:1 
2903.466541576232 1948:1 1949:1 1950:1 1951:1 1952:1 1953:1 1954:1 1955:1 1956:1 1957:1 1958:1 1959:1 1960:1 
2278.511045621145 897:1 1962:1 
1692.770128480199 37:1 68:1 1917:1 1963:1 
1430.017496474899 107:1 239:1 581:1 668:1 1954:1 1964:1 
6533.419108838494 69:1 82:1 1954:1 1965:1 
205.07713072424 132:1 383:1 827:1 1965:1 
2539.247774488681 47:1 1965:1 1966:1 1967:1 1968:1 
7390.649463982691 313:1 1474:1 1772:1 1917:1 
2128.325607243576 34:1 1228:1 1969:1 
8014.741374378696 462:1 1322:1 
943.4493324224964 599:1 933:1 
5763.326606976028 351:1 
39.50856118041084 34:1 435:1 569:1 716:1 1278:1 1394:1 1839:1 1970:1 1971:1 
202.0515177129571 6:1 349:1 350:1 480:1 496:1 1917:1 
24830.72872960944 197:1 1917:1 
279.40716127359 169:1 197:1 1735:1 
21770.87783614727 1118:1 
3143.497197775633 10:1 11:1 12:1 1974:1 1975:1 1976:1 
1129.518528981039 1977:1 
1407.372327520525 27:1 108:1 1119:1 1978:1 
12.62188918760311 406:1 894:1 1979:1 
2522.862702689319 127:1 137:1 1394:1 1971:1 1980:1 
887.3018678200699 1936:1 1981:1 
752.9648316192976 125:1 169:1 350:1 798:1 938:1 1023:1 1851:1 1982:1 
1490.560472011011 680:1 709:1 1568:1 
118.4356914220724 280:1 453:1 1983:1 1984:1 1985:1 
545.7607315382478 25:1 34:1 144:1 216:1 1038:1 1256:1 1986:1 1987:1 1988:1 
517.5346427482008 103:1 474:1 1038:1 1054:1 1253:1 1785:1 1992:1 1993:1 1994:1 
30.90517899631934 31:1 37:1 64:1 103:1 340:1 1082:1 1462:1 1995:1 1996:1 
1405.713277242746 103:1 107:1 122:1 656:1 1552:1 1997:1 1998:1 
3415.988744426998 10:1 11:1 12:1 1256:1 1999:1 
991.5029034404411 161:1 
2969.7859456905 234:1 2002:1 
9698.092589465321 258:1 316:1 373:1 544:1 1132:1 
2635.795113514622 10:1 11:1 12:1 172:1 
5902.578698574047 2003:1 
1803.212492709831 2000:1 
1761.366688899338 710:1 2005:1 2006:1 2007:1 
1524.852442573805 497:1 1106:1 1256:1 2010:1 
4235.722728558795 62:1 916:1 1744:1 2014:1 
2018.412237775083 147:1 1440:1 2016:1 
543.2544290866103 10:1 11:1 67:1 1256:1 
29.30465570440636 12:1 38:1 56:1 183:1 2017:1 2018:1 2019:1 
7528.894089261078 10:1 11:1 197:1 2020:1 
2102.980997926337 185:1 579:1 580:1 1875:1 
2743.390474592693 10:1 11:1 12:1 148:1 
12201.9013805571 10:1 11:1 12:1 60:1 
425.2409325018293 10:1 11:1 12:1 
8252.737248265694 1393:1 
2593.659310340918 920:1 2022:1 2023:1 
2551.957391447073 478:1 728:1 729:1 730:1 1450:1 1930:1 
2343.764061123993 198:1 223:1 437:1 1070:1 1149:1 1755:1 2024:1 2025:1 
1510.898302581032 917:1 918:1 
4616.602833031292 68:1 870:1 924:1 1460:1 
22.16861584440637 153:1 176:1 836:1 1428:1 1749:1 2026:1 
318.6496847705827 2030:1 
89.8929937128249 175:1 1256:1 2031:1 
707.2579527175167 175:1 2033:1 
262.0169014108766 2034:1 2035:1 
12653.12592661512 749:1 
5105.510047094274 264:1 437:1 1571:1 2037:1 2038:1 
2402.256005053855 27:1 223:1 227:1 437:1 725:1 1137:1 1939:1 2029:1 2039:1 
1119.182355957719 492:1 604:1 1144:1 2025:1 2041:1 2042:1 
14.36529932208613 778:1 2043:1 
2271.830919529853 69:1 418:1 2044:1 2045:1 2046:1 
789.3576833812475 639:1 2047:1 
405.2510291327202 13:1 34:1 194:1 462:1 1256:1 2048:1 
1068.655650165615 276:1 
434.7345512646806 229:1 897:1 
436.2029203371932 38:1 280:1 1213:1 
27.02543326847858 285:1 343:1 589:1 1178:1 
523.6049189493807 13:1 130:1 234:1 922:1 2049:1 
427.0039943352687 288:1 384:1 824:1 1332:1 2050:1 
3635.382139893935 38:1 299:1 300:1 301:1 302:1 303:1 304:1 305:1 308:1 983:1 1222:1 2051:1 
1647.209413941883 10:1 11:1 12:1 181:1 484:1 1891:1 
5260.104874953038 2055:1 
561.2772602172255 1033:1 1256:1 
20.97623552956351 2:1 326:1 2056:1 
642.0873659037509 667:1 2057:1 
6492.161332876607 10:1 11:1 12:1 98:1 224:1 1377:1 
960.1970731180501 176:1 2059:1 
1064.361462569875 68:1 1049:1 1477:1 
7349.584814233657 120:1 340:1 374:1 648:1 649:1 1624:1 2061:1 2062:1 
328.9956348861152 121:1 176:1 337:1 600:1 1773:1 2065:1 2066:1 
6.271975005166994 38:1 103:1 107:1 518:1 519:1 520:1 625:1 885:1 1029:1 1079:1 2067:1 
38.75456332321772 288:1 1256:1 
1888.759622704312 1175:1 2068:1 
4693.400940931499 39:1 48:1 50:1 295:1 824:1 1501:1 1886:1 
6944.374523231081 18:1 1135:1 2069:1 
185.6035737903612 273:1 1256:1 
7467.715235127601 10:1 11:1 12:1 154:1 827:1 
314.9112337512378 176:1 346:1 372:1 480:1 496:1 1256:1 
781.7302546925368 353:1 
570.9176632328119 105:1 183:1 1574:1 1665:1 2053:1 2073:1 2074:1 
122.2530508475234 2075:1 
162.4520792373348 290:1 2076:1 
530.4925240004767 16:1 463:1 1983:1 2077:1 
53808.99820665833 49:1 
1431.301063008675 108:1 165:1 1256:1 2082:1 
1505.361975115308 68:1 84:1 167:1 2079:1 2080:1 2081:1 
18708.80744483871 62:1 
2065.497288517359 2083:1 
5988.237908783063 2084:1 2085:1 2086:1 
154.762642191545 967:1 2087:1 2088:1 
5107.912837820206 40:1 293:1 378:1 985:1 1327:1 2006:1 2089:1 2090:1 
618.4922647058178 356:1 1568:1 
4188.129475064595 1759:1 2091:1 2092:1 
467.7522701170995 176:1 639:1 1335:1 
1079.602904433542 1032:1 
2570.184893155608 107:1 439:1 2093:1 
1883.135783075353 13:1 285:1 451:1 480:1 517:1 2094:1 2095:1 2096:1 2097:1 
1039.45565080505 153:1 1279:1 2099:1 
8.697049960724993 27:1 60:1 63:1 273:1 828:1 2100:1 2102:1 
131.6308234814829 418:1 453:1 1179:1 2100:1 2101:1 
142.3515691491153 123:1 183:1 334:1 2105:1 2106:1 2107:1 2108:1 
15254.64777849102 738:1 
30259.83593123173 777:1 1090:1 1176:1 1492:1 
1398.875639939618 63:1 176:1 278:1 1571:1 1804:1 
29.67729461505958 2109:1 2110:1 
331.3927222137125 107:1 1074:1 2112:1 2113:1 
705.551906194086 2116:1 
5814.12200221383 13:1 63:1 104:1 116:1 167:1 181:1 371:1 417:1 
1926.460562565373 169:1 915:1 1287:1 2117:1 2118:1 2119:1 2120:1 
2373.302258910019 69:1 107:1 464:1 
8387.178138961737 350:1 435:1 493:1 1293:1 
8878.416517181116 21:1 34:1 190:1 1169:1 2121:1 
409.2824193937617 27:1 593:1 1647:1 2122:1 2123:1 
687.4346065153368 68:1 122:1 444:1 1425:1 2124:1 
118.6732770306652 658:1 2125:1 
240.5187608979955 27:1 59:1 1545:1 1642:1 2126:1 2127:1 
579.8010087094655 2128:1 
55.51092383323562 27:1 59:1 1545:1 1642:1 2126:1 2127:1 
1880.731413061429 61:1 843:1 2133:1 2134:1 
8127.834014058056 57:1 170:1 253:1 435:1 980:1 2132:1 2135:1 
29.81545377186696 305:1 744:1 873:1 1384:1 2137:1 2138:1 2139:1 2140:1 
9184.775159783623 668:1 2145:1 
28.66057608540223 27:1 57:1 170:1 435:1 736:1 2144:1 2147:1 
764.712379374831 299:1 473:1 590:1 744:1 972:1 2148:1 2149:1 
649.9246947581086 63:1 236:1 252:1 1000:1 1645:1 1706:1 2143:1 2150:1 
8772.948210040333 262:1 512:1 727:1 1073:1 1108:1 1168:1 2144:1 2151:1 
88715.66857915495 504:1 
5393.306598145728 2004:1 
1165.588250443378 38:1 299:1 300:1 302:1 303:1 304:1 305:1 306:1 308:1 762:1 918:1 1222:1 
5017.115656470984 38:1 176:1 310:1 857:1 
1946.184455701823 313:1 2125:1 
95.5800464249856 13:1 275:1 2125:1 2152:1 
68.23241697752285 27:1 229:1 394:1 428:1 
1553.539657497106 25:1 197:1 275:1 1961:1 2125:1 2154:1 
7363.233076614711 65:1 80:1 2155:1 
582.101873842336 410:1 865:1 898:1 
84.70462336953165 51:1 147:1 680:1 776:1 
900.9443719279566 567:1 590:1 2162:1 2163:1 
1263.170278820952 280:1 593:1 703:1 1132:1 2165:1 
936.2793570503467 351:1 1151:1 
409.7035326260103 61:1 1475:1 
4415.959271817698 351:1 2166:1 
3161.09813000049 53:1 107:1 
226.4404852547063 2162:1 2167:1 
300.770631396466 63:1 265:1 593:1 744:1 982:1 2168:1 
1009.534728268055 340:1 437:1 879:1 899:1 1030:1 1144:1 1357:1 2169:1 
502.6351734235942 57:1 512:1 1028:1 2170:1 2171:1 2172:1 
45.3076647804959 71:1 72:1 228:1 2175:1 
604.0963863132357 38:1 620:1 621:1 1032:1 
28.10883361804132 239:1 1074:1 2162:1 
248.9435213196292 107:1 176:1 623:1 1542:1 
34.21370731942159 175:1 343:1 857:1 
612.7669126353968 107:1 725:1 2176:1 
2037.10559084225 716:1 2179:1 
11.02957843876583 55:1 638:1 2180:1 
1677.032324450045 1556:1 2182:1 2183:1 
361.180913158934 299:1 2184:1 
1517.14876010816 1080:1 2185:1 2186:1 
34.5490055508307 304:1 2187:1 
1622.629814693611 435:1 1290:1 1322:1 1564:1 2188:1 2189:1 
1305.630146775787 8:1 34:1 717:1 1290:1 1313:1 2190:1 2191:1 
5385.079064658743 577:1 1127:1 2192:1 
1140.460033427432 1181:1 
326.7034043924649 641:1 1699:1 
15.85638390583179 59:1 983:1 2198:1 
1320.657827798716 102:1 616:1 817:1 1454:1 
12.13002406175523 372:1 480:1 496:1 2162:1 
116.0351853710652 36:1 1819:1 
2848.287950449388 2199:1 2200:1 
432.4150171544339 34:1 95:1 2014:1 
895.4585005097271 50:1 2201:1 
5250.701021950647 14:1 379:1 2204:1 
344.3619389422597 116:1 1171:1 
4224.839647194056 1316:1 1333:1 2205:1 
133.5010041697351 63:1 77:1 2196:1 
1530.948659030786 36:1 104:1 183:1 2207:1 
27.53183893796874 206:1 2158:1 2159:1 
87.34084023103669 95:1 674:1 2014:1 
142.7512609503589 130:1 239:1 350:1 531:1 1332:1 2208:1 
9180.28562915132 110:1 139:1 144:1 312:1 692:1 772:1 2209:1 
3800.492392931178 390:1 2026:1 
44580.37927344089 233:1 1353:1 2210:1 
189.2204098348258 66:1 346:1 857:1 1573:1 2211:1 2212:1 
204.2079673443716 206:1 317:1 576:1 2213:1 
752.6564262076712 77:1 
3684.034533154761 27:1 480:1 778:1 826:1 1039:1 
234.1095204442743 59:1 2214:1 2215:1 
1491.804962406506 183:1 349:1 579:1 580:1 2217:1 
7077.093415195492 2019:1 2210:1 
12946.84801274453 772:1 2219:1 
1352.259568610737 338:1 339:1 513:1 1488:1 2220:1 
32.58786802330025 451:1 1179:1 1545:1 
2989.648488759113 2222:1 2223:1 
5823.813397332822 2224:1 
5488.355584524462 124:1 224:1 241:1 267:1 343:1 2225:1 2226:1 
56.24253458575281 61:1 264:1 434:1 593:1 1157:1 
1108.569151550423 2227:1 
14.30245885298355 67:1 1859:1 
3977.706998855452 2097:1 
8.133606463589153 169:1 183:1 915:1 1294:1 2103:1 2210:1 2232:1 
196.7433853795421 530:1 894:1 
12821.83263811163 25:1 71:1 
2567.472916387205 38:1 55:1 492:1 1104:1 2233:1 2234:1 
3219.31831668133 1240:1 
559.1709708687628 391:1 2235:1 
272.3354917103884 181:1 224:1 589:1 2237:1 
63.13046911807378 107:1 527:1 1195:1 
1446.741710804051 1656:1 
65.34687460379055 184:1 710:1 1190:1 1195:1 1614:1 1897:1 2239:1 2240:1 2241:1 2242:1 
5448.059059535127 317:1 590:1 621:1 2246:1 2247:1 
1637.958061756691 224:1 462:1 703:1 2248:1 2249:1 
5084.219949522138 194:1 237:1 422:1 614:1 1238:1 2193:1 
10626.99900843846 2250:1 2251:1 
813.4415580057921 2253:1 2254:1 2255:1 
67.19407228052053 234:1 496:1 544:1 
3786.46099159541 49:1 899:1 2078:1 2256:1 
1225.332089778822 2236:1 
481.2805849861336 410:1 2257:1 
1139.209133196333 1426:1 
11.57884927048717 280:1 338:1 339:1 390:1 513:1 
8979.966074142178 554:1 2260:1 
474.902389094844 710:1 1021:1 1448:1 2261:1 
1423.936963262992 2262:1 
1704.216988525051 2264:1 
1760.911264418569 194:1 2167:1 2263:1 
5.914520311044626 64:1 458:1 459:1 471:1 852:1 1144:1 1211:1 
1078.916149203923 1021:1 
94.30359024766736 437:1 2267:1 
3241.06982714761 176:1 589:1 720:1 1032:1 
874.9701193644098 79:1 264:1 265:1 640:1 1021:1 2270:1 
637.8758951269718 2271:1 
79.07051118714128 2273:1 
1619.573888585287 181:1 1025:1 2279:1 
1826.670129744446 485:1 2280:1 
1179.692253444205 1459:1 1690:1 2281:1 2282:1 2283:1 2284:1 2285:1 2286:1 
156.6708654911547 2287:1 
123.9156094513739 107:1 224:1 293:1 311:1 1343:1 1428:1 2288:1 
757.2762826534118 326:1 555:1 
616.9798692048256 25:1 232:1 1425:1 2291:1 
5531.839304232579 411:1 2290:1 
3484.566169534108 273:1 343:1 409:1 412:1 1353:1 2289:1 2293:1 
449.1574958520861 429:1 2294:1 
412.9827227887166 103:1 600:1 935:1 1054:1 1055:1 1785:1 1900:1 1992:1 2300:1 
7.699989115377945 103:1 153:1 175:1 176:1 515:1 516:1 1128:1 1900:1 2301:1 
1728.914815648352 38:1 103:1 625:1 1552:1 1908:1 1992:1 1997:1 2302:1 2303:1 2304:1 2305:1 
1178.377804226614 489:1 1163:1 
1613.018243558944 2306:1 
205.4386146457159 2308:1 
523.839451668259 27:1 38:1 84:1 728:1 2248:1 2309:1 2310:1 2311:1 2312:1 2313:1 
355.4122074899345 50:1 183:1 184:1 284:1 1425:1 2231:1 2291:1 2314:1 
3366.506846388961 116:1 382:1 1747:1 2315:1 2316:1 2317:1 2318:1 
736.0152637260802 13:1 84:1 206:1 229:1 475:1 1128:1 2319:1 2320:1 
300.9370626474181 50:1 183:1 184:1 284:1 1425:1 2231:1 2291:1 2314:1 
1871.7496050527 2322:1 
5703.826545874412 226:1 1339:1 2323:1 
1341.417417996507 2324:1 
869.6924011312024 2325:1 2326:1 
230.3142791739236 216:1 304:1 1740:1 1750:1 2327:1 2328:1 
275.2192905592803 749:1 2329:1 2330:1 
1190.623068578906 63:1 69:1 99:1 707:1 1207:1 1656:1 
58.92238421453681 120:1 874:1 1211:1 1941:1 2334:1 
2558.299068688868 246:1 471:1 472:1 974:1 1227:1 
226.1535376737887 176:1 223:1 246:1 252:1 736:1 1588:1 
2046.651378629853 121:1 176:1 218:1 
890.1604738310174 220:1 221:1 246:1 2313:1 2334:1 2337:1 2338:1 2339:1 2340:1 2341:1 2342:1 2343:1 2344:1 
3890.74550768423 38:1 299:1 300:1 302:1 303:1 304:1 305:1 308:1 762:1 983:1 1222:1 
1093.230688136972 19:1 38:1 310:1 
739.8110970579705 173:1 236:1 499:1 669:1 836:1 1045:1 2231:1 
256.6622587345908 25:1 320:1 
3057.577448140706 435:1 630:1 1293:1 1322:1 1394:1 2000:1 
1959.736679568824 102:1 135:1 1887:1 
1233.766603110458 102:1 135:1 
4492.065271202231 68:1 2348:1 2349:1 
726.5669108100252 63:1 69:1 84:1 2259:1 2351:1 2352:1 
1955.622297970275 151:1 
344.551098341031 153:1 278:1 2353:1 2354:1 
94509.47097469996 130:1 1162:1 
313.7830620227506 38:1 509:1 678:1 1046:1 1446:1 1792:1 2357:1 2358:1 
1496.985191993805 107:1 418:1 577:1 
497.7556939693038 2362:1 
350.0180650306924 669:1 2363:1 
13269.5926866557 2364:1 
6133.931292821715 978:1 2292:1 
1709.852970149682 351:1 475:1 
451.0193589424446 2356:1 2365:1 
2593.851801798131 66:1 343:1 843:1 1558:1 2366:1 2367:1 
190.6289288451725 64:1 176:1 1625:1 1885:1 2368:1 
37.94044537992576 72:1 228:1 2370:1 2371:1 
1059.534925038121 956:1 1683:1 
165.4494207864094 79:1 183:1 630:1 899:1 2379:1 
1186.873784855145 2058:1 
15378.75797493086 25:1 197:1 273:1 274:1 507:1 
38.39305834491666 151:1 1560:1 1896:1 
780.8897931128383 13:1 27:1 1928:1 2244:1 2293:1 2383:1 
690.3599244925524 1114:1 
1393.619443936992 68:1 2384:1 2385:1 
1432.546167911233 323:1 350:1 578:1 1119:1 
685.6864702812752 1912:1 
79.42197118346685 36:1 176:1 183:1 278:1 2387:1 2388:1 
8304.439778933407 372:1 781:1 
4303.299481594458 176:1 2389:1 
68.1267970204203 103:1 104:1 651:1 652:1 
69.02820575968533 120:1 264:1 651:1 652:1 744:1 1367:1 2393:1 
4360.994053364863 63:1 103:1 340:1 612:1 1079:1 2394:1 
121.4945619831498 103:1 107:1 122:1 169:1 345:1 
53.89372272825456 27:1 61:1 2396:1 2397:1 
1182.310393529004 183:1 508:1 826:1 
1982.141701481703 68:1 215:1 537:1 2399:1 
3550.461937867261 477:1 744:1 745:1 1073:1 1519:1 1885:1 1941:1 
935.1616731489878 223:1 227:1 744:1 2402:1 
8958.943341642826 1058:1 1059:1 2403:1 
2757.385696462416 593:1 1002:1 1185:1 1227:1 2333:1 2404:1 2405:1 2406:1 
114078.0432632749 2408:1 
7374.792664796076 1171:1 
404.621066513027 24:1 276:1 
2417.36819870371 699:1 
13.45847212893043 38:1 299:1 300:1 302:1 303:1 304:1 306:1 491:1 762:1 1222:1 2416:1 
481.1451345778808 1038:1 1225:1 1845:1 2163:1 
7883.950972824133 273:1 635:1 1491:1 2422:1 
5524.456403599972 669:1 958:1 2423:1 2424:1 2425:1 2426:1 
1905.833413359163 544:1 660:1 
1820.277425815703 1124:1 2427:1 2428:1 
11920.01820627377 1115:1 
1990.405368121807 2431:1 
64.56891933621002 234:1 322:1 496:1 
955.7821258160711 124:1 175:1 527:1 528:1 531:1 2433:1 2434:1 2435:1 2436:1 2437:1 2438:1 2439:1 2440:1 
1192.837914145789 25:1 548:1 854:1 2441:1 2442:1 
1329.727511036673 68:1 176:1 401:1 2443:1 
1699.57275294307 275:1 853:1 2417:1 2418:1 2444:1 
2443.185919642651 90:1 761:1 2445:1 2446:1 
328.7443398637476 59:1 102:1 499:1 1207:1 1457:1 2447:1 
725.8321208205743 1223:1 1668:1 2449:1 2450:1 2451:1 
1263.804602638165 377:1 885:1 2452:1 2453:1 
420.2108572743338 84:1 206:1 882:1 2455:1 
3123.093146922965 745:1 1606:1 2078:1 2456:1 
1514.837087220906 113:1 1491:1 
8511.252728583309 883:1 
1115.506575083913 27:1 2457:1 
357.5282200396508 854:1 
152.1335166377308 68:1 104:1 2458:1 
15343.42155881776 2460:1 
72.01027249947296 137:1 184:1 2175:1 2461:1 
1769.00486666746 107:1 135:1 576:1 
5478.096574321997 2463:1 2464:1 
1009.724367625314 37:1 137:1 1310:1 2466:1 
8902.265608006473 224:1 2467:1 
1034.388065887984 2468:1 
2129.208189227822 176:1 284:1 428:1 898:1 1393:1 1542:1 
4891.211697933305 1245:1 2469:1 2470:1 2471:1 
380.7628144960246 51:1 680:1 2472:1 
15.53368385664134 51:1 680:1 1911:1 2473:1 
1451.971138775863 107:1 1074:1 2408:1 2478:1 
3282.941232489442 2480:1 
284.8329937399083 1058:1 
11526.7746837121 529:1 853:1 1025:1 2479:1 
1039.611757363114 120:1 173:1 576:1 2482:1 2483:1 2484:1 
987.0609074543263 259:1 418:1 453:1 1179:1 2465:1 2485:1 
8835.173744359818 908:1 
111.1899747420399 763:1 2487:1 
1751.225488591461 2488:1 2489:1 
13.65274934116986 36:1 1339:1 1477:1 
1110.400232228169 27:1 77:1 161:1 2490:1 
102.8664288623978 25:1 34:1 38:1 361:1 2401:1 2492:1 2493:1 2494:1 2495:1 2496:1 2497:1 
4584.483473745589 768:1 
184.4312476140841 125:1 224:1 348:1 1428:1 1875:1 2500:1 
186.5316267848068 2501:1 
31.76091517854995 69:1 104:1 416:1 418:1 453:1 646:1 1163:1 1229:1 2502:1 2503:1 2504:1 
21.52714176673932 229:1 2506:1 2507:1 
814.9800756324629 27:1 45:1 680:1 2508:1 
4416.054570347933 27:1 161:1 2408:1 
1474.885945820688 673:1 2509:1 
849.4795047745173 2444:1 
1459.681250809037 56:1 922:1 
1706.679910473592 723:1 2510:1 2511:1 
66.63132312382392 2512:1 2513:1 
518.3075360558646 68:1 90:1 107:1 122:1 
31555.65648406066 133:1 1324:1 1435:1 
500.2232871893328 34:1 258:1 1642:1 2514:1 
254.8095631605528 2519:1 
3027.118998148304 36:1 154:1 772:1 1406:1 
14448.12152759558 174:1 
198.0254535822557 2520:1 
521.875011472554 641:1 736:1 2521:1 2522:1 2523:1 
586.1889421792736 63:1 2525:1 
972.9914322214266 177:1 288:1 496:1 1296:1 1853:1 
235.0474657940792 50:1 2526:1 
303.6451748415068 60:1 334:1 2527:1 
4493.588814265914 61:1 64:1 80:1 1544:1 1881:1 1882:1 2528:1 
3821.438611448188 658:1 966:1 
21062.7692443799 348:1 375:1 487:1 614:1 1294:1 
391.1924237461389 63:1 1068:1 2529:1 2530:1 2531:1 
4281.215150079055 252:1 288:1 1749:1 
48565.19808038684 159:1 701:1 
18662.67609810322 46:1 60:1 165:1 747:1 
812.4132114973345 2533:1 
606.5442898908163 577:1 
326.8409154272883 271:1 
961.4106356166983 2534:1 
130.4601808680648 350:1 2008:1 2009:1 2073:1 
1901.308556169566 51:1 2535:1 
205.3404212592466 84:1 1924:1 
17513.83794636116 17:1 197:1 487:1 2538:1 2539:1 
88.47580036256846 27:1 51:1 67:1 562:1 668:1 915:1 2532:1 
540.0499146238636 122:1 176:1 372:1 817:1 
253.7812137242705 176:1 217:1 529:1 
54995.12480980256 184:1 
2362.770279151694 84:1 176:1 340:1 380:1 590:1 1149:1 2541:1 2542:1 
1555.223308075235 720:1 1872:1 2454:1 
33.02920546517146 2546:1 2547:1 
23.28254842936477 744:1 1525:1 
2632.816180858914 223:1 271:1 434:1 1064:1 
2322.127772788006 1574:1 2053:1 
3711.731353180131 824:1 2551:1 
4484.82324403404 25:1 1860:1 2552:1 
3397.008326096327 71:1 197:1 1130:1 1133:1 1479:1 2550:1 
10146.28109586092 2553:1 2554:1 2555:1 
776.7691306889459 321:1 2532:1 
328.3705001078924 1845:1 
2083.141392867895 34:1 130:1 349:1 420:1 687:1 824:1 1733:1 
242.0027455510333 4:1 44:1 72:1 139:1 1860:1 2517:1 2559:1 2560:1 2561:1 
93476.72404745659 69:1 464:1 
50.21679318858337 130:1 2562:1 
5222.588813809436 239:1 255:1 356:1 1860:1 
1452.401050675375 531:1 786:1 1332:1 2564:1 
986.3285724805562 175:1 1133:1 
509.5871463969099 63:1 206:1 475:1 1437:1 2565:1 
228.2570428833015 51:1 67:1 153:1 173:1 2563:1 
7306.848737322292 2566:1 
83.13570545727863 112:1 148:1 1703:1 2567:1 
1387.818492757463 1031:1 
208.3324030484578 224:1 241:1 261:1 726:1 1000:1 1003:1 2569:1 
763.7420358547595 170:1 216:1 250:1 435:1 471:1 726:1 874:1 2570:1 2571:1 2572:1 
743.0601383683966 2551:1 2563:1 
519.552944965583 269:1 425:1 1674:1 2573:1 2574:1 2575:1 2576:1 
228.0698480010039 102:1 131:1 2577:1 
252.4669747628728 175:1 2578:1 
1545.481321359706 79:1 216:1 223:1 317:1 2579:1 2580:1 2581:1 
43.95022890679734 905:1 2582:1 
25.82225000743309 27:1 61:1 593:1 1157:1 2042:1 2584:1 2585:1 2586:1 
8180.589595811345 102:1 131:1 624:1 2563:1 2587:1 
4040.930437547868 69:1 102:1 437:1 573:1 665:1 817:1 972:1 2335:1 
66.1660325461699 2589:1 
671.7199373462445 176:1 344:1 345:1 589:1 2563:1 
31947.98282916471 278:1 
26630.04060689883 53:1 169:1 
4163.819994143983 184:1 1929:1 2377:1 
66120.97518882295 322:1 328:1 2563:1 
302.2958056504781 176:1 608:1 985:1 1054:1 1105:1 
1558.460211099045 349:1 384:1 643:1 2563:1 2596:1 
1694.710739237237 411:1 
1173.907870688506 328:1 824:1 2563:1 
257.9208080775356 224:1 1560:1 2597:1 2598:1 
136.9262244256013 18:1 1104:1 1105:1 2596:1 2599:1 
178.4250830311137 2596:1 2600:1 
711.4219163126152 273:1 1171:1 2601:1 
1015.659625254832 350:1 496:1 1296:1 2602:1 2603:1 
5382.351140249671 1491:1 2529:1 
67216.1613935332 7:1 
1126.0044484327 745:1 1117:1 2042:1 
3007.154869738627 197:1 2604:1 
1529.493344801588 34:1 148:1 1004:1 2605:1 2606:1 
444.6542884605871 51:1 1858:1 
47005.24833282055 508:1 
4710.549845485555 1674:1 
3775.951102263999 1163:1 
40.60508589854121 57:1 170:1 176:1 216:1 2609:1 
2484.915004455809 51:1 680:1 2610:1 
476.4039707326694 1282:1 2386:1 2618:1 
1230.704962951795 1032:1 2612:1 2614:1 2615:1 
10584.22351623798 323:1 932:1 
7040.034614990373 48:1 49:1 65:1 409:1 
14.35514466795408 1213:1 1244:1 2621:1 2622:1 2623:1 
260.3134238814836 63:1 65:1 361:1 525:1 1289:1 2624:1 
12.93803695539206 1179:1 2628:1 2630:1 
719.3540195442683 1099:1 2626:1 2628:1 2631:1 2632:1 
536.4004495515331 1179:1 2626:1 2628:1 2633:1 
2860.692247742341 227:1 1055:1 2626:1 2628:1 2636:1 
800.7616359061811 63:1 122:1 241:1 437:1 557:1 589:1 594:1 772:1 1982:1 2628:1 2637:1 2638:1 
1664.167668622561 416:1 557:1 606:1 2628:1 2635:1 2641:1 2642:1 
528.1317843644534 124:1 343:1 1095:1 1941:1 2628:1 
248.3036118611064 170:1 224:1 435:1 736:1 1624:1 1887:1 2628:1 2633:1 2654:1 2655:1 
2106.050670725043 107:1 1326:1 2628:1 
822.470370057202 124:1 343:1 956:1 2628:1 2658:1 
248.6135572634511 261:1 726:1 1194:1 2142:1 2628:1 2659:1 2660:1 2661:1 
1060.378357177259 271:1 604:1 1070:1 2161:1 2527:1 2626:1 2629:1 2667:1 2668:1 
301.444768132681 175:1 216:1 280:1 622:1 1955:1 2625:1 2628:1 
110.17987833597 38:1 334:1 761:1 981:1 1792:1 2669:1 2670:1 
398.0019784323964 124:1 343:1 557:1 1150:1 1219:1 1642:1 1869:1 2628:1 2673:1 
162.2564205485745 107:1 258:1 538:1 726:1 1055:1 2612:1 2628:1 2659:1 2674:1 2675:1 2676:1 
1018.067584236011 241:1 557:1 1168:1 1169:1 2164:1 2630:1 2659:1 2677:1 2678:1 2679:1 
1250.437392340491 176:1 184:1 250:1 593:1 2634:1 2680:1 2681:1 
367.5020078483149 121:1 124:1 295:1 343:1 645:1 1082:1 1095:1 2612:1 2659:1 2684:1 2685:1 
1255.847600522175 184:1 292:1 343:1 1282:1 1955:1 2625:1 2626:1 2628:1 
1086.846075644298 176:1 1916:1 
327.490602137606 772:1 837:1 1244:1 2687:1 2688:1 2689:1 
912.5844667091235 59:1 175:1 176:1 463:1 988:1 2164:1 2698:1 2711:1 2712:1 
1764.785441667201 184:1 223:1 264:1 276:1 692:1 1159:1 2401:1 
497.9056055505478 1173:1 2307:1 2415:1 2732:1 
53.14971489902442 2733:1 
252.7750160839153 239:1 2695:1 
41.79169185757377 56:1 72:1 104:1 176:1 2482:1 2734:1 2735:1 
1220.741456188334 72:1 107:1 121:1 142:1 874:1 1042:1 1955:1 2612:1 
2250.969137711236 716:1 900:1 1687:1 2612:1 2734:1 2736:1 2737:1 
347.068572212568 828:1 1555:1 
47.24869761058208 83:1 206:1 2098:1 
24522.97319153017 47:1 49:1 63:1 153:1 374:1 
4033.248266438346 2739:1 2740:1 2741:1 
859.5731983566461 1227:1 1544:1 2612:1 2628:1 2655:1 2673:1 2684:1 2746:1 2747:1 
3171.728776567923 249:1 340:1 716:1 1207:1 2612:1 2651:1 2750:1 2751:1 
4684.422107717781 97:1 175:1 203:1 216:1 320:1 670:1 1276:1 2757:1 2758:1 
117.9281624123682 15:1 64:1 736:1 1070:1 1588:1 2684:1 2759:1 2760:1 2761:1 2762:1 2763:1 
7.067656132742945 84:1 253:1 374:1 457:1 600:1 736:1 1144:1 1660:1 2512:1 2628:1 2655:1 2766:1 
2183.164019760743 453:1 458:1 2631:1 2760:1 2767:1 2768:1 2769:1 2770:1 2771:1 
400.1868554072724 589:1 719:1 884:1 2628:1 2743:1 2772:1 
278.027156958036 57:1 124:1 224:1 343:1 439:1 790:1 892:1 2220:1 2645:1 2655:1 2756:1 2780:1 
92.10876013874531 13:1 350:1 480:1 1307:1 1454:1 1858:1 2243:1 2687:1 2787:1 2788:1 
7930.996767949768 203:1 990:1 1010:1 1113:1 2321:1 2656:1 2687:1 
64.17155590476945 137:1 674:1 805:1 807:1 1658:1 2687:1 2692:1 2790:1 
30180.9933052438 2791:1 
581.9006865847996 451:1 1350:1 2742:1 2792:1 2793:1 
521.6896295507212 183:1 1853:1 2082:1 2510:1 2620:1 2796:1 
1664.035196008798 56:1 156:1 181:1 463:1 2687:1 2799:1 2800:1 
688.3831977613758 64:1 224:1 593:1 610:1 2818:1 2819:1 2820:1 2821:1 
109.457557044517 63:1 264:1 593:1 996:1 1188:1 2393:1 2572:1 2798:1 2824:1 2825:1 
21.22374431550412 119:1 120:1 453:1 593:1 871:1 996:1 1070:1 2413:1 2798:1 2824:1 2826:1 
526.8246298841387 222:1 250:1 573:1 887:1 995:1 1159:1 2798:1 2830:1 
631.7436011502025 216:1 241:1 604:1 725:1 902:1 1645:1 2798:1 
564.2953960787769 120:1 871:1 2798:1 2836:1 
35.11316529588237 107:1 169:1 202:1 320:1 466:1 1178:1 1904:1 2838:1 
657.1398119716994 1946:1 2839:1 
2695.121522280707 27:1 557:1 2392:1 2778:1 2844:1 
61.80919649164857 198:1 240:1 264:1 573:1 610:1 2372:1 2798:1 2852:1 
3500.137198331886 37:1 217:1 252:1 2798:1 2816:1 2853:1 2854:1 
863.7559022221916 121:1 347:1 589:1 2798:1 2857:1 
24.8497910500657 175:1 390:1 884:1 1129:1 1727:1 2612:1 2656:1 2859:1 2860:1 2861:1 
15.98182450826775 57:1 64:1 458:1 459:1 593:1 610:1 975:1 980:1 2798:1 2864:1 
1835.801495205136 473:1 670:1 736:1 996:1 2027:1 2824:1 2865:1 2866:1 
357.5809939887461 593:1 610:1 887:1 989:1 995:1 1045:1 2545:1 2798:1 2868:1 
226.11281789107 66:1 84:1 380:1 725:1 2849:1 2869:1 2870:1 2871:1 
1910.758666735632 63:1 64:1 240:1 471:1 852:1 1504:1 2012:1 2798:1 
105.0454997575521 138:1 458:1 606:1 610:1 2833:1 2872:1 
553.2232583625754 13:1 234:1 2873:1 
47.10712384804818 107:1 134:1 
3668.5510958116 561:1 859:1 1904:1 2876:1 
249.6424074967936 107:1 202:1 293:1 311:1 557:1 674:1 2879:1 2880:1 2881:1 2882:1 2883:1 2884:1 
37.65683998723777 2797:1 
224.4290948992238 355:1 531:1 2886:1 
481.2938460189591 344:1 523:1 1904:1 2876:1 2887:1 
36783.22989175598 51:1 464:1 
2490.839005893592 383:1 1560:1 
706.7371185971496 2888:1 
6104.654503781538 437:1 494:1 2894:1 
1.879891541240397 418:1 453:1 1823:1 
1797.552951046409 383:1 548:1 807:1 820:1 837:1 2098:1 2687:1 2897:1 
290.8172751130094 6:1 56:1 68:1 183:1 203:1 662:1 2687:1 2854:1 2898:1 
109.3345386991324 68:1 206:1 475:1 507:1 807:1 1073:1 1991:1 2687:1 2899:1 
29.04805216259157 13:1 99:1 176:1 297:1 1010:1 1113:1 1522:1 1820:1 2687:1 2707:1 2900:1 
2541.073195399467 19:1 22:1 23:1 2692:1 
1370.02106374376 218:1 1388:1 2628:1 2639:1 
614.7834460141327 264:1 1070:1 1596:1 2628:1 2630:1 2911:1 2912:1 2913:1 2914:1 2915:1 
65.47126596463545 63:1 64:1 84:1 590:1 1258:1 1937:1 2628:1 2916:1 2917:1 2918:1 2919:1 
151.4108495573861 58:1 176:1 280:1 549:1 589:1 2628:1 2772:1 2920:1 
523.1419299601894 465:1 469:1 970:1 1162:1 2630:1 2703:1 2738:1 2916:1 2921:1 
1258.629204957465 15:1 63:1 218:1 250:1 261:1 726:1 2628:1 2926:1 2927:1 2928:1 2929:1 
17.03324012477186 280:1 744:1 1087:1 2651:1 2912:1 2930:1 2931:1 2932:1 
1350.142515620437 124:1 250:1 343:1 458:1 1381:1 2220:1 2630:1 2738:1 2938:1 2939:1 
708.9341456464763 15:1 64:1 593:1 725:1 1156:1 1174:1 2129:1 2940:1 2941:1 2942:1 
25858.03237247834 218:1 269:1 2628:1 
3620.348399587601 15:1 224:1 531:1 589:1 2028:1 2612:1 2631:1 2945:1 
960.5175955750364 394:1 538:1 541:1 725:1 1264:1 2906:1 2946:1 2947:1 2948:1 2949:1 
1709.772749655566 63:1 170:1 189:1 218:1 265:1 435:1 446:1 458:1 1381:1 2628:1 2926:1 2943:1 2950:1 
946.0877714293055 133:1 218:1 228:1 557:1 2378:1 2628:1 2951:1 
2333.355575563709 27:1 38:1 87:1 218:1 874:1 2628:1 2906:1 2923:1 2934:1 
1192.715846162838 1119:1 2955:1 
10672.95465176557 2958:1 
185.7255658390939 56:1 108:1 112:1 710:1 2959:1 2960:1 2961:1 2962:1 2963:1 2964:1 2965:1 
10.79961364974779 6:1 25:1 176:1 297:1 320:1 990:1 1010:1 2687:1 2904:1 2971:1 
54.83183159128416 36:1 175:1 779:1 1847:1 2687:1 2903:1 2972:1 
155.3497182283011 90:1 169:1 224:1 1294:1 1346:1 1971:1 2237:1 2903:1 2967:1 2977:1 2978:1 2979:1 
1544.358738125935 56:1 640:1 736:1 1375:1 1930:1 2903:1 2978:1 2980:1 2981:1 2982:1 2983:1 
211.0002899783046 121:1 280:1 589:1 1522:1 2967:1 2985:1 2986:1 
641.0266707285998 458:1 1143:1 1210:1 1358:1 2967:1 2978:1 2987:1 
883.5784328097443 271:1 593:1 610:1 1156:1 2634:1 2823:1 2967:1 2978:1 
614.6998272053569 241:1 327:1 458:1 610:1 744:1 2903:1 2967:1 2997:1 2998:1 2999:1 
29.38083158615677 573:1 610:1 1211:1 1522:1 1941:1 2816:1 2911:1 2967:1 3001:1 3002:1 3003:1 3004:1 3005:1 
113.7560037463776 121:1 175:1 216:1 393:1 589:1 711:1 972:1 2967:1 3006:1 
113.4696115844543 218:1 517:1 557:1 2222:1 3008:1 
789.7755071532642 57:1 176:1 334:1 588:1 1979:1 2967:1 2981:1 3009:1 
781.4504646372591 57:1 271:1 477:1 588:1 736:1 1722:1 2816:1 2967:1 3000:1 3010:1 
1742.313516120863 138:1 242:1 593:1 1000:1 1143:1 1811:1 2967:1 2996:1 3023:1 
585.6151400985283 27:1 261:1 606:1 1522:1 2164:1 2967:1 2981:1 3024:1 
10.26477897486904 59:1 184:1 394:1 589:1 783:1 934:1 1087:1 3028:1 
666.1993958413069 11:1 1435:1 3034:1 3035:1 3036:1 
1917.193924682785 416:1 736:1 1055:1 1546:1 3038:1 3040:1 3041:1 3042:1 
384.8505339412769 175:1 176:1 720:1 857:1 956:1 3038:1 3050:1 3051:1 
545.1283920719826 176:1 280:1 720:1 2197:1 2395:1 2640:1 2940:1 3038:1 3052:1 3053:1 
71.3258448162312 176:1 216:1 223:1 252:1 417:1 891:1 2396:1 3038:1 3054:1 3055:1 3056:1 
2214.956915962688 176:1 223:1 720:1 736:1 1032:1 3038:1 3057:1 3058:1 3059:1 3060:1 
191.9431678030018 170:1 457:1 758:1 2395:1 2812:1 3047:1 3059:1 3061:1 3062:1 3063:1 
1336.824492020615 120:1 175:1 216:1 1054:1 2612:1 2859:1 3039:1 3064:1 3070:1 
651.6253253276025 10:1 121:1 280:1 720:1 857:1 884:1 1174:1 1584:1 2197:1 2656:1 
506.7971375580522 213:1 214:1 1070:1 2294:1 2395:1 3071:1 
168.8785936915281 123:1 183:1 908:1 3084:1 3085:1 3086:1 3087:1 
9580.893390984207 108:1 
234.9267098948868 38:1 778:1 3089:1 
29.062061298987 121:1 317:1 669:1 989:1 1579:1 2687:1 2730:1 3091:1 
30.10309905944981 620:1 621:1 3094:1 
33747.0025298844 135:1 
1409.210565669426 51:1 57:1 68:1 107:1 662:1 1073:1 1131:1 2449:1 2687:1 
9057.115197180057 457:1 
2412.713412156625 562:1 589:1 1131:1 1545:1 3104:1 
9.009181164775372 206:1 458:1 610:1 670:1 873:1 1063:1 2670:1 2833:1 2872:1 3118:1 
2769.544145960771 71:1 320:1 589:1 1131:1 1142:1 3025:1 
907.5813089177025 264:1 308:1 500:1 606:1 1090:1 2531:1 2580:1 2619:1 2719:1 3123:1 3124:1 
2178.726207064333 119:1 121:1 214:1 588:1 589:1 879:1 1131:1 2248:1 3125:1 
960.2117016530202 56:1 271:1 303:1 588:1 624:1 1131:1 1229:1 1683:1 3043:1 3058:1 3126:1 
236.680639009771 71:1 1131:1 3127:1 
2054.115726935801 68:1 1624:1 3129:1 
7277.563097457441 19:1 71:1 1131:1 
190.1548433242841 34:1 107:1 1131:1 1706:1 
2246.284871371588 12:1 2612:1 3130:1 3131:1 3132:1 3133:1 
5242.972631861396 35:1 1447:1 
923.2268771707593 356:1 2098:1 3134:1 
1004.888600229772 133:1 2098:1 2124:1 2378:1 3135:1 3136:1 
1654.586123273009 239:1 1131:1 
903.6955779485899 27:1 45:1 680:1 3137:1 
111.5791238784165 63:1 66:1 120:1 122:1 206:1 280:1 589:1 2628:1 2748:1 2749:1 2812:1 3139:1 3140:1 3141:1 
216.4052994761388 458:1 593:1 761:1 1156:1 2277:1 2767:1 3143:1 3144:1 3145:1 
53.43705552100185 94:1 2628:1 3138:1 3146:1 
136.98482373133 190:1 280:1 331:1 744:1 1925:1 2628:1 2646:1 2647:1 3147:1 3148:1 3149:1 3150:1 3151:1 3152:1 
1881.641927193161 215:1 604:1 736:1 1588:1 2612:1 2655:1 2925:1 3153:1 3154:1 3155:1 
3089.138043056699 57:1 137:1 223:1 224:1 1211:1 2628:1 3138:1 3156:1 3157:1 3158:1 3159:1 
54.16695999662088 57:1 63:1 974:1 2275:1 2630:1 2651:1 3152:1 3161:1 
245.9616917376357 64:1 170:1 874:1 1087:1 2630:1 2768:1 2917:1 2918:1 3162:1 
9988.917172842719 49:1 63:1 341:1 633:1 2997:1 
2642.304658906588 203:1 609:1 657:1 961:1 1091:1 2687:1 2788:1 3168:1 
1251.07381154684 48:1 275:1 401:1 529:1 761:1 2687:1 2788:1 
691.102536039558 51:1 680:1 3137:1 3171:1 
101.2219503319446 97:1 258:1 790:1 2243:1 3172:1 3173:1 3174:1 
626.183611864986 273:1 274:1 2027:1 
69.23267396774186 63:1 137:1 181:1 525:1 3169:1 3175:1 
5243.362759109475 691:1 
13891.29197309694 397:1 839:1 
308.0426172638421 234:1 3182:1 
32.15248101307814 13:1 407:1 2687:1 2692:1 2801:1 3188:1 3189:1 3190:1 
622.9289256859882 341:1 343:1 555:1 837:1 2246:1 2321:1 2687:1 2900:1 2997:1 
36.48364600557156 38:1 56:1 68:1 837:1 1010:1 1991:1 2246:1 2687:1 3186:1 3191:1 
32.2817177515095 13:1 125:1 638:1 3186:1 3192:1 
1767.685706057614 469:1 471:1 509:1 726:1 1446:1 2709:1 3186:1 
93.97188452846058 206:1 589:1 2612:1 3186:1 3193:1 3194:1 
178.2274577002444 979:1 2716:1 3186:1 
8.464677158709645 280:1 670:1 1918:1 3186:1 3197:1 3198:1 
94.70376059525219 500:1 525:1 606:1 1087:1 2328:1 2677:1 3186:1 3199:1 
13444.30373029167 119:1 525:1 3186:1 3201:1 3202:1 3203:1 3204:1 
127.178137145637 267:1 529:1 589:1 1820:1 2707:1 3186:1 3208:1 3209:1 
25.24330797332832 222:1 223:1 557:1 772:1 3067:1 3186:1 3211:1 
9.26202356886145 59:1 394:1 638:1 1966:1 3186:1 3212:1 3213:1 
465.3187653754156 27:1 63:1 66:1 84:1 241:1 472:1 604:1 692:1 2388:1 2902:1 3186:1 
34.42926311411892 63:1 243:1 458:1 593:1 606:1 625:1 979:1 1207:1 2512:1 2722:1 3216:1 3217:1 
217.2011982016587 525:1 726:1 1055:1 1159:1 3206:1 3219:1 3220:1 3221:1 
182.728089335521 736:1 
157.0524704501823 736:1 744:1 1159:1 2541:1 3227:1 3228:1 3229:1 
68.43841045906512 61:1 198:1 320:1 1478:1 2727:1 
1216.693573271878 3236:1 
15.46005042560872 434:1 2702:1 2719:1 
14.76937868651896 6:1 99:1 183:1 986:1 996:1 2900:1 3093:1 3186:1 3242:1 3243:1 
10.86642225628631 27:1 72:1 1119:1 3186:1 3187:1 
216.109460459828 176:1 239:1 3186:1 
538.0386205281706 184:1 778:1 2620:1 3246:1 
304.5981294229418 369:1 674:1 937:1 990:1 2687:1 2904:1 3250:1 3251:1 
500.6111899789293 68:1 285:1 294:1 310:1 2687:1 3190:1 
8402.755823399959 25:1 475:1 480:1 643:1 1117:1 1253:1 3215:1 
7505.386790170895 230:1 355:1 560:1 3258:1 3259:1 3260:1 
211.0089913769039 6:1 68:1 640:1 672:1 822:1 900:1 2238:1 3261:1 3262:1 3263:1 
820.163663390642 372:1 480:1 1904:1 2104:1 3087:1 
9170.81017230187 104:1 117:1 977:1 
1003.977526351584 51:1 680:1 3264:1 3265:1 
14.96104122566851 176:1 477:1 609:1 657:1 2687:1 3035:1 3266:1 
247.7430394225325 2576:1 3101:1 3270:1 
774.8753657917301 1179:1 3271:1 
1111.563442895568 1179:1 3272:1 
2787.970226734318 57:1 588:1 1099:1 2276:1 
437.8284819205352 176:1 531:1 720:1 
830.875573089151 2640:1 3267:1 
1433.699077528506 451:1 555:1 2785:1 3267:1 3279:1 3280:1 
8.386142561336255 132:1 222:1 589:1 990:1 2265:1 3267:1 3281:1 
4078.426085387716 609:1 2164:1 2719:1 3267:1 3286:1 
28.44559118685824 223:1 437:1 573:1 890:1 1075:1 1393:1 2843:1 3267:1 3273:1 3287:1 
2575.826440875465 121:1 176:1 264:1 555:1 588:1 589:1 2612:1 2745:1 3288:1 3289:1 
82.42961365286084 57:1 458:1 573:1 610:1 990:1 1143:1 1228:1 1811:1 3072:1 3292:1 
44.17150661879123 678:1 736:1 1063:1 3296:1 
17.06416355514069 252:1 610:1 2164:1 2265:1 3167:1 3267:1 3274:1 3297:1 
175.0757993533166 223:1 227:1 555:1 588:1 593:1 2274:1 2939:1 3267:1 3298:1 
5.140602716363824 124:1 343:1 555:1 588:1 1933:1 2911:1 3267:1 3299:1 
23.69523494698638 812:1 1181:1 1431:1 2372:1 2982:1 3167:1 3267:1 3280:1 3294:1 
1051.126792697188 57:1 1383:1 1941:1 2805:1 2997:1 3267:1 3303:1 3304:1 
583.1872254299193 343:1 589:1 2239:1 3267:1 3311:1 3312:1 
2114.724614590464 55:1 107:1 184:1 609:1 657:1 1178:1 1332:1 1458:1 3313:1 3314:1 
556.4367048511323 45:1 374:1 509:1 1446:1 3267:1 
10.82077614069715 49:1 557:1 3324:1 3325:1 
1.904564405902769 63:1 555:1 641:1 867:1 2791:1 3090:1 3319:1 3320:1 3321:1 
20136.97016360052 25:1 64:1 555:1 623:1 
199.8726354280194 13:1 25:1 90:1 555:1 1012:1 3329:1 
902.5413209247272 84:1 181:1 606:1 669:1 1010:1 2246:1 2619:1 2687:1 3330:1 
866.0106905729245 44:1 988:1 1010:1 1113:1 1226:1 2724:1 2802:1 2834:1 2874:1 3331:1 
177.8476841108306 25:1 59:1 176:1 236:1 673:1 824:1 2687:1 2833:1 2872:1 3332:1 
575.6441113165585 1181:1 2908:1 2909:1 
242.9642386794415 27:1 153:1 206:1 475:1 1165:1 1174:1 1388:1 2395:1 2628:1 2639:1 2795:1 3336:1 
48.5198197926192 84:1 280:1 509:1 589:1 725:1 1174:1 1446:1 2676:1 3337:1 
527.8595128584907 63:1 122:1 727:1 2216:1 2642:1 2654:1 2728:1 2754:1 3112:1 
672.9289978644136 10:1 85:1 228:1 517:1 1584:1 2395:1 2628:1 2635:1 2875:1 3341:1 
21.24442940967875 13:1 541:1 589:1 1082:1 1258:1 1685:1 2628:1 3342:1 
3088.590810193087 269:1 2395:1 2628:1 
5443.394462059581 343:1 345:1 800:1 2395:1 2628:1 2860:1 
137.178549321907 10:1 284:1 761:1 1119:1 1174:1 1584:1 2395:1 
2319.822469059875 317:1 529:1 951:1 1792:1 1849:1 2245:1 
555.4599737488534 38:1 232:1 657:1 2687:1 3353:1 3354:1 
55.25902979843791 57:1 573:1 593:1 645:1 979:1 1159:1 1679:1 2268:1 3352:1 3364:1 3365:1 
97.71303336991294 223:1 736:1 1868:1 2719:1 3352:1 3358:1 3367:1 
468.1469281474943 66:1 264:1 670:1 1070:1 2668:1 2742:1 2823:1 2942:1 3352:1 3378:1 3379:1 
234.8075244329898 57:1 225:1 458:1 670:1 826:1 2933:1 3019:1 3352:1 3363:1 3366:1 3392:1 
176.3789995936542 15:1 258:1 1381:1 2742:1 3368:1 3370:1 3380:1 3393:1 3394:1 
312.4417651665442 57:1 250:1 264:1 979:1 1504:1 1525:1 2012:1 2742:1 3352:1 
218.8371525668613 3101:1 3397:1 
79.81531374444826 13:1 183:1 357:1 754:1 1047:1 1048:1 
13319.58887743477 285:1 1244:1 1773:1 
140.9478389274349 305:1 332:1 600:1 1137:1 2572:1 2595:1 2665:1 3401:1 3402:1 
4632.782504787653 37:1 323:1 3407:1 
43148.91412135078 25:1 122:1 
530.0244200137707 3408:1 
409.869363239883 94:1 169:1 633:1 1505:1 1522:1 1974:1 2521:1 3409:1 3410:1 
1706.488332410191 1401:1 1431:1 1705:1 2620:1 2649:1 2687:1 3411:1 3412:1 3413:1 3414:1 
104.3781000670368 970:1 3417:1 3418:1 
695.2780081105403 1827:1 
1235.82691291811 13:1 107:1 176:1 1039:1 1133:1 1409:1 1440:1 3425:1 
9524.415724343591 203:1 334:1 1418:1 2687:1 2692:1 3382:1 
31.97656300804168 224:1 264:1 333:1 437:1 988:1 1974:1 2843:1 2903:1 2942:1 3426:1 
312.9127141798103 146:1 147:1 306:1 357:1 469:1 1213:1 1229:1 2035:1 2722:1 2814:1 2865:1 3341:1 
683.7007166499343 34:1 57:1 190:1 306:1 458:1 744:1 2291:1 3290:1 3431:1 
5305.277670409036 645:1 2512:1 
2881.802396014906 340:1 2653:1 
881.8560550700839 121:1 200:1 222:1 224:1 593:1 988:1 1156:1 2220:1 
633.9650222387345 224:1 606:1 906:1 907:1 988:1 1814:1 2612:1 3438:1 
247.0674161747027 175:1 285:1 589:1 979:1 1414:1 
1279.344740675557 300:1 416:1 988:1 1477:1 1966:1 3426:1 
58.55909257672177 34:1 63:1 417:1 593:1 645:1 797:1 2997:1 3439:1 3440:1 
91.44332075367444 63:1 446:1 988:1 2372:1 3426:1 3441:1 
9.78890889868037 34:1 107:1 125:1 346:1 348:1 557:1 904:1 1195:1 2904:1 3449:1 3450:1 
4053.318616797146 3451:1 
2331.990327505525 189:1 678:1 725:1 874:1 1055:1 2628:1 2754:1 2822:1 2937:1 3460:1 
34.410667909158 63:1 170:1 216:1 573:1 1383:1 2628:1 2630:1 2738:1 3072:1 3463:1 
1869.155178511061 2628:1 3045:1 3453:1 
158.9036539892587 719:1 725:1 1264:1 2031:1 2453:1 2896:1 3344:1 3465:1 3466:1 
74.39300802390621 119:1 175:1 216:1 217:1 278:1 1082:1 1364:1 2628:1 3459:1 3467:1 3468:1 3469:1 
590.822403703848 561:1 649:1 667:1 2931:1 3471:1 3472:1 3473:1 3474:1 3475:1 
58.72398504395014 64:1 1108:1 1150:1 1357:1 1885:1 2580:1 2655:1 3476:1 3477:1 3478:1 3479:1 
74.84208720351469 175:1 857:1 986:1 1287:1 1727:1 2216:1 2631:1 2650:1 2651:1 2665:1 3117:1 
1408.011825594744 250:1 267:1 589:1 1425:1 2612:1 2642:1 2659:1 2676:1 3484:1 
2115.553091803175 107:1 184:1 613:1 670:1 1421:1 1703:1 2197:1 2628:1 
48.11221817161333 16:1 34:1 63:1 585:1 641:1 3486:1 
837.4028068711418 25:1 224:1 280:1 1085:1 2205:1 2687:1 3488:1 
253.0599806585819 181:1 183:1 401:1 1853:1 2395:1 3490:1 3491:1 3492:1 
2246.649796175373 121:1 1234:1 2984:1 
354.8353967667637 3179:1 
1179.49065442186 1437:1 
247.1162734527374 34:1 557:1 1208:1 2222:1 
11538.92617081886 495:1 680:1 997:1 
227.4518696087159 183:1 1665:1 3241:1 3495:1 
639.2407535741306 2345:1 2687:1 3496:1 3497:1 3498:1 3499:1 3500:1 3501:1 3502:1 3503:1 
1012.714666500712 68:1 397:1 555:1 662:1 1138:1 2687:1 3335:1 3503:1 3504:1 
1298.779087256604 884:1 1195:1 2307:1 3503:1 3506:1 
177.4556112685171 47:1 184:1 778:1 1006:1 1007:1 3335:1 3507:1 
193.1127159731415 1481:1 2203:1 
2683.073705580428 512:1 540:1 710:1 1006:1 1087:1 2653:1 
221.9852928519607 264:1 1588:1 3503:1 3512:1 
325.7260847564845 13:1 57:1 137:1 189:1 241:1 604:1 610:1 875:1 1003:1 2265:1 2719:1 
796.8722427265674 153:1 533:1 1128:1 3503:1 
4129.62946318929 225:1 264:1 472:1 557:1 1143:1 3399:1 3514:1 
23.68182711700876 367:1 539:1 593:1 1504:1 1813:1 
372.9085820856214 390:1 1503:1 2142:1 2612:1 2719:1 3528:1 3529:1 3530:1 
139.9735733401037 59:1 214:1 222:1 555:1 1961:1 2728:1 3167:1 3280:1 3503:1 3533:1 
61.55417461539741 334:1 555:1 2274:1 2424:1 2816:1 2856:1 3139:1 
2113.924166896225 176:1 469:1 670:1 678:1 1169:1 1820:1 2707:1 3503:1 
273.5904214191839 19:1 2307:1 3506:1 
706.9415815044289 27:1 63:1 215:1 375:1 441:1 1227:1 1388:1 2628:1 2671:1 2748:1 2749:1 2944:1 3537:1 
1741.098087403014 16:1 63:1 555:1 585:1 2206:1 2791:1 3321:1 3538:1 
53.35201473397377 3539:1 
2845.158900520558 312:1 578:1 3494:1 
754.8132042529937 355:1 531:1 
257.9610587344644 68:1 294:1 925:1 1232:1 1773:1 2687:1 2803:1 3545:1 
585.3571913409996 13:1 33:1 42:1 689:1 1288:1 1863:1 2687:1 3547:1 3548:1 3549:1 
228.3060473649097 181:1 922:1 2064:1 2687:1 3170:1 
42.67088291801723 674:1 807:1 1658:1 2687:1 3550:1 3551:1 3552:1 
114435.8256486256 50:1 65:1 
18874.22153525088 50:1 341:1 409:1 
748.5354261388849 49:1 63:1 64:1 65:1 147:1 341:1 361:1 409:1 1289:1 1472:1 2997:1 
665.9640817859554 183:1 728:1 3555:1 
136.3097406695158 3556:1 3557:1 3558:1 3559:1 3560:1 
154.0145156023474 38:1 57:1 280:1 416:1 678:1 1195:1 1991:1 2612:1 3558:1 3562:1 3563:1 3564:1 3565:1 3566:1 
72.24523971159302 22:1 23:1 107:1 531:1 1131:1 1624:1 2692:1 3567:1 3568:1 
29.93658072752757 51:1 181:1 258:1 662:1 2687:1 2904:1 3569:1 
153.384151186545 236:1 295:1 624:1 1055:1 2398:1 2687:1 3571:1 3572:1 
1389.919129905502 11:1 12:1 19:1 22:1 23:1 231:1 712:1 1131:1 2687:1 2692:1 
2130.326580176429 61:1 475:1 1131:1 1141:1 1142:1 2941:1 
794.498301501824 63:1 181:1 989:1 1131:1 1736:1 1904:1 
1688.695906281276 45:1 71:1 120:1 589:1 970:1 1131:1 1258:1 3098:1 3577:1 
1682.003483362582 1055:1 1131:1 1393:1 
9471.920477643213 176:1 341:1 529:1 557:1 906:1 907:1 977:1 1131:1 1159:1 2997:1 
179.1608941327041 299:1 606:1 1058:1 1059:1 1070:1 2608:1 2653:1 3584:1 3585:1 
243.0573162690121 27:1 34:1 224:1 471:1 472:1 473:1 1131:1 2221:1 2676:1 2823:1 3589:1 
135.2882902620944 175:1 589:1 979:1 986:1 1131:1 1143:1 1727:1 2716:1 
2323.08892037945 121:1 589:1 905:1 988:1 1131:1 2164:1 3105:1 
473.5248262476615 170:1 260:1 606:1 988:1 2722:1 3430:1 3592:1 3593:1 
741.9756314764734 121:1 593:1 602:1 624:1 913:1 988:1 1131:1 2677:1 2858:1 3064:1 3594:1 
8243.732936139972 34:1 38:1 479:1 772:1 988:1 1324:1 1428:1 2035:1 2922:1 
12051.27457829592 27:1 34:1 250:1 267:1 308:1 593:1 3595:1 3596:1 
1513.897076728019 243:1 252:1 726:1 970:1 988:1 1159:1 1248:1 1264:1 3364:1 
1001.388766767963 261:1 557:1 593:1 624:1 875:1 988:1 1131:1 
1153.699522702855 437:1 589:1 645:1 1131:1 1159:1 1571:1 2851:1 3227:1 
1543.557186286077 46:1 320:1 589:1 1131:1 3603:1 
496.8436119552842 858:1 
1302.572755872974 1849:1 3606:1 
6940.511686502066 228:1 394:1 1131:1 3610:1 
1009.038439725944 1131:1 1173:1 2732:1 
7.981602651671349 169:1 176:1 234:1 252:1 641:1 1131:1 3612:1 
730.2352896847402 7:1 34:1 2346:1 
223.9368979886988 1131:1 1175:1 2513:1 
836.1365408317849 183:1 2923:1 2934:1 3342:1 3613:1 3614:1 3615:1 
3978.862040620588 107:1 623:1 1131:1 1203:1 
10921.69409488421 1255:1 
6581.240133733505 53:1 153:1 417:1 726:1 1055:1 
2605.165582972226 25:1 71:1 310:1 524:1 1032:1 3241:1 
45.79714745272409 51:1 181:1 190:1 2151:1 2687:1 3616:1 3617:1 3618:1 
13.84352160440391 68:1 457:1 535:1 704:1 2248:1 3623:1 
286.9666788836242 18:1 68:1 175:1 181:1 216:1 837:1 1131:1 3625:1 
28.56302785886373 68:1 779:1 2687:1 3005:1 3619:1 
57.25861786583766 3629:1 
1296.026533563762 34:1 64:1 270:1 623:1 
3664.535092653522 45:1 46:1 51:1 137:1 328:1 900:1 1310:1 
118.148228298556 34:1 63:1 154:1 606:1 772:1 1706:1 2619:1 3320:1 3630:1 
57.84527355897153 3447:1 3638:1 
4316.884367715861 14:1 56:1 79:1 84:1 203:1 663:1 1268:1 2687:1 
97.60337568464089 63:1 169:1 223:1 239:1 341:1 422:1 480:1 2997:1 3644:1 3645:1 3646:1 
8.053155281910584 198:1 593:1 1143:1 1157:1 1177:1 2719:1 2865:1 2997:1 3648:1 3649:1 
216.5640403408549 217:1 589:1 1159:1 1450:1 2722:1 2785:1 3364:1 3655:1 3656:1 
13.75108408203744 56:1 57:1 64:1 147:1 241:1 593:1 610:1 2853:1 2997:1 3659:1 3660:1 
789.6232512221779 63:1 79:1 452:1 593:1 612:1 1472:1 2141:1 3663:1 3664:1 
4082.291974840052 64:1 161:1 435:1 2722:1 2922:1 3381:1 3668:1 3669:1 
3.126754032781936 146:1 198:1 252:1 477:1 610:1 1211:1 2719:1 3672:1 3673:1 
40.73175363468495 147:1 369:1 593:1 1215:1 2042:1 2372:1 2724:1 2865:1 3661:1 3674:1 
1938.08977805634 341:1 2997:1 3639:1 
443.9479870203015 63:1 341:1 557:1 593:1 703:1 812:1 1571:1 2220:1 2997:1 
320.773347700255 124:1 343:1 670:1 812:1 875:1 979:1 1063:1 3639:1 3682:1 
1441.68461307141 295:1 695:1 1010:1 2687:1 2952:1 2953:1 3415:1 3685:1 
18.10788570914774 68:1 295:1 377:1 606:1 1508:1 2218:1 2619:1 2687:1 3686:1 3687:1 
8106.70237703471 61:1 181:1 285:1 591:1 1281:1 2021:1 2687:1 
25294.24511690621 18:1 68:1 180:1 1085:1 2069:1 
314.333286877602 13:1 25:1 84:1 123:1 181:1 453:1 1244:1 2687:1 3188:1 
3432.744441213676 19:1 22:1 23:1 25:1 284:1 480:1 535:1 621:1 1472:1 2620:1 
23441.86477542565 51:1 60:1 79:1 274:1 332:1 641:1 1736:1 
40.43163689410498 258:1 719:1 1397:1 1852:1 
3248.678544398242 56:1 3691:1 
13.27946132959695 130:1 2612:1 3249:1 3690:1 3693:1 
391.929180035794 3249:1 3694:1 3695:1 3696:1 
307.981546577861 153:1 206:1 475:1 1151:1 3249:1 
769.1002817184362 13:1 59:1 153:1 458:1 589:1 990:1 2388:1 2612:1 2683:1 2896:1 
3368.452174707273 181:1 279:1 464:1 3690:1 
3206.323020294129 64:1 84:1 593:1 606:1 975:1 988:1 1258:1 1642:1 3716:1 
45.57146867856468 252:1 988:1 1177:1 1534:1 2139:1 2541:1 2816:1 
2910.522950224317 175:1 198:1 223:1 857:1 979:1 1007:1 1064:1 1287:1 2656:1 3717:1 
7019.986669277552 271:1 374:1 437:1 988:1 1159:1 3374:1 3718:1 3719:1 
417.9511580201365 223:1 224:1 593:1 988:1 1504:1 1679:1 2816:1 2939:1 3720:1 
18.17661564161226 59:1 198:1 464:1 606:1 1868:1 2149:1 2670:1 3220:1 3690:1 3721:1 
673.3646679991436 292:1 1475:1 
48.66515027927909 36:1 84:1 317:1 3249:1 3728:1 3729:1 
36.15788072712338 183:1 475:1 1290:1 1311:1 2246:1 2612:1 3731:1 3732:1 3733:1 3734:1 3735:1 3736:1 
90.45325429752002 3559:1 3734:1 3738:1 
149.3780233341948 11:1 334:1 475:1 649:1 3739:1 
10816.88926413334 517:1 1576:1 
234.2221221015941 176:1 264:1 589:1 2341:1 2939:1 3737:1 
109.0867907070897 63:1 218:1 224:1 416:1 457:1 1214:1 2816:1 3743:1 3744:1 
788.0952638669949 63:1 218:1 340:1 458:1 589:1 1600:1 2612:1 3737:1 3746:1 3747:1 3748:1 
37.18984771686982 218:1 250:1 264:1 979:1 996:1 1638:1 3493:1 3751:1 
17.8154345717698 175:1 176:1 218:1 1459:1 2339:1 2749:1 3737:1 3755:1 3756:1 
93.25385989805535 224:1 587:1 610:1 1099:1 1159:1 1511:1 2245:1 3761:1 3762:1 
98.49573215573081 125:1 232:1 593:1 979:1 1346:1 3764:1 3765:1 
98.20454206772354 13:1 218:1 367:1 557:1 989:1 1169:1 1502:1 3339:1 3489:1 3766:1 
82.29236832444951 19:1 2612:1 3737:1 
41.81822714286935 275:1 620:1 621:1 1656:1 3737:1 
332.0418718835875 638:1 3737:1 3769:1 
222.9401008278481 3770:1 
59793.85164580948 218:1 
1918.7602973691 689:1 1657:1 
3229.107131526198 693:1 
208.4339158296586 83:1 133:1 206:1 317:1 757:1 3136:1 3778:1 
2583.147950817429 181:1 355:1 3779:1 
4341.73041305332 1430:1 
2185.187277865569 51:1 680:1 2893:1 3780:1 
1909.380415778205 995:1 3781:1 
667.5431010953057 2634:1 2638:1 
148.3470320625635 176:1 808:1 900:1 1049:1 2687:1 3783:1 
1115.505767799179 27:1 53:1 203:1 218:1 317:1 475:1 646:1 925:1 2687:1 
2955.113004697805 622:1 1421:1 2798:1 
869.5916848403984 264:1 480:1 588:1 1070:1 2668:1 2798:1 2973:1 3792:1 
121.9700461916277 253:1 469:1 744:1 876:1 1143:1 2798:1 
28.468189372318 343:1 606:1 990:1 995:1 1169:1 1207:1 1930:1 2530:1 2545:1 2823:1 
87.53951323985846 232:1 416:1 772:1 2612:1 3794:1 3795:1 
388.9303232763775 57:1 223:1 477:1 588:1 1063:1 1387:1 1941:1 2412:1 
775.570976402626 48:1 496:1 917:1 1090:1 2164:1 2711:1 2798:1 3123:1 3167:1 
1466.95245557502 876:1 1143:1 2164:1 2798:1 3109:1 3671:1 
122.0176965832329 121:1 589:1 606:1 2612:1 2903:1 3108:1 3725:1 3801:1 
3554.531975761288 57:1 124:1 243:1 458:1 1525:1 2634:1 2798:1 3399:1 3798:1 
2033.512299777669 250:1 264:1 472:1 1001:1 1878:1 3016:1 3803:1 3804:1 
563.4809165447086 264:1 437:1 588:1 1326:1 1571:1 2798:1 2851:1 3531:1 3805:1 3806:1 
2996.816142289459 175:1 458:1 589:1 2388:1 2798:1 
3225.783451949795 500:1 589:1 876:1 988:1 1973:1 2798:1 3807:1 
369.4066489672863 243:1 267:1 573:1 905:1 1143:1 1524:1 2798:1 2903:1 3396:1 
949.6296154180651 57:1 63:1 593:1 604:1 1143:1 1157:1 1525:1 1592:1 2903:1 3792:1 3808:1 3809:1 
117.3155510423551 465:1 902:1 1143:1 1503:1 1649:1 2903:1 3442:1 
750.347419001204 338:1 452:1 593:1 1503:1 1548:1 1590:1 1945:1 2634:1 3810:1 3811:1 
447.3289420270813 589:1 2798:1 3812:1 3813:1 3814:1 
1174.637717545366 416:1 463:1 2164:1 2634:1 2678:1 2798:1 3814:1 
2058.609116976503 1108:1 1966:1 
344.1785956487486 396:1 1820:1 3816:1 
89.59978172843341 107:1 122:1 562:1 710:1 1447:1 
9386.612993377612 464:1 2612:1 
891.1426969822497 167:1 288:1 900:1 2634:1 2989:1 
222.2779439646151 175:1 176:1 494:1 793:1 1133:1 1388:1 2430:1 2612:1 2628:1 2639:1 
65.56165644764218 63:1 181:1 369:1 1204:1 3064:1 3065:1 3140:1 3820:1 3822:1 3823:1 
2229.816096872976 119:1 184:1 521:1 1558:1 2628:1 2642:1 2748:1 2749:1 2767:1 3064:1 3065:1 3824:1 
3481.305540301326 1229:1 1656:1 2631:1 2754:1 2939:1 3825:1 
16.95193815726218 175:1 216:1 228:1 793:1 2430:1 2628:1 2743:1 3826:1 
18.15775811938495 63:1 243:1 252:1 338:1 458:1 793:1 2924:1 3122:1 3181:1 3827:1 
549.8791382026839 57:1 63:1 84:1 458:1 471:1 1452:1 1525:1 1937:1 2746:1 3827:1 3828:1 
349.8299882120215 27:1 97:1 589:1 670:1 806:1 2628:1 2630:1 2631:1 2686:1 3461:1 
18134.5568205447 280:1 2628:1 3833:1 
12.67099528551037 25:1 2153:1 2384:1 2687:1 3005:1 
2.812341188982415 622:1 1421:1 2205:1 2687:1 3836:1 
33697.04281521267 521:1 
515.1103154935407 282:1 288:1 1585:1 1642:1 3837:1 
78.29963674585568 3838:1 
232.6011660995755 3839:1 
11475.07604302644 25:1 531:1 1332:1 
102.7537439326807 68:1 374:1 638:1 2153:1 2687:1 3840:1 
8.950347180017696 13:1 27:1 53:1 390:1 590:1 1792:1 2959:1 3842:1 3843:1 3844:1 3845:1 
9.355716265880815 589:1 990:1 1090:1 2164:1 3841:1 3853:1 3854:1 3855:1 
206.7030429427446 225:1 250:1 273:1 444:1 593:1 2612:1 3110:1 3841:1 3858:1 3859:1 3860:1 
547.8037196562788 989:1 1250:1 1383:1 1639:1 1941:1 2762:1 3841:1 3860:1 
1099.059206991608 458:1 996:1 1648:1 1651:1 2762:1 2818:1 3841:1 3853:1 
43.6395741673917 189:1 606:1 1854:1 2164:1 3105:1 3719:1 3841:1 3864:1 3868:1 
505.9363856513212 223:1 227:1 587:1 610:1 1383:1 2393:1 2823:1 3067:1 3841:1 3869:1 
412.7320495227283 19:1 229:1 343:1 3841:1 3878:1 
443.9809273908666 2295:1 3879:1 
631.039612501073 269:1 1576:1 3038:1 3059:1 3403:1 3880:1 3882:1 3883:1 3884:1 
6173.222884489163 15:1 473:1 898:1 1157:1 2042:1 2393:1 2939:1 
563.1055151948902 120:1 170:1 189:1 264:1 573:1 1646:1 1814:1 3038:1 3039:1 3073:1 3889:1 
137.8314103336046 228:1 337:1 2612:1 2743:1 3007:1 3038:1 3166:1 3898:1 
214.6850660506644 27:1 87:1 336:1 337:1 1004:1 2743:1 3899:1 3900:1 
6978.956034734375 323:1 2218:1 
36.78862997701913 1282:1 3908:1 3909:1 3910:1 
63.9516742397015 49:1 557:1 899:1 2078:1 3325:1 
147.2592181111107 463:1 793:1 1700:1 2687:1 3498:1 3783:1 3919:1 
750.0134672769501 63:1 509:1 1305:1 1377:1 1446:1 1539:1 2687:1 3920:1 
1990.601754096947 273:1 274:1 
598.9512107813017 217:1 280:1 451:1 3912:1 3921:1 3927:1 
7.083519199387823 57:1 435:1 996:1 1045:1 1519:1 3912:1 3931:1 
223.9169667078606 222:1 665:1 744:1 996:1 3912:1 3932:1 3933:1 
60.14971129487436 3912:1 3934:1 
13.56323046223151 84:1 261:1 472:1 606:1 744:1 1159:1 1264:1 1878:1 3912:1 3931:1 3935:1 3936:1 
2649.287095413372 25:1 27:1 161:1 
23.66268812520697 3912:1 3940:1 
8.433743633745213 206:1 224:1 469:1 610:1 1803:1 3912:1 3941:1 3942:1 
1447.036252327985 3912:1 3943:1 3944:1 
174.0557335093469 241:1 606:1 812:1 2169:1 2982:1 3912:1 3937:1 3946:1 3947:1 
38.10724119051017 121:1 261:1 589:1 604:1 1679:1 2719:1 2722:1 3102:1 3364:1 3912:1 
1653.137493179197 3912:1 3948:1 3949:1 
8.728256531186284 252:1 593:1 606:1 812:1 2896:1 3912:1 3953:1 
7104.022942287639 1023:1 1629:1 3912:1 
72.76423875508458 108:1 3912:1 
15.78148584070672 19:1 3912:1 
10279.26000534484 453:1 1038:1 1747:1 3912:1 
1050.270035633169 674:1 857:1 1291:1 3395:1 3487:1 3655:1 
1738.212888083743 72:1 338:1 515:1 
1209.730116016435 25:1 99:1 206:1 317:1 484:1 
64.27385498434548 25:1 275:1 
813.4054473161272 642:1 3554:1 
56.56579061435101 484:1 1624:1 3957:1 
6492.307017527134 12:1 13:1 25:1 524:1 726:1 1174:1 1291:1 2693:1 3958:1 3959:1 
576.4236438628178 317:1 529:1 1177:1 1478:1 1809:1 3960:1 
1424.08082522064 53:1 1792:1 2081:1 3130:1 
158.8192074858448 227:1 252:1 979:1 988:1 1589:1 2704:1 3378:1 3962:1 
1664.018901434434 121:1 593:1 610:1 812:1 979:1 988:1 1685:1 
227.5588930580087 440:1 1751:1 2216:1 3962:1 
1219.461246525742 175:1 216:1 556:1 593:1 2612:1 3976:1 3977:1 
413.2647030240688 175:1 176:1 397:1 589:1 670:1 806:1 1508:1 2686:1 2687:1 
614.4512608315202 369:1 436:1 670:1 990:1 1063:1 1143:1 1205:1 2807:1 2942:1 
2002.51280391043 38:1 138:1 334:1 361:1 556:1 1727:1 
321.7214840099536 334:1 998:1 1322:1 2676:1 3990:1 
250.0062389676159 20:1 440:1 556:1 1347:1 1459:1 3962:1 3964:1 3991:1 3992:1 3993:1 
54.57002958987623 38:1 556:1 1589:1 1591:1 2692:1 3962:1 3965:1 3967:1 3971:1 3973:1 3975:1 3987:1 3988:1 3994:1 
245.3779643479447 453:1 556:1 3995:1 3996:1 
2886.31183689967 3997:1 
232.1313006986556 153:1 422:1 556:1 990:1 1117:1 2157:1 2791:1 3799:1 
2713.390861363221 556:1 
11.84207851451691 556:1 935:1 1054:1 3408:1 
66.76171150698822 34:1 1283:1 1495:1 4000:1 
101.5934756013751 48:1 150:1 156:1 2687:1 2722:1 2971:1 3593:1 4002:1 4003:1 
9.160061453318225 13:1 48:1 925:1 1244:1 2173:1 2687:1 3447:1 4004:1 4005:1 
270.3552157981424 27:1 68:1 556:1 678:1 704:1 2146:1 2687:1 3119:1 3169:1 
857.4464728906136 341:1 350:1 1113:1 1820:1 2321:1 2687:1 2707:1 2997:1 3700:1 
72.24039718172973 190:1 463:1 599:1 832:1 4007:1 
164.8987143522317 63:1 69:1 218:1 1195:1 2612:1 2791:1 3321:1 3907:1 
562.6073033983359 95:1 898:1 4008:1 
5858.641117163409 51:1 515:1 680:1 3037:1 
679.5321430864374 1711:1 4009:1 4010:1 
198.6311075461179 183:1 557:1 761:1 1340:1 1397:1 4011:1 4012:1 
289.6225837464722 517:1 1397:1 2612:1 2687:1 2692:1 4011:1 4012:1 
3291.433164777979 63:1 374:1 
59.18954015485084 176:1 181:1 1585:1 1642:1 3234:1 4014:1 
1306.70576982558 3090:1 4015:1 
2639.28790324586 4016:1 
451.3320674224093 51:1 183:1 515:1 680:1 826:1 3037:1 
168.2207787653909 104:1 273:1 1282:1 2628:1 
670.2156000850722 119:1 606:1 1918:1 2628:1 2635:1 2641:1 2642:1 2646:1 2647:1 2659:1 
1130.849759190605 120:1 121:1 857:1 2612:1 4021:1 4022:1 
59.84519635564424 122:1 124:1 343:1 446:1 477:1 1811:1 2024:1 2858:1 3244:1 4024:1 4025:1 
602.8405454658334 190:1 225:1 725:1 1041:1 1168:1 1169:1 2041:1 2646:1 2647:1 3167:1 3881:1 4027:1 
13.11468964514222 61:1 72:1 121:1 175:1 347:1 857:1 1462:1 2739:1 2902:1 2903:1 4017:1 
92.34701969582432 170:1 458:1 573:1 875:1 1545:1 2634:1 2942:1 3441:1 4017:1 4018:1 4028:1 4029:1 
242.5076038143463 1600:1 1685:1 2173:1 2268:1 2612:1 2659:1 2738:1 2903:1 3099:1 4030:1 
900.1893972109126 15:1 213:1 214:1 469:1 744:1 1213:1 1229:1 2269:1 2628:1 2672:1 2921:1 4029:1 
565.3187834860197 215:1 472:1 645:1 1003:1 1073:1 1095:1 2612:1 3522:1 4028:1 4031:1 
135.2696415176775 57:1 63:1 458:1 900:1 2646:1 2647:1 2950:1 3144:1 4032:1 
1728.307632115014 538:1 1502:1 2244:1 2628:1 2659:1 2738:1 3395:1 3897:1 
644.1411567358676 38:1 107:1 292:1 1108:1 1446:1 2628:1 
20.44358233987752 224:1 4034:1 
0.7362254381997037 181:1 1585:1 1642:1 2634:1 2903:1 3167:1 4014:1 
13254.13997066371 25:1 529:1 3234:1 
141.6553573005685 63:1 430:1 600:1 1845:1 3631:1 4036:1 
90.03985770394165 446:1 3620:1 4036:1 4039:1 4040:1 
1998.545817877617 1642:1 2612:1 2656:1 4036:1 4042:1 
44.4563984904295 4036:1 4043:1 4044:1 
225.5591902476474 121:1 589:1 2216:1 3631:1 4036:1 4040:1 4045:1 
196.2765658527642 48:1 116:1 529:1 557:1 2612:1 2719:1 3495:1 3580:1 4036:1 
578.4942959629195 610:1 979:1 1161:1 1652:1 4048:1 4049:1 
37.94987779185486 84:1 241:1 1003:1 1642:1 3217:1 4036:1 4039:1 
1725.940161835325 121:1 589:1 1159:1 4036:1 
106.9262481781289 57:1 223:1 417:1 437:1 1678:1 1683:1 1885:1 3516:1 4054:1 4055:1 4056:1 
1436.654396617839 121:1 416:1 466:1 589:1 1143:1 2164:1 4036:1 4046:1 
2524.499070235387 264:1 374:1 608:1 736:1 982:1 1143:1 1511:1 3058:1 4036:1 4047:1 
59.38573711129525 250:1 606:1 654:1 783:1 1169:1 1381:1 2153:1 3107:1 3290:1 4036:1 
23.8735903074099 121:1 589:1 889:1 4036:1 
34.63308190305442 243:1 509:1 573:1 593:1 606:1 1157:1 1159:1 1940:1 2396:1 2524:1 3092:1 
291.9199232830953 4036:1 4060:1 
35.82115985535015 57:1 241:1 261:1 826:1 990:1 1003:1 2277:1 4061:1 
159.679609487511 63:1 271:1 606:1 988:1 2531:1 2693:1 3390:1 4063:1 4064:1 
528.9954073812064 121:1 122:1 275:1 285:1 4036:1 4066:1 
351.3247939145639 181:1 361:1 670:1 1488:1 4067:1 
2835.266135241311 19:1 394:1 677:1 2612:1 4036:1 
1282.223080796044 203:1 480:1 1772:1 4036:1 4068:1 
747.4812286363793 176:1 645:1 1488:1 
2298.075205976558 351:1 964:1 2612:1 
36.77295352318228 170:1 845:1 1646:1 2630:1 2754:1 2786:1 2842:1 2942:1 
216.8925802735898 250:1 252:1 758:1 1055:1 2630:1 3631:1 3648:1 3890:1 
900.9656740639251 190:1 343:1 853:1 1055:1 1059:1 1070:1 2630:1 3338:1 3653:1 4091:1 
414.6523660457419 120:1 224:1 725:1 2413:1 4092:1 4093:1 
205.242766008514 239:1 4036:1 
1692.123145390236 1175:1 2513:1 
58.4483193275282 23:1 3170:1 4097:1 
14245.60725404702 36:1 428:1 704:1 988:1 1129:1 1352:1 
2956.140713343523 59:1 190:1 960:1 988:1 1203:1 1811:1 2323:1 2447:1 3725:1 
31.9507874048102 45:1 87:1 90:1 593:1 2612:1 4096:1 
1326.615428886787 2791:1 4105:1 
274.7176880408632 79:1 153:1 394:1 481:1 1849:1 
670.7140761166396 51:1 680:1 1310:1 
41.53017512956429 27:1 206:1 282:1 557:1 922:1 1006:1 1007:1 1173:1 4109:1 4110:1 
513.2817002928563 165:1 2611:1 
348.0016903367519 175:1 176:1 658:1 2967:1 4111:1 
75.51953786799317 13:1 38:1 183:1 320:1 341:1 1847:1 2687:1 2725:1 2997:1 4112:1 
5054.427302036666 63:1 206:1 264:1 267:1 589:1 593:1 1058:1 1522:1 4117:1 
7.095972943891383 252:1 343:1 606:1 979:1 988:1 1054:1 1055:1 2619:1 3023:1 3116:1 3653:1 4120:1 4121:1 
1081.907432818363 222:1 225:1 979:1 1073:1 2709:1 2924:1 2978:1 4122:1 
501.0845863748785 56:1 175:1 320:1 557:1 593:1 758:1 1169:1 3225:1 4124:1 
225.8018116062125 27:1 2430:1 2967:1 4125:1 
1922.353985228067 417:1 451:1 573:1 606:1 796:1 990:1 1683:1 2653:1 2709:1 2978:1 
169.1155517650744 606:1 1534:1 2677:1 2678:1 2967:1 3753:1 4132:1 
1952.195086799309 58:1 138:1 321:1 557:1 1006:1 1007:1 2378:1 2967:1 
40.65953580663148 169:1 341:1 422:1 1108:1 2967:1 2997:1 
107347.5199202089 68:1 391:1 
7329.809857710919 504:1 1777:1 
1420.780469240793 58:1 113:1 562:1 2967:1 4133:1 
713.3924325090303 535:1 3918:1 3945:1 4135:1 
74.83912261496468 93:1 786:1 793:1 1352:1 2687:1 4136:1 
151.1316900957939 288:1 323:1 778:1 1853:1 4142:1 4143:1 
84.64820678034478 202:1 206:1 331:1 374:1 583:1 779:1 2470:1 2559:1 
13001.94571369769 105:1 206:1 583:1 4144:1 
4547.626486224438 1349:1 
3332.887188833396 509:1 1446:1 
143.4961886664681 38:1 475:1 641:1 1872:1 3130:1 3184:1 3185:1 
252.6125799449885 13:1 27:1 38:1 181:1 320:1 333:1 837:1 2687:1 3688:1 
1502.32231941536 317:1 361:1 509:1 1446:1 2219:1 2939:1 
22.10790804635436 189:1 440:1 441:1 573:1 589:1 988:1 990:1 1213:1 4145:1 4155:1 
7.601582825951686 37:1 121:1 148:1 557:1 589:1 979:1 1143:1 2216:1 2716:1 4157:1 
161.8896458607076 223:1 440:1 573:1 744:1 996:1 3096:1 4145:1 4159:1 
211.9825845408112 121:1 176:1 264:1 271:1 477:1 744:1 1259:1 2012:1 2722:1 4156:1 4170:1 
22696.64038442662 180:1 866:1 1828:1 
908.9645248088619 38:1 343:1 451:1 827:1 1025:1 1819:1 1828:1 1945:1 4178:1 
1662.279198219397 1624:1 1655:1 2612:1 3129:1 
633.5884321017172 507:1 1395:1 2245:1 
49.11121697710515 3092:1 4016:1 4182:1 
556.0784769700815 293:1 2732:1 
64.05038120971442 357:1 1853:1 4143:1 4186:1 4187:1 4188:1 
43.94753275899388 59:1 61:1 351:1 638:1 2612:1 2628:1 4017:1 4018:1 4189:1 
1475.75455100751 225:1 273:1 437:1 725:1 875:1 1075:1 2143:1 3140:1 
233.8476643549934 120:1 280:1 589:1 1258:1 1282:1 2248:1 2628:1 4191:1 
117.2711031106792 269:1 2628:1 4190:1 
3117.503370785959 162:1 199:1 589:1 711:1 2248:1 2628:1 3760:1 4196:1 4197:1 
204.4093573100579 63:1 79:1 243:1 267:1 593:1 874:1 1207:1 3967:1 4190:1 4198:1 4199:1 
46.26520509111844 68:1 87:1 359:1 822:1 1232:1 1287:1 1846:1 1971:1 4200:1 
281.1302892726659 977:1 1055:1 1195:1 1364:1 2612:1 4193:1 4201:1 
611.1887906195316 15:1 27:1 85:1 87:1 250:1 649:1 793:1 1282:1 2628:1 4190:1 4202:1 
